<unk> 0.031184 0.055675 0.079702 0.067944 -0.023390 -0.008343 -0.084990 0.007590 -0.061481 -0.093436 -0.000357 0.037296 0.010670 0.091691 -0.050487 -0.033430 0.061321 -0.020175 -0.037868 0.028602 -0.057682 -0.023145 0.027100 0.001061 -0.024758 0.094658 -0.079168 0.077975 -0.024169 0.007521 -0.013475 0.040473 0.067441 0.011230 -0.029004 0.043587 0.022428 -0.050081 0.076485 -0.039140 0.089373 0.070008 0.046653 0.101046 -0.081536 -0.049645 -0.008938 0.016963 0.007572 0.087509 -0.016305 -0.010760 -0.018169 -0.025592 -0.039994 -0.039766 0.038293 0.040598 0.022417 0.053389 -0.025080 0.040880 0.069726 0.014173 0.123104 -0.044853 0.066446 -0.049056 0.051722 0.047206 0.048854 -0.090793 0.080696 0.029170 0.031436 0.079949 -0.007456 -0.019636 0.013761 -0.049326 0.070195 -0.010022 -0.055872 0.035971 -0.037586 0.045644 -0.050783 0.037895 0.023598 -0.043964 0.031139 -0.078781 -0.041282 0.059793 0.017503 -0.022899 -0.008609 0.069893 0.008955 0.006192 0.051798 0.031726 0.029554 0.083036 0.014356 0.003436 0.010851 -0.030091 0.031448 -0.029451 0.052434 -0.001559 0.053707 -0.041098 0.019293 -0.072089 0.017751 -0.050713 0.051407 -0.026149 -0.016938 0.012056 0.028900 -0.060751 0.066946 0.099008 0.066179 0.040986 -0.114752 0.078109 -0.049898 -0.065893 0.013275 -0.018642 0.003100 -0.034943 -0.074760 -0.004129 -0.017717 -0.029967 -0.065078 0.074635 0.095367 -0.005262 -0.005927 0.001189 -0.030527 -0.073240 0.030063 0.048468 -0.056733 0.016681 0.024922 0.010430 0.027095 -0.012400 -0.035592 0.087125 -0.032979 0.122712 -0.127299 0.076432 -0.000768 -0.032873 -0.060747 -0.160586 -0.024344 -0.097289 0.004933 0.048783 0.083868 -0.027165 0.013476 -0.097666 0.054659 -0.107413 -0.000464 0.011898 -0.007551 0.041883 -0.055666 0.023506 -0.017415 0.099762 0.102219 -0.036750 0.054092 -0.059598 0.052369 -0.097246 -0.078901 0.023966 0.045158 -0.017688 -0.011514 0.042612 0.028134 -0.067503 -0.061971 0.021819 0.048655 0.015914 -0.055515 -0.079216 0.037487 0.107336 0.006705 -0.085838 0.009607 -0.018691 -0.082316 0.003206 -0.002986 0.030862 0.072581 0.092499 -0.051182 0.029060 -0.016310 -0.015583 -0.068128 -0.002280 -0.053802 0.013998 -0.022428 -0.030396 0.063428 0.012707 0.035771 0.037176 -0.008549 -0.048119 0.068229 0.048273 -0.094813 -0.065344 -0.013827 0.079684 -0.108899 -0.037231 0.080231 -0.099367 -0.046296 0.050653 -0.018071 -0.026701 -0.009307 0.006571 -0.094798 -0.053427 0.078498 -0.006107 0.108161 -0.110053 0.033879 0.023158
<blank> -0.005427 -0.044860 -0.019927 0.069149 -0.083783 0.061657 -0.050459 0.061997 0.002207 0.067134 -0.082877 0.094120 -0.035637 0.069246 -0.031864 0.051519 -0.063604 -0.090001 0.012689 -0.006505 -0.009960 -0.070594 -0.033737 -0.020075 0.004294 0.084879 -0.079846 0.067136 0.074684 -0.048121 0.021338 0.044001 0.095506 0.091003 -0.037589 0.016174 0.061333 -0.048693 0.048108 -0.046585 0.070875 -0.020394 0.051927 -0.067771 -0.079506 -0.088523 0.065954 0.040950 -0.027890 0.060770 -0.060962 0.011939 0.034076 -0.005789 -0.069014 -0.013367 0.018152 0.035853 -0.083370 -0.011592 -0.085368 -0.015192 -0.069862 0.045850 0.047238 0.002273 0.099187 0.086287 -0.070076 0.068551 -0.063138 -0.072775 0.049089 0.082091 0.033826 -0.060384 0.064732 -0.007831 0.042552 -0.007355 -0.056086 0.091296 0.011306 -0.062745 0.065304 0.052398 -0.064649 -0.047290 0.081309 0.031807 -0.053837 0.031219 0.094704 0.003784 -0.076509 0.047130 0.090773 0.063906 0.036677 0.064664 -0.007372 -0.080647 -0.073848 -0.033179 -0.066981 0.014175 0.091203 -0.052123 0.094426 0.092256 -0.079746 0.017526 0.035141 0.002816 -0.068343 0.041697 0.043254 0.029738 0.030148 0.035472 0.006361 -0.080852 -0.075760 0.037094 -0.029736 0.017834 -0.029021 -0.087479 -0.098787 0.048338 -0.069586 -0.009417 -0.025031 0.072217 0.081897 -0.008116 -0.045837 0.096493 -0.014439 0.093618 0.094947 -0.026751 -0.083491 0.062993 0.015348 -0.010834 -0.013727 0.067071 -0.021728 0.097990 -0.030869 0.059668 0.075970 0.039175 -0.063724 0.077023 0.019891 0.088480 0.080629 -0.086924 0.012930 -0.091661 -0.042142 -0.082819 -0.063843 0.056050 -0.058793 0.098834 -0.007704 -0.026925 0.010567 -0.053186 0.034297 -0.076545 -0.056884 -0.051721 -0.066724 0.044916 -0.064493 -0.059174 -0.036152 -0.021724 0.048453 -0.096569 0.087532 -0.013927 -0.006431 0.051468 -0.073466 -0.021708 0.026468 0.027897 -0.076667 -0.045411 0.004305 0.056403 0.036401 0.036964 -0.022968 -0.050902 0.064220 -0.070424 0.006695 0.007266 -0.018775 0.068054 0.034020 0.039245 -0.051087 0.021672 0.050710 0.008661 -0.030107 0.074842 -0.000615 -0.044919 -0.095640 -0.002782 0.002814 -0.069102 -0.069533 -0.086520 -0.031703 0.095945 -0.027651 0.011101 -0.025908 0.086638 -0.071324 -0.066853 -0.094506 0.088194 0.095200 -0.036463 0.091677 0.085057 0.006070 0.048211 -0.004817 0.029249 -0.042715 -0.074278 0.058768 -0.036404 0.003947 0.080442 0.024413 0.019615 -0.040370 0.051230 -0.076717 0.008238 -0.028410 0.019922 0.056909 0.078313
the -0.076167 -0.094740 -0.101079 0.136102 -0.061435 0.162021 0.147402 0.191652 0.193610 0.119070 0.074160 0.067301 -0.133507 0.083955 0.059602 -0.199739 -0.182378 0.050644 0.102124 0.134402 -0.150167 0.111826 0.013471 0.000368 -0.090741 0.092066 0.032614 0.037933 -0.079887 0.056020 0.116712 -0.049825 -0.204592 0.051104 -0.096423 0.047136 0.063848 0.129530 -0.171286 0.150197 -0.162133 -0.093559 -0.273199 0.000157 0.058466 -0.136872 -0.127858 0.030354 -0.028113 -0.115654 0.053307 -0.115824 -0.123654 -0.083253 -0.082419 -0.236975 0.038397 -0.220611 -0.116083 0.110137 0.116148 0.136351 0.110056 0.170562 -0.100670 -0.144181 -0.051816 0.023001 0.064988 0.012698 -0.337747 0.170143 0.109268 -0.166794 -0.026931 0.016810 0.071898 0.014222 0.103418 0.063337 0.012095 -0.128876 0.102136 0.075710 -0.047424 0.155822 -0.004513 0.173433 0.165745 0.271291 -0.163054 0.150624 0.018709 -0.016282 0.202856 -0.058785 -0.075972 0.060084 -0.036162 -0.044059 -0.267293 0.130081 -0.107149 -0.140176 0.119215 0.111252 -0.075131 -0.105078 -0.092816 -0.048204 0.147856 -0.040662 -0.028109 -0.153330 0.061994 0.077710 0.113839 -0.112808 0.097899 -0.009622 0.059565 -0.160522 0.028539 -0.113778 -0.150406 0.137476 -0.142940 0.037445 -0.031290 0.203537 -0.167231 0.006126 -0.113858 0.138511 0.015081 0.238891 0.133353 -0.012102 -0.155689 -0.151798 -0.038813 0.029065 -0.219352 0.162589 -0.183009 0.061480 0.050995 -0.126266 0.088951 -0.091712 -0.125712 0.100253 0.018941 0.158022 -0.049434 -0.180102 -0.091646 0.231779 -0.000645 -0.205229 -0.014949 0.065110 -0.121988 -0.164377 0.071512 -0.025283 0.103098 -0.097962 -0.060425 -0.213459 -0.052763 -0.168685 -0.100600 0.016774 -0.194590 0.114417 -0.044840 -0.088501 0.090309 0.135377 -0.007139 -0.030160 -0.123150 -0.148029 -0.195375 -0.016601 0.084853 -0.012617 -0.125074 0.220622 0.037968 -0.029447 0.141461 0.219994 -0.072292 0.020678 -0.010883 -0.128727 0.022927 0.069299 0.027307 0.021196 0.155944 0.083235 0.024102 -0.037930 -0.192061 0.010814 0.044245 0.002359 0.104066 -0.208541 0.223215 0.177609 -0.187098 0.181692 0.037439 0.002143 0.127657 0.229452 -0.048778 -0.085288 0.053831 -0.059022 0.143396 -0.209951 -0.021573 0.070342 -0.025684 -0.029571 0.061571 0.271807 0.096843 0.044229 0.189391 -0.256346 -0.069320 -0.188217 0.003194 0.038380 0.138861 -0.120955 -0.075208 0.049646 0.032726 0.071711 -0.107170 -0.073546 0.123285 0.151345 0.017392 -0.223609 0.100173 -0.024063 -0.029364 -0.072833
, 0.122335 -0.037786 0.149316 0.129707 -0.044077 -0.077751 0.091532 -0.031657 -0.050009 0.175467 -0.130037 -0.158603 0.044058 -0.066020 0.175170 -0.079301 -0.173828 -0.112241 -0.037056 -0.038331 0.121900 0.125632 0.024377 -0.021731 -0.033532 0.197992 -0.203797 0.062011 -0.167312 0.123568 -0.178054 -0.043156 -0.065910 -0.204160 0.083692 0.065920 0.182047 -0.067105 0.103637 -0.008660 0.056252 -0.155582 0.152138 -0.202972 -0.079227 -0.123520 -0.233917 -0.123389 0.221381 -0.045661 0.033939 -0.157018 0.127076 0.145251 0.034304 -0.100897 -0.179984 -0.028103 0.120978 -0.028373 0.052583 -0.209906 -0.056204 0.180801 -0.129114 -0.123580 -0.024776 0.156529 -0.212752 -0.162340 -0.136725 -0.173594 0.075123 0.064274 -0.162905 -0.068567 -0.202111 0.127335 0.287721 0.007741 -0.117988 0.220758 0.148093 -0.095680 0.037117 -0.080078 0.020140 -0.127783 -0.206845 -0.059860 0.158866 0.149045 -0.132144 -0.062166 0.218713 -0.034113 -0.127020 -0.196288 -0.094369 -0.037097 -0.003237 -0.226130 0.176655 -0.130205 -0.192654 0.150351 0.017381 0.047392 -0.200974 -0.083506 0.097098 -0.042947 -0.121681 0.139492 0.161048 0.056217 0.124345 0.205236 0.115936 -0.042362 -0.045709 -0.150204 0.142504 0.150202 0.080511 -0.080820 0.104980 0.049404 0.014195 -0.221781 0.096558 -0.207424 0.039775 -0.024459 0.091474 0.086226 -0.222854 0.256526 -0.128061 0.109021 -0.059000 -0.158770 -0.012086 0.018402 -0.164474 0.217852 0.156038 0.048704 -0.274100 0.045081 0.233953 -0.228437 0.124532 0.118820 0.039177 0.109287 -0.193205 -0.045310 0.035205 0.193892 0.165791 -0.104223 -0.135309 0.168495 -0.016794 0.000389 -0.006862 0.083318 0.265161 -0.205019 0.054464 -0.085871 -0.067715 0.118555 0.176632 0.056156 0.100227 0.028558 -0.140690 -0.142214 0.118615 0.132636 0.004971 -0.053818 -0.032814 -0.040456 -0.103208 0.148789 -0.089427 -0.037411 -0.000061 -0.172089 -0.073488 0.085202 -0.091392 0.227128 0.053531 -0.101372 0.018908 0.174553 -0.107847 -0.084816 -0.163580 -0.090629 -0.076409 0.188384 0.233243 0.074755 0.076242 0.059046 -0.171732 -0.147577 -0.209255 -0.099854 -0.034258 0.145608 -0.005117 -0.150418 0.038369 0.069617 0.102615 -0.006483 0.103482 0.151220 -0.030940 0.220318 0.069470 0.176943 0.001625 0.005689 0.024344 -0.182008 0.017916 -0.000234 0.081633 -0.081020 -0.263976 0.228347 -0.215029 0.037760 0.013743 -0.206539 0.074089 -0.028339 -0.198798 -0.034811 -0.037731 0.110417 0.131529 -0.006295 -0.022433 0.136627 -0.054165 0.114073 -0.133501 0.135815
. -0.036410 -0.118918 0.214184 -0.118253 -0.069727 0.058571 0.088214 -0.087721 -0.106677 0.047894 -0.203100 0.049002 -0.010621 -0.026150 0.023940 -0.165686 0.026118 0.118416 0.002505 -0.215157 -0.083145 -0.066236 -0.023939 0.161474 0.058735 -0.056051 -0.129761 0.123222 0.041776 -0.060642 -0.204179 -0.018677 -0.083052 -0.112543 -0.130306 -0.155683 0.089711 -0.047042 0.054315 -0.221257 0.137014 -0.021928 -0.085816 -0.125501 -0.085324 -0.083859 -0.105829 -0.180416 -0.065128 0.016998 0.002817 -0.021542 0.001439 -0.025846 -0.083993 -0.092361 -0.036195 0.004092 0.101934 -0.043475 -0.040358 -0.027126 -0.090316 0.155973 0.037220 0.043072 -0.051313 0.202101 -0.114749 0.039041 -0.050912 -0.099268 0.101213 0.053844 0.012813 -0.028351 -0.104430 0.076890 0.221521 -0.062322 -0.002341 -0.062659 0.078308 0.026652 -0.135132 -0.083697 0.142702 -0.020352 -0.134041 -0.161548 -0.045152 0.021927 -0.118189 0.015720 -0.068745 0.041793 -0.005843 0.019910 0.073705 -0.162518 -0.029263 -0.005277 -0.090644 -0.195643 0.074351 -0.010100 -0.108806 -0.026936 -0.139285 -0.223126 -0.056279 0.143735 -0.028576 0.120333 -0.030678 0.060366 -0.009686 -0.086322 -0.162309 0.082852 0.107237 -0.141048 0.028880 -0.052903 -0.137381 -0.045576 0.193619 0.135225 -0.091173 -0.214273 0.085893 -0.020137 -0.093556 0.072654 0.048871 -0.102491 0.083710 -0.104083 -0.099874 -0.002296 -0.100961 0.009749 -0.155796 -0.002411 -0.197243 0.012752 -0.026561 -0.014961 0.132486 -0.017642 0.213885 0.152874 -0.065395 -0.030106 -0.188083 -0.104374 0.097269 -0.005058 0.162104 -0.084240 -0.019481 0.074174 -0.003812 -0.008638 0.032604 -0.067730 -0.103817 -0.051763 -0.079519 -0.185637 -0.014880 -0.070494 -0.068953 0.106200 -0.104138 -0.073474 -0.012223 -0.098253 -0.063529 0.021776 -0.043157 -0.051913 -0.003850 0.019690 -0.155068 0.045843 -0.016368 0.066751 0.192364 0.050860 -0.014756 -0.141717 0.055384 -0.084774 -0.098399 0.116033 0.048686 0.106042 0.079302 -0.053292 0.038636 -0.018929 -0.153712 -0.002753 0.003286 0.026205 0.228682 0.111439 0.055520 0.066827 -0.000484 0.050112 -0.024948 -0.079234 -0.109191 0.124801 -0.105901 0.125036 -0.006539 -0.011796 -0.165660 -0.032372 0.117798 -0.019832 -0.031386 0.112105 -0.082125 -0.048712 0.046411 0.021336 0.217933 0.041804 0.094490 -0.075972 0.074050 0.138089 0.102431 -0.011837 -0.158762 -0.040373 0.151349 0.068117 0.155876 -0.152109 0.157293 -0.169699 -0.026041 0.168784 -0.077453 0.019609 -0.013765 0.156616 0.087571 -0.000164 0.000361 -0.025160
of -0.041706 -0.118191 0.106316 -0.258923 -0.147239 -0.188588 -0.110566 0.097570 0.193799 0.046688 -0.121294 0.194515 0.036376 0.000607 -0.064114 0.064812 -0.143260 -0.180424 0.110345 -0.117750 0.033226 -0.034981 -0.194735 -0.060423 0.153478 -0.212146 0.116828 0.007286 0.197867 0.120256 0.380108 0.003990 -0.050566 0.046058 -0.034285 0.003275 0.164915 -0.163217 0.185843 -0.139346 0.219220 0.097766 0.035511 0.010579 0.025257 0.057510 -0.170788 -0.082908 -0.232318 0.040997 -0.082755 -0.405068 0.211232 -0.042123 -0.080175 0.045850 -0.019883 0.065712 0.204713 0.143460 -0.031660 0.098955 0.081290 -0.240690 0.271985 -0.150881 -0.116589 0.192397 0.084517 -0.144262 0.088436 -0.116705 0.025150 0.062593 0.011085 0.110781 -0.162469 -0.046886 -0.164138 -0.126787 -0.287121 0.108031 -0.150660 0.053489 0.073335 -0.104016 -0.303730 0.038652 0.058595 0.120014 0.197156 0.116396 -0.070852 0.193447 0.179447 -0.192267 0.179794 0.116193 -0.000153 -0.043342 -0.166579 -0.092463 -0.001492 0.134003 0.135285 -0.173929 -0.363006 -0.050890 0.154481 -0.037527 0.014847 -0.029015 0.142182 0.076452 -0.118363 -0.206985 0.458299 -0.006182 -0.200590 -0.094418 0.212798 0.069933 -0.006382 0.016885 -0.213882 -0.143384 0.001875 0.112497 0.221717 0.145339 0.102291 0.034441 0.116231 -0.033612 -0.173965 -0.151395 -0.215171 -0.057649 -0.161126 0.132651 0.191945 -0.201456 -0.157487 0.178387 0.145085 0.197338 -0.165824 -0.225186 0.029418 -0.142186 0.100699 0.153120 0.093311 0.200347 0.084241 0.006415 -0.144261 0.151583 -0.191227 0.095639 0.105990 0.269964 0.196981 0.070168 0.012697 0.367614 0.126879 0.139460 -0.139205 0.123863 -0.127145 -0.107151 0.138202 0.193391 0.022797 0.101563 -0.028076 -0.080791 -0.126148 -0.082896 0.026769 0.070126 0.106173 -0.133726 0.061589 -0.002228 -0.256351 0.003255 -0.240241 0.260878 -0.120443 -0.177876 0.223024 -0.210626 0.090613 0.326949 0.182654 -0.103142 -0.053797 -0.042408 0.124401 0.170852 -0.100554 0.122762 0.117322 -0.294941 -0.027718 -0.219771 -0.222792 -0.108788 0.215138 -0.150042 0.108961 0.067414 0.075022 0.157278 -0.016810 0.289587 0.089318 0.352000 0.233975 0.172696 0.049580 -0.234389 -0.009928 0.076507 -0.152697 0.086738 0.098711 0.023846 0.078171 0.091117 -0.007870 -0.416309 0.009888 0.152428 -0.042381 0.136612 0.175361 -0.101238 0.068181 -0.308195 0.032916 -0.076599 -0.011524 0.077080 0.065084 0.068895 -0.008768 0.180107 0.210998 0.068515 -0.240907 0.050393 -0.082816 -0.248714
and 0.001995 -0.208284 -0.110989 -0.060306 -0.231784 -0.136279 -0.093179 -0.185220 -0.060890 0.336223 -0.236541 -0.061239 0.112509 -0.053045 0.004977 -0.002451 0.091753 -0.113273 -0.061602 0.230477 0.244319 -0.294826 0.044419 0.048721 -0.132025 0.015333 -0.076186 -0.013603 0.095632 0.039793 -0.186217 -0.180000 0.287205 -0.210416 -0.216184 0.041789 0.313545 -0.040538 -0.046373 -0.048386 -0.092124 -0.185232 0.076029 -0.163696 0.143597 0.155330 -0.007418 0.094185 -0.159480 -0.010740 0.139006 -0.061856 0.033407 -0.248442 -0.085837 0.006265 -0.011128 0.091619 0.012149 -0.132480 -0.154475 -0.131981 -0.095085 0.037481 -0.141045 -0.221873 -0.174141 0.238345 0.187369 -0.095233 -0.104819 0.071035 -0.140585 0.077720 0.174905 -0.023165 -0.156853 -0.070426 -0.084315 0.140872 -0.308723 -0.000137 -0.233185 -0.056527 0.115165 0.226470 -0.158929 -0.145445 -0.177180 0.060015 -0.114160 0.106019 -0.149312 0.004078 -0.240783 -0.008056 0.120060 0.001275 -0.098443 -0.038891 -0.090912 0.228622 0.088741 -0.089059 -0.306416 0.106249 0.087799 0.264099 0.073832 0.056486 0.055220 -0.027638 0.031745 0.090216 0.005822 0.063992 -0.013435 -0.130886 -0.021050 0.183349 -0.138579 0.181766 -0.163819 0.026448 0.058256 0.160642 0.036250 -0.089771 0.211379 -0.443172 -0.005634 0.119963 -0.025622 0.033514 0.018109 -0.143402 0.086590 0.322835 0.120920 -0.231626 0.097050 0.073748 -0.220468 -0.164127 -0.084840 -0.028801 0.180522 -0.101541 -0.204039 -0.079045 -0.089843 -0.042292 -0.034920 0.059735 0.008313 -0.114503 0.055255 -0.022847 0.267513 -0.047212 -0.118365 0.093643 0.133743 -0.150859 -0.013897 0.217785 -0.123763 0.077569 0.274634 -0.308398 0.177968 0.075515 -0.005356 0.192577 -0.252324 0.019756 -0.064576 0.143875 -0.023041 -0.137731 0.019237 0.093587 -0.105985 0.055980 0.182299 0.033717 0.431139 0.028698 -0.312849 0.020899 -0.074830 -0.174966 -0.028457 0.032400 -0.141251 -0.004484 0.007363 -0.129231 0.008987 -0.067169 0.232364 -0.078840 0.109576 0.019768 -0.215536 0.099246 0.123162 -0.095673 0.139027 -0.032931 0.012177 -0.018387 0.087133 0.172090 -0.199405 0.035047 -0.160741 0.105645 0.058174 -0.246602 -0.005266 0.014140 0.025619 0.188243 0.202545 0.279168 -0.067351 0.157080 -0.114303 -0.098770 0.047159 0.183390 0.052730 -0.154679 0.162867 -0.032844 0.228704 -0.109420 0.148362 0.068394 -0.055329 0.208831 0.163971 0.113940 0.126197 -0.148926 0.067885 0.038826 0.134925 -0.118913 -0.077787 0.347676 0.057355 0.138367 0.101227 0.202327
to -0.042987 0.021224 0.079368 -0.133298 0.089254 -0.033363 -0.112726 -0.109574 -0.038499 -0.045318 0.002166 0.167047 0.216403 -0.115025 0.091439 -0.044557 0.187612 -0.032340 0.038308 -0.009824 0.026961 0.015975 0.210337 -0.010870 0.205265 0.017759 -0.097057 -0.267408 -0.161408 -0.180500 0.116750 0.038362 -0.126536 -0.240397 -0.082990 0.116354 -0.204500 0.121021 -0.284029 -0.103624 0.093696 -0.187344 0.265024 -0.213924 0.238304 -0.198940 -0.186479 -0.106215 -0.077590 0.013430 -0.014386 -0.055500 0.048882 -0.036025 0.087615 -0.171499 -0.233745 -0.129406 0.216230 -0.027345 -0.054046 -0.016238 0.140504 0.084864 0.268476 -0.137254 0.064381 -0.012427 -0.148230 0.052418 -0.092111 0.181915 0.025513 0.156919 -0.140351 -0.172259 -0.100772 -0.086569 0.214566 -0.004732 -0.306910 -0.316082 -0.010010 0.158885 0.012466 -0.021612 -0.098477 -0.090444 -0.239338 0.097984 0.382782 0.228973 0.040595 0.055850 -0.018818 -0.085290 0.012010 -0.172593 -0.009785 0.126712 -0.075154 -0.272367 -0.173263 -0.191998 -0.172110 -0.185344 -0.005069 -0.063237 0.240362 0.047279 0.138475 0.089037 -0.256051 0.180141 -0.123615 0.033547 0.031769 0.131001 -0.000390 -0.180613 0.087533 -0.077612 -0.316834 0.097319 0.081960 0.051395 0.077824 -0.082020 0.337462 -0.267841 -0.007354 -0.123444 -0.052194 -0.033912 -0.065832 -0.036947 0.032806 -0.044481 0.055562 0.088615 0.149840 -0.145258 0.139372 0.232720 0.028418 0.089091 0.036315 -0.159560 0.088555 -0.216602 -0.161160 0.096441 0.023214 -0.051783 -0.017967 0.139671 -0.252127 -0.022678 0.176503 -0.189251 -0.207624 0.009281 -0.151510 -0.229476 0.093911 -0.036856 -0.049942 0.078312 -0.251318 0.174655 -0.202531 -0.027802 0.117240 -0.115292 -0.272293 0.231833 0.310787 -0.261114 0.098980 -0.205947 0.240552 -0.052410 0.164153 -0.178130 -0.042523 -0.135239 -0.108061 -0.018951 0.013425 -0.142820 0.112228 0.004056 -0.015978 0.012330 0.036405 -0.088675 0.000784 -0.311440 -0.197220 0.191096 -0.312160 0.364464 -0.153271 -0.124850 0.031704 -0.226417 0.181989 0.143538 -0.052118 -0.019407 -0.001830 -0.235413 -0.010554 0.307412 -0.027846 -0.139240 -0.127622 0.037808 -0.009992 0.028874 0.209710 -0.267717 0.165343 -0.038112 -0.022116 0.013418 0.036784 -0.096184 -0.029022 0.223599 0.156990 -0.054920 -0.069774 -0.032088 0.098388 0.326788 -0.303979 0.275557 0.020800 0.055768 -0.151688 0.009412 0.194559 -0.061340 0.166249 0.053608 0.096896 -0.104251 -0.009066 0.078461 0.195215 0.072562 0.090457 -0.069443 -0.153563 0.175115
in 0.169332 0.138134 0.126069 -0.071679 -0.221684 0.175595 0.209590 0.018125 -0.079017 0.323302 0.270019 0.133872 0.244151 0.010439 -0.197541 0.117821 0.011634 -0.078408 -0.013860 -0.121694 -0.124320 0.008268 -0.143104 -0.161683 0.025783 0.016865 -0.155199 -0.176429 0.082533 0.037966 0.006468 0.218113 -0.164723 0.004842 -0.294082 0.249318 -0.130838 -0.221893 -0.251247 -0.123294 0.066615 -0.056943 0.143730 -0.200939 0.198895 0.128724 -0.216847 0.392370 -0.035070 0.150256 0.116132 0.084333 -0.098003 0.330047 0.199428 0.248910 -0.004811 0.057608 0.250655 0.132349 0.044135 0.169156 0.157043 0.012871 -0.189377 0.020082 -0.107343 0.129395 0.367319 0.057508 -0.071983 -0.017468 -0.229074 -0.041332 -0.130384 0.006669 -0.165402 0.238617 0.094517 -0.241921 0.084629 0.017775 0.202170 0.131894 0.068751 0.061394 -0.143086 0.157641 0.136422 -0.050846 0.130687 -0.084247 0.039726 -0.056701 0.010855 0.158395 -0.021552 0.012596 0.159386 0.071344 -0.132801 -0.312303 -0.185945 -0.175731 0.138477 -0.309929 0.091358 -0.131735 0.015423 -0.063105 -0.003367 0.271547 -0.086319 0.211360 -0.263227 0.065636 0.169405 0.150341 0.062996 -0.008998 -0.163338 0.127358 0.172087 0.042982 -0.056719 0.138957 0.144662 -0.162825 -0.107384 0.060966 0.035364 -0.024975 -0.133011 -0.137092 0.063176 -0.221575 -0.150971 0.271582 -0.173891 0.264619 0.191713 0.321626 -0.212424 -0.018964 0.112952 0.346914 0.159571 -0.085959 0.023035 -0.029891 0.184158 -0.166986 -0.050697 0.235236 0.140316 -0.130367 -0.189981 -0.111710 -0.011404 0.040826 -0.216399 0.243699 0.120905 0.231209 0.299600 0.100684 -0.135436 0.201227 -0.168630 -0.255946 -0.251903 0.274184 -0.061882 0.227997 -0.040810 0.091619 -0.066544 -0.163397 0.113359 0.156682 0.044719 -0.111010 -0.213642 -0.042340 0.001037 -0.056429 0.054603 0.045816 -0.346249 0.023251 0.139947 0.065053 0.053071 0.047677 -0.267282 0.075931 0.015976 0.286023 0.054625 0.144324 0.148735 0.058819 -0.081043 0.008153 -0.218180 -0.023899 0.074676 -0.127569 -0.042074 -0.204110 0.056614 -0.168560 0.250245 0.265015 -0.086922 -0.077981 -0.187460 -0.137307 -0.075427 0.387879 -0.047397 -0.092563 -0.017070 -0.038142 0.048669 0.217395 -0.207272 0.021395 -0.150906 -0.339613 0.278626 0.056581 0.026408 -0.036699 0.268425 0.266402 0.138463 -0.201752 0.238525 -0.225441 0.069599 0.124198 0.090516 0.099861 0.014360 -0.194926 0.339864 0.016498 0.072375 0.076374 -0.193554 -0.286226 -0.033092 0.006601 -0.159793 -0.171648
a -0.099911 0.024942 -0.080010 0.249944 -0.172699 -0.002302 0.188073 0.218571 -0.026321 0.285781 0.296084 0.106186 0.019357 -0.007367 0.143160 -0.015317 0.111665 -0.247762 0.270104 -0.264237 -0.179137 -0.218555 -0.133426 -0.100434 0.045043 -0.426677 0.213982 -0.040807 -0.087574 0.134683 0.101751 -0.185063 0.048642 -0.017748 0.261421 -0.033139 -0.101256 0.081464 -0.019575 0.214143 -0.144000 -0.006413 -0.051527 -0.136263 0.209961 0.020545 -0.183420 0.022471 -0.016458 -0.066494 0.135327 0.008808 0.236029 -0.056875 0.028560 0.213827 -0.125093 -0.055505 0.117787 -0.114351 -0.009061 0.117333 -0.114441 0.096343 -0.025849 -0.000375 0.005252 -0.186396 -0.233957 0.134359 0.219689 0.153302 -0.155590 0.018153 -0.307547 -0.111740 -0.148495 0.045239 -0.139641 0.058246 -0.074986 -0.216095 0.117833 -0.120744 -0.163345 0.229707 0.059243 -0.083282 0.047677 -0.146087 -0.140702 -0.028065 0.144887 0.153786 0.018352 0.201207 -0.169995 0.230543 0.096810 0.028301 -0.055860 0.103292 0.034024 0.347238 0.100761 -0.101606 0.119050 0.067057 -0.075956 0.045587 0.150205 -0.066437 0.113989 -0.158010 -0.083951 -0.069663 -0.053754 0.063573 0.083304 -0.135986 0.261823 -0.212843 -0.008797 0.023932 -0.026990 -0.085915 0.121022 -0.116299 0.173019 0.142977 -0.035751 0.070304 -0.221122 0.221188 -0.074731 0.033202 -0.044717 0.146448 -0.132935 -0.114383 -0.055695 0.318972 0.017070 -0.120332 0.126777 0.289560 0.013172 0.028384 -0.091387 0.040968 0.165700 0.248732 0.147190 -0.037540 0.215432 0.003503 0.156980 0.197620 0.011175 -0.025418 0.079528 -0.012679 -0.070339 -0.210921 0.245858 -0.344227 -0.022374 0.265321 -0.005089 0.157974 0.147265 -0.080871 0.015167 0.032820 -0.237139 0.205227 0.019940 0.121963 0.372921 0.172641 -0.098446 -0.191880 -0.057514 -0.294528 0.093754 -0.099534 -0.111718 -0.031444 0.229897 0.022617 0.156229 -0.295305 -0.080220 0.211634 -0.071105 -0.104578 -0.044481 -0.080655 0.235851 0.146158 0.051942 0.376283 -0.017763 0.123711 0.183490 0.067087 -0.181636 -0.085454 -0.078799 0.184551 0.196309 -0.014851 -0.098433 0.100090 0.160329 0.221850 -0.087500 0.025259 -0.130170 0.262829 -0.194468 -0.025295 0.033295 -0.119799 0.095426 0.113148 -0.103420 -0.338320 -0.127666 0.145013 0.210476 -0.131020 -0.006456 -0.169848 0.271667 0.139138 0.099560 -0.242261 0.044105 0.269101 -0.102022 0.058316 0.088736 0.181062 0.053678 -0.061634 0.054104 -0.028377 0.223230 0.135114 -0.020343 -0.113458 0.048905 0.321134 0.141982 -0.073929
is 0.221961 -0.146594 -0.076747 0.202457 0.135165 0.196219 0.140582 0.276499 -0.123747 0.176182 0.006595 0.168704 -0.058228 -0.180890 -0.051077 0.110047 -0.070819 0.100717 0.029760 0.032061 0.165519 0.187703 0.147460 0.053790 0.075257 0.002126 0.090674 0.187154 0.192518 0.076429 0.156019 -0.096602 -0.211729 -0.195275 0.083291 -0.150747 -0.025299 -0.161025 0.061302 -0.123912 0.182503 0.276999 0.002008 -0.071479 -0.123810 -0.049400 -0.311525 -0.160267 -0.021150 0.240723 0.033575 -0.111703 0.116378 0.226419 -0.180809 -0.196964 0.166573 0.278561 -0.274788 -0.086317 -0.161486 0.068800 -0.139477 -0.107637 -0.052821 -0.032595 -0.174263 -0.083857 -0.113962 0.225096 -0.243988 0.060526 -0.220118 0.036960 0.337106 0.004812 -0.213700 0.002350 0.151664 -0.065763 0.166751 0.092013 -0.209978 -0.211276 0.196650 -0.246170 -0.161647 -0.009973 -0.140653 -0.077869 -0.178577 0.005076 -0.248142 -0.053638 0.072512 0.202567 -0.022355 0.148850 0.076559 -0.262175 -0.250343 -0.070939 0.033265 -0.058768 0.023228 0.125901 -0.122578 0.213382 -0.087955 0.007292 -0.193961 0.006715 -0.168657 0.405830 0.099769 0.067477 0.076023 0.099836 -0.184422 0.143591 0.203954 -0.076594 0.285269 0.037933 0.079341 0.183433 -0.068397 0.126510 -0.050044 -0.350185 0.112786 -0.053572 0.243047 -0.016877 0.062791 0.124745 -0.090208 -0.203633 -0.149350 -0.238277 -0.126329 0.012805 -0.055980 0.212142 -0.043538 -0.217636 0.251423 -0.037833 -0.204246 -0.154078 0.102006 0.135884 -0.124364 -0.160611 -0.220160 -0.006437 0.233922 -0.210669 0.059749 -0.096745 0.168894 -0.080905 0.089625 -0.129014 -0.075101 0.266397 0.217952 0.239532 0.099606 -0.022425 0.027493 0.067177 -0.109651 -0.071956 0.032008 0.202443 0.208182 0.093155 0.154978 0.090911 -0.089181 0.268291 0.127856 -0.089986 -0.029731 0.032811 -0.330620 0.070526 0.147318 0.277654 -0.012812 -0.233549 -0.193519 -0.160052 -0.161944 0.057656 -0.164804 0.137009 -0.165014 0.072878 0.048884 0.390774 -0.094171 -0.077260 0.175746 0.037737 0.053998 0.195069 0.066726 0.161674 0.471730 0.189355 -0.041326 -0.126452 -0.091770 0.144441 -0.116634 -0.125016 0.034831 -0.084063 -0.226885 -0.055990 0.045031 0.130503 -0.028365 0.181112 -0.225005 0.336860 -0.072406 -0.170795 0.093653 -0.194512 -0.027362 -0.099656 -0.139689 -0.122879 0.067080 0.025768 0.143589 0.136957 -0.031922 0.162384 -0.087370 -0.151290 -0.165684 -0.043120 0.170743 -0.230228 -0.140847 0.151872 0.170196 0.112277 0.040497 0.169791 0.211147 0.050871
that -0.034135 0.069538 -0.200753 0.017825 -0.032128 0.033607 0.286393 -0.053529 -0.011053 -0.319328 -0.158632 -0.075826 -0.196619 -0.009232 0.127400 0.101500 -0.055412 -0.143415 0.195459 -0.138615 -0.161527 -0.249247 -0.212910 0.248072 0.232369 -0.033158 0.206409 -0.071099 0.010443 -0.078346 -0.168580 0.096342 -0.152170 0.350822 -0.038681 0.225818 0.150809 0.010360 0.112301 -0.128691 0.081141 -0.238115 -0.070741 -0.103904 0.158617 0.055628 -0.015751 -0.243355 0.165759 -0.366960 0.070906 0.191124 0.124799 -0.168700 -0.193193 -0.070446 0.137210 0.002120 -0.196710 -0.029587 -0.039191 0.086014 0.046768 -0.097580 -0.239046 -0.199430 -0.250118 0.031567 0.294290 -0.234704 -0.096466 0.020945 0.069970 0.133494 0.202702 -0.032743 -0.222425 0.200116 -0.090876 0.273983 -0.048995 -0.125450 0.116608 -0.076672 -0.277417 0.218543 0.157786 -0.020435 -0.047111 0.104051 0.129819 0.005334 0.161741 0.171372 -0.025373 -0.484517 -0.087021 -0.146551 -0.287320 -0.017031 -0.169965 -0.187831 0.325378 -0.046858 0.084996 0.197008 0.170814 -0.211785 -0.245205 0.079631 0.188920 -0.161881 0.115566 -0.131334 -0.098659 0.215902 -0.108288 0.133903 0.048174 -0.083619 -0.025391 -0.239529 0.193862 -0.184306 -0.171143 -0.034889 -0.012246 0.176174 -0.396905 0.028750 0.130291 0.216672 -0.077991 -0.211105 -0.214897 0.084092 0.032722 -0.241021 0.166445 -0.026025 -0.032063 -0.272725 -0.073216 -0.169369 -0.297400 0.079724 0.195397 0.069267 0.169188 -0.126670 -0.003317 0.011799 0.076381 0.136413 -0.211059 0.031476 0.002070 0.137626 0.077633 0.069327 -0.006074 0.040407 -0.131219 0.173333 -0.196462 0.072677 -0.180332 0.149286 0.186891 0.149003 -0.249097 -0.198575 -0.088025 0.148643 -0.325345 0.326287 0.057847 -0.304882 0.056426 0.160627 -0.257932 -0.024400 0.015364 0.093096 -0.047219 -0.238233 -0.115722 0.199120 0.157138 -0.117178 0.018600 0.140234 0.111365 0.285126 0.105020 -0.014937 0.074424 -0.333721 0.047587 -0.127430 0.330327 0.102861 0.238769 0.349119 -0.305930 0.057497 0.195307 -0.051029 0.260418 0.138268 0.135673 -0.122412 -0.155227 -0.168076 0.055393 -0.042739 0.119499 -0.047557 0.068356 -0.195852 -0.153723 -0.362719 0.211273 0.205512 0.217533 -0.109834 0.265902 0.090834 -0.177722 -0.085939 0.120000 0.108248 -0.200761 -0.182163 0.329509 -0.052335 -0.066968 0.099324 0.002814 0.283564 -0.149625 -0.024722 0.292036 -0.284911 0.061545 0.100009 0.312891 0.018317 -0.139836 0.180285 -0.014493 -0.124051 -0.179087 0.060514 -0.211918 0.086638
for 0.178812 -0.032942 0.031852 -0.189682 0.180216 0.124276 -0.139426 -0.134600 -0.117408 0.114951 -0.121296 -0.052160 0.210783 -0.154835 0.016918 -0.067994 -0.025654 -0.446935 -0.121505 0.179326 0.234793 0.047686 0.213151 0.072728 -0.106310 -0.106467 0.280188 0.099260 -0.111798 -0.255386 0.088404 -0.067600 -0.199853 -0.049707 0.199789 0.218621 0.032783 0.045267 0.071400 -0.185265 0.061281 -0.047285 0.215082 0.045822 -0.058440 0.268167 -0.297120 -0.049029 -0.297885 -0.162861 0.203674 0.183603 -0.073757 -0.180202 0.285728 0.031390 0.077192 0.028559 0.140607 -0.106236 0.182819 0.174720 0.314263 0.108425 -0.023670 -0.159465 -0.217378 0.112552 0.006689 0.029509 0.028891 0.177206 -0.073200 -0.061774 -0.428991 -0.115863 -0.286389 0.092778 -0.082057 0.115941 -0.011443 -0.312958 0.204716 -0.048714 -0.275028 -0.010612 0.222483 0.028550 0.146116 0.132667 -0.029640 -0.116628 0.027171 -0.160302 0.104487 0.011088 0.038363 -0.144411 0.138848 0.147153 -0.387357 0.018968 -0.106960 -0.077892 -0.107578 0.236735 0.212665 -0.177502 -0.072097 -0.040764 0.350233 0.276286 -0.150394 0.082905 -0.179422 -0.122783 0.175314 0.046329 0.203500 -0.146782 0.040204 0.029451 -0.051406 -0.139860 -0.328063 -0.040992 0.382163 -0.151602 0.041508 -0.073210 0.227622 0.050618 -0.110235 0.208678 -0.028025 -0.083939 0.227234 0.038453 -0.022020 0.043107 -0.246161 0.090030 -0.132349 0.245699 0.148935 0.061991 0.028018 -0.032651 -0.131041 0.045827 -0.207825 -0.021129 0.123094 0.046142 -0.007825 0.328889 -0.107129 0.025564 0.001048 -0.018316 -0.151894 -0.026207 0.021861 0.188106 0.129790 0.414862 0.287837 0.266070 -0.155902 0.029017 -0.225067 0.190590 0.058563 0.241398 -0.294172 -0.179705 0.343465 -0.241919 0.095610 0.039026 0.099133 0.106033 -0.034016 -0.151017 0.091647 0.276593 -0.113626 -0.067475 -0.201977 -0.259949 0.061986 0.239856 0.207168 -0.212414 0.243806 -0.163574 -0.193585 0.157895 0.066805 0.082805 -0.115519 0.394715 0.250243 -0.161793 0.035883 -0.087703 -0.219167 0.201906 0.009400 0.093502 0.324399 0.148116 0.266289 0.006326 -0.061948 0.110810 -0.086874 -0.033123 0.113331 -0.188287 0.002296 0.140338 0.119575 0.072726 0.087662 -0.036268 -0.105704 0.041353 -0.034207 -0.144006 -0.047767 -0.047993 0.039376 -0.240263 0.096546 0.060527 -0.160224 0.181727 0.178122 -0.328211 -0.231476 0.346414 0.087902 0.163393 0.088872 0.007562 0.079512 0.175991 -0.181878 0.014393 -0.089230 0.054583 -0.021383 -0.178593 -0.393782 -0.202122
on -0.054604 0.069306 -0.180752 -0.116694 -0.025634 -0.199178 -0.192082 0.008783 0.059539 0.246436 0.074144 0.064562 0.232838 0.158491 0.321881 -0.007517 0.004282 -0.148305 0.145763 -0.075034 0.023970 -0.081961 0.204297 -0.124050 0.022873 0.081980 0.020877 -0.012505 0.054657 0.056044 -0.067928 0.052783 0.081334 0.170798 0.219936 -0.304796 -0.186263 -0.243454 0.135609 -0.022793 -0.166050 0.215319 0.095752 -0.344353 0.117619 -0.193911 0.188330 -0.211698 -0.132962 -0.089419 -0.159030 -0.053534 -0.210173 0.122937 0.504596 -0.004580 0.018001 -0.031881 0.085135 0.148270 0.073874 0.185478 -0.113745 0.036264 -0.110846 0.028084 0.022635 -0.098907 0.020263 -0.158994 -0.072576 0.344325 -0.025726 -0.118611 -0.183004 -0.187842 0.058352 -0.070766 -0.089270 -0.043472 -0.225208 -0.134787 0.266425 0.218589 -0.111986 -0.087162 0.009093 -0.025684 0.326789 -0.232309 0.228987 0.235957 0.163170 -0.039989 -0.180121 -0.093591 -0.216295 0.032792 -0.087400 0.258833 -0.267981 -0.228998 -0.236312 0.014552 -0.192861 -0.094437 -0.082931 0.110713 0.024617 -0.061694 0.188690 0.221812 0.147206 0.145230 -0.324128 0.151283 0.081801 -0.368409 -0.093267 0.053873 -0.052960 0.054415 -0.174203 -0.070716 -0.127548 -0.004375 0.068365 -0.157269 0.305941 -0.009591 -0.061416 -0.127614 0.002605 0.178296 -0.115510 -0.231565 0.146406 0.022643 0.062075 -0.032963 0.015488 -0.242553 0.073856 0.426709 0.009359 -0.070821 0.029774 -0.381045 0.436169 -0.060633 0.049751 -0.307497 0.078124 -0.031997 0.202514 -0.048267 -0.252984 0.038276 -0.192616 -0.082156 -0.007019 0.018580 -0.023103 -0.241795 -0.070429 0.226944 -0.193311 -0.033207 -0.140014 0.042337 0.137283 0.145914 -0.087851 0.343545 -0.255742 0.211523 -0.029661 -0.187226 0.184012 -0.132650 0.028327 0.027986 -0.160601 -0.081585 -0.032570 0.026392 0.179635 -0.172049 0.234249 -0.157134 0.138407 0.041522 0.199563 -0.253311 -0.182901 -0.154647 0.115435 0.266042 0.166099 0.071652 0.246793 0.314965 0.118630 0.391159 -0.083157 -0.047388 0.160493 0.123105 0.001221 -0.033687 0.048887 -0.287285 -0.054927 0.219958 0.038893 0.057275 -0.132261 -0.169047 0.264035 -0.085625 0.113282 -0.198884 0.110902 -0.229230 0.186870 -0.139121 -0.085792 -0.014307 -0.205145 0.138995 0.114082 0.115444 0.110032 -0.070845 -0.058899 0.108386 0.051355 0.128878 0.252440 0.178433 -0.186421 0.107970 -0.120750 -0.021890 0.280041 -0.187058 -0.237749 0.079562 0.003122 0.162820 -0.077556 0.051895 0.052845 -0.062229 -0.298108 -0.018575
The -0.087520 -0.179768 -0.054696 0.011031 -0.157233 0.002983 0.169987 0.121648 -0.119366 0.192378 -0.062031 0.100255 -0.070683 -0.007929 -0.120981 -0.031213 0.052082 0.036060 0.090727 -0.179166 0.138185 -0.251580 0.088351 -0.012600 0.156007 -0.079122 -0.000335 0.072432 0.000367 0.040665 0.055954 -0.064024 0.004416 0.057577 0.072718 0.036894 0.108128 -0.118027 -0.036462 0.071587 -0.018322 -0.012460 0.042642 -0.236136 -0.163404 -0.134989 0.116991 0.052223 0.093944 -0.055002 0.151524 0.001441 0.041525 0.067348 -0.000939 -0.163399 -0.023458 0.069816 -0.092680 -0.045463 0.010470 0.042082 -0.112858 0.353223 -0.221507 0.008903 -0.055796 0.102815 -0.118175 -0.120306 -0.110793 -0.055293 -0.023008 -0.109578 -0.153842 0.033281 -0.163855 -0.044172 0.063609 0.129882 0.011045 -0.138548 -0.177430 0.039656 0.056775 -0.048853 0.154844 0.326007 -0.049237 -0.099858 0.007809 0.161689 -0.092814 -0.088615 -0.148146 -0.163093 -0.163022 -0.116456 0.220922 -0.031549 -0.314536 0.099356 0.034339 0.118973 0.018366 -0.054887 -0.082098 -0.015817 0.074346 -0.160435 -0.050822 -0.042720 -0.064233 0.044726 -0.130970 -0.119360 -0.272838 -0.005737 0.204948 -0.245147 0.021313 -0.224918 -0.007548 -0.173294 0.030286 0.244561 0.026016 0.006434 0.129964 0.254574 0.147823 -0.008295 -0.080940 0.147725 0.071935 0.083977 0.009891 0.151878 -0.115711 -0.053574 -0.271208 0.186838 -0.165624 0.176839 0.060859 0.058249 -0.133102 0.207208 -0.010169 -0.022087 -0.259917 -0.176820 0.032790 0.023554 0.120569 0.017890 -0.181459 -0.040267 -0.017199 0.036890 0.069155 0.173288 -0.095438 0.074159 -0.033352 -0.020242 0.121872 0.003073 -0.086350 -0.156745 -0.027500 -0.060061 -0.218761 0.186265 -0.001883 0.089846 -0.068326 0.014670 -0.225706 0.047692 -0.039002 0.152357 -0.083440 -0.072554 -0.028875 -0.145661 0.111887 0.199467 -0.044759 0.083276 0.045159 -0.212264 -0.009762 0.186815 0.175722 0.083739 -0.041796 -0.275454 0.110733 -0.079407 0.022059 0.003698 -0.001041 -0.001016 -0.215127 -0.162980 -0.119326 0.049551 -0.083192 0.069138 -0.077321 0.168799 0.227666 -0.059858 -0.007214 -0.094196 -0.133533 -0.005543 0.141048 0.004436 -0.027358 -0.015597 0.142684 0.121689 0.136826 -0.035745 0.120690 0.226382 -0.126660 -0.098554 0.097530 0.062357 0.106742 0.146200 -0.062636 -0.186643 0.033650 -0.044184 0.113089 -0.026224 -0.089370 -0.024956 -0.032100 -0.061225 -0.104539 0.020560 -0.171943 -0.119877 0.037797 0.021977 0.048253 -0.116317 0.013484 -0.208762 0.221441 -0.090528
with -0.256070 0.225853 -0.075092 0.223402 0.361332 -0.292166 -0.098265 -0.169628 -0.097106 0.177504 0.114136 -0.156063 0.107356 -0.124004 0.146163 0.167942 -0.188801 -0.235586 0.178954 -0.007653 -0.016456 0.207105 -0.179741 -0.030589 0.373858 0.217938 0.047627 0.029794 0.092021 -0.214250 -0.196836 -0.296691 -0.149180 -0.212607 -0.243970 0.352013 0.236935 0.077584 -0.254950 0.071322 -0.145848 0.127601 0.158720 -0.121677 0.351151 0.010788 0.234190 0.278085 -0.240139 -0.369707 0.031849 0.099872 -0.228711 -0.216251 0.018500 0.033207 -0.054619 0.007815 0.127683 -0.028915 0.054418 -0.247430 0.164009 0.009959 -0.039898 0.003281 0.031104 0.257548 0.109250 -0.080306 0.078668 0.081875 -0.326274 -0.222706 0.009796 0.139770 0.350374 0.048729 0.090915 0.030648 -0.152521 0.122288 -0.012856 -0.074551 -0.216933 0.192949 0.247454 -0.022193 0.102850 -0.318855 0.395868 -0.070458 0.175375 0.310037 -0.091359 -0.088070 -0.211785 0.253259 0.351331 0.195707 -0.104114 -0.193298 0.002721 -0.501253 0.079456 -0.271425 0.214141 -0.124944 0.319908 -0.159036 -0.006136 -0.093647 0.303753 0.094775 0.082828 0.039910 0.313107 0.018167 -0.129028 -0.097215 0.125625 0.008161 -0.249008 0.104670 -0.172237 0.106384 0.271894 -0.069043 -0.020073 0.126031 -0.301666 0.185497 0.032454 0.001938 0.073944 -0.124361 0.377473 -0.029548 -0.145706 0.087383 0.002326 0.082495 -0.045716 0.014687 0.016253 -0.105519 0.138626 -0.140065 -0.332481 -0.009593 0.162837 -0.092599 0.355090 0.063898 -0.162460 0.215069 0.079961 0.142969 -0.219116 -0.118850 -0.438665 0.037965 -0.073394 0.271085 0.224934 0.099731 0.153117 0.182859 0.095754 -0.307166 0.147903 0.257652 -0.265101 0.013657 -0.207502 0.168276 0.199764 0.034407 -0.184140 -0.100261 -0.142642 -0.281619 -0.122065 -0.251275 0.006400 -0.114390 0.119505 0.132232 0.021178 0.228204 0.203881 -0.273584 -0.085330 -0.123389 0.074960 0.146815 0.207600 0.204968 0.321176 -0.040788 0.168955 -0.360061 0.044258 -0.061259 -0.375258 0.092310 0.199504 0.112397 0.313880 -0.057520 -0.067079 0.001555 -0.044229 -0.025006 0.166290 -0.025014 -0.103558 0.300603 0.054290 -0.136943 0.212794 -0.159378 0.150858 -0.073534 -0.384986 0.221723 0.002707 -0.296130 -0.015495 0.045034 -0.042353 0.034248 0.076738 -0.127232 0.051710 -0.028282 0.019041 -0.030243 -0.052329 0.108382 -0.178265 0.292285 0.060415 0.225095 0.235616 0.148471 -0.002409 0.036662 -0.086970 -0.077644 -0.029555 0.020995 -0.044141 -0.162992 -0.203953 -0.089578
be 0.162009 0.198887 -0.086180 -0.099731 -0.169518 -0.103749 0.155357 0.045719 -0.199399 -0.362626 0.080238 -0.044196 0.318325 -0.133449 -0.028664 -0.329680 0.047880 0.081750 0.089515 -0.071671 0.011420 -0.017763 -0.108951 -0.216849 -0.128325 -0.245029 -0.021941 -0.157014 -0.219146 0.014832 -0.000191 -0.240444 0.033017 -0.203306 0.084079 -0.182927 -0.007442 -0.009436 0.298874 -0.100623 -0.083927 -0.172205 0.006360 -0.165928 0.086379 0.174556 -0.017961 0.036916 0.048284 0.319025 -0.154569 -0.375076 0.154501 -0.001618 -0.193324 0.074062 -0.498874 -0.005875 -0.244820 0.182268 0.203053 0.259817 -0.135220 -0.018644 0.261031 -0.178636 -0.028690 0.242413 -0.171354 -0.201491 0.010428 -0.094408 -0.221659 0.179639 0.082462 -0.037854 0.003153 -0.047283 0.103770 -0.174125 -0.055365 -0.004912 0.155684 -0.327001 0.158261 0.044845 -0.225611 -0.170143 -0.116822 0.255318 0.019474 -0.188671 -0.234510 -0.239618 0.139715 0.150753 -0.228688 -0.286180 0.143905 -0.064490 0.236002 0.054064 -0.226264 0.104680 0.092790 0.028695 0.130109 -0.083733 0.133932 -0.152997 0.232900 -0.012320 0.174535 -0.080415 -0.207483 -0.134433 0.330757 -0.236654 -0.143194 -0.217084 0.188336 0.012140 -0.153652 0.085337 -0.259514 -0.055666 0.083818 0.107148 0.078990 -0.228625 0.083232 0.061557 0.117922 -0.129989 0.059454 0.038427 -0.031383 -0.114250 -0.052740 0.021048 -0.066683 -0.035250 -0.137428 -0.295341 -0.174534 -0.050009 -0.248094 -0.101383 -0.026199 -0.137758 0.035789 0.293020 -0.291508 0.224735 -0.091119 -0.199176 0.170609 -0.026607 0.057050 -0.126239 -0.024121 -0.142394 -0.077120 0.134382 0.157792 0.204264 -0.169792 0.209799 -0.049430 -0.036326 -0.133640 -0.049436 0.153717 0.260939 -0.224249 -0.318819 -0.087634 -0.053464 0.318445 -0.105002 -0.278000 0.250437 -0.021388 0.188813 -0.337937 0.188753 -0.120911 0.121507 0.153330 0.296802 -0.251735 0.401942 0.020873 -0.028579 -0.332626 0.082232 -0.203696 0.090707 -0.154541 -0.119783 -0.223198 0.329221 -0.273592 0.192914 0.144593 -0.130945 0.017132 0.318860 0.145940 0.072850 0.091655 0.099183 -0.108651 -0.023747 -0.127548 0.024357 -0.055049 -0.098249 -0.102377 0.254745 0.010835 0.318372 0.205916 0.074943 -0.059524 0.054824 0.167636 0.144578 -0.064602 0.140999 0.273731 0.070321 0.091849 -0.021199 -0.015414 -0.027657 -0.378231 -0.232704 0.197437 0.022826 -0.129623 0.270247 0.039711 -0.148370 -0.283095 -0.227143 0.272992 -0.078642 -0.098488 -0.085286 0.155973 -0.042314 -0.108635 0.090026 0.371768 -0.035411
are -0.016539 0.101098 0.188917 -0.239863 -0.143042 -0.153723 0.101281 -0.104860 -0.010536 -0.110090 0.167709 0.192778 0.053003 0.026594 0.061025 0.015324 0.036964 0.300073 -0.202898 -0.197548 -0.038033 0.159583 0.032487 0.144770 -0.005062 0.111182 -0.023860 0.170128 0.221957 0.123178 0.044510 0.079105 -0.280339 -0.338434 0.171662 -0.202586 -0.076293 0.057080 -0.037303 -0.046629 -0.139892 -0.084480 0.001353 -0.162220 -0.063722 -0.098169 -0.018827 0.146092 -0.131147 0.043212 0.114189 0.156776 -0.096011 0.234317 -0.263676 0.176138 -0.112067 0.161409 0.129407 -0.067025 0.008134 -0.246789 -0.111670 -0.194032 0.126853 0.024541 0.260181 0.313654 -0.080043 0.157698 -0.238378 -0.272309 -0.102206 0.073898 0.068987 -0.235363 -0.041550 0.164259 0.204277 0.118153 -0.025789 -0.016145 -0.006010 -0.196476 0.055222 -0.207380 0.059989 -0.206154 -0.217624 -0.187309 -0.174067 0.153300 -0.091065 -0.235483 0.089268 -0.083750 -0.050427 0.135889 -0.105557 -0.233118 -0.026531 0.150096 -0.101707 -0.011135 0.274818 0.176476 -0.119139 0.328781 -0.069448 -0.168740 -0.014968 -0.079346 -0.018251 0.206620 0.138467 -0.032947 0.166708 -0.370500 -0.102421 0.155586 -0.342784 0.111395 0.079413 0.169548 0.052304 -0.028404 -0.055474 0.121346 -0.060258 -0.055464 0.144688 -0.200579 0.286391 0.102225 0.041323 0.137856 0.274711 0.131141 -0.096630 0.287949 -0.173045 -0.111070 -0.047921 -0.147858 -0.127908 -0.245178 -0.287993 0.113033 -0.399922 0.173129 -0.004165 0.399453 -0.106471 -0.048938 -0.104975 -0.044241 0.275929 -0.330221 -0.174380 0.114362 0.047929 -0.270896 0.111098 0.036073 -0.077163 0.069052 0.016472 0.017697 0.030415 0.000110 0.036236 0.109389 -0.025230 0.396257 0.043362 0.075824 -0.198616 -0.028854 0.198037 0.078597 0.109612 0.095984 0.003912 0.087963 -0.009561 0.119087 -0.199582 0.220257 0.082700 0.137279 -0.012523 0.005826 0.002508 -0.279897 -0.135711 0.097361 0.035153 -0.051489 -0.218065 0.068968 -0.062060 0.027049 0.018999 0.053058 0.153340 0.137319 -0.031707 -0.046502 -0.131028 0.038976 0.262916 0.239568 -0.031898 0.033112 0.120673 -0.009640 0.037566 0.175768 0.232352 -0.110440 -0.367746 0.097793 -0.040531 -0.123556 0.083085 0.065315 -0.128192 0.005760 -0.164030 -0.205767 -0.181032 0.308596 0.281833 -0.062500 -0.103753 0.164472 -0.217547 -0.173287 0.149024 -0.073873 -0.240303 -0.012298 -0.121472 -0.017813 -0.198993 -0.158868 0.150568 -0.271587 0.352913 0.103704 0.487179 -0.098001 0.062388 0.121329 0.180067 0.045600
I 0.142653 -0.021935 0.009879 -0.168371 -0.019848 0.014020 0.081775 0.079729 -0.185134 0.137915 0.120639 0.052359 -0.158662 0.062605 0.145756 -0.120001 -0.114882 0.249785 0.313159 0.006490 0.275206 0.033523 0.140893 -0.232545 0.031150 0.031861 -0.017170 -0.182789 -0.422220 -0.203170 -0.133714 0.312532 -0.078859 -0.218350 0.085447 -0.025086 -0.057444 0.108335 0.043370 -0.040157 -0.081076 0.130891 -0.226946 -0.016232 -0.254681 0.268953 0.155022 0.165099 -0.018369 0.023857 0.140993 -0.246453 0.066822 0.258575 -0.017594 -0.369429 0.065644 -0.038275 -0.078108 0.205938 -0.119470 0.172397 -0.059679 0.052053 -0.106412 0.101715 -0.110222 -0.254645 0.215590 -0.124601 -0.088189 0.128415 0.025521 0.060177 -0.025869 0.244056 -0.226439 0.056769 -0.089153 0.086821 0.055750 0.007696 -0.050771 -0.122835 -0.284828 -0.295394 0.163830 -0.044480 -0.231885 0.092811 0.120842 -0.114847 0.180896 -0.134009 -0.068523 -0.116165 -0.071312 -0.031137 -0.156347 0.077074 -0.256696 -0.167279 0.022420 -0.028632 -0.196463 -0.164939 0.229186 -0.145250 -0.207509 0.215570 -0.212730 0.201111 0.009507 -0.151645 -0.273866 -0.099533 0.212039 0.081585 -0.216322 0.249983 -0.027904 0.021115 0.008679 -0.007560 0.167613 -0.071821 -0.024953 0.070700 0.147444 -0.037471 0.082353 -0.045435 -0.265982 -0.050629 -0.088855 0.229900 0.014021 -0.247890 0.192002 -0.073915 -0.105265 0.345772 -0.027095 -0.202951 0.083772 0.317548 -0.311029 0.040563 0.016425 0.101199 0.034437 -0.035394 -0.022504 0.148178 -0.151923 -0.169904 -0.163806 -0.125544 0.169185 -0.194172 -0.390577 -0.071855 -0.255343 0.198085 -0.141184 0.192998 0.368297 0.192853 -0.095709 0.240845 0.071567 -0.338043 -0.031549 0.127365 0.084739 0.237599 0.169612 -0.072900 0.117099 -0.081713 0.083911 -0.311382 -0.432360 -0.041964 -0.140760 0.059130 -0.082486 0.376627 -0.067101 -0.055627 -0.025602 0.292464 0.069439 0.019769 0.204208 -0.274000 -0.084131 0.240323 0.222768 0.141095 -0.128590 -0.156346 -0.076462 0.107128 -0.077822 -0.156775 0.257661 -0.225678 0.059006 0.078092 -0.321324 0.170419 -0.074513 0.280463 -0.164712 0.218060 -0.125962 -0.029358 -0.053294 -0.140642 0.327233 -0.005949 -0.136520 0.086327 0.117822 0.403197 -0.301702 -0.094378 -0.079427 -0.110468 -0.085891 -0.132904 0.309749 0.340809 0.119899 -0.276920 0.046405 0.108323 -0.033877 -0.116376 -0.219025 0.198587 0.044829 0.052616 0.046252 0.154841 -0.007208 -0.075381 -0.062249 0.337939 -0.231126 0.157738 -0.015859 0.151805 0.081068 -0.369392
this 0.077148 -0.394981 -0.142446 -0.271553 -0.022030 0.324985 0.072584 -0.114408 0.062097 -0.015209 0.132529 0.317390 -0.144974 -0.085359 0.100001 -0.257368 0.061372 0.080399 0.395639 -0.415557 -0.136988 -0.113726 -0.254834 0.012709 0.154431 0.034035 0.034343 -0.178441 0.006330 0.219878 0.070379 0.159658 -0.124449 -0.151778 0.088397 -0.110600 0.341238 -0.117586 -0.256367 0.207081 0.162489 -0.197131 -0.223966 0.118712 0.012563 0.127508 0.046913 0.091634 0.142690 0.046507 -0.035499 0.288884 0.036092 0.088264 0.194993 -0.112705 0.271848 -0.197571 0.118276 -0.198594 -0.120995 0.101347 0.003045 -0.021367 -0.135210 0.070462 -0.008903 -0.020188 0.039502 0.186844 0.032379 -0.175306 0.169094 -0.146148 0.108808 -0.260952 -0.118838 0.105108 0.089508 -0.132233 0.268035 0.041549 0.029393 -0.122301 -0.010782 0.161231 0.131290 0.101277 -0.128748 0.071600 -0.106310 -0.058322 -0.004822 -0.051253 0.061183 0.170795 -0.241714 -0.203874 0.014591 0.136204 -0.018665 0.135396 -0.038488 0.102998 0.167724 -0.180257 0.160617 -0.167111 -0.256924 0.293583 0.069670 -0.069935 -0.138321 0.232763 -0.089905 0.044216 -0.063154 -0.167890 -0.005530 -0.081145 0.293836 -0.110749 0.094040 0.016294 -0.046933 0.043923 0.123474 0.140640 0.189925 -0.096725 0.138482 0.171453 -0.018040 0.087235 -0.248670 -0.070675 0.182219 -0.007132 -0.073143 0.036256 -0.235387 0.158139 -0.172474 0.358387 0.042586 0.175500 0.244529 0.032970 0.198730 -0.047381 0.061154 -0.239073 0.015239 -0.236559 -0.010934 0.318103 -0.041820 -0.108807 -0.000881 -0.166946 0.247659 -0.089186 -0.169558 0.133834 -0.127602 0.041460 -0.005872 0.238459 -0.208350 0.255934 0.047497 -0.369625 0.262155 -0.019629 -0.182455 0.158300 0.164546 0.067249 -0.020457 0.080759 -0.196079 -0.011158 0.005966 -0.244425 -0.023757 0.171726 -0.141067 -0.012584 -0.039195 0.131485 -0.113373 0.093844 -0.059381 0.053357 -0.126882 0.046224 0.081747 -0.038022 -0.175278 0.028871 0.217603 -0.132705 -0.162749 0.302335 0.175370 0.072117 -0.231661 0.022413 0.025093 -0.103757 0.023943 0.037287 0.140469 0.030183 -0.084553 0.041250 0.169190 -0.202454 0.158857 0.133706 0.026891 -0.159113 0.401620 -0.211362 0.182225 -0.018604 -0.117478 0.102977 0.028076 -0.121963 0.288434 0.201262 -0.233844 0.107871 0.147157 -0.170098 -0.088208 -0.080905 -0.030130 -0.149232 0.126399 0.066935 -0.217020 -0.185298 0.030033 0.160377 0.229558 -0.199187 0.125889 0.339206 -0.152794 -0.220718 -0.150295 0.063632 -0.037945 -0.061674
as 0.233516 0.163263 -0.014715 0.122220 -0.165030 -0.145569 0.062735 -0.081080 -0.113073 -0.222435 -0.128106 0.067124 0.259809 -0.074010 0.049993 -0.010850 0.014959 -0.291700 0.298906 0.186722 0.310648 -0.004056 0.008107 0.000793 -0.012160 -0.215387 0.256746 0.342373 -0.370473 -0.256655 -0.002243 -0.203741 -0.198210 -0.042156 0.076762 0.037345 -0.015992 0.133796 0.063398 -0.306448 -0.132922 -0.085956 -0.001323 -0.419376 -0.010443 -0.019847 0.013557 -0.074974 -0.138426 0.282568 0.016466 -0.211553 0.168772 -0.227073 -0.038774 0.254546 -0.021313 0.246796 -0.179361 0.071342 0.076121 0.305025 0.224958 -0.271180 0.115549 0.080463 -0.103697 0.159614 0.139957 -0.011459 -0.121397 0.227495 0.036707 -0.011867 -0.105961 0.014458 -0.243027 0.380754 -0.105045 0.200382 0.222756 -0.057200 -0.126907 0.261192 0.276178 0.210679 -0.157214 -0.196641 -0.168755 -0.202998 -0.140873 -0.234226 -0.020690 -0.202093 -0.116899 -0.247144 0.215832 -0.170298 0.052341 0.156559 -0.290241 -0.337072 0.050951 0.003399 -0.156443 0.077834 -0.253939 0.087907 -0.303689 0.096698 -0.168101 0.107839 -0.196938 -0.066763 -0.127315 -0.096324 -0.019376 -0.071754 0.121176 0.153888 -0.157915 -0.174284 -0.135452 -0.248841 -0.088533 -0.125461 0.093812 -0.130370 -0.355182 0.010916 -0.115972 0.122330 0.049161 0.141035 0.034537 0.171451 0.287216 0.432408 0.000940 -0.259323 0.210076 0.050202 -0.078966 -0.176032 -0.015248 0.019362 -0.027592 -0.169568 0.116254 -0.028624 -0.129414 0.103149 0.313302 -0.347822 -0.053924 0.014359 0.061648 -0.008533 0.115546 -0.043113 0.173465 0.251480 -0.096248 0.085839 0.214508 0.386981 0.455065 -0.004468 0.065439 -0.171358 0.041886 0.017627 0.003128 0.056579 0.075883 0.072175 0.124158 0.112964 -0.238177 0.112546 0.483327 -0.291508 -0.056558 -0.120708 -0.385309 -0.006376 -0.001071 -0.037610 -0.098187 -0.097966 -0.255664 0.223635 -0.070981 -0.048305 -0.144706 -0.180630 -0.143722 0.244318 0.092023 -0.222834 0.062277 0.139768 0.077038 -0.172983 -0.052646 0.018306 0.132549 0.031095 -0.132063 0.312783 -0.147424 0.197496 -0.137543 0.316601 -0.259945 0.165702 0.071059 0.039458 -0.133062 -0.190326 0.299924 0.106108 -0.224391 0.286461 0.318613 0.287732 0.171507 0.016851 0.094778 -0.028230 0.340169 0.220151 0.128341 -0.286720 -0.211117 -0.162662 -0.072015 0.268670 0.254025 0.154554 0.077853 0.259244 -0.248611 0.213203 -0.081345 -0.220733 -0.174129 0.112625 0.165931 0.263034 0.009638 -0.166179 -0.058390 -0.157933 -0.210549 0.160473
we 0.357753 -0.181472 0.020980 0.020428 0.239182 -0.063602 0.068585 -0.002928 0.038512 0.169289 0.111962 -0.170064 0.015600 -0.011063 0.405917 0.184067 0.074109 0.377046 -0.182385 -0.411603 0.140237 0.149660 -0.154726 -0.292388 -0.049179 -0.217398 -0.140948 0.103998 -0.076828 0.117836 -0.310211 0.149127 -0.231956 -0.229954 0.358690 0.083043 0.187665 0.082838 -0.021876 0.292251 -0.050261 0.025011 0.046745 0.056423 -0.101032 0.250676 0.090220 0.313237 0.170982 -0.256861 0.056700 0.226433 -0.181280 -0.118073 -0.000508 0.038607 -0.282748 -0.145004 -0.073742 -0.058840 -0.285242 0.100873 0.247743 0.152181 -0.120973 0.296491 -0.432208 -0.077572 0.167743 0.048045 -0.109080 -0.182876 0.053274 -0.036427 -0.255869 -0.193277 0.083674 0.000384 0.012173 0.257323 -0.111650 -0.162028 -0.250198 -0.318517 -0.082604 -0.073404 0.136857 -0.198349 -0.015485 0.120746 0.025060 -0.038105 0.043904 0.290104 0.071070 -0.138009 0.024168 0.152112 0.074667 -0.261598 0.182681 0.002739 0.021882 -0.362328 0.182480 0.142297 -0.235455 -0.143493 0.253155 -0.078907 0.105800 0.340406 0.103658 0.022721 0.089929 0.105743 0.152985 0.172186 -0.038601 0.049782 0.184420 -0.236454 0.303536 0.268434 -0.044763 0.108762 0.054975 -0.045653 0.163772 -0.105179 0.003278 -0.078739 -0.221705 -0.108355 -0.288900 0.305744 -0.007447 0.032074 -0.045232 -0.066810 -0.098005 0.254045 0.141937 -0.117036 -0.223168 -0.199490 0.120649 0.083975 -0.271067 0.089653 -0.166694 -0.258264 -0.202116 0.374659 -0.286220 0.016623 0.105926 0.013623 -0.033357 0.027365 -0.004008 0.144428 0.055007 -0.021123 -0.201786 0.023878 -0.270064 0.069299 -0.027869 0.105808 0.089375 0.051355 -0.396758 0.017257 -0.131346 -0.103725 -0.038824 -0.144004 0.029096 0.034969 -0.149248 0.143960 -0.121092 0.026559 -0.186266 -0.141065 0.074048 0.337385 0.118891 0.232177 0.016141 0.352161 0.010630 0.040479 -0.203181 -0.231551 0.071377 -0.045251 0.117017 -0.017848 -0.103132 0.093703 0.129574 0.178789 -0.050314 -0.300329 0.318567 0.200703 -0.080646 0.020444 0.209933 -0.282924 -0.271580 -0.033108 -0.007965 -0.179653 -0.007847 -0.046039 -0.052331 0.236950 -0.127053 0.216732 -0.002106 0.397334 0.151789 0.403341 -0.440104 -0.189570 -0.037871 -0.190525 -0.141485 0.097181 0.272889 -0.048316 0.083827 0.052635 -0.091933 -0.047266 0.153605 -0.169500 -0.386080 0.022678 0.057816 -0.210611 0.081571 0.364573 0.472583 0.147950 0.060477 -0.103304 -0.287950 0.090289 -0.371607 0.203514 0.168109 -0.235218
have 0.138372 0.058762 0.013839 -0.171705 -0.025899 -0.085396 0.167760 0.049779 -0.023088 0.086383 0.017285 -0.018681 0.029190 0.164753 0.109208 0.180290 -0.048610 0.353062 -0.214154 0.280426 -0.180940 -0.052212 -0.278661 -0.150028 0.214309 0.073184 -0.185312 0.170135 0.100792 -0.100566 0.135252 -0.169980 -0.094121 -0.065970 0.129777 -0.426493 -0.331661 -0.044482 0.145534 -0.148730 0.059076 -0.054294 -0.075862 0.143699 -0.044848 0.213216 0.345277 -0.002805 -0.125816 0.241711 0.309966 -0.067613 0.140122 -0.018300 0.118373 -0.034757 0.015459 0.042053 0.313759 -0.264602 0.189575 0.080242 -0.202990 0.182566 0.142656 0.303954 0.152489 0.035234 -0.217998 0.014106 -0.269266 0.071124 0.047766 0.080883 0.006746 -0.037810 -0.243972 -0.051246 0.044599 -0.203276 -0.038514 -0.099046 0.089949 0.215580 0.020271 -0.343879 0.066659 -0.166352 -0.221568 0.062502 -0.335638 0.098655 -0.246407 -0.269012 -0.041650 0.424092 -0.065630 -0.043900 0.055889 0.060694 0.081318 0.323778 -0.264797 -0.178181 0.229261 0.076834 -0.029475 0.099251 -0.031447 -0.060681 0.368578 0.059906 -0.280076 0.066569 0.279534 -0.013833 -0.168418 -0.049951 -0.241650 0.130392 0.076964 0.254457 0.093493 -0.050705 -0.191161 -0.425740 -0.136963 -0.254526 -0.038229 -0.068112 0.195000 0.011760 -0.166063 0.296269 -0.002219 -0.212146 0.158039 -0.064204 0.234442 0.285663 -0.045562 0.096710 -0.398495 0.124887 0.217746 0.212322 0.038180 -0.157769 -0.076684 0.260889 0.012100 0.037537 -0.002626 -0.028250 -0.067587 0.370494 -0.115198 -0.252648 -0.119254 -0.139279 0.035281 0.128409 -0.042759 0.019608 -0.046890 -0.078675 -0.171822 0.204339 -0.116274 -0.018264 -0.328004 0.089723 0.106158 0.092669 -0.118383 -0.071048 -0.028886 0.113030 0.449167 -0.029560 -0.274245 -0.207339 -0.115497 -0.130532 -0.090710 0.095839 -0.111145 0.263743 0.299589 0.019632 -0.000196 -0.237251 -0.002817 0.157766 0.181189 0.221098 0.323502 -0.228151 0.049930 -0.385065 -0.263093 0.070365 -0.327452 -0.288870 0.049838 0.118421 0.243620 -0.154118 0.283444 -0.041189 -0.066429 0.007452 0.035948 0.060453 -0.014936 0.080038 0.189788 0.005364 0.239010 0.086574 -0.108924 -0.203273 0.179200 0.035385 0.034906 -0.013701 0.211687 -0.178952 0.116365 -0.300574 0.111335 0.115538 -0.108670 -0.212788 -0.180358 0.152308 0.036913 -0.134590 -0.044405 -0.276655 -0.003384 -0.068830 -0.085126 -0.118153 -0.040310 0.071198 -0.174947 -0.115659 -0.246432 -0.155485 -0.179516 0.072931 -0.184322 0.066009 0.074788 -0.213622
it 0.303832 -0.002101 -0.064268 0.215725 0.117623 0.203417 -0.083687 0.186238 -0.097506 0.125092 0.056141 0.134332 -0.100747 -0.242175 0.030481 -0.254848 0.125385 0.193090 0.074177 -0.166439 0.116560 -0.030815 -0.016606 0.039584 0.034540 -0.320840 -0.193989 0.001750 -0.203346 -0.122888 -0.026099 0.068297 -0.335642 0.009177 0.355724 -0.318403 -0.025741 -0.081188 0.000596 0.025686 -0.007269 0.059202 0.041297 0.041745 -0.099176 -0.177260 0.003718 0.071413 -0.058690 -0.016395 0.142387 0.256638 0.030803 0.077740 -0.134969 -0.079560 -0.219235 0.091017 -0.122052 0.118166 0.099752 -0.066067 -0.282197 0.289381 -0.086351 -0.068604 -0.245201 0.257939 0.147102 -0.145720 0.149165 0.408551 -0.002442 0.182166 0.179335 0.367468 0.086122 0.032593 -0.122438 0.233361 0.280307 -0.245165 -0.251741 0.025107 0.198094 0.173642 0.040231 0.286039 -0.098613 0.142426 0.005486 -0.119960 -0.014032 -0.138878 0.192276 -0.053837 -0.077761 0.163258 -0.133696 0.165671 -0.102961 0.140688 0.121536 -0.091020 -0.056618 0.061282 -0.252179 0.123519 0.169291 0.116503 0.243130 0.275293 -0.022955 0.030625 0.141180 0.013137 -0.187449 0.189624 -0.104793 -0.136966 0.038268 -0.081059 0.245540 0.052119 -0.022763 0.055098 0.080233 0.158472 0.233325 -0.294180 -0.085886 -0.063246 0.256430 0.095034 -0.123302 0.039395 0.190469 -0.001810 -0.136472 -0.305001 0.091777 -0.291067 -0.025721 -0.271211 0.075431 0.049142 0.036039 0.116110 -0.240644 -0.166325 -0.176618 -0.111120 -0.208901 0.126842 -0.098705 0.129839 -0.039704 0.186512 0.117949 0.183995 -0.148877 -0.103783 -0.018628 0.045328 -0.039612 0.317727 0.359224 0.209606 0.085920 0.071221 0.089149 -0.075381 0.023467 0.103029 -0.214893 -0.054016 0.002795 -0.089181 -0.183652 -0.032179 -0.075794 0.039827 0.157574 -0.178619 -0.325876 0.205103 0.205022 0.000731 -0.117697 0.164742 0.118111 -0.097314 0.267786 -0.272551 -0.082995 0.039045 -0.137460 0.304250 0.076621 0.111280 -0.139424 -0.091544 -0.096627 0.077165 -0.260063 -0.202428 0.172022 -0.072411 0.069824 0.076024 0.247468 -0.132447 0.218011 -0.021331 -0.067398 0.038368 0.050250 0.203919 0.229598 0.152070 0.138584 0.008583 0.062881 0.172866 0.167937 0.105684 -0.075466 -0.080750 -0.132832 0.175242 0.187572 0.063706 -0.262550 0.025364 -0.153556 -0.097627 -0.129093 -0.218296 0.044800 0.058712 -0.094147 0.123031 -0.048531 0.191193 0.054394 0.007021 0.253991 -0.281169 0.103195 0.194853 0.024100 0.083615 -0.365841 0.009716 -0.052897 0.063876
not 0.275215 -0.199201 -0.279320 -0.089562 0.116433 -0.032784 0.049354 -0.082276 0.035032 -0.091269 0.099798 -0.147015 -0.216650 0.162767 0.185171 0.011672 0.115591 0.115132 0.137371 0.073663 -0.081434 -0.030078 -0.276438 0.195059 -0.078271 -0.249247 0.242559 0.143488 0.168412 -0.163913 0.192799 0.122126 -0.539080 -0.144269 -0.049915 -0.083011 0.030970 -0.141127 -0.381965 -0.032604 -0.207645 -0.170956 -0.079817 -0.122848 -0.014531 -0.000558 -0.088188 -0.074494 0.180313 -0.265491 -0.051993 0.004226 -0.350980 -0.185709 -0.253963 -0.163733 0.221141 0.183016 0.092294 0.201227 0.290910 0.358274 -0.149538 0.044707 0.007518 -0.111755 0.086302 0.177485 0.259678 0.085630 -0.269309 -0.183348 -0.072364 0.115223 -0.329572 0.080342 -0.080420 -0.231010 0.158462 0.082829 0.286769 0.146158 -0.134535 -0.381093 0.162404 -0.229172 -0.131562 0.146781 -0.194685 -0.288390 -0.288424 -0.082416 0.136808 -0.342755 -0.387043 -0.070016 0.125772 0.388819 -0.250112 -0.030309 -0.036142 -0.088273 -0.100741 0.225797 0.058905 -0.006100 -0.142398 -0.226785 0.013350 -0.137760 0.079772 0.185063 0.096438 0.047001 0.061300 0.191444 0.480726 -0.211976 0.001834 0.303770 0.030917 0.089687 0.436789 -0.196800 -0.107606 -0.231051 0.074405 0.115057 0.313717 -0.027734 -0.307076 -0.003754 -0.014210 0.015861 -0.160715 0.042728 0.525270 -0.154951 0.030743 0.214116 0.241267 0.234351 0.227770 0.165581 -0.173816 -0.017001 0.005535 0.286926 0.076914 0.016401 0.180642 -0.235061 -0.092765 0.335206 0.042884 -0.199991 -0.025543 -0.295508 0.421621 0.328854 0.038161 -0.311700 -0.060758 0.217500 0.034340 0.159350 -0.007868 0.272728 -0.167237 0.153409 -0.140357 0.139121 0.057190 -0.161721 0.192861 -0.211528 -0.210123 -0.293357 -0.529337 -0.127112 -0.018510 -0.083491 0.008075 -0.046839 0.216601 0.263614 -0.211434 -0.046923 0.209055 0.164691 -0.161357 0.401486 0.018582 0.323783 0.120505 0.034368 -0.032341 0.164793 -0.020533 -0.335677 0.058547 -0.242781 0.098682 -0.152778 -0.409930 -0.024477 0.158785 0.546973 -0.042486 -0.010168 -0.159637 -0.069390 -0.180626 0.044956 -0.212644 0.042619 -0.360545 -0.264692 -0.318969 -0.186025 -0.052853 0.226350 0.083632 -0.173426 0.319430 -0.325594 0.138717 -0.238942 -0.158852 -0.052036 -0.066258 -0.133196 -0.063581 -0.044947 -0.207546 -0.137670 -0.001231 -0.107075 -0.120741 0.208996 0.019167 0.143814 -0.076580 0.077707 -0.023287 0.098454 -0.009616 -0.162704 0.062794 0.134982 0.035575 -0.108503 0.049335 0.078858 0.142330 -0.172012
you -0.002793 0.122114 -0.130959 -0.281167 -0.074548 0.006701 0.295642 -0.351639 -0.032038 -0.091438 0.138835 -0.021875 -0.292802 0.165202 0.279561 -0.099396 0.136046 0.218286 -0.437071 -0.072745 -0.078456 0.122963 0.257648 0.082966 -0.125325 0.052123 -0.118000 -0.034546 -0.288618 0.050667 -0.346295 0.259336 -0.094758 -0.071171 0.244448 -0.296927 -0.163628 0.299030 0.158869 0.298216 -0.264879 -0.062469 -0.062498 -0.240985 -0.133761 -0.104576 0.472237 -0.087432 0.161455 -0.086824 0.195652 0.016271 0.072205 -0.014879 -0.317975 -0.067785 0.035744 -0.092605 -0.052263 0.039699 -0.258196 -0.223581 -0.276542 0.201111 -0.018046 -0.225996 -0.029150 0.044871 0.268559 0.216285 -0.254826 -0.006993 -0.050149 -0.006284 -0.113058 -0.108455 0.050155 0.164301 -0.115484 -0.003955 0.024910 -0.277528 0.064061 0.268381 0.166633 -0.104826 0.183115 0.257534 -0.009560 0.213919 0.010481 0.015439 -0.148281 0.206965 0.164081 -0.244983 0.101619 -0.160320 0.051157 -0.092304 0.084731 0.045873 -0.427658 0.040073 0.040302 -0.219484 0.163305 -0.052391 0.099966 0.072334 0.322264 -0.155566 -0.043058 -0.023034 -0.130201 0.130945 -0.085020 0.322841 0.225762 0.019313 0.165532 -0.392158 -0.235601 -0.004312 0.108520 0.416030 0.130717 -0.124981 0.082250 -0.089439 0.001654 -0.199288 0.156208 0.273258 0.044986 0.007697 0.157112 0.260821 -0.226588 -0.011687 -0.214515 0.198714 0.063025 -0.441859 -0.088965 -0.053800 0.124571 0.011929 -0.307228 0.034268 0.255365 -0.054151 0.069577 0.088779 0.103178 0.084595 0.012421 0.171357 0.156333 0.077230 -0.114420 0.211200 -0.323978 -0.230452 -0.206831 0.335797 0.060010 0.011184 -0.015971 -0.206212 -0.185642 0.141440 -0.032911 -0.074289 0.369057 -0.227307 -0.035326 -0.292178 0.018581 0.171923 -0.228986 0.008211 -0.288360 0.167758 -0.043139 0.102278 0.084406 0.273923 0.335231 -0.120316 0.167300 -0.350680 0.102746 -0.025873 -0.052465 0.089459 0.287229 0.094846 -0.051782 -0.149472 -0.249549 -0.170418 -0.098649 0.261425 -0.036978 -0.038816 0.262114 -0.000156 0.048970 0.112482 0.074220 -0.214355 -0.003747 -0.255398 0.090800 -0.210572 -0.052913 0.051488 -0.064374 -0.160398 -0.342062 0.122886 0.130623 -0.020478 0.214893 -0.012318 -0.122824 -0.092006 0.180559 -0.112464 0.020626 -0.041714 0.027297 0.255301 -0.018274 -0.352973 0.005691 -0.255701 0.067983 -0.401134 -0.013337 0.245669 -0.237065 0.240926 0.103425 0.196056 0.056243 0.127596 0.141411 -0.186942 -0.040364 0.106602 -0.050326 0.430006 0.021172 -0.216925
by -0.114024 0.092613 -0.085349 0.099878 0.042846 -0.204181 0.027536 -0.170533 0.328068 -0.114027 -0.118957 0.108584 0.202283 0.054836 0.040730 0.152310 -0.141200 -0.236633 0.423810 -0.070364 -0.247868 0.060677 0.157574 -0.003023 0.175027 -0.207070 -0.241796 0.033683 -0.071490 -0.183678 0.025709 -0.132106 -0.173671 -0.148218 -0.093503 -0.143849 0.113463 -0.328474 0.034715 -0.062548 0.258410 0.046481 -0.003215 0.079621 0.259496 0.038649 0.036616 -0.172353 0.084898 -0.019512 -0.164693 0.113244 0.421637 -0.009616 -0.283336 -0.184648 0.255510 -0.075942 -0.137039 -0.017168 -0.125550 -0.037866 0.064625 0.143600 0.094169 0.170418 0.034932 0.101779 -0.046279 -0.185383 -0.151603 -0.159571 -0.384950 -0.122430 -0.142922 -0.026365 0.309637 -0.181305 -0.064543 -0.129234 -0.145239 0.067745 -0.137032 -0.079687 0.355430 0.152880 -0.026062 -0.130811 0.020736 0.150340 -0.127547 -0.028137 -0.090220 -0.028831 0.252757 0.283332 0.166504 0.247226 0.218695 -0.162520 0.210946 -0.267402 0.131040 -0.203050 0.088000 -0.115281 0.182136 0.221682 0.029020 -0.148324 -0.051194 -0.058217 0.007452 -0.077156 -0.111466 -0.179640 0.183797 0.115373 -0.004162 -0.245973 0.129619 -0.024586 -0.207822 -0.100892 -0.278029 -0.106320 -0.227657 -0.078195 -0.195210 0.035763 -0.033235 0.175926 0.164803 -0.098780 0.033039 -0.035145 -0.030028 -0.073849 -0.112850 0.123732 -0.203003 -0.289179 -0.279071 -0.023202 0.179025 -0.099262 -0.027229 0.014305 0.050423 -0.231897 0.092742 0.350900 0.042377 0.074053 0.085362 -0.039403 -0.014431 -0.124525 0.120024 0.035792 -0.085771 0.208856 -0.215716 -0.275612 -0.228278 0.097941 -0.057971 0.023683 -0.300168 -0.250648 -0.110581 -0.034279 -0.139984 -0.241077 -0.248738 0.320356 0.097702 -0.375628 -0.147754 -0.400529 0.198075 -0.012975 0.091056 -0.133022 0.112375 -0.133748 -0.058077 0.101350 0.075693 0.001040 0.011215 -0.000433 -0.062164 -0.053322 0.052093 -0.024796 0.141751 0.109854 0.044197 -0.459805 0.097747 -0.082877 0.106967 0.247778 0.192503 -0.182038 0.032530 -0.091367 0.072950 -0.087008 0.120065 0.061354 0.332879 -0.134963 0.059744 0.142882 -0.105778 0.289509 0.049384 0.116500 0.365571 -0.169659 -0.246142 -0.213932 -0.053530 0.011120 0.192845 0.258705 -0.204940 0.476555 -0.161795 0.408523 -0.086885 -0.455178 0.101153 0.297153 0.055036 -0.069759 0.177997 0.300624 0.010362 0.091728 -0.091607 0.145682 0.138827 -0.032674 0.114781 -0.218352 -0.043120 0.227765 -0.138118 -0.162081 -0.140141 -0.207864 -0.477969 -0.302798
will -0.060819 -0.007029 0.237604 0.103357 -0.016713 0.003965 0.106779 -0.085725 -0.109224 0.230985 -0.455407 0.310979 0.031329 -0.421882 0.041066 -0.211066 -0.004439 0.265508 0.015452 -0.319090 0.212517 0.205820 -0.177306 -0.203139 -0.137895 0.005836 0.132527 -0.296896 0.043189 0.017908 -0.159728 -0.101656 -0.004131 -0.206944 0.129810 0.271234 0.091186 0.097050 0.137956 0.142497 -0.078055 -0.094468 -0.022182 0.178389 0.067466 -0.256536 0.004031 0.065430 -0.037522 -0.042469 -0.078846 -0.246201 -0.062612 -0.039947 0.014835 0.363210 0.110979 0.097876 -0.161131 -0.005781 -0.372498 0.333858 -0.291742 -0.142807 0.158725 0.223753 -0.253180 0.047500 -0.274080 -0.456704 -0.155836 0.174762 0.236067 -0.402893 0.103427 -0.155059 -0.260189 0.393093 -0.020120 0.080814 0.101337 -0.176077 -0.130698 0.112040 0.196221 0.068686 -0.169407 -0.295684 0.111506 -0.229929 -0.254253 -0.099683 -0.242174 -0.188762 -0.211808 0.239173 -0.282171 0.104432 0.015307 -0.078645 0.006412 0.217685 -0.176665 0.101044 0.117737 -0.125574 -0.191159 -0.287702 0.141726 0.123736 0.190144 0.082278 0.044127 0.210561 0.057577 -0.152334 0.082361 0.186422 0.337192 0.150055 -0.063764 -0.047465 -0.073254 0.195955 0.033342 0.016282 0.107610 0.121872 0.108934 0.125522 0.323430 -0.343548 0.216015 -0.006623 0.080405 0.142347 0.056484 0.013852 0.000738 0.113927 -0.162643 0.146802 -0.039370 0.078111 0.009605 -0.291678 -0.152753 0.199558 -0.100131 -0.118679 0.027668 0.233188 -0.201011 0.141977 -0.142597 -0.205674 0.366866 -0.129935 -0.240173 -0.010423 0.103206 0.177167 0.209427 -0.034350 0.189773 0.134872 0.141683 -0.168389 -0.020873 -0.241844 -0.017039 0.198335 -0.189463 0.182289 0.009278 0.023773 0.025990 0.248581 -0.429342 -0.096175 0.139386 -0.054893 -0.099590 0.435112 -0.036512 0.031515 -0.230977 -0.012787 -0.056654 0.471311 -0.185441 -0.170143 -0.211742 -0.045629 -0.258237 -0.086306 -0.082695 -0.145688 -0.209068 -0.082291 0.003341 0.345420 -0.291832 -0.173054 -0.287537 0.036867 -0.052742 0.211972 -0.117252 0.380970 0.022405 0.087284 -0.019979 -0.071193 0.241508 0.192661 -0.203784 -0.235533 -0.137836 -0.012855 0.245488 0.054825 0.316169 -0.098565 -0.174305 0.202111 -0.107125 -0.113455 0.068499 0.254356 0.315917 0.087441 0.266070 0.058399 -0.249164 0.082886 0.052021 0.065024 0.232455 0.105819 -0.111007 0.151773 0.093238 -0.444125 -0.023435 -0.016934 -0.172300 -0.323880 -0.156723 -0.013844 0.179786 0.089502 -0.272171 -0.113142 0.562119 0.162770
from 0.004313 0.065512 0.126348 -0.026989 0.152646 0.059145 -0.100567 -0.154233 0.238673 0.102449 -0.028086 -0.238606 -0.056751 -0.290015 0.000504 0.090396 -0.060741 -0.107523 0.082829 -0.175835 0.052779 -0.222807 -0.236645 0.369927 0.249794 -0.115747 0.238563 -0.186452 0.161253 0.052530 0.312965 -0.002422 0.098868 0.059290 -0.364156 0.169777 -0.142284 0.129048 0.135819 0.041229 -0.171206 -0.131415 0.229079 0.352378 0.063227 0.190624 -0.306164 -0.297788 -0.094170 -0.085624 -0.158626 -0.082314 0.008158 0.211989 -0.117504 0.105936 0.107332 0.024525 -0.253618 -0.153201 -0.041708 0.159992 -0.029814 0.036151 0.099981 -0.320536 0.111791 0.093219 0.422066 0.101696 -0.141733 0.083030 0.108634 -0.078191 -0.066617 -0.098666 -0.152376 0.178030 -0.221321 -0.380945 -0.219067 -0.058042 -0.116214 -0.174226 0.100115 0.291501 -0.064276 0.053969 0.100577 0.323210 -0.058463 -0.306312 0.153439 -0.048243 0.233067 -0.160463 0.274030 0.014226 -0.018288 -0.181342 -0.071648 -0.090995 -0.045546 0.120583 -0.013795 -0.255351 -0.270242 0.147772 -0.238069 -0.470373 -0.508022 0.020315 0.058511 0.023751 -0.043311 -0.010456 0.438593 0.202263 -0.393360 0.271930 -0.080329 -0.235981 0.169615 0.012334 -0.075519 -0.024966 -0.108943 -0.130965 0.152085 0.106175 -0.137730 0.018372 -0.164277 0.023909 -0.035246 0.014225 0.028503 0.159342 0.262315 0.089624 0.063800 -0.079812 0.054885 0.020315 0.041480 0.085007 -0.198836 -0.107066 -0.298315 -0.086327 0.126843 -0.058789 0.102967 0.225305 0.079751 -0.156640 -0.267794 0.084160 -0.223525 0.123604 0.221488 0.124930 -0.043787 -0.061538 -0.134176 0.344115 0.003249 0.020798 -0.179688 -0.117246 0.059228 0.188244 0.343574 -0.116778 -0.054220 -0.027940 0.095552 -0.118654 0.003819 -0.114034 -0.193974 -0.023017 0.232398 -0.021951 0.247080 -0.014782 0.103532 -0.101316 0.141563 0.085108 -0.016834 -0.001262 -0.018188 -0.053808 -0.057442 0.214126 -0.044327 0.188539 0.229304 0.222755 0.045902 -0.107237 0.070326 -0.026050 -0.047086 -0.091574 -0.141171 -0.302861 -0.140843 -0.198155 0.062128 -0.202017 -0.130269 0.191350 0.253738 -0.148648 -0.340385 0.362872 0.211790 -0.021460 -0.049391 -0.339846 -0.111436 0.043643 0.202476 0.276666 -0.372100 -0.093669 0.055489 0.445908 0.000082 0.257591 -0.044680 0.033246 0.213836 0.246010 0.140975 -0.027646 0.114934 0.263658 0.128575 0.066525 -0.160184 -0.139973 0.072236 0.019725 0.032851 -0.118918 0.140832 0.156257 0.070271 -0.095571 0.181004 -0.267762 -0.324765 0.050511
which 0.092234 -0.285639 0.043453 0.377645 0.534308 -0.134908 0.253747 -0.101208 -0.113666 -0.005519 0.059654 -0.238643 -0.176285 -0.350687 0.294735 0.127209 -0.031881 0.129937 0.104524 -0.035842 0.159273 -0.231121 0.337330 -0.153691 0.226654 -0.265523 0.268332 -0.012678 0.016432 0.177303 0.127862 0.097598 0.069927 0.139330 0.216906 0.369510 0.429293 0.167881 -0.063789 -0.114862 -0.355431 -0.145256 0.129345 0.087265 -0.093913 -0.224835 -0.402719 -0.090333 0.094646 -0.195469 -0.050661 0.256309 0.001132 -0.468172 -0.109987 -0.076906 -0.344935 0.209861 0.039838 0.100632 -0.294729 0.016818 0.024450 -0.297472 -0.318537 -0.251545 0.054239 0.039256 0.334139 -0.250987 -0.160903 -0.115784 0.421126 -0.136874 -0.135467 -0.159165 0.187381 0.200529 0.218994 0.195737 -0.176404 -0.013432 0.053150 0.080586 0.003967 0.332712 0.434399 0.374988 0.150491 0.050397 0.095067 0.047426 0.251355 -0.160469 0.187775 0.108860 0.042700 0.283755 -0.221875 0.403291 0.030415 -0.353196 0.174570 -0.027064 0.005976 0.282225 -0.293897 -0.038379 -0.208274 0.011034 -0.111782 -0.158449 0.050191 -0.284080 0.247599 0.284078 0.080517 -0.010833 0.546192 0.086001 -0.192933 -0.411251 -0.165788 -0.243608 -0.112927 -0.245082 -0.321187 -0.016359 -0.146083 0.014981 -0.139198 0.148507 0.102601 -0.139450 -0.420179 0.118804 0.038145 0.037989 -0.162289 0.095700 0.152950 0.049741 0.260305 0.151876 -0.599908 0.126917 0.301257 -0.016116 -0.033296 0.163748 0.247244 0.164588 0.114518 -0.245858 0.008697 -0.032983 -0.220343 0.490022 0.259866 -0.099427 -0.207357 0.098442 -0.149092 -0.121527 0.042011 -0.011781 -0.270491 0.286868 0.298453 -0.033861 0.060093 -0.245362 -0.064744 0.018034 -0.322214 -0.111171 -0.034826 -0.392015 0.092927 -0.122174 0.255673 0.313336 -0.073412 -0.187374 -0.007342 -0.414507 0.059484 0.167963 -0.173798 -0.070801 0.054069 0.026331 0.137860 0.092875 -0.175142 0.165509 0.256986 -0.339251 0.110126 -0.270077 -0.078083 -0.169109 0.108002 -0.166496 -0.345264 -0.087962 0.026842 -0.240526 0.336329 0.190947 0.004247 -0.346396 -0.103972 -0.292479 -0.045982 -0.298491 0.151279 0.201111 0.121755 0.373705 -0.001577 -0.268479 0.073906 -0.007427 0.046155 -0.181234 0.051759 -0.032144 -0.028500 0.077323 0.124324 0.301735 -0.384830 -0.195749 0.296484 -0.060557 -0.259377 -0.006273 0.074671 0.255965 0.157325 0.121339 0.107171 0.008896 0.037554 -0.008993 -0.054626 -0.111907 0.205086 0.133989 0.152488 -0.377433 -0.324083 0.162494 -0.239333 0.127095
has 0.119389 -0.051423 -0.137860 -0.086523 -0.061432 0.416799 0.181430 0.190388 0.040914 0.129140 -0.094466 -0.197991 -0.141779 -0.070421 -0.289677 -0.085357 -0.005322 0.283883 0.167863 -0.247336 -0.285088 -0.184878 -0.170561 0.263330 0.194584 -0.173348 -0.042527 -0.034249 0.195511 -0.047886 -0.075824 -0.179541 -0.187395 -0.129304 -0.344899 -0.109330 -0.115226 -0.136953 0.093702 -0.264889 0.028082 0.167908 -0.245006 -0.056119 -0.034539 -0.116439 -0.144045 -0.023210 -0.099192 0.023211 0.124936 -0.259415 0.180497 0.410985 0.140349 -0.254836 -0.207509 0.214640 0.221548 -0.004695 -0.031524 0.037002 -0.379339 -0.063843 -0.121101 0.202826 0.143949 -0.132027 -0.118327 -0.124268 -0.107950 0.075596 0.003478 -0.001240 0.152747 0.324539 -0.216744 0.241311 -0.007691 0.132036 0.149390 0.258914 0.158060 -0.017413 0.139333 -0.110546 -0.055274 0.176687 0.201838 0.154451 -0.262815 0.325157 0.119334 -0.274501 0.161051 0.088124 -0.148891 -0.221170 -0.249130 -0.061530 0.146461 0.271376 -0.047556 -0.102207 0.083553 0.173659 0.081969 0.087207 0.015510 -0.076312 0.112975 -0.159784 -0.344205 0.238633 0.046077 -0.033521 -0.180449 -0.012343 -0.478100 0.137910 0.097190 0.295519 0.017643 0.138391 0.091070 0.140901 -0.035634 -0.172108 0.095341 -0.012905 0.255774 0.107601 0.081423 0.233600 -0.219544 0.325740 -0.103422 -0.182000 -0.149298 0.265998 -0.160022 0.064630 -0.178666 -0.169136 -0.074491 0.125737 0.016257 -0.066857 -0.061357 -0.091192 0.227435 0.471159 -0.173895 -0.041686 0.035106 0.101501 -0.116526 -0.111773 -0.002061 -0.139151 0.096424 0.225111 0.092931 0.030813 0.151152 -0.123693 -0.100828 0.300309 0.174674 0.001585 -0.030171 0.076905 -0.409035 0.262851 -0.040850 0.110572 0.061651 0.067283 -0.004517 0.242834 -0.355784 -0.081396 -0.109255 -0.053261 -0.169219 0.038713 0.111391 0.040309 -0.141168 0.339833 -0.162914 -0.359743 -0.383892 0.240028 0.080706 0.130757 0.494810 0.147446 -0.069401 -0.326644 -0.356315 0.073096 -0.158482 -0.225115 -0.062813 0.052623 0.284047 0.094560 0.138070 0.041375 0.322530 0.061006 -0.095615 0.079715 -0.286568 0.208163 0.305670 0.108887 -0.039121 0.067159 0.245579 -0.151590 0.173780 -0.035817 -0.213063 0.013675 -0.081742 -0.041254 -0.232813 -0.131364 0.328115 0.037211 -0.370868 0.025483 -0.184301 -0.283237 0.202353 0.144927 0.053961 -0.144357 0.141896 0.037528 0.200266 0.180615 0.217579 -0.025648 0.011668 -0.039668 -0.170222 0.017491 0.259812 0.041106 0.295138 0.364036 0.501645 0.162830
at -0.006211 0.307789 -0.120534 -0.428490 -0.244165 0.033913 -0.048039 -0.095939 0.275726 0.022002 0.113401 -0.045159 0.231794 0.028195 -0.068219 -0.083270 0.080903 -0.191878 0.171312 -0.101915 0.048710 -0.110720 0.334720 -0.049540 -0.131360 0.068455 0.141441 0.143880 0.114098 0.022402 0.001363 0.060316 -0.017691 0.067271 -0.001985 -0.011596 0.161470 0.186831 -0.150045 -0.144719 0.023083 0.058905 -0.028880 -0.043105 0.101904 0.161511 -0.385857 -0.080397 -0.024320 -0.047272 -0.037424 0.091975 -0.306830 0.052055 0.342320 0.074363 -0.252362 -0.154245 0.072155 0.412303 0.413403 0.112335 0.219429 0.199119 0.342376 -0.039495 0.390233 0.072501 0.127959 0.183090 -0.163271 0.349846 0.073525 -0.152564 -0.066671 -0.185680 0.123365 -0.111335 0.117890 -0.078075 0.033327 0.033161 0.158099 0.318272 -0.280615 -0.016593 0.058136 0.206472 -0.212649 0.109858 0.215311 -0.245364 -0.238153 0.060267 -0.163356 -0.113212 0.001919 -0.074583 0.209800 0.005119 -0.152041 -0.224630 -0.302383 0.013549 -0.014801 -0.283680 0.114352 0.081052 -0.104575 0.330300 0.004045 0.167950 0.064842 0.159205 -0.242836 0.376109 0.022671 -0.016377 0.080025 0.053474 -0.025054 0.207851 -0.048489 0.072283 -0.014935 -0.031532 0.376115 -0.222182 0.093715 -0.042098 -0.291992 -0.012760 -0.217992 0.204759 0.294734 -0.058739 0.062663 -0.046812 0.045399 0.046897 0.356859 -0.290816 0.024943 0.260268 0.048529 -0.136158 -0.100667 -0.038572 0.213112 -0.079233 -0.041754 0.003204 0.065706 0.364235 0.057129 -0.288620 0.245932 -0.200437 -0.174597 -0.002683 -0.258455 0.298863 -0.085965 -0.294366 0.216754 0.100349 -0.176762 0.091179 -0.094199 0.118094 0.009098 0.436219 0.065476 0.099212 -0.112730 -0.080573 0.142674 0.007382 0.150686 -0.139605 0.075971 -0.150121 0.018923 0.333230 0.097209 0.057875 0.004260 0.066601 0.137766 -0.292447 -0.200704 -0.119215 -0.067241 -0.032710 -0.403736 -0.071876 0.126075 0.057440 -0.054286 -0.095479 0.088422 0.424530 -0.052702 0.115427 0.130001 -0.013421 0.083531 -0.079862 -0.041541 0.094902 0.099435 -0.062857 0.204914 0.097293 0.065616 -0.140975 0.034901 0.045531 0.123017 0.040197 -0.027819 -0.138593 0.117923 -0.234736 0.170333 0.060031 -0.354683 -0.055629 -0.070018 -0.074878 -0.026629 -0.019696 0.048155 -0.081172 0.011376 0.240110 0.106947 -0.057989 0.314464 -0.074094 -0.070798 -0.117144 0.207263 -0.007219 -0.114014 -0.248724 0.120486 0.060164 0.018155 0.043235 -0.215752 0.256854 -0.075757 -0.394621 -0.267309 -0.085523
an -0.052662 -0.037170 0.087069 0.138090 0.136970 0.048232 0.199953 0.156413 0.128649 0.351848 0.231511 0.200324 -0.176456 -0.242235 -0.111139 -0.114049 -0.004081 -0.070425 0.076205 -0.032075 -0.036249 -0.391438 -0.087794 -0.166410 -0.127474 -0.482968 0.010885 0.285841 -0.245932 0.213621 0.074356 -0.149201 0.055908 -0.017278 0.338586 -0.186687 0.018852 -0.260889 0.007127 0.040359 -0.109153 -0.129727 0.034910 -0.120112 -0.195631 0.188249 -0.180163 0.133172 -0.117439 0.115934 -0.078808 0.135889 0.145625 -0.048841 0.018012 0.184058 -0.144273 0.018314 0.020726 -0.083305 -0.211863 0.035033 0.045390 -0.151221 -0.057791 -0.077702 0.057936 0.120622 0.037782 0.230712 0.217821 0.026973 -0.451932 -0.015261 -0.266706 -0.097733 0.000509 -0.385328 0.010220 0.017960 -0.052234 0.023839 -0.079859 0.215048 -0.115161 0.143554 0.247992 0.146706 0.243562 -0.124552 0.275795 0.379648 -0.018421 -0.049118 -0.177453 0.109682 0.025628 0.100331 0.035978 -0.050393 -0.352784 0.173102 -0.124898 0.081427 0.170044 0.180630 0.059126 -0.098266 -0.126133 0.033116 -0.143996 -0.003848 -0.005379 -0.032056 -0.140375 -0.040391 0.029791 -0.107718 0.079184 -0.282299 0.004177 -0.357923 -0.062841 -0.085240 0.069569 -0.172652 0.160391 -0.281863 0.432342 -0.071000 -0.184506 -0.112076 -0.059430 0.113745 -0.090181 0.025513 0.266781 0.316425 -0.385964 -0.233364 -0.258432 0.123742 0.100063 0.146969 0.066256 0.266307 -0.042903 0.043777 0.208934 0.168028 0.187074 0.242746 0.120128 -0.310467 0.252636 -0.194424 0.054728 0.185499 -0.298635 -0.155537 -0.241976 0.077291 0.018612 0.183013 0.214445 -0.132652 0.001953 0.090263 -0.231674 0.193252 -0.218880 -0.065544 -0.011399 -0.201775 -0.221427 -0.102683 -0.001679 0.033554 0.537104 0.260007 0.121326 0.032324 0.007671 -0.177785 -0.212234 -0.095267 -0.016248 -0.195044 0.279012 0.036551 0.054315 -0.098462 -0.208444 0.006036 0.105944 -0.179376 -0.019078 0.004294 0.140942 0.133349 -0.076283 0.303981 -0.092377 0.124814 0.282998 -0.152186 -0.009239 -0.203130 -0.139353 0.014953 0.296125 0.159994 -0.111847 0.288999 -0.241968 0.274189 -0.036303 -0.128660 -0.054338 0.373917 -0.199921 0.037303 0.240959 -0.123371 0.006055 -0.102721 0.035134 -0.221628 0.263088 -0.112506 -0.006776 0.029711 -0.166379 -0.266421 -0.051209 0.262827 0.172308 -0.018246 -0.047459 0.319709 -0.247586 -0.192522 -0.076152 -0.073459 0.320203 0.140357 0.227457 -0.131968 0.061418 0.203715 0.135547 -0.076804 -0.083999 0.169723 0.141469 -0.271853
or -0.367868 0.141192 0.199264 -0.038821 -0.178624 0.106451 0.037046 -0.183268 -0.254685 0.013118 -0.136220 0.199109 0.267507 -0.214003 0.152605 0.092636 -0.121884 0.157058 -0.068370 -0.077879 0.288252 -0.326467 -0.277851 0.232020 0.079323 0.182483 0.115098 0.239093 0.075814 0.132590 -0.126118 -0.562833 0.199816 -0.469921 -0.302241 -0.145309 -0.100684 0.053777 -0.035360 -0.317725 0.096471 0.014874 0.119159 -0.132282 -0.022874 0.368610 0.011338 -0.336436 -0.016931 0.101571 0.017651 -0.078549 0.239985 -0.340108 -0.101761 0.209954 0.009785 0.244115 -0.021536 -0.147199 0.314357 -0.441577 0.065420 0.179996 -0.216828 -0.164681 -0.040291 -0.021378 -0.042576 -0.210203 -0.177576 -0.203558 -0.430650 -0.043624 0.265693 -0.376361 0.078915 0.197141 -0.095435 0.146527 -0.425860 0.485562 -0.067633 0.081745 0.090844 0.100799 0.310020 0.178200 -0.243885 0.187904 -0.023858 0.147315 0.024131 -0.314502 -0.391028 -0.038117 0.310389 0.291355 0.304361 0.268373 0.198146 -0.280093 0.250921 -0.194593 -0.211439 0.087889 -0.055955 0.490596 -0.160150 0.012620 0.058851 -0.205040 -0.004821 -0.180309 0.070105 0.009912 -0.181157 -0.178383 -0.284887 0.287189 -0.006533 0.401146 -0.161891 -0.036582 -0.015725 -0.144913 -0.248680 0.051054 0.140390 -0.020617 -0.213156 0.122533 -0.128395 0.263504 0.217535 -0.046835 0.049259 0.493731 0.069335 -0.068864 0.192763 0.067197 0.044011 -0.341879 0.029780 -0.181712 0.059833 0.008592 -0.060800 -0.013422 -0.249297 0.163025 -0.245904 -0.268740 0.019439 0.132162 -0.036423 -0.064766 0.152666 -0.274428 0.060672 -0.038951 0.125070 -0.087849 0.080590 0.209714 0.120531 0.436092 0.021046 -0.216545 0.188786 0.345376 -0.002203 -0.120990 -0.239721 -0.200243 -0.063499 0.053985 0.130244 0.239180 0.167210 0.339037 -0.274317 -0.125278 0.254258 -0.051023 -0.103392 -0.176368 0.124583 0.140167 0.089851 -0.287289 0.022794 -0.181009 0.053799 0.150771 0.068228 0.199085 0.044293 -0.286635 0.150999 -0.129019 0.264651 0.171052 -0.108920 -0.053329 0.002820 0.076196 0.131557 0.120075 -0.273842 -0.027473 0.136661 0.260441 -0.292216 0.069321 -0.184222 0.126824 -0.147886 -0.027495 0.123768 0.053903 -0.365995 -0.132679 0.195120 0.273037 -0.055473 -0.240529 -0.205120 -0.003267 0.160397 0.004434 0.005726 -0.256523 0.230811 0.061667 0.338752 -0.179310 0.033958 -0.022430 -0.076113 -0.131351 0.128728 -0.126609 0.089234 0.158530 -0.186992 0.065045 -0.054782 -0.205205 -0.069564 0.224526 -0.133129 0.391497 -0.084271 0.189976
- 0.168794 -0.125969 0.061619 -0.124201 -0.023657 -0.048078 0.004598 -0.274289 0.125422 0.382301 -0.248029 0.220307 -0.143626 0.040251 0.164721 -0.088440 -0.378703 0.269148 0.116457 0.076824 -0.022805 -0.045242 0.102028 0.336467 -0.171975 0.119051 -0.256305 -0.106175 -0.101046 -0.268126 -0.241713 0.098601 0.172266 -0.478313 -0.351540 0.074731 0.050543 0.173398 0.260787 0.077869 0.047711 -0.038530 0.003929 -0.234417 -0.099768 -0.184452 0.162286 -0.195552 0.387545 0.050378 -0.336851 0.317850 0.431309 -0.154704 0.183828 -0.129562 -0.202874 0.000556 -0.012568 -0.287231 0.038768 -0.194416 0.040719 -0.125531 -0.021687 -0.313270 -0.127664 0.043520 -0.185211 -0.095248 0.094585 -0.118811 0.068447 -0.227873 -0.243110 -0.355667 -0.253350 0.111112 0.126918 0.335138 -0.064253 0.239577 -0.105944 -0.062687 0.215413 0.109719 0.267626 0.029917 -0.161604 -0.035558 -0.021211 -0.075376 0.158877 -0.109907 0.077994 0.099368 0.026871 0.383367 0.157458 0.105531 0.158680 0.004570 -0.095706 -0.184690 -0.234079 0.318908 0.014961 0.203391 -0.010399 0.052107 -0.122700 0.186410 -0.256362 -0.308619 -0.036087 0.208428 -0.110378 -0.001665 -0.018675 0.009970 -0.208268 -0.142323 -0.142883 -0.105891 0.023802 -0.123888 -0.048788 -0.285281 -0.313329 0.041419 0.162433 -0.152087 -0.339641 -0.101651 -0.096382 -0.138413 0.144032 0.071573 0.224209 -0.096470 0.103964 -0.150012 -0.299287 -0.043332 0.207281 -0.017017 -0.262804 -0.028170 -0.030736 0.012528 -0.161104 -0.007792 -0.099538 0.053120 -0.322880 0.197250 0.036281 -0.140867 0.190277 -0.039930 0.092418 0.065077 0.185262 0.249442 -0.044092 0.395625 0.106739 0.108404 0.186506 -0.330226 0.189833 -0.139292 0.103171 0.305826 0.304196 0.158600 -0.341522 0.211791 -0.085125 0.083739 -0.044843 -0.172449 0.038445 -0.223729 -0.247643 0.002138 -0.322379 0.008014 0.106880 0.015797 0.090876 -0.038572 0.076437 -0.069238 0.172729 -0.217950 0.126216 0.268935 -0.014922 0.074309 0.181720 -0.515139 -0.125403 0.003792 -0.099121 -0.012241 -0.074799 0.090809 0.043948 -0.108624 -0.338199 0.057886 0.031490 0.042403 -0.142688 0.051096 -0.095027 0.110836 0.113576 0.134974 -0.053882 -0.144962 0.229292 0.063844 -0.284961 0.205896 -0.029699 0.277978 -0.112635 -0.258816 -0.025718 -0.212989 -0.106093 -0.036827 -0.093118 -0.254560 0.043974 0.074012 0.392596 0.157061 -0.209441 -0.099945 0.051581 -0.168688 0.218453 0.121983 -0.077029 0.029551 -0.250120 -0.298074 -0.325536 0.515974 -0.177493 0.274385 -0.050334 -0.162542
can -0.132597 -0.190605 -0.164819 -0.103097 -0.231702 0.033049 -0.005610 -0.200629 -0.026202 0.098692 -0.152670 0.099610 -0.025915 0.005592 0.000894 0.088676 -0.308478 0.203102 0.254458 0.030345 0.194986 0.217661 0.191812 0.082405 -0.126352 -0.139704 0.001090 -0.020774 -0.226963 0.112760 -0.203958 -0.074222 0.040577 -0.233565 -0.011359 0.109466 -0.019091 0.229670 -0.262861 -0.411195 0.069959 0.087063 -0.094426 0.091990 0.093330 -0.103686 -0.086256 -0.589874 0.067561 0.172593 -0.085881 -0.013457 0.142746 0.079896 0.047861 -0.026891 -0.072092 0.228939 0.074645 0.168294 -0.405151 -0.031323 -0.272791 -0.220542 0.167793 0.099538 0.136963 -0.090070 -0.451588 -0.248103 0.000154 0.087797 0.137226 0.188521 0.500202 -0.069081 0.090759 0.183229 0.167140 0.183137 0.056658 0.159875 0.049551 -0.005485 -0.084518 0.145431 0.270927 -0.033430 -0.087523 -0.076529 0.002304 -0.006806 -0.009416 -0.365685 -0.317296 0.147687 0.027451 -0.125141 0.057098 -0.030839 0.160107 0.033171 -0.085978 -0.112165 -0.018947 -0.113731 0.112471 0.199579 -0.044570 -0.137601 -0.083300 -0.038227 -0.203766 0.080791 -0.115759 0.053447 -0.363893 -0.246253 -0.233997 0.226294 0.031990 -0.090245 -0.045177 0.340812 0.170017 -0.275179 0.099295 -0.082411 0.130904 -0.245880 0.163126 0.088511 0.146623 0.048910 -0.004582 0.216489 0.302329 0.099332 0.201991 0.230291 -0.287867 0.056565 -0.032426 -0.179753 0.015764 -0.251849 0.022840 0.158718 -0.218626 -0.275955 -0.017214 0.219201 -0.273599 -0.053179 -0.209117 -0.393277 0.091939 0.020002 0.158353 -0.368470 0.094768 -0.025234 -0.162346 0.033327 -0.118750 0.177067 0.232965 0.238541 0.177273 -0.180327 0.182758 -0.049772 -0.158984 0.147891 0.077313 -0.265805 0.091446 -0.117981 0.183904 -0.100231 -0.017835 -0.290550 -0.283620 -0.007336 -0.323295 0.191426 -0.062515 0.048033 0.034661 -0.203714 0.146545 -0.135143 0.275468 -0.084573 -0.156611 -0.221728 -0.099091 0.380992 -0.495796 -0.251790 0.092330 0.107814 -0.376508 0.200018 0.019143 0.044624 0.149666 0.413471 -0.058032 0.030984 0.149263 0.215757 -0.070214 0.023316 -0.076249 -0.133034 0.130924 -0.243554 0.302359 0.127112 -0.087948 0.013586 0.400942 -0.134385 -0.111951 0.067691 -0.305110 -0.061550 0.017347 -0.399264 0.170024 -0.051317 -0.161549 0.372948 -0.002722 -0.187403 -0.135826 0.291687 0.127613 -0.084107 -0.027466 0.156244 0.340636 0.271719 0.171662 0.054969 -0.310706 0.148293 -0.298862 0.124776 -0.074653 0.081637 -0.035808 0.378166 0.176001 0.129058
our -0.193929 -0.008917 -0.298354 -0.090486 0.166493 -0.064455 0.059295 -0.129816 0.137218 -0.076900 0.246634 0.112493 -0.175931 0.257032 0.192882 -0.117970 0.047881 -0.024220 0.096390 -0.339138 -0.177797 0.061727 -0.412070 0.001294 0.011778 0.438039 -0.000352 0.213876 -0.040722 -0.007091 -0.017003 -0.115053 -0.118496 0.051883 0.267720 -0.024157 -0.039445 -0.026229 -0.135744 0.135380 -0.059864 -0.273532 0.046376 0.004350 -0.049703 0.155313 0.004180 0.186659 -0.037196 -0.384635 0.069922 0.121429 -0.049230 -0.153376 0.039226 0.226836 -0.198656 -0.357455 0.137571 -0.144062 -0.079961 -0.059448 0.009370 -0.093285 -0.207981 -0.097456 -0.019519 0.129288 -0.150741 0.236438 -0.098532 -0.137456 -0.094209 -0.103893 -0.003720 -0.270870 0.158430 -0.015325 0.064287 -0.038275 0.137918 -0.114559 0.032763 0.083607 0.004393 0.136986 0.215078 0.126712 0.066654 0.334740 0.095363 0.352101 0.121902 -0.210232 0.148524 -0.174360 0.093334 0.138533 0.119582 0.105233 -0.142544 -0.112050 -0.290886 -0.144255 0.087478 0.033668 -0.340897 -0.194108 -0.000356 0.073241 0.021858 0.039901 0.093598 0.144205 -0.136958 0.010756 0.078380 0.006468 -0.032414 -0.193574 -0.071900 -0.066095 -0.197584 0.168935 0.220051 -0.109867 -0.037198 -0.063429 0.076567 0.290888 -0.316366 -0.176903 -0.041238 0.190046 0.140107 0.177154 0.049692 0.235926 0.122219 -0.172402 0.026910 0.237898 -0.023979 0.219949 0.045756 0.010639 -0.229181 -0.015667 0.170174 -0.330818 -0.261831 -0.300595 0.000710 -0.056152 0.064184 0.141724 -0.037711 0.276465 -0.072174 0.065139 -0.159320 -0.198589 0.090434 -0.070955 0.081812 0.084912 -0.154911 0.122885 -0.402232 0.027392 -0.158858 0.080969 0.213888 -0.115755 -0.244212 -0.048476 0.022973 0.362290 0.095074 0.036090 0.201783 -0.029135 0.116863 0.073719 -0.002953 0.199507 0.084695 0.098864 -0.090610 0.022428 -0.085658 0.279640 -0.194121 -0.085626 0.057198 0.087214 -0.028852 0.143591 0.266847 -0.035484 0.126351 -0.031592 -0.202858 0.268098 0.141423 -0.153179 -0.164115 0.236932 -0.053049 -0.277202 0.147479 -0.400072 -0.097724 -0.024651 0.170486 -0.075140 0.136612 -0.189754 -0.053913 -0.006654 0.040487 0.212377 0.168502 -0.159535 0.004251 0.118391 0.026590 0.074717 -0.218573 0.042826 -0.020443 0.209921 -0.128091 -0.019663 0.214552 0.065588 -0.190264 -0.041155 0.255827 -0.190474 0.005701 0.321404 0.008911 -0.038488 0.113429 0.250772 0.151871 0.164072 -0.019507 0.120660 -0.384196 -0.391469 -0.287674 0.095847 -0.036058 -0.015802
" 0.033567 0.067405 0.140832 -0.200072 0.150004 0.082771 0.218575 0.110272 0.145944 -0.002812 -0.128331 0.116366 -0.211809 -0.183066 -0.199998 0.057722 0.164320 -0.186482 0.144529 -0.017811 0.259158 0.306248 0.285400 0.071818 0.131026 0.244632 0.109539 -0.287547 0.027330 -0.030591 0.161696 -0.097317 -0.020471 0.168141 -0.233154 0.252163 -0.163401 0.092626 0.237931 -0.061041 -0.121046 -0.237764 -0.112014 -0.067659 0.050903 0.167746 0.088705 0.026951 0.281699 0.013433 0.183207 -0.238343 0.040566 -0.052906 -0.078159 -0.063478 -0.003460 0.010941 -0.268342 -0.076723 0.165355 0.009321 0.226856 0.073781 -0.163968 -0.210889 -0.146878 0.151254 -0.243720 -0.075610 -0.048371 0.211993 0.112704 -0.359229 0.106524 0.098643 -0.306955 0.066636 0.113426 -0.159292 -0.107882 -0.275992 -0.213221 -0.052278 0.326371 0.019100 -0.356775 -0.110762 -0.075255 0.231267 -0.112102 0.032022 -0.121427 -0.055023 0.559287 0.203185 0.130615 0.081743 0.105466 -0.175720 -0.186837 0.231881 -0.279726 -0.102505 0.102283 0.202299 0.017519 0.091390 0.088445 -0.118741 0.106708 -0.211120 -0.049722 -0.184144 -0.193153 0.108940 0.314984 -0.094351 -0.048765 0.097106 0.239506 0.284157 -0.415408 0.030724 -0.126792 0.205806 0.125210 -0.109863 -0.056024 0.511271 -0.262079 0.015020 0.061036 0.368754 0.081182 0.194400 -0.093856 -0.120446 0.146730 -0.232911 -0.126041 0.121304 -0.109239 0.045058 -0.099236 -0.132870 -0.364459 0.070252 0.176168 -0.171434 -0.226205 -0.200743 0.192860 -0.142246 -0.015428 0.249843 -0.213782 -0.045767 0.064853 -0.174170 0.170710 0.063427 0.086973 -0.108202 -0.311491 0.378759 0.301528 -0.349738 -0.394495 -0.227664 0.038670 0.038556 -0.129811 0.141514 -0.143710 -0.167491 -0.267491 0.299137 -0.078982 0.086768 0.311852 0.112907 -0.036215 0.199989 0.104015 -0.171381 0.157633 -0.056580 -0.064784 0.326629 0.197174 -0.139247 0.218921 -0.129875 -0.051219 0.141756 0.273920 -0.037286 -0.069504 0.400275 -0.178161 -0.077452 0.477297 0.247173 0.027202 -0.230828 -0.315890 0.200747 -0.259127 -0.033144 0.180301 0.223424 0.207429 -0.138862 0.037301 -0.107932 0.083683 0.355753 -0.060605 0.134537 0.087715 0.101989 -0.426193 0.024668 -0.308683 -0.130914 0.029387 0.098414 0.044251 0.014115 -0.105789 0.044291 0.469596 -0.131380 -0.003939 -0.050734 0.268806 0.056027 0.342219 -0.008319 0.072876 -0.143867 0.039998 -0.307168 0.155229 0.058677 -0.467480 0.177270 -0.455455 -0.157413 -0.083451 -0.194879 -0.362130 -0.287368 0.113664 -0.204471
was 0.247089 0.023347 0.218104 -0.097568 -0.051588 0.389553 0.069613 -0.015870 -0.153241 0.061494 -0.020444 0.092081 0.278870 0.030300 -0.081600 -0.050632 0.295415 0.056643 0.326781 -0.152461 -0.181393 -0.115898 -0.053211 -0.126532 0.111474 -0.199914 0.280313 0.207745 0.107487 0.136927 -0.233400 -0.196122 -0.090441 0.119550 -0.142822 -0.049793 -0.036465 -0.115438 0.304028 0.238929 0.123685 0.171573 -0.261770 -0.130771 -0.167014 0.114149 -0.104464 -0.008230 -0.109553 0.092395 -0.279025 0.067248 0.041307 0.218231 0.170692 -0.345236 0.044820 0.208501 -0.029156 -0.038465 0.176417 -0.080805 -0.264311 -0.073917 -0.267761 -0.239697 -0.067755 -0.061908 -0.084493 -0.148069 -0.234694 -0.307307 -0.156316 0.056075 -0.369434 0.244716 -0.091629 -0.154398 -0.314690 0.212465 0.329668 0.169681 0.303752 0.214114 0.359719 0.030685 -0.135230 -0.164818 -0.066838 -0.122098 -0.260846 0.108846 -0.241254 0.113031 -0.205816 0.099953 -0.050978 0.180692 0.153201 0.070715 -0.107739 0.194383 0.113571 0.185691 -0.063942 0.164419 0.219768 0.026097 -0.303722 0.133191 -0.261415 0.280461 -0.083433 -0.001334 -0.063693 0.114349 0.078593 -0.156218 0.077892 -0.114327 -0.033512 0.107518 -0.025821 0.217787 -0.055355 0.128288 -0.160567 -0.060674 0.051207 -0.130767 0.106800 -0.160585 -0.162320 -0.170377 0.146504 -0.113423 0.107094 -0.091869 0.059195 0.099355 0.275341 -0.107798 0.082399 0.008498 0.266592 0.150348 0.213167 -0.262764 -0.110740 -0.057866 0.034141 -0.016952 -0.250265 0.073260 -0.171068 -0.137741 0.183757 -0.199425 -0.308235 -0.390012 0.027315 -0.245957 -0.032676 -0.068097 0.297854 0.009716 -0.046160 0.198820 0.012098 0.187952 -0.194791 0.178545 -0.035354 -0.199730 0.108218 0.218100 0.342264 -0.093595 -0.058653 0.033588 -0.011705 -0.178496 -0.169924 0.196973 -0.215787 0.066626 0.096611 0.178796 0.080911 0.106658 -0.034037 -0.170716 0.055014 -0.138210 -0.134754 0.056077 0.002837 0.035041 -0.066170 -0.155910 0.088062 0.028159 0.197360 -0.017055 0.182621 -0.240804 -0.114016 0.428402 0.064377 0.077386 0.080803 0.136185 -0.245377 0.282694 0.167787 -0.043871 0.063205 -0.128807 -0.314400 -0.147458 0.079418 -0.397606 -0.106428 0.151561 -0.029924 0.140496 -0.137962 0.023855 0.201859 -0.041304 0.081104 -0.169065 0.196228 -0.118802 0.089796 0.045997 0.137851 -0.064831 0.141053 -0.012791 0.031298 0.180054 -0.085123 -0.158292 0.115634 0.181257 -0.279796 -0.097422 0.017574 0.081756 -0.214096 0.167984 0.117785 0.315615 0.099304 -0.232520
all -0.133581 -0.106938 -0.136085 -0.127487 0.336496 0.125898 -0.169075 0.114697 0.298560 -0.042480 0.135442 0.155944 -0.234014 -0.012746 0.216591 0.165663 -0.091438 0.146510 -0.164428 0.011363 0.064767 0.061600 0.001889 0.047664 -0.136542 -0.030616 0.003282 -0.092003 -0.170638 -0.242192 -0.148735 -0.039031 -0.169310 -0.010854 0.057843 -0.022616 0.134590 -0.084273 -0.268386 0.333434 -0.128699 0.016580 -0.003736 -0.118713 0.128847 0.085875 0.130262 0.043284 0.150259 -0.151375 -0.149469 0.470234 0.058194 -0.318564 0.159003 0.321778 -0.050037 -0.402693 0.347191 -0.233977 -0.184590 -0.017724 -0.134685 0.239493 -0.166851 -0.053945 -0.079296 0.320622 -0.098603 0.091108 0.293001 -0.025373 0.100534 -0.085025 -0.091797 -0.164047 -0.110065 0.078643 -0.009191 0.116912 0.155613 -0.173399 0.195009 0.057205 -0.226090 -0.108391 0.463895 0.112745 0.425810 0.127180 0.156478 0.201510 0.025844 0.239322 -0.026871 -0.486354 0.026261 0.021779 0.032630 -0.027137 -0.124077 -0.096523 -0.024786 -0.057293 0.081236 -0.019343 -0.259167 -0.143380 -0.285037 0.004290 0.118609 0.250088 0.061076 -0.115428 0.147130 -0.017230 0.105753 0.204731 -0.023060 -0.334832 0.062061 -0.168926 0.255790 0.075941 0.098318 -0.025586 0.308845 -0.063147 0.185639 -0.134349 0.049291 0.128757 -0.026934 -0.199035 -0.069129 0.016893 0.394249 0.097862 -0.083190 0.128537 0.378477 -0.143514 -0.063745 0.178382 -0.204045 0.169805 -0.004915 -0.083809 -0.021466 -0.037100 0.189224 0.113652 0.112570 0.048481 -0.015906 0.237923 0.124311 -0.080586 0.188744 -0.003019 -0.031667 -0.248641 -0.084204 -0.014174 0.423600 0.170315 -0.021451 -0.082774 -0.153521 0.138287 -0.020661 0.066117 0.222023 -0.093430 0.097235 -0.100803 -0.247253 0.268389 -0.065699 0.225542 -0.045766 0.147959 0.034531 -0.116013 0.173516 0.201203 -0.263094 0.179109 0.246347 -0.396664 0.302073 0.249933 0.457977 -0.092319 -0.148748 -0.048345 -0.085650 0.088785 -0.041037 0.171320 0.164472 0.081264 -0.076647 0.141082 -0.060157 0.056198 0.129192 0.014349 -0.218111 -0.028104 0.083758 -0.093226 0.036497 -0.158655 0.092502 -0.118010 -0.017407 -0.219729 0.201429 -0.097470 -0.269242 0.147821 0.121631 -0.167176 -0.024609 -0.204267 0.133423 -0.240282 -0.174692 -0.004194 -0.111874 0.005744 0.131595 -0.108879 0.078306 0.241089 -0.187294 -0.208222 -0.056024 -0.197077 -0.006615 0.044495 -0.221325 0.081482 0.186675 0.340325 0.270397 -0.304697 -0.094540 0.055735 -0.136823 0.155034 0.195235 0.134076 -0.148509 -0.108850
European -0.018052 -0.236990 -0.224616 -0.057276 -0.100668 0.219119 0.264524 0.349437 -0.083838 0.134395 -0.005456 -0.101995 -0.268076 0.037350 -0.116291 -0.082082 0.180676 0.178684 0.127390 -0.128387 0.166895 -0.124723 0.025043 -0.161974 -0.128459 0.071731 -0.058893 -0.020418 -0.007913 -0.262523 0.410887 -0.067955 0.249862 -0.007376 -0.095261 0.058107 -0.083147 0.089970 0.063842 -0.180358 -0.314223 0.067243 -0.150385 -0.144585 0.008576 0.146094 0.152616 0.168866 -0.168478 0.346840 0.058640 -0.190022 0.197074 0.411841 -0.077809 -0.090596 0.130351 0.273176 -0.109990 -0.139935 0.200380 -0.073237 0.077516 -0.139582 -0.283536 -0.108924 -0.061609 -0.149252 0.081740 -0.358299 0.152221 0.017386 0.085585 -0.175723 0.060532 0.226382 0.050931 -0.117413 0.055089 0.017481 -0.165446 -0.230187 -0.109611 -0.043514 0.043588 -0.355050 0.047985 -0.319037 0.059843 0.114382 -0.086133 0.222309 0.316032 -0.060589 0.074670 -0.114958 0.198892 -0.197955 0.039137 0.180742 -0.232460 0.061136 -0.016065 -0.253614 -0.107334 0.392537 -0.153764 -0.191167 -0.408486 0.341086 0.083323 -0.121860 -0.467272 -0.143989 -0.360975 0.228340 -0.281383 -0.195020 0.218087 -0.094440 0.326312 0.110100 -0.156344 -0.449790 -0.143381 0.029952 -0.155983 -0.162603 0.037673 -0.061855 0.300463 -0.097602 -0.168639 -0.073471 -0.129946 -0.150827 -0.459693 0.013834 0.081085 -0.007303 0.043789 0.131195 -0.169892 0.243467 0.251114 0.195693 0.060811 -0.077024 0.106470 0.074734 -0.064951 -0.313589 0.054358 -0.246267 -0.071719 -0.175493 -0.121143 -0.277532 0.210908 0.126021 0.070336 -0.169275 -0.203126 -0.147918 -0.183513 0.288531 0.192355 0.042309 -0.260009 0.020528 -0.267692 -0.192528 0.222646 0.178580 0.073965 0.064185 -0.164761 0.054439 0.178180 0.010641 0.233739 0.209348 -0.212271 0.064487 -0.208989 0.008120 0.122008 0.012742 -0.293448 -0.038893 -0.231924 -0.177971 -0.134011 -0.005949 0.226151 -0.155034 -0.124894 -0.006546 0.050683 0.185051 -0.089813 -0.071828 0.392574 -0.023420 0.020181 -0.458221 -0.156816 -0.496923 -0.172242 -0.159006 0.204011 0.025265 0.375227 0.045224 0.060381 0.119345 -0.159856 -0.177328 0.123484 -0.238249 0.189427 0.071920 -0.068717 -0.065405 0.141017 0.135967 -0.008919 0.050627 -0.374027 -0.069987 -0.247118 -0.254070 0.000126 0.030704 0.318546 -0.046474 0.142915 0.011878 0.023966 -0.025285 -0.004339 -0.141812 0.296691 -0.110348 -0.212669 0.052137 0.110019 -0.055521 -0.210012 -0.019032 0.081053 0.039239 -0.282480 0.050622 0.005742 -0.158741
