<unk> 0.034573 -0.047878 0.093788 -0.061087 0.041899 -0.099506 -0.004663 0.081593 -0.018633 -0.001057 0.009504 -0.019126 -0.074026 0.029896 -0.074590 0.026477 0.023775 0.067927 -0.049880 0.109711 0.029207 0.083627 0.095027 -0.066019 -0.034218 -0.084619 -0.015141 -0.005901 -0.040511 0.089052 0.073240 0.092090 0.039738 0.013194 -0.001327 -0.012783 -0.055239 0.062494 0.027966 0.045030 0.003276 -0.052103 0.049703 0.054331 -0.018071 -0.079620 -0.036062 -0.007915 -0.059128 0.050173 -0.086581 0.045739 -0.070361 -0.030638 -0.020313 0.037051 -0.014767 -0.056901 -0.026552 0.024655 -0.016391 -0.016020 -0.036276 0.014920 -0.006274 -0.058779 0.025382 -0.059984 0.055461 -0.057457 -0.086314 0.009605 0.076056 0.046991 -0.016099 0.064544 0.075562 -0.098227 0.046601 0.003012 -0.078663 0.000880 -0.000665 0.063563 -0.062897 0.002520 -0.010500 -0.013216 -0.037475 0.003710 -0.075116 0.059309 0.056867 0.015327 0.001367 -0.029633 0.004845 0.100094 0.033875 -0.035626 -0.012251 0.079289 0.040033 -0.035446 -0.071348 0.074955 0.031854 -0.050448 -0.039786 0.065940 0.070831 0.006027 0.014639 -0.027957 -0.066322 0.002963 0.032451 -0.009488 0.048207 0.038884 0.103649 0.029163 -0.092982 0.110047 0.041692 0.013070 0.060179 -0.026775 0.072252 -0.084797 0.000547 0.029911 -0.048064 0.041282 0.007607 0.054444 0.026135 0.021802 -0.025999 -0.097168 0.051003 0.008817 0.092913 0.022702 -0.002725 -0.082446 -0.038462 -0.045194 0.021845 -0.040742 -0.023184 0.079194 0.007962 0.010158 0.095517 0.013391 0.074839 -0.026845 0.016562 -0.003821 -0.021006 0.073811 -0.015048 0.065235 -0.051507 -0.035551 -0.020301 -0.047109 0.079579 0.058785 -0.040046 0.080158 0.010387 -0.043317 -0.020991 -0.047435 -0.043901 -0.016468 -0.009134 -0.045162 -0.011115 0.013427 0.047264 -0.007509 -0.078692 0.000982 0.075047 0.043466 -0.069943 0.002531 0.052059 -0.090408 -0.071955 -0.020344 -0.012211 0.022207 -0.009567 -0.000781 0.078131 0.036526 -0.091148 -0.000263 -0.084238 -0.101616 -0.021445 0.076344 0.062279 0.011854 0.074135 0.105493 -0.069373 -0.045522 -0.023176 -0.068930 0.061678 0.048539 -0.069655 -0.050285 0.002168 0.015895 0.089981 0.006837 -0.042276 -0.078003 0.019933 -0.089264 0.072148 0.010332 0.027742 0.071223 0.040739 0.045430 -0.079774 -0.059151 0.076671 -0.031579 0.002764 0.029909 0.046770 0.070424 0.026824 0.077262 -0.009916 -0.099840 -0.043065 -0.024222 -0.060641 0.069607 -0.047246 -0.088512 -0.090102 -0.027630 -0.075204 -0.029375 -0.063243 0.007034
<blank> 0.033550 0.054343 -0.086576 0.058319 0.093109 0.026988 0.042514 0.068705 0.028187 0.020014 -0.011542 -0.087113 -0.046558 -0.014859 -0.059233 0.033749 0.077699 -0.059659 -0.055702 0.051843 0.076909 -0.046624 0.044633 -0.055599 -0.028797 0.061070 -0.040489 0.097042 0.009165 -0.056283 0.010929 -0.015927 -0.057867 -0.025159 -0.055130 0.037940 0.031333 0.032856 -0.061818 0.075471 -0.046086 -0.008738 0.058452 -0.001568 0.093840 -0.081326 0.090079 0.072114 0.003851 0.048663 -0.084451 0.012277 0.075638 -0.077506 -0.049311 -0.078734 0.008967 0.028606 0.061079 0.016890 -0.072235 0.072481 -0.010514 0.055463 0.024884 0.042624 0.048999 0.080264 -0.072151 0.024141 0.000798 -0.001341 -0.074461 0.079258 0.085406 -0.077000 -0.026770 0.081262 -0.059730 -0.066584 0.087109 0.019346 0.096681 -0.031279 0.059746 0.085937 -0.023006 0.019845 -0.026194 -0.037966 0.012285 -0.041971 -0.092763 -0.063693 -0.051568 0.064201 0.081752 0.005858 -0.032452 -0.082758 -0.076250 -0.052102 -0.028711 -0.097021 -0.021684 -0.045602 -0.045674 -0.072269 -0.095475 -0.024094 -0.006085 0.065572 0.057068 -0.060795 0.039184 -0.061262 -0.076083 0.045705 -0.042965 0.071023 -0.068229 0.040232 -0.016710 -0.082695 -0.080525 -0.082272 0.047043 0.079993 -0.019685 0.090148 0.001782 0.013361 -0.021292 -0.084363 -0.002340 -0.027853 -0.027031 0.083202 -0.060824 0.092088 -0.002633 0.094533 0.009387 -0.015331 0.070475 -0.096493 0.049083 -0.095980 0.098376 -0.019466 -0.020616 0.061786 -0.004660 -0.002192 -0.025432 -0.070319 -0.091930 0.053769 0.063333 0.040445 -0.055688 -0.092424 0.055285 -0.058506 -0.092951 0.056661 0.069244 0.056203 0.083894 -0.066086 0.038784 0.049797 -0.069914 -0.051942 -0.006433 0.063598 -0.083852 -0.068054 0.066205 -0.007555 -0.049880 0.025608 -0.049119 0.099766 0.073485 -0.062085 -0.064276 0.045521 0.077586 -0.096088 0.050906 0.024380 0.008977 -0.045072 -0.041650 -0.094450 0.054158 0.057366 -0.031652 0.005017 -0.058848 0.023468 -0.027404 0.076126 -0.072458 -0.085413 -0.025911 -0.083356 0.020873 0.037851 -0.022607 0.084827 -0.016282 -0.006556 0.007859 -0.022315 -0.046240 0.072593 0.054999 0.096501 -0.092581 -0.052320 0.015076 0.010588 -0.091624 -0.029163 -0.027709 -0.091541 0.030631 -0.065234 -0.070630 0.086411 0.059380 -0.096131 0.053474 -0.061324 -0.050407 0.085693 -0.087130 0.050949 0.034565 0.038966 0.087194 -0.012072 -0.089657 -0.051177 0.024910 0.077367 -0.012323 0.082168 0.094312 -0.097885 -0.014650 -0.088460 -0.054956 0.061024
<s> -0.133787 -0.038724 0.033279 -0.072995 -0.149444 0.131106 0.072540 -0.067688 0.028971 0.017982 0.032750 0.098429 0.008496 0.080157 -0.048611 0.077982 -0.090317 -0.134160 0.028651 -0.074778 -0.080716 0.085550 -0.076297 0.022651 0.045466 -0.051349 -0.034737 -0.005566 0.037656 0.013182 -0.133311 0.022774 0.003964 0.031445 0.116662 -0.036479 0.099417 -0.104828 0.094824 0.136374 -0.016992 0.019869 0.100246 -0.023262 -0.003012 0.028704 -0.072281 0.167919 0.038100 -0.114061 -0.016226 -0.063377 -0.022844 0.096516 0.081476 -0.065874 0.099611 -0.006957 0.077944 0.027992 -0.007164 0.130023 0.011018 -0.157321 0.055508 0.108204 -0.173794 -0.116333 0.046681 0.076974 -0.121452 -0.037527 -0.067330 -0.088781 0.056856 -0.010076 0.003673 -0.012026 0.101167 0.104505 -0.149410 -0.072745 -0.023756 0.079706 -0.024357 0.031287 0.107917 0.007258 -0.059647 0.136929 -0.172493 0.014672 -0.037167 0.144377 -0.164637 -0.183363 -0.133057 -0.031209 -0.033734 -0.152800 -0.041076 -0.016620 0.008141 -0.083911 -0.126413 -0.102357 0.173122 0.042490 0.089591 -0.076708 0.042628 0.089406 0.144768 -0.101290 0.100883 0.173104 -0.166688 0.100268 -0.066080 -0.013251 0.069803 -0.133458 -0.076957 0.011395 0.190425 0.037311 -0.089520 0.002818 0.085603 0.099281 -0.105539 0.111871 0.126065 0.096514 0.003461 0.028068 0.005673 0.097215 -0.174250 0.084040 -0.057645 -0.091782 -0.120725 0.029571 -0.056003 0.093130 0.108905 0.087801 0.079980 0.006357 -0.059057 -0.008334 0.135448 0.032757 -0.014733 -0.003434 -0.124662 0.013038 0.120331 0.080235 0.038665 0.064593 0.028685 0.073804 0.044225 -0.025092 0.052959 -0.027349 0.064564 -0.015651 0.086715 -0.011846 -0.054009 -0.139846 -0.189012 -0.095023 0.002895 -0.080696 0.100327 0.136517 -0.064435 -0.052558 0.069088 0.079553 0.095962 0.039689 0.086160 -0.095962 0.070006 -0.061290 -0.046375 0.037412 0.066597 -0.090437 -0.089857 0.049850 0.037620 0.122337 -0.037738 0.078164 -0.006656 -0.165883 -0.013321 0.009485 0.026305 -0.041104 -0.091999 0.079329 -0.091974 -0.080523 -0.075471 0.114600 0.046287 -0.112082 0.056005 0.033549 -0.113058 0.029604 0.110435 -0.091188 -0.069037 -0.129120 -0.117366 0.102344 -0.023641 -0.054057 0.004116 0.136025 -0.086759 0.123919 0.089949 0.002459 -0.053099 0.014086 -0.081541 0.029053 0.117663 -0.016542 0.121126 -0.053241 -0.100448 0.125299 0.068285 0.030302 0.120942 0.073646 -0.005041 -0.022061 0.098200 -0.050317 -0.019375 0.045346 0.064059 -0.110048 -0.063386 -0.113157
</s> -0.024703 -0.012448 0.063536 -0.012313 0.087602 0.022580 -0.136811 0.069073 0.115679 -0.087269 -0.030239 0.020981 0.040344 -0.152556 0.068088 0.019505 -0.002652 -0.046374 0.146723 -0.012862 0.038509 -0.094141 -0.029600 -0.089063 -0.070082 0.019170 -0.044656 0.047577 -0.036084 -0.142040 0.056862 -0.091040 -0.039136 0.030528 -0.113091 -0.064197 0.093528 -0.012408 0.038261 -0.071859 -0.114502 0.103445 0.117933 -0.083766 0.128400 -0.129055 0.071077 -0.180533 0.071598 0.024776 -0.095718 -0.039142 -0.105322 -0.118339 -0.107795 -0.092731 0.141608 -0.093185 -0.032245 0.174778 0.141144 0.092945 -0.099894 -0.085535 0.051551 -0.016373 0.093568 0.081932 0.028692 0.127329 0.051050 0.019642 0.007097 -0.003228 -0.016890 0.025007 -0.027287 -0.077945 -0.067376 -0.085404 -0.096309 -0.107427 0.117568 0.109510 -0.141226 0.101980 -0.119121 -0.157875 0.054669 -0.153526 0.113522 -0.097693 0.115091 0.142922 -0.156877 0.136827 -0.056209 0.105458 0.174644 -0.066755 0.184011 -0.024268 0.034896 -0.074557 0.001699 0.145831 -0.001502 0.112494 -0.069565 -0.083664 0.011204 -0.112188 0.146114 -0.160138 0.025888 -0.034328 -0.185197 0.008309 0.029977 -0.112120 -0.006902 0.052234 -0.046821 0.062186 -0.108585 0.088006 -0.154008 -0.135233 0.034201 0.004466 0.123916 -0.070989 0.080835 -0.033487 0.145126 -0.171769 -0.159020 -0.042194 -0.013834 -0.055858 -0.043055 0.032618 -0.009369 0.072277 0.044978 -0.006561 0.132065 0.050304 -0.031378 -0.118556 0.080038 -0.154903 -0.048826 0.076166 -0.158771 -0.131823 -0.031447 0.041710 0.038418 -0.032753 -0.005775 -0.065978 -0.022282 0.066764 0.171223 0.181824 -0.057885 -0.106514 -0.030262 0.136627 -0.032896 0.085822 0.015998 0.090792 0.094704 -0.145688 0.068995 0.053047 -0.126838 0.135504 0.048925 0.116198 -0.026838 0.085759 0.116113 -0.073019 0.010219 -0.077077 -0.160425 0.069074 0.081178 0.140546 0.036784 0.065712 -0.078553 -0.035451 0.030301 -0.179667 -0.021249 -0.031704 -0.088862 -0.106112 -0.008165 0.124479 -0.041746 0.095547 0.048507 -0.000322 -0.062726 0.101888 0.099113 -0.038877 -0.174520 -0.051700 -0.010718 -0.022001 0.160577 0.089667 -0.019268 0.042905 -0.065431 0.161300 0.114268 -0.030834 -0.026670 0.126774 -0.025282 -0.233149 -0.009833 0.137749 0.040643 0.120788 0.102022 0.093398 -0.133511 0.109353 0.116769 0.215804 0.093959 -0.050212 0.095152 -0.073876 -0.085935 0.082221 -0.063917 -0.061205 -0.011231 -0.135488 -0.104768 0.035058 0.099137 -0.139018 -0.036826 -0.078050 0.119864 -0.025128
, -0.026021 0.017643 0.051349 0.038515 0.015411 0.102432 -0.012595 0.137852 0.121059 -0.110224 -0.094034 -0.158989 -0.049612 0.009546 0.101358 -0.021117 0.084047 0.025015 0.005172 -0.074559 -0.076767 0.050404 0.097003 0.035472 -0.012332 0.053744 -0.078238 0.029549 0.068729 -0.022967 -0.008774 0.029323 -0.144887 0.045845 -0.114800 -0.107750 0.059543 -0.025412 0.062339 0.072877 0.036917 0.141820 -0.196055 -0.018498 -0.011905 -0.059889 -0.090252 -0.169063 -0.035795 -0.072200 -0.029071 0.092422 0.039413 0.165637 -0.035274 0.062176 0.114596 -0.012170 0.061682 -0.020843 0.067955 0.168954 0.050359 -0.012600 -0.025621 0.073820 0.062887 -0.072608 -0.085182 0.119640 -0.111103 -0.003374 0.128137 0.061223 0.058184 -0.024671 0.075972 -0.061514 -0.061625 -0.157326 -0.146305 -0.056738 -0.111586 0.096333 0.115966 0.062948 -0.099819 0.078909 -0.038661 0.080173 -0.060693 -0.043960 0.028849 -0.086773 -0.140219 0.078445 -0.003956 -0.129468 -0.040084 0.000768 -0.037203 -0.055716 -0.099118 -0.043873 0.123266 0.116970 -0.129816 -0.040957 -0.044621 -0.021103 0.106051 0.143164 -0.111033 0.033149 0.088125 0.022288 -0.171079 -0.094949 0.004927 0.090669 -0.010030 0.016462 -0.049693 -0.033249 -0.010798 0.039589 0.022648 0.112335 0.098201 0.187736 -0.000523 0.077957 -0.038878 0.079262 0.091492 -0.032701 0.060140 0.069585 0.057509 0.041054 0.080939 0.014169 0.089436 -0.033657 -0.023599 0.108297 -0.014044 -0.086050 -0.099920 0.056182 0.007953 0.042592 -0.102101 0.104662 0.086055 -0.086242 0.037000 0.043832 -0.057215 -0.024646 -0.076266 0.054778 0.041897 0.014202 0.065601 0.077367 0.030723 0.081869 -0.173708 0.035500 -0.028092 0.116325 0.135350 -0.058393 0.111770 -0.056434 -0.038488 -0.107120 0.139889 0.038401 -0.063043 -0.024698 0.041634 0.011684 -0.002914 -0.081709 0.089025 0.075437 -0.101435 -0.063573 0.072516 0.017308 0.040961 -0.100399 0.009640 0.035308 -0.101563 -0.090995 -0.026317 0.122179 -0.099023 -0.052255 -0.026265 0.151656 -0.159984 0.065614 0.026954 -0.106349 0.029823 -0.095237 0.111884 -0.081376 -0.126402 0.087688 0.088693 0.046355 -0.053347 0.044145 -0.146369 -0.065847 0.037436 0.081964 -0.121253 -0.106471 0.118710 -0.057486 0.022860 0.016128 0.145062 -0.039052 0.034911 0.216292 0.030123 0.071033 -0.033063 0.037175 0.019961 0.075631 -0.115626 0.092687 0.061425 -0.057116 0.105145 -0.026325 -0.043315 -0.059193 0.038935 0.042699 0.042645 -0.001723 -0.075941 0.134733 0.020855 -0.216390 0.050439 0.023927
. -0.005380 0.007074 0.101691 -0.036338 -0.133332 0.127004 0.067940 0.153582 -0.066562 -0.035998 0.189640 0.163700 -0.071121 -0.070494 0.150043 0.186987 -0.019424 -0.169143 -0.155522 0.107893 -0.044287 0.016222 0.087015 0.014331 0.114136 0.104012 -0.152353 0.102338 -0.092735 0.016659 0.002534 -0.081474 -0.227729 -0.087654 0.036594 -0.101046 0.134710 0.026308 0.095888 0.006003 -0.163554 0.108552 -0.018896 0.141166 -0.127043 0.019208 -0.106326 -0.120938 0.091418 -0.074268 0.043144 0.085470 0.035649 0.072793 -0.093956 -0.165279 0.032772 0.119990 0.023142 -0.058612 0.021614 -0.157609 -0.008973 -0.109312 -0.017741 0.150608 -0.191538 0.134420 -0.041302 -0.072718 0.038538 0.089178 -0.054591 -0.166367 -0.151713 -0.129031 0.073654 0.053162 -0.058303 -0.058385 -0.072950 -0.116400 0.073329 -0.133831 0.217253 0.256390 -0.014496 -0.004167 -0.134921 0.101220 0.055617 -0.030508 -0.106438 -0.046991 -0.063472 -0.191196 0.003713 0.304837 0.024559 -0.009305 -0.129649 0.127847 0.079650 0.132981 -0.201811 0.003394 0.154220 0.146698 0.163343 -0.108229 0.109679 0.171110 0.010794 -0.261121 0.004680 -0.012897 0.032555 -0.010719 0.084456 0.115233 0.132102 -0.023834 0.006515 -0.049532 -0.070677 0.035016 -0.023783 -0.043742 0.011231 0.018633 -0.142119 0.109482 0.151507 0.094170 0.042667 -0.164522 0.039783 0.069396 0.012751 0.075964 0.056315 -0.078104 0.112506 0.062395 -0.053451 -0.093509 0.057474 0.004206 0.024083 -0.017726 0.050332 0.075084 0.072651 -0.019711 0.013462 -0.140790 0.132358 0.155767 0.180396 -0.032502 0.068961 -0.128424 -0.029627 -0.131712 -0.093448 0.214621 0.077601 -0.200735 0.175460 -0.087356 0.145374 -0.072983 0.019236 0.066990 0.045856 -0.059320 0.059272 -0.090083 0.040059 -0.068653 -0.085834 -0.200195 0.065491 0.134505 0.179098 -0.107543 0.084005 -0.105404 0.153538 -0.116235 0.048916 -0.052790 -0.166421 -0.185094 0.060631 0.109766 -0.073473 0.186222 0.000492 0.083286 0.018794 0.165280 -0.056795 0.029362 0.114616 0.063872 0.060180 0.150947 -0.173292 0.058386 0.078280 0.212206 -0.062636 0.149131 -0.053953 0.057794 -0.103679 0.034472 -0.046219 -0.063576 0.066912 -0.113077 0.070422 0.156750 0.050815 0.079651 0.000326 0.145947 0.089489 0.058815 -0.100810 -0.132049 -0.097685 -0.152703 0.020426 0.039888 0.240621 -0.141054 -0.112315 -0.005578 0.050911 0.006520 -0.041969 0.057342 0.147770 0.010233 -0.113786 0.055205 -0.046229 -0.034010 0.128441 -0.072964 -0.137601 0.053377 0.011653 0.191402
die -0.048283 -0.043128 0.038548 0.269566 -0.005302 0.012033 0.084805 0.059276 -0.172169 0.119562 0.077485 0.041865 -0.144340 -0.120920 -0.067803 -0.285596 0.105667 -0.066125 -0.032998 0.195004 -0.071388 -0.043100 -0.061880 -0.004855 0.086836 -0.095972 0.035432 -0.015131 -0.003104 0.044098 -0.024144 -0.031148 0.159339 0.014729 -0.050646 0.057730 0.103704 -0.087502 -0.043700 -0.065376 0.127620 0.198083 -0.092337 -0.162704 -0.086833 -0.149015 0.076414 0.056962 -0.030432 -0.066162 -0.142493 -0.172294 -0.000533 0.103634 -0.010789 -0.023240 0.071501 -0.022801 0.025495 -0.119611 0.183897 -0.064776 -0.123853 0.218447 -0.067128 0.148664 0.006247 0.109926 -0.101743 0.112811 0.022697 0.113174 0.121257 -0.031728 0.173682 0.069120 -0.057978 0.020875 -0.085535 -0.052821 0.011370 -0.126026 -0.037957 -0.066578 -0.088304 0.076254 0.075262 0.053009 0.069581 0.156571 0.058028 -0.089681 0.123683 -0.155604 -0.059428 0.224351 -0.122464 0.041242 -0.017323 0.089200 -0.032574 0.045214 0.128361 0.003552 -0.016021 0.150473 0.032433 -0.050810 0.062740 0.055763 0.065481 0.040709 -0.244117 0.043412 -0.003265 0.155708 -0.084876 -0.112796 0.103517 -0.032679 0.104440 -0.224037 0.038595 -0.105004 0.098120 -0.007872 0.014555 0.012051 -0.122023 0.218386 0.115106 0.081795 0.133765 0.106747 0.203756 -0.017868 0.103513 -0.038449 -0.109735 0.050407 -0.078132 0.130207 -0.095375 0.126914 -0.125027 0.145231 0.139157 -0.071459 -0.257531 0.158928 -0.076878 0.004374 -0.030137 -0.107060 0.130818 -0.183637 0.029104 0.106874 -0.039808 0.149866 0.077529 -0.013858 0.090843 0.072580 0.100356 0.101437 -0.050894 0.109548 0.070829 -0.100523 0.125678 0.017193 0.117558 -0.019530 0.026078 -0.094751 0.117831 0.069314 -0.042964 0.239631 -0.122319 0.044985 -0.095329 0.231301 0.014491 -0.236446 -0.125582 0.086442 -0.061722 0.153876 0.107154 0.018803 -0.030574 0.150716 -0.052175 0.070684 0.078782 0.072401 0.017000 0.087221 -0.031209 -0.054451 -0.088444 -0.046215 -0.195775 -0.079908 -0.030818 -0.195476 0.015940 -0.041921 0.020630 -0.032336 0.035517 0.108153 -0.158680 -0.010734 0.133713 0.097719 -0.096198 0.005232 0.057989 -0.004463 0.054270 -0.110641 -0.059554 0.112501 -0.016528 -0.130608 0.046190 0.024552 -0.014684 -0.045657 -0.104228 -0.155912 -0.201829 -0.002316 -0.186050 0.043244 -0.018693 0.082426 0.059571 0.052747 0.248465 0.086440 -0.027165 -0.009034 0.046510 0.077705 -0.105871 -0.089640 -0.045270 0.117559 0.060357 -0.147172 -0.059423 -0.149321
der -0.091121 -0.066175 -0.116998 0.063745 0.084813 0.039982 0.132042 -0.079891 0.143375 0.126770 -0.005678 -0.013189 0.084945 0.082082 0.162384 0.031399 -0.095226 0.044609 -0.092899 -0.091143 -0.107761 -0.001792 -0.075012 0.141024 -0.043466 0.133664 -0.047049 0.000839 -0.048594 -0.147298 0.049785 0.055776 -0.048956 -0.024385 -0.142297 -0.110490 -0.081537 -0.021170 -0.011986 0.122557 -0.067065 0.175212 -0.060578 0.061471 -0.115131 0.120346 0.008047 -0.101132 0.054482 0.104267 -0.034355 -0.059568 -0.083315 -0.081176 0.105842 -0.028605 -0.037327 0.144139 0.094328 0.096142 0.117506 -0.097784 -0.009425 -0.090077 -0.173047 0.072732 -0.133828 -0.046645 -0.178209 0.134552 -0.134912 0.135789 -0.118253 -0.080212 0.039587 0.138661 -0.023638 0.054815 -0.057819 0.004761 -0.063030 0.054459 -0.005785 0.105617 -0.124007 0.110504 -0.030808 0.030743 0.012501 0.056054 -0.017701 -0.078524 -0.052599 0.007068 0.017621 -0.005606 0.048905 -0.036355 0.076739 0.124557 0.172461 0.146761 -0.044009 -0.063639 -0.180866 -0.082383 0.114793 -0.126117 0.085333 -0.029035 -0.019838 0.096727 -0.022941 -0.087226 0.159057 -0.055607 0.005880 -0.029607 0.147589 0.032534 0.020510 -0.042434 -0.041990 -0.184854 -0.125139 0.112610 0.076082 -0.016574 -0.034024 0.062830 0.158522 -0.084467 -0.157585 0.083868 0.003534 -0.036631 0.124682 0.101833 -0.076285 0.026307 0.137981 0.081122 0.096902 0.094776 0.041289 0.099546 -0.039185 0.068002 0.074787 0.005195 0.110109 0.036173 0.022387 -0.036872 -0.097807 0.067106 -0.024485 0.086624 -0.008997 0.166600 0.088118 0.037545 0.204998 0.081065 -0.054168 0.029801 0.005158 -0.052834 -0.028856 -0.154792 -0.056305 -0.005259 -0.182809 -0.063986 -0.005126 0.060399 0.255417 -0.096383 -0.079540 -0.136914 -0.093580 0.122197 0.089799 0.052573 0.090684 0.081827 0.058607 -0.012499 0.028388 0.108654 -0.106769 0.142033 0.097163 0.229477 -0.152736 -0.032227 0.014352 0.117917 -0.158807 -0.011666 -0.035169 0.037079 0.125440 0.106307 -0.135444 0.049647 -0.094087 -0.053341 0.089952 0.038885 0.088424 -0.099453 0.177544 0.060718 -0.151512 0.018414 -0.061994 0.198086 0.058768 -0.027802 -0.041266 0.056541 -0.059536 0.039804 0.078934 -0.063978 -0.100317 0.094626 -0.194414 0.026431 -0.028587 0.151356 -0.041499 0.042018 -0.258259 0.030451 0.134304 0.185896 -0.107612 -0.101811 0.059445 -0.028054 0.153690 0.184654 0.075385 -0.111625 -0.157343 0.065809 -0.064393 0.126163 -0.013309 -0.075720 0.020237 -0.082800 0.125485 0.089073
und -0.031871 -0.074045 -0.031249 0.124985 -0.230012 -0.067626 0.197040 -0.126273 -0.050737 0.055142 0.112957 -0.050264 0.147522 0.088012 0.112698 -0.165808 -0.030047 -0.180004 0.003136 -0.043419 -0.175509 -0.021498 -0.214199 0.244774 0.057892 -0.047385 -0.061063 -0.049351 -0.142816 0.089949 0.063136 -0.087981 -0.117603 -0.042040 0.011713 0.112715 -0.079923 -0.177733 -0.043744 0.185565 -0.330280 -0.065919 -0.012603 0.035771 -0.189179 -0.186272 0.029290 0.006338 0.183110 0.081647 -0.049171 -0.156819 0.021639 0.046254 0.107766 -0.012599 0.071383 -0.062453 0.080830 0.006606 0.126312 -0.098163 0.140992 -0.096337 -0.060538 0.269939 0.059425 0.025109 -0.151534 -0.038565 0.029013 0.045417 0.032937 -0.205985 -0.061693 0.016475 -0.071432 -0.030527 0.052831 -0.006838 -0.182343 0.145437 -0.136104 0.052402 0.101644 0.070544 0.042145 0.018915 0.018482 0.183000 -0.040291 0.143215 0.143349 -0.052310 -0.064261 -0.143616 0.041657 0.033510 -0.163781 -0.069849 -0.022032 -0.005242 0.106385 -0.173191 0.213211 -0.101548 0.012366 -0.100991 -0.086463 -0.049397 -0.191184 -0.010289 -0.054567 -0.093877 -0.021734 -0.120758 -0.032305 -0.161199 -0.018705 0.121693 -0.162893 0.079897 -0.010134 -0.066041 -0.082265 -0.121119 0.089098 0.077795 -0.090806 0.111548 0.038537 -0.060528 -0.186876 0.085483 -0.094648 -0.002906 0.092236 -0.035441 0.042745 0.152529 0.067350 -0.122078 0.013354 0.039441 -0.031660 0.202772 -0.134067 0.157853 -0.192023 -0.032887 -0.183956 -0.083647 0.191997 0.040206 -0.056274 0.013294 -0.108800 -0.005373 -0.154183 -0.133145 0.041755 0.107861 0.192482 -0.019521 -0.159927 0.008139 -0.145002 -0.198910 -0.161779 0.093067 0.088513 0.101054 -0.057265 0.098247 0.133850 -0.016674 0.152217 0.000211 -0.021236 0.016030 -0.111353 -0.103350 0.102753 -0.154945 0.012092 -0.210577 -0.086089 -0.081277 -0.124795 0.052962 -0.100310 0.044914 0.109527 0.236125 -0.160779 -0.021478 0.139436 0.200443 -0.190266 0.066437 -0.086144 -0.116887 -0.062887 -0.012984 -0.100631 0.004000 0.062274 -0.088609 -0.065525 -0.112250 0.073948 -0.048399 -0.096369 -0.032989 0.159684 0.081473 0.074646 0.032023 -0.032138 -0.100800 -0.005309 -0.084334 -0.100713 -0.099264 -0.167809 0.171402 -0.058861 -0.128751 -0.112290 -0.051155 -0.160586 -0.138499 -0.019454 0.015442 0.012856 -0.132828 0.008305 0.169917 0.046159 -0.071719 -0.146363 0.029560 0.086672 0.105388 0.061746 0.027434 0.138916 0.044932 -0.009346 -0.150862 -0.007609 0.173745 0.010565 0.114858 0.061906 -0.209882
in 0.022261 -0.148830 0.155637 -0.043296 0.047622 -0.006055 -0.012239 -0.056518 -0.071382 -0.169300 0.040340 0.010064 -0.168637 0.038629 0.136100 -0.076388 -0.046161 0.006656 -0.176444 -0.148245 0.016985 -0.059598 0.049399 0.089102 -0.071665 0.066445 -0.092511 0.135651 0.207628 0.003752 -0.081344 -0.024261 -0.135153 0.111731 0.217128 0.023861 0.097831 -0.292739 -0.008477 -0.000715 0.058390 -0.015694 -0.078238 -0.103833 0.069835 -0.107631 0.056487 -0.050122 -0.088712 -0.098794 -0.023335 0.060347 -0.043436 -0.029482 0.166129 0.056819 0.158949 0.067487 0.091078 -0.076359 -0.034264 -0.106229 -0.119383 -0.002509 0.054383 -0.002911 -0.079357 -0.075883 0.026744 0.040149 0.050279 0.002934 -0.092147 0.001858 -0.145976 -0.133870 -0.003593 -0.165497 -0.123859 0.064613 0.125616 -0.009178 -0.118016 -0.153795 -0.008810 -0.083574 -0.083404 0.153680 -0.070777 0.048626 -0.046243 0.026126 -0.167562 -0.139027 0.089595 0.028393 0.116771 -0.037066 -0.076780 -0.031790 0.094010 0.190050 -0.015946 -0.077094 -0.170148 -0.181639 -0.033157 -0.020972 -0.152375 -0.076847 -0.006260 0.089927 -0.048690 0.090491 -0.061086 -0.054231 -0.025992 -0.078039 0.080775 -0.039628 -0.012399 0.065756 0.043182 0.009468 -0.015239 -0.069982 0.098135 -0.026479 -0.142213 0.078503 0.106790 0.020131 0.169490 0.086467 -0.150939 0.101117 -0.097629 -0.135543 0.036505 0.124042 -0.021569 -0.006005 0.066847 0.140608 -0.055199 -0.042438 -0.129156 0.237663 -0.021744 -0.018743 -0.206711 -0.108402 0.217374 -0.106456 0.010268 -0.137856 -0.067149 -0.035850 -0.037378 -0.049607 -0.151896 0.005720 -0.068950 0.054735 -0.052332 -0.110782 0.214389 0.032460 0.068713 -0.032079 0.083193 0.055590 -0.075246 0.126412 -0.246556 0.088255 0.373141 -0.233331 0.242827 -0.107947 -0.197991 -0.190205 -0.134871 -0.031225 0.123771 0.077984 0.120875 -0.155617 0.097916 -0.039206 0.111954 -0.034148 0.160353 -0.141077 0.131604 -0.052309 -0.087391 -0.041670 -0.279931 -0.006086 0.085469 -0.122716 -0.036620 0.134646 0.194274 0.115090 0.071791 0.094826 -0.046969 0.061191 0.146515 0.033031 -0.129788 0.051413 -0.133634 -0.101127 -0.089680 -0.098738 -0.052128 0.083963 -0.129124 0.037692 -0.079841 0.143755 0.193523 0.131501 -0.031751 0.246868 -0.185081 -0.026353 0.053432 -0.150193 0.136434 0.043070 -0.247653 -0.067910 0.169885 -0.176891 -0.070432 -0.042955 -0.111660 -0.087585 -0.045115 0.106494 -0.125201 0.037320 0.169973 0.088301 0.169110 0.024325 0.046188 0.030414 -0.120963 0.142081 0.065514 -0.055458
zu 0.000710 0.020869 0.029884 0.040046 -0.063513 0.068500 -0.052616 -0.000756 0.050592 -0.035225 -0.061320 -0.168810 -0.094258 0.071032 0.063890 -0.162651 -0.021648 -0.115352 -0.125204 -0.137196 -0.131247 0.048630 -0.018834 -0.023294 0.089941 -0.010149 0.015977 0.096987 0.052574 -0.081848 -0.142569 0.079201 -0.118397 0.041737 0.150194 -0.113071 0.015434 0.195060 -0.049141 0.040554 -0.119932 -0.114097 0.099666 0.122937 -0.061418 -0.128741 0.052246 0.015566 -0.080072 -0.102696 -0.102274 -0.103985 -0.153969 0.154561 -0.030412 -0.136016 -0.068511 -0.001300 -0.108558 0.193888 -0.069426 -0.055421 -0.033768 -0.192412 -0.106982 0.058459 0.081224 0.082995 -0.009231 -0.135847 0.144957 -0.123114 -0.079244 0.121501 0.105040 0.007950 -0.003906 -0.011884 -0.041820 -0.169287 -0.055712 0.044172 -0.141692 -0.015583 -0.160939 0.178150 -0.050086 0.042850 0.091577 -0.086809 -0.038807 -0.154338 -0.117677 -0.136451 0.025600 0.220624 0.045489 -0.140866 0.011619 -0.064883 0.050632 0.022425 -0.094546 0.003009 0.106990 0.122351 -0.097581 -0.079500 0.116785 -0.085669 0.079988 -0.029390 -0.061428 0.067764 0.041505 -0.023876 -0.119830 -0.018324 0.136903 -0.001720 0.091154 -0.039551 -0.131341 -0.156852 0.094967 -0.046001 -0.002774 -0.147886 0.137318 0.069110 0.175115 0.096216 0.159825 0.106302 0.041534 -0.094763 -0.022068 0.140919 0.235701 -0.010801 0.098422 0.062579 -0.043377 -0.080656 -0.067535 0.158379 0.180440 0.135759 -0.009538 -0.077174 -0.146763 0.151173 -0.048254 0.046245 -0.045402 -0.158383 0.071324 -0.066274 -0.039552 0.084813 0.113111 0.044058 0.102147 -0.061702 0.129064 0.068713 0.095199 -0.037696 -0.021851 0.019618 -0.082811 -0.015595 -0.157179 0.109863 -0.018394 -0.077380 0.193356 0.034907 0.115474 -0.050241 -0.011033 0.118570 0.061236 0.131302 0.014701 0.129342 -0.024880 0.105900 -0.236472 -0.072459 0.071066 -0.054587 0.137505 -0.160476 0.106597 -0.054820 -0.032350 -0.313928 -0.006781 -0.152066 -0.044153 -0.136647 0.060773 -0.109553 0.093139 0.052253 -0.149632 -0.049034 -0.071934 -0.001790 0.022435 -0.036066 0.026397 0.042406 -0.101216 0.033545 -0.033221 0.091033 0.130925 -0.072801 -0.077529 0.161371 0.086950 -0.077675 0.086993 0.004271 0.102646 0.004525 0.164977 0.094601 0.131665 -0.120880 -0.053261 -0.062416 0.094659 -0.070108 0.008897 0.207320 -0.026982 0.045077 -0.086985 -0.211128 0.007110 0.029728 0.158724 0.134710 -0.203701 0.079539 0.107716 -0.185559 -0.115998 -0.002849 -0.027971 0.122533 0.104000 -0.225924
von 0.073785 0.018673 0.025124 -0.193870 0.091761 -0.110051 0.013397 -0.166694 0.032106 0.155369 -0.134098 -0.068186 -0.000453 -0.048105 0.155005 -0.142445 -0.042816 -0.010031 -0.060385 -0.018508 0.037904 -0.106510 -0.068338 -0.061518 0.071620 0.157171 -0.012156 0.074776 0.085651 -0.149634 -0.012487 -0.008093 0.082975 0.082931 0.196236 -0.053880 -0.070140 -0.086721 0.157616 -0.020697 -0.125216 0.035341 0.102308 -0.109662 -0.129270 -0.128194 -0.027447 0.212978 0.091467 -0.005119 0.020152 0.013619 0.008185 -0.090736 0.076638 0.121660 0.103763 0.057968 -0.035965 -0.059536 0.063307 0.252155 0.029649 -0.012254 -0.030482 -0.030682 0.139155 0.051665 -0.153639 0.142007 -0.074144 0.055673 0.056063 -0.021683 -0.117985 0.096310 0.089106 0.031171 -0.009521 0.142395 -0.173505 0.006145 0.106799 -0.139069 -0.005141 0.045112 -0.094773 0.083616 0.028433 -0.099411 -0.097181 0.113376 0.159327 0.252213 -0.027160 0.092149 -0.162236 0.004837 0.180782 0.074495 0.248104 0.163415 0.072567 -0.088397 -0.091956 -0.100387 0.062847 -0.167718 0.246501 -0.189318 -0.065260 -0.143182 0.118608 -0.092498 -0.012749 0.058184 0.112934 -0.101230 0.038626 -0.134938 -0.142425 -0.174409 -0.027970 0.083730 0.032212 0.116102 -0.108419 0.138753 0.018285 -0.064412 -0.071785 -0.134882 -0.069494 -0.021632 -0.057886 0.039927 -0.205109 0.010989 -0.211354 0.102730 -0.102917 -0.112836 -0.061022 0.171135 -0.055121 0.123701 0.156196 0.052724 0.133330 -0.148222 0.027437 -0.056553 0.239018 0.208265 -0.064277 -0.137936 -0.142427 -0.122301 0.117824 -0.073049 0.210653 -0.152077 -0.041975 -0.154393 0.021642 0.058876 -0.087223 0.139872 0.140849 0.005464 0.039104 -0.018977 -0.157418 0.060373 -0.053901 0.018175 0.113026 0.001527 0.041667 -0.080464 0.155486 -0.016330 -0.103930 0.054297 -0.006568 0.124444 0.120306 -0.124437 -0.139959 0.039397 0.092843 0.126916 0.020071 -0.128218 -0.183383 0.139979 -0.055577 -0.166383 -0.059505 0.086645 -0.083050 -0.125051 0.039844 0.138574 0.033111 0.014861 -0.113398 0.050822 0.067773 0.125390 -0.090801 0.112900 0.159133 0.059011 -0.060208 -0.102240 0.107612 -0.036519 0.172638 -0.109146 -0.075084 0.016429 -0.059326 0.054595 0.004940 0.074979 0.028962 -0.140600 -0.095729 -0.041563 -0.065422 0.132851 0.185623 -0.034354 -0.140581 -0.000964 -0.027817 0.176737 -0.005461 -0.112996 -0.098054 -0.187136 0.167409 0.053425 -0.033790 -0.052846 -0.065611 0.047399 0.102179 0.117090 0.085526 0.146709 0.006732 -0.068634 0.030559 -0.221409
den 0.089284 0.067843 0.004864 0.115733 0.052174 -0.113810 -0.066888 -0.130360 0.104829 -0.108962 0.117227 0.055841 0.144727 0.150718 0.083467 0.053640 -0.115931 0.058089 -0.167220 0.011382 -0.197839 -0.004317 -0.258927 0.006770 0.191588 -0.161991 -0.174364 0.303132 0.069130 0.130139 -0.116971 -0.142760 0.094044 -0.137978 -0.004798 -0.060122 -0.138276 -0.319443 0.001883 0.138157 -0.171630 0.073212 0.051438 -0.040278 0.046339 0.106319 0.174317 0.014737 0.229394 -0.218011 0.050007 0.089187 -0.171991 -0.113249 0.046649 -0.177663 0.133101 0.240258 0.057595 -0.167688 0.183515 -0.004480 -0.012971 -0.035972 0.017240 0.067130 0.013094 0.018771 0.128994 0.119432 0.024032 0.093965 0.131633 -0.175887 0.047575 -0.100160 0.027979 0.152338 -0.146440 -0.089035 0.089046 -0.149193 -0.039807 -0.151842 0.013206 -0.113842 0.031984 0.114275 0.023364 -0.115943 -0.064253 0.013000 0.036689 0.000673 -0.023666 -0.076497 -0.086787 0.070215 -0.257726 0.093001 -0.051904 0.191340 -0.064384 0.106473 0.016434 -0.065056 -0.009708 -0.021038 -0.204348 0.083563 0.037794 -0.076678 -0.088734 0.037050 0.272565 -0.114114 -0.113579 0.048213 0.098839 0.107802 -0.032935 0.055035 -0.045184 -0.041191 0.224927 -0.045487 0.057000 -0.032522 -0.111600 -0.056614 -0.115274 -0.215313 0.049857 -0.037762 -0.024869 -0.015349 0.119053 -0.029456 0.070534 0.131835 -0.000989 -0.104221 -0.090433 -0.177569 -0.085191 -0.105778 0.005205 0.097137 -0.086248 -0.027195 -0.003038 0.082692 -0.074271 -0.116307 0.135955 0.172658 0.042682 -0.042623 0.178613 0.108137 0.029099 0.057143 0.202407 0.042520 0.035044 0.054611 -0.293661 -0.210152 -0.063054 -0.139273 0.204864 -0.137644 0.066931 -0.119279 -0.006500 -0.008688 -0.015594 0.003889 0.257135 0.076134 -0.133211 0.220056 -0.181799 0.088004 0.228704 -0.075818 0.129140 -0.110947 0.009938 -0.013097 -0.110775 0.191364 0.098877 -0.151770 -0.052722 0.120291 0.048675 0.197693 -0.043735 0.096469 -0.012840 -0.076055 0.004031 -0.120460 -0.059718 -0.095098 0.142061 0.028060 0.155214 -0.326975 0.204848 -0.023432 0.153205 -0.138040 -0.142401 0.064266 0.103489 -0.112126 -0.093030 -0.037088 -0.189458 -0.010691 0.058582 0.033320 0.016597 -0.078435 0.012662 0.073444 -0.136501 0.106571 0.022448 0.179055 0.150368 0.023932 -0.007916 -0.047914 0.079405 0.132702 -0.140572 0.039191 0.066694 -0.066691 -0.001163 0.096401 -0.035946 -0.068180 -0.080620 -0.168257 0.116934 -0.087213 0.069083 -0.116172 -0.044840 -0.178098 0.049723 0.126210
ist -0.048411 0.120498 -0.149421 0.237818 -0.010386 -0.062974 0.109455 -0.133934 0.047103 0.059598 -0.069769 0.080257 -0.060308 0.089238 -0.033401 0.056328 -0.188018 -0.076587 0.108413 0.093997 -0.028901 -0.124445 -0.211474 0.271754 -0.119927 0.067937 -0.197524 0.026639 0.066080 -0.043566 0.177099 0.104640 -0.140567 -0.168807 -0.209223 -0.122653 -0.187442 -0.068725 -0.038359 0.095082 0.073802 0.067109 -0.095036 0.037270 0.006766 0.118793 0.172323 -0.111676 0.028854 0.020577 -0.077188 0.038680 -0.145757 0.113892 0.164547 -0.043920 -0.029537 0.166726 0.091012 -0.010850 0.109049 -0.131855 -0.135875 -0.183544 0.008736 0.205057 -0.079461 0.053477 0.014259 -0.033877 -0.149144 0.084022 -0.091076 -0.101344 0.028894 0.073098 -0.039901 0.055154 0.014862 -0.004263 0.087265 -0.078333 0.012081 -0.029629 0.089117 -0.128039 -0.000764 -0.151153 -0.104589 0.035595 -0.147548 0.010508 0.038480 -0.012166 0.016426 -0.239365 0.131802 -0.029079 -0.164526 0.104418 0.088471 0.093533 -0.017667 0.151566 -0.079425 -0.050170 -0.060269 -0.102741 -0.027039 -0.095403 -0.085390 -0.073530 -0.059853 0.070737 0.132471 -0.042329 -0.028857 -0.108847 -0.043842 0.130188 -0.063968 -0.035923 0.046674 -0.149126 -0.008964 0.086767 0.049121 0.090020 0.066050 0.089066 -0.083336 0.033888 -0.203089 -0.006060 -0.073704 0.060262 0.089235 0.140714 0.054390 0.054530 -0.123538 -0.020025 0.013688 0.077198 -0.016304 -0.109796 0.025123 -0.093913 -0.015848 0.217603 -0.096957 -0.015221 0.085491 -0.023832 0.037667 0.044961 -0.154181 0.051448 0.159026 0.227523 -0.081430 -0.011511 0.150201 0.094351 -0.104965 -0.003440 -0.030428 -0.051527 -0.135655 -0.095105 0.073907 0.080403 -0.070080 0.089663 0.019175 -0.012120 0.055623 -0.125164 -0.033227 0.052898 -0.106589 0.007571 0.039370 0.140732 0.150802 -0.046214 -0.087409 -0.040246 0.097342 0.072628 -0.200622 0.104258 -0.103029 0.220102 0.007188 0.044905 -0.085682 0.025576 -0.042635 -0.020694 -0.064029 0.062323 0.041674 0.212302 -0.112755 0.094227 0.098505 -0.032935 0.097353 -0.000366 0.062080 -0.060218 0.061850 0.011614 0.094728 0.157272 0.107837 0.003423 0.099746 0.104648 -0.167251 -0.075790 -0.214225 -0.037272 0.050317 0.078035 -0.008891 -0.069446 -0.111911 0.097793 -0.119500 0.015769 -0.171753 -0.090469 0.034174 -0.074315 0.118496 0.059767 -0.118559 -0.136838 -0.266748 -0.108929 0.048445 0.207618 -0.028793 0.135758 0.119641 -0.069706 0.099126 -0.070351 0.036172 0.030343 0.191611 0.080199 0.049878 0.056806
für -0.038935 0.071306 -0.023376 -0.221775 -0.043539 0.126551 -0.258640 -0.079413 -0.056020 0.013153 -0.057571 -0.139894 0.145853 0.043156 -0.171605 0.175408 -0.122410 -0.059472 0.161350 0.137913 -0.181081 0.077561 -0.123668 0.214842 -0.020611 -0.067971 0.058288 -0.048213 0.071772 -0.036777 0.117869 0.029201 -0.147132 0.176405 -0.017915 -0.074465 0.046333 -0.180203 -0.087195 -0.010030 -0.002147 0.063665 0.041937 0.010020 -0.041463 0.013064 0.048684 0.218000 0.116774 0.059660 0.112994 -0.006917 0.036523 0.052326 -0.122530 0.093290 0.169379 -0.048934 -0.016941 -0.013791 0.027089 0.078675 0.089374 -0.182860 -0.031258 0.055480 -0.193329 0.037103 0.029554 0.009466 0.035036 -0.033836 -0.134156 0.147510 0.109666 0.090629 0.040640 -0.099860 0.209437 0.030920 -0.125580 0.032415 -0.085813 -0.054383 -0.136414 -0.055586 0.104912 0.113632 -0.087692 -0.056003 -0.037235 -0.004728 0.085244 0.043540 0.050965 -0.156618 0.032532 -0.053564 0.139327 -0.069200 -0.136668 -0.053496 0.066044 -0.039215 -0.035102 -0.133376 0.012718 -0.082819 0.066375 0.007085 0.016781 -0.170912 0.150863 0.059735 -0.155368 0.201945 -0.076642 -0.034694 -0.044369 -0.058949 0.051751 -0.101079 -0.042899 -0.062320 0.041210 0.139012 -0.104306 -0.084937 -0.023531 0.056654 -0.069124 0.097708 0.101521 0.055308 0.085811 -0.012079 -0.168864 0.055937 -0.079245 -0.069899 0.058340 -0.128685 -0.046465 0.133728 -0.066717 0.036093 0.089908 0.162599 0.062735 0.091790 0.097941 0.148624 0.233886 -0.013062 0.061100 0.111753 -0.141019 -0.071051 0.060977 0.176109 0.105482 0.016023 -0.046465 0.023866 0.157990 0.017101 -0.049905 -0.011149 -0.021920 0.109844 0.168908 -0.099618 -0.063303 -0.063598 -0.122282 -0.202294 0.052141 -0.057067 -0.075719 -0.144949 0.081436 -0.154281 -0.030769 -0.102396 -0.168549 -0.027959 -0.004605 -0.053866 -0.159113 0.030385 0.035611 -0.034062 0.065904 -0.022082 0.063088 0.054666 0.017876 -0.190119 -0.019265 0.169638 -0.049887 -0.002250 -0.073262 0.053384 -0.024657 0.142192 0.029894 0.194476 0.176405 -0.112487 0.101528 -0.025756 -0.177123 -0.039047 -0.050562 0.101283 0.175011 0.034763 0.123557 -0.098288 -0.159366 -0.038958 -0.080447 -0.095349 -0.108242 0.038306 0.174183 0.078811 -0.138045 -0.053927 0.007039 -0.085605 0.086965 -0.032470 -0.030536 -0.003393 0.132026 0.082416 0.127038 -0.102667 -0.099632 -0.086116 0.106362 0.013991 -0.045076 -0.057596 0.049554 -0.199975 0.037134 0.037254 0.107614 -0.001667 -0.122766 -0.038971 -0.113318 -0.125692
mit 0.186846 0.029038 -0.173710 0.108978 -0.154958 0.131290 0.145600 -0.057425 -0.036991 -0.019778 0.104659 0.078268 0.160343 0.185631 0.070576 -0.114467 -0.058300 -0.046360 0.120972 0.124180 -0.137089 -0.033082 -0.107887 0.200563 -0.025455 0.206805 -0.051011 -0.066080 -0.225635 0.122205 0.132262 -0.005048 -0.000832 0.110881 -0.193929 0.116258 -0.183116 -0.190391 0.079493 -0.202063 -0.026263 0.083122 -0.217212 -0.118333 0.182755 0.208487 -0.114686 -0.133257 -0.065240 -0.133954 0.158803 0.048407 0.146759 0.237728 -0.140397 0.155639 0.171121 0.087994 0.073547 -0.163171 0.251584 -0.001175 0.196148 -0.073779 -0.213193 0.193655 -0.039319 -0.060649 -0.148981 -0.154282 -0.053738 -0.106233 0.058819 0.055909 0.139889 0.105547 0.185428 -0.075485 0.142403 0.092881 0.119061 0.097380 0.139289 -0.217851 0.177005 -0.124652 0.172484 -0.131946 -0.182185 0.074242 -0.089153 -0.267970 0.204230 0.075542 0.006576 0.186899 0.280336 0.057023 0.047717 -0.071965 -0.074790 0.008243 -0.004082 -0.103494 0.158559 0.106610 0.330124 -0.098091 0.175892 -0.109491 -0.143838 0.273433 0.037913 0.051516 -0.149340 -0.020824 -0.009475 0.019070 -0.153445 0.044790 -0.168709 0.171214 0.184241 0.059847 0.063531 -0.014863 -0.090275 0.046661 0.046344 0.218752 0.105372 -0.120487 0.130164 -0.214474 0.032182 -0.006190 -0.234503 0.029287 -0.099789 0.109593 0.028301 -0.087825 -0.181227 0.075825 0.100375 -0.033634 -0.059645 0.149508 -0.268059 -0.028303 0.127156 -0.132886 0.089453 -0.061059 0.051012 0.116824 -0.005453 0.143680 -0.128572 0.002589 -0.048930 -0.060935 0.031918 -0.000109 0.114009 0.077331 0.146771 0.114876 -0.144107 0.125072 -0.091495 -0.024626 0.156840 0.113657 -0.046754 0.130947 -0.007881 0.053290 -0.045108 0.081913 -0.029102 -0.139645 0.082897 -0.014617 -0.099434 -0.115087 0.050444 -0.180432 0.020085 -0.071828 -0.216273 0.109633 0.091412 0.105420 -0.196411 0.119419 0.063110 0.024085 -0.126784 0.087968 -0.018543 -0.088544 0.039492 -0.081928 0.076241 0.149973 0.026240 -0.074936 0.070302 -0.050053 -0.010926 -0.253724 0.133293 -0.022610 -0.267140 -0.048429 -0.123711 0.012952 -0.072473 0.108831 0.000970 -0.145517 0.091065 -0.029139 0.035117 0.100076 -0.208017 -0.113349 -0.211932 0.126674 0.001317 0.025316 -0.344903 -0.245704 -0.157990 0.212468 0.006473 0.166738 -0.165017 0.134419 0.038352 -0.083206 -0.005800 0.159468 0.151878 -0.167866 -0.111920 -0.013415 0.092122 0.092135 -0.015896 -0.186448 -0.032063 -0.017811 -0.087560 -0.088547
das -0.052055 0.129946 0.112465 -0.116465 0.182442 0.062711 -0.123239 -0.018684 -0.029162 0.156475 -0.030548 -0.101407 -0.080791 -0.099736 0.144215 0.089922 0.012962 -0.190357 -0.026074 0.061541 -0.133294 0.066877 0.000697 -0.008071 -0.200614 0.032339 0.090868 -0.191134 0.159175 -0.021125 0.164736 0.183905 0.040759 -0.075287 -0.185991 0.152914 0.096545 0.260874 -0.088452 -0.087286 -0.016409 0.049405 -0.258318 -0.007717 -0.183427 -0.162442 -0.200389 -0.154027 0.124817 0.189644 0.035300 -0.021322 -0.223385 0.134411 0.122213 -0.075845 -0.088339 0.162637 -0.102005 0.096849 -0.141005 -0.003698 0.066455 -0.002109 -0.116301 -0.238413 -0.177495 0.117962 0.000920 -0.054045 0.092652 -0.023297 0.120176 -0.002300 0.030947 0.178736 0.068810 -0.137560 -0.112815 -0.016726 -0.132506 0.110947 0.090809 0.105400 0.035549 0.041362 -0.154989 0.123760 -0.025456 -0.176229 0.166701 -0.031594 0.060186 -0.096778 -0.125941 -0.145804 0.067321 0.038286 0.146112 0.049224 0.117209 0.075554 -0.046370 -0.075474 0.068056 -0.013520 -0.081551 -0.058567 -0.072175 -0.076621 0.058599 0.187838 0.001061 0.096485 -0.088211 0.090598 0.127182 -0.101090 0.226451 -0.074276 0.046862 0.053947 0.070158 -0.204084 0.170866 -0.047392 -0.057629 -0.120150 0.011781 0.012513 0.101939 0.007303 0.144111 0.005037 0.039958 -0.174491 0.088142 0.089377 0.022557 -0.013724 -0.065447 0.043870 0.153269 0.162915 0.153902 0.004933 0.197095 -0.034097 0.010454 0.092177 0.107498 0.079421 -0.057323 -0.073549 0.150099 -0.184640 0.144218 -0.159416 0.106381 0.183647 0.047488 -0.086355 -0.109953 -0.080756 0.130323 0.182427 -0.084321 -0.110826 0.116451 -0.146122 0.117406 0.074642 -0.064531 0.114030 -0.157836 -0.059119 0.102741 0.017600 -0.095199 0.035648 -0.025342 -0.022859 0.140368 -0.053271 -0.020009 -0.015098 0.011135 0.178662 -0.088523 -0.166995 0.048250 -0.150642 -0.085751 0.085310 0.058055 -0.111852 -0.066869 -0.052455 -0.019469 -0.207968 0.074564 0.086327 0.090933 0.016370 -0.117204 0.148699 0.031772 -0.026418 -0.129039 0.261170 0.089019 -0.012210 -0.047786 -0.030768 -0.091759 0.040928 -0.068364 -0.037953 0.044347 -0.123789 -0.035319 0.077342 0.178177 0.170982 0.138638 -0.042810 0.145172 -0.023317 0.011685 -0.144027 -0.206305 -0.216691 -0.010487 0.033861 0.082795 -0.037273 -0.090782 0.026220 -0.082517 0.078233 -0.019616 -0.117168 0.136361 -0.118922 -0.063587 0.032460 0.049150 0.110136 0.074959 -0.208756 0.054674 0.016341 0.113711 -0.028266 0.109209 -0.103799
auf 0.052638 0.085025 0.003817 0.048253 -0.158438 0.098771 -0.195336 0.150462 -0.094844 0.104399 0.069418 -0.194403 0.208764 -0.086766 0.029045 -0.085015 -0.175294 0.036258 -0.120619 0.154116 0.025380 0.136279 0.013390 0.047995 0.023433 -0.081458 -0.142181 0.044817 0.091640 0.114085 0.062797 0.170794 0.017798 0.120614 -0.147228 0.146297 -0.051832 0.168528 -0.054608 0.073671 0.001791 0.143285 -0.175939 -0.109187 0.122125 0.057373 0.013274 -0.128355 0.063252 0.062129 -0.040220 -0.167445 0.027481 0.016239 -0.058175 -0.003022 -0.098054 -0.122812 -0.042499 -0.134601 -0.031468 0.111648 -0.027802 -0.111928 -0.012458 -0.012642 0.020506 0.060929 0.054407 0.115400 0.199392 -0.055164 0.079734 -0.042568 0.081664 -0.128952 0.109737 -0.064430 -0.133214 -0.001668 -0.106663 -0.078064 0.074707 -0.033379 0.022538 0.152573 -0.080718 0.090620 -0.083468 -0.016413 0.109132 -0.128410 -0.012616 -0.040448 0.021973 0.017882 0.144825 -0.101575 -0.073326 -0.014916 0.009064 -0.201546 -0.025688 0.063834 0.254757 0.176766 0.008946 0.074518 -0.162127 -0.022266 0.084911 0.048505 -0.140187 0.044906 -0.088026 -0.064425 0.001999 -0.024041 -0.026565 0.077602 0.016645 -0.038803 -0.067954 -0.096897 0.213299 -0.209851 0.023659 -0.132131 0.011810 0.201562 0.131836 0.004823 -0.007097 0.101034 -0.056125 -0.145594 0.005471 0.155407 0.110798 0.157266 0.076333 0.055725 0.110902 -0.062598 -0.044114 -0.028392 0.127752 0.156336 -0.170739 -0.002454 -0.000693 0.109827 -0.001399 -0.064732 0.140334 0.114235 -0.050734 0.018596 -0.183314 -0.155617 0.068388 0.136306 0.013115 0.198938 0.039971 0.083669 0.104279 -0.200357 -0.099327 -0.064092 0.061123 -0.040848 -0.086094 -0.095698 0.058152 -0.057000 -0.064896 -0.123317 -0.027624 0.100058 0.042942 -0.009819 0.075866 0.008173 0.031435 -0.077008 0.105733 -0.023936 0.109187 0.045845 -0.213040 -0.037047 0.143464 -0.083981 0.102551 -0.160010 -0.096024 -0.137525 0.017392 -0.124236 -0.118779 0.003249 -0.051265 0.044160 0.048363 0.139441 0.175260 -0.076058 -0.124769 -0.085235 -0.042012 -0.005155 -0.036181 -0.039348 -0.144225 -0.061375 0.031556 -0.049255 0.138520 -0.079671 0.084868 0.212919 0.128901 -0.247747 0.255136 0.010305 0.072114 0.017012 0.136286 0.072344 0.049386 -0.058655 0.011999 -0.179143 0.177940 -0.078595 0.060933 0.186476 -0.043561 -0.112217 -0.064704 -0.199303 0.219196 -0.250270 0.200118 -0.025577 -0.117990 -0.213841 -0.108559 0.003713 -0.116773 -0.138032 0.122733 0.081654 0.037949 -0.141801
eine -0.003863 0.043038 -0.179664 0.050043 -0.059537 -0.071364 0.322622 0.044187 -0.014948 -0.129489 -0.153008 -0.183013 -0.041380 0.004508 -0.016970 0.129656 -0.115747 -0.241036 0.199552 0.062154 0.000172 -0.088592 -0.156375 0.100976 0.054009 0.036329 0.158780 0.174182 -0.198087 0.093582 -0.077191 0.017682 0.017833 0.209638 0.264780 0.064345 0.156365 -0.141686 -0.077760 0.048517 -0.045186 -0.060393 0.058900 0.060719 0.112618 0.125188 -0.026958 0.006420 -0.017907 -0.116017 0.107658 -0.061857 0.106543 0.003828 0.213713 0.044443 -0.012686 -0.043138 0.098736 -0.145719 -0.102899 0.276630 0.096791 -0.103733 -0.305953 -0.120479 0.144402 -0.146047 0.102961 0.150749 -0.108536 0.060833 -0.031639 -0.061297 -0.220263 0.082743 0.039637 0.003414 0.058577 -0.067523 0.090227 0.162354 0.255180 0.043436 -0.221115 -0.140338 0.054705 0.260633 0.132541 -0.023944 0.096124 -0.064187 -0.091778 0.044939 0.142083 0.138104 -0.163425 -0.077198 -0.154206 -0.078372 -0.000208 -0.104503 0.088867 -0.165719 -0.167102 0.114780 -0.160509 -0.062720 -0.212796 -0.005550 -0.240105 -0.038071 0.000161 -0.127585 -0.076683 -0.100032 0.184353 -0.124166 -0.027805 -0.059928 -0.041090 0.079824 -0.031196 -0.120717 0.095879 0.116846 -0.232898 -0.202132 -0.043776 0.140568 -0.207427 0.113995 0.101184 0.142343 0.039195 -0.014847 0.022335 0.056940 0.042271 -0.038371 0.124461 -0.088616 -0.028377 0.065106 -0.177158 0.120728 0.112838 0.111044 -0.237519 -0.047502 0.159074 -0.023523 -0.289637 0.136618 0.221944 0.097728 -0.175043 -0.178125 0.162818 -0.094245 -0.110277 0.093953 0.026495 -0.013022 0.110034 0.211080 -0.076075 -0.057992 0.025858 -0.029294 0.157200 0.085937 0.177236 0.126483 0.111047 -0.116245 -0.133460 0.174960 0.168845 0.006638 -0.018339 0.161618 -0.177567 0.088103 0.017034 -0.021687 0.067536 -0.184889 -0.286292 -0.073487 -0.182767 0.030702 0.092758 0.031226 -0.317741 0.098475 0.166248 0.132028 -0.139100 0.106841 -0.047426 -0.296749 0.039226 -0.067097 -0.017867 0.021678 0.077736 -0.129981 0.009596 0.011269 0.108934 -0.109116 -0.018854 -0.139741 -0.211134 -0.001595 0.171848 0.349899 0.160533 -0.034419 -0.043961 0.217650 0.147649 0.138049 -0.166066 0.031278 -0.094591 -0.081501 0.169256 -0.098728 0.002854 0.254057 -0.083427 0.110124 -0.138728 0.203342 -0.140184 -0.101391 0.064503 -0.099083 0.011909 -0.046800 -0.198360 -0.063048 0.206249 0.112379 0.182272 -0.131488 0.180884 0.092816 0.073444 0.152442 -0.021310 -0.251876 -0.120462 0.021553
Sie -0.254109 -0.192135 -0.002430 -0.034997 -0.143847 0.200192 0.249283 -0.035158 0.253460 -0.129184 0.016999 -0.035852 0.124412 -0.240679 0.081797 0.077126 -0.072986 0.094568 0.029129 -0.126674 0.101212 -0.066206 -0.119067 -0.097785 -0.075117 0.186582 -0.054914 0.109322 0.141941 -0.101676 -0.256155 0.083789 -0.019711 0.099073 0.088242 0.100719 0.109529 -0.026904 -0.009310 0.160620 -0.055600 0.170240 -0.114209 -0.098241 0.102688 -0.149237 0.122540 0.049376 0.200099 0.058120 0.162602 -0.082596 0.028190 0.149672 0.242191 0.040505 0.139139 -0.164174 0.171359 0.183643 0.113186 -0.063273 0.273657 -0.125650 0.134194 0.258106 -0.064410 -0.049567 0.088413 0.169878 0.011039 -0.054433 -0.241038 0.003394 0.086347 -0.083482 -0.071340 -0.189162 -0.004267 0.149572 -0.123075 0.007010 -0.132133 0.005866 0.192717 -0.099590 -0.068699 0.241914 0.124936 0.149747 0.226342 -0.247838 -0.022882 0.114714 0.012361 -0.000896 0.071899 -0.108747 0.054958 -0.000380 -0.017975 -0.106877 0.114391 -0.114538 0.048563 0.052345 -0.080710 0.155393 0.015027 -0.102254 -0.168956 0.096550 0.026718 -0.022936 0.124658 -0.053951 0.016641 -0.078533 -0.166168 0.065071 0.140635 0.067611 -0.022765 -0.005386 -0.010613 0.014738 -0.085549 0.049506 -0.076648 0.215204 -0.036753 -0.049825 0.038743 -0.001683 -0.196362 -0.166185 0.202283 0.068908 0.024256 0.209575 -0.080631 -0.000801 0.010623 0.114944 -0.051233 0.126657 -0.014374 0.223532 0.048926 0.060839 -0.011464 -0.007593 0.235740 0.175928 -0.163223 -0.083448 -0.149525 -0.125902 0.251697 0.014384 -0.012167 -0.097203 -0.045497 -0.109561 -0.005349 0.155004 -0.066822 0.003050 0.166665 0.124137 0.029504 -0.219775 -0.027661 0.132593 0.211922 -0.069817 0.175564 0.020291 -0.102001 -0.012362 0.014217 -0.259374 0.074014 -0.262875 0.213447 0.172136 0.039168 -0.038362 0.175664 -0.196544 0.032063 -0.083801 0.052934 -0.131164 0.068725 -0.060995 -0.035535 0.159684 -0.082597 0.001235 -0.031041 -0.036688 0.108609 0.074153 -0.035289 -0.027718 -0.079185 -0.182265 -0.035545 0.009878 0.076360 0.079675 -0.035869 -0.061000 -0.116513 0.063957 0.018150 0.093703 0.005452 -0.281657 -0.128258 -0.094194 -0.002505 0.107219 -0.145204 -0.014495 -0.006248 -0.004400 -0.044401 -0.174605 -0.131929 -0.021701 -0.013369 -0.022591 0.072577 0.136890 0.018851 0.006083 -0.008513 -0.080900 -0.133562 -0.203745 0.094596 -0.122917 0.250079 0.195012 0.038597 0.103271 -0.005534 0.116819 -0.105828 0.341340 0.053790 0.131368 0.056843 -0.193732
des -0.208872 -0.072228 0.203485 0.208901 -0.101101 0.148635 0.149636 0.225240 -0.024926 -0.067785 0.065526 0.079902 0.020373 0.057791 0.095797 -0.167494 0.129775 -0.029724 0.032872 0.146771 -0.044883 -0.021599 0.086223 -0.167993 0.073844 0.167953 0.020420 0.047023 -0.123639 0.018211 -0.174934 0.049283 0.125270 -0.170365 -0.024835 0.073926 -0.064002 -0.076583 0.044244 -0.107069 0.016929 -0.003004 -0.070620 -0.147000 0.014278 0.085086 -0.062036 0.148251 -0.131522 -0.094451 0.064562 0.045974 0.035336 0.077776 0.009318 -0.012454 0.146791 0.003746 0.063120 -0.138036 0.197222 0.144258 -0.006253 0.060240 -0.114186 -0.135966 0.142733 -0.208686 -0.189596 0.015496 -0.046590 0.046897 -0.037829 -0.142059 -0.177081 0.162796 -0.012026 0.199492 -0.119598 0.065356 0.054113 -0.016963 0.067082 -0.262478 0.003809 0.040100 0.150032 0.049298 0.009622 -0.105163 0.036676 0.062444 0.095356 0.131546 -0.081608 0.063161 0.037992 -0.020202 -0.050985 -0.023097 -0.049765 -0.060576 0.106937 -0.107132 0.104327 0.153406 -0.034102 0.070738 0.153226 -0.075020 -0.061348 0.171164 -0.038685 0.116615 0.124761 -0.028227 -0.093706 0.026965 -0.009074 -0.195607 0.115832 0.023272 0.107045 0.103106 0.015306 0.077505 -0.136519 0.145515 -0.052832 0.145910 0.124239 -0.069216 0.093451 -0.015782 0.126001 0.019974 -0.141806 -0.072472 0.000360 -0.008534 -0.000153 -0.149203 0.013564 0.173551 0.062448 0.104407 0.052265 0.178323 -0.076836 -0.056404 -0.024911 -0.043484 -0.137352 0.129759 0.084649 -0.080521 0.010952 0.121324 0.065422 0.002482 -0.005489 0.123368 -0.106002 -0.174243 0.011330 0.199501 -0.200039 0.256144 0.023015 0.035038 0.116630 -0.003351 0.056437 0.149810 -0.078095 -0.072794 -0.074024 0.033007 0.067441 0.067001 0.034036 0.095613 -0.075985 0.117749 0.108656 -0.040835 -0.151066 -0.102447 -0.047368 0.094729 0.052093 -0.092547 0.067015 -0.148012 -0.092297 0.130577 -0.037206 -0.082930 0.030981 -0.094285 0.070386 -0.023104 0.025035 -0.172117 -0.034091 -0.057667 -0.075988 -0.153077 -0.145129 0.125435 0.130838 0.035370 0.113893 -0.027626 0.010939 0.080365 0.145068 -0.074939 -0.025489 -0.184685 0.100744 -0.002710 0.207208 0.090261 -0.020616 0.076519 0.066387 0.073868 0.094266 0.054034 -0.097303 -0.239778 0.084814 0.043310 -0.032035 -0.096059 -0.079803 0.012431 -0.007473 0.141066 0.144994 0.065499 -0.043611 0.221168 0.115887 -0.012926 0.072285 -0.013664 -0.129163 0.139699 0.213378 -0.013667 0.251179 -0.079827 -0.132467 -0.148694
nicht 0.161166 -0.104530 0.053383 0.055493 0.076453 -0.118992 -0.033773 -0.193846 0.024295 0.242640 0.003650 0.095911 0.242799 -0.007318 -0.089490 -0.213409 -0.116451 -0.041019 -0.132259 -0.087063 -0.063087 -0.076264 -0.155967 0.141303 0.087941 0.021677 -0.150789 0.000945 0.094703 -0.093411 -0.065565 -0.138165 -0.030930 0.130448 0.091718 0.001988 0.053842 -0.077719 0.094586 0.041673 -0.052100 0.114491 -0.242108 -0.057689 0.216185 0.062922 0.284128 -0.127767 -0.081565 -0.097803 0.131292 -0.112745 -0.060252 -0.013811 0.055637 0.048636 0.042974 0.083713 -0.155896 -0.232506 0.250893 0.117096 0.215012 0.260749 -0.154972 -0.043597 0.277143 0.114205 0.097547 0.212333 -0.046693 0.098364 -0.036724 0.104374 -0.050877 -0.098204 0.080758 -0.174658 -0.208064 0.162379 -0.062412 0.114431 0.159672 -0.144692 -0.066364 -0.027131 0.155770 0.169079 -0.051929 0.048128 -0.114169 -0.098647 -0.105906 0.161644 0.018749 0.103616 -0.070312 -0.053566 0.072179 -0.032498 0.258066 -0.051654 0.161816 -0.145754 -0.072610 0.024776 0.171372 -0.220531 0.009933 0.066888 0.014499 -0.095575 0.078607 0.129541 -0.121546 -0.123926 0.062075 -0.009647 -0.017325 -0.218227 0.060652 -0.068323 0.156445 -0.053021 0.070132 0.001641 -0.064454 -0.032100 -0.089108 0.184232 -0.118524 -0.125884 -0.017217 0.140901 -0.088167 -0.068847 -0.032857 -0.008246 -0.181857 -0.080011 0.029640 -0.125419 -0.111062 -0.069098 0.091135 0.055447 0.043444 0.075338 -0.076240 -0.261037 -0.101653 -0.185084 -0.014162 0.189533 0.130560 -0.067111 -0.126052 -0.156396 -0.019201 0.064121 0.026186 -0.062400 -0.183451 0.094827 0.051658 0.313633 0.126505 0.022255 0.033445 -0.028657 -0.039912 -0.170244 0.195415 0.081298 0.096549 -0.180663 0.076965 0.152143 0.139187 -0.035911 -0.166334 -0.195379 -0.185444 -0.120434 0.013018 0.205522 0.100653 0.175857 -0.110768 -0.088124 0.049246 0.153094 0.094699 -0.185449 -0.073203 -0.169340 0.144863 0.105034 -0.145419 0.071073 -0.064459 -0.116858 -0.073653 -0.033512 0.090282 -0.129674 -0.038858 -0.268921 0.009952 0.009093 -0.068326 0.281264 -0.022371 0.007677 0.044630 -0.009594 0.126327 0.026675 0.043383 0.096469 0.011597 0.252915 -0.001995 -0.104042 -0.036779 -0.065672 0.093589 -0.133347 0.058054 -0.075211 -0.088719 0.270513 0.220839 0.078819 -0.281150 0.205299 -0.072738 -0.111066 -0.027142 -0.162160 0.105198 -0.093192 0.164386 -0.160415 -0.159104 0.074665 0.198625 0.039861 -0.028841 -0.106731 -0.109483 0.105421 -0.027815 0.164517 -0.025277 -0.001131
im 0.073668 -0.010863 -0.014901 0.082832 0.155727 0.001020 -0.026472 -0.014547 0.213437 -0.008349 -0.136288 -0.141939 0.102843 -0.015309 -0.096422 -0.001612 -0.028410 -0.090510 0.020016 0.071337 -0.030693 -0.185699 0.058863 -0.030101 -0.168404 -0.116293 -0.138612 -0.123589 0.175451 0.124170 -0.087167 -0.033848 -0.137751 0.007590 -0.044350 -0.120421 0.006215 0.167238 0.083459 -0.121884 0.062007 0.061880 -0.258177 -0.083692 -0.029810 -0.029039 -0.083684 0.060768 0.135512 0.026891 -0.011756 -0.111011 -0.038979 0.119041 0.024165 -0.154730 -0.212495 -0.069179 0.028971 0.051381 -0.013564 0.199179 0.200194 0.087208 -0.066097 -0.019139 -0.002745 0.049118 0.191037 0.031261 0.026302 -0.051528 -0.026120 -0.041717 0.011492 -0.233436 0.053718 0.069045 -0.234192 -0.097384 -0.208639 0.052113 0.030244 0.096177 0.038167 0.055103 0.037575 0.063645 -0.133327 -0.063305 0.017592 0.129219 0.061659 0.243003 -0.004199 0.037362 -0.160763 0.009558 -0.025281 0.042229 0.038607 0.022017 -0.091118 -0.063203 -0.001492 0.099983 -0.097874 0.096062 -0.181004 0.015990 -0.045723 -0.005083 -0.019793 0.045482 -0.019306 -0.201154 -0.181414 -0.123639 -0.178448 -0.162395 -0.251420 0.132680 -0.083111 -0.097996 -0.102312 -0.018045 0.049729 0.002253 0.049200 0.153541 0.117670 0.194272 -0.244470 0.211891 -0.105776 0.121214 0.189574 0.078701 0.097864 -0.092238 0.047822 -0.057664 0.181410 0.006240 0.194778 -0.039111 0.145603 0.066759 -0.021375 0.041311 0.057151 -0.070411 0.025653 0.055792 0.119004 0.053709 -0.101000 0.174778 -0.146525 -0.192727 -0.030713 -0.074875 0.103375 0.023386 -0.147908 0.099587 -0.123100 -0.171189 -0.037228 0.064786 0.003774 0.137844 -0.013355 0.133930 0.031062 -0.148038 0.091041 -0.256436 0.134356 -0.150278 0.106377 -0.098338 0.170479 -0.181605 -0.034616 -0.086772 -0.077672 0.104927 -0.030348 -0.092003 -0.163287 0.099122 -0.056230 -0.259114 -0.046561 -0.193285 -0.153782 -0.017360 0.060937 -0.120424 0.129554 -0.062499 0.044522 0.082717 0.062728 0.038590 0.141480 0.013694 -0.134823 0.125843 0.206990 0.113564 -0.051983 0.087957 -0.060034 0.071482 0.137877 0.077261 -0.096728 -0.076985 0.136839 0.075635 -0.147021 -0.029507 -0.061784 0.138194 0.122922 0.023648 0.174831 0.005782 -0.119558 -0.000419 0.054975 0.088823 -0.014452 -0.047856 0.058362 -0.066491 -0.094892 -0.112890 -0.006313 -0.217934 -0.170600 -0.111876 -0.078301 -0.057643 0.203202 -0.223740 0.029157 -0.156040 -0.132043 0.077231 0.109199 0.145999 0.047072 -0.030351
werden -0.018169 -0.229393 -0.099583 0.062662 -0.095130 0.058721 0.000406 0.029293 0.085105 0.056632 0.089754 -0.089682 0.107659 -0.169647 0.030349 -0.151300 -0.049479 -0.155849 0.145389 0.017207 0.020875 -0.013967 -0.019986 0.049672 -0.100785 0.104920 0.225068 -0.037333 -0.128236 -0.176953 -0.206659 -0.082350 0.026868 0.105263 0.144357 0.207440 0.114747 -0.069450 -0.046214 0.006314 0.061396 0.177265 0.006625 0.008418 -0.065453 -0.117702 -0.088643 0.182985 0.109279 -0.022444 -0.019180 -0.074752 -0.046422 -0.022509 0.127037 0.021075 0.095399 -0.066982 0.022583 -0.142988 -0.070162 0.157988 0.064866 0.036388 0.082958 -0.092602 0.165958 -0.071724 0.020807 0.192474 0.054353 -0.007949 -0.171534 0.048280 0.008277 0.055239 0.085094 0.035356 -0.040705 -0.101752 -0.152870 0.131786 -0.124474 0.026176 0.075977 -0.109382 -0.104143 0.138536 0.053159 -0.044316 0.173342 -0.220310 0.002589 0.033253 0.057137 0.101426 0.061228 0.033657 -0.048985 0.009790 -0.011342 0.031985 0.127284 -0.151806 -0.026176 -0.066209 0.067394 -0.020206 0.029131 -0.180535 0.089473 0.099749 -0.008690 -0.036515 0.019200 0.054203 0.066595 0.037658 -0.103904 -0.018094 0.131551 -0.015305 0.022145 -0.184799 0.132401 0.043848 0.033639 0.136077 -0.019727 0.119829 -0.062185 -0.091745 0.107969 -0.028951 0.011107 -0.103965 -0.035678 0.085880 -0.055746 0.065305 0.051478 -0.058561 0.001770 0.229145 -0.084234 0.084465 0.006637 0.136014 -0.005800 -0.099482 0.094416 0.052050 -0.042790 0.186511 0.080092 -0.091340 0.048564 -0.080749 0.174050 -0.039516 0.138613 0.001271 -0.143576 -0.220198 0.174467 0.197560 0.185491 -0.069887 0.111176 0.010724 -0.057375 -0.091732 -0.174161 -0.096056 0.045020 0.014206 0.173969 0.016821 0.139676 0.073167 -0.049506 -0.114716 0.056393 -0.210169 0.061531 0.078977 -0.087470 0.189835 -0.024355 0.162075 0.026759 -0.095773 0.086585 0.053282 0.084694 -0.140189 0.171961 -0.175992 0.025181 -0.099000 -0.031993 -0.179251 -0.039483 -0.079402 -0.132816 -0.173650 0.064763 -0.039573 -0.024409 -0.042143 0.013815 0.149552 -0.070682 0.091911 -0.203235 -0.255900 0.002111 0.036942 0.162367 -0.199846 0.065048 0.011448 0.210568 0.130213 -0.119032 -0.046894 0.071720 -0.039073 0.016986 -0.014890 0.106569 -0.142863 0.000965 -0.069419 0.066517 -0.079765 0.018780 -0.051751 0.085031 -0.080590 -0.032114 -0.164848 -0.152634 -0.126218 0.129272 0.026804 -0.094194 -0.036721 0.119453 0.157680 0.147377 -0.031700 0.160459 -0.144667 -0.065141 -0.105772
Die -0.243215 0.084312 0.155706 -0.139644 -0.165034 0.012876 -0.304591 -0.135505 -0.052779 -0.002183 -0.189671 0.087381 -0.010836 -0.301029 -0.187072 0.030917 -0.288293 0.196603 0.038812 -0.110177 0.011477 0.168258 -0.023547 -0.052671 -0.182314 0.006766 0.135887 0.013882 -0.125348 -0.119934 -0.121050 0.050180 -0.035930 0.239574 0.103502 -0.009090 0.094018 -0.092708 -0.010254 0.018793 0.008187 0.138812 0.120698 -0.061661 0.227146 -0.044239 -0.055336 0.000632 0.107213 -0.022188 0.006025 -0.049046 -0.239167 -0.098655 0.071162 -0.099287 0.224476 -0.106025 0.005979 0.136043 0.058568 -0.054273 -0.015514 0.098302 0.081186 -0.014107 0.062849 -0.075876 -0.306772 0.166919 -0.015919 0.045485 0.044259 0.074529 0.091162 -0.115027 -0.079693 0.150945 -0.135119 -0.116298 0.111443 0.090169 0.117373 -0.241728 0.112909 0.049389 0.272847 0.166668 -0.021007 0.123777 0.035233 -0.064431 -0.150277 -0.092698 0.101238 0.083007 0.072675 -0.053429 -0.228565 0.053565 0.134369 0.066858 -0.033386 0.315128 -0.122117 0.091394 0.048259 0.073149 -0.044647 -0.096467 -0.011495 0.028177 -0.266399 -0.067610 0.004736 -0.198613 -0.013855 -0.156117 0.079730 0.162550 -0.157591 -0.081983 0.068886 -0.144904 -0.029282 0.097908 -0.170598 -0.039081 0.067215 -0.117292 -0.098602 -0.072608 0.104424 0.301669 0.116293 -0.002796 -0.017649 0.303912 0.231458 0.254120 -0.179029 -0.224585 -0.057033 0.082332 -0.064123 0.262672 -0.001984 0.230197 0.111923 0.032897 -0.235864 0.150646 -0.147682 0.233766 -0.032459 0.081674 0.048844 -0.145953 0.150356 0.092940 0.188533 0.102916 -0.087923 0.066644 0.017016 -0.035664 0.174171 -0.025629 -0.182031 -0.120378 0.054522 0.115585 -0.052577 0.209025 -0.097664 0.049662 -0.246791 0.037568 0.140382 -0.006316 0.155146 -0.194343 -0.076029 -0.102703 0.134917 0.041899 -0.105848 -0.145067 0.023899 0.080025 -0.426165 0.106847 0.116173 -0.189470 -0.028198 0.216742 -0.041270 -0.054458 0.229969 -0.093844 -0.106519 -0.164162 0.087648 0.055501 -0.067875 -0.141366 0.180477 -0.053348 0.181565 0.055431 -0.109154 -0.139504 0.074926 0.060912 -0.067247 0.143546 0.116897 -0.037494 0.212711 -0.076491 -0.243677 0.155728 -0.216021 0.034763 0.063806 0.064953 0.007448 0.218409 0.164291 -0.091599 0.136144 -0.222581 -0.094065 0.221615 0.043984 0.026952 -0.003097 -0.275842 -0.147256 -0.125837 -0.106456 -0.155858 0.063963 -0.073192 0.087130 -0.009517 -0.095887 0.043110 -0.059761 0.003454 0.006425 0.013362 0.159897 0.056903 -0.148878 0.105625
dass 0.031282 -0.051394 -0.105607 0.060441 -0.092636 -0.045058 0.136947 0.214912 -0.164486 0.060832 0.059922 0.121104 0.200134 0.105646 -0.074645 -0.163279 -0.063519 0.036680 0.057933 -0.164757 -0.129167 -0.046607 -0.140636 0.079087 -0.198122 0.133320 0.071035 -0.086655 0.013821 0.139089 -0.177722 -0.043785 0.078179 0.064691 0.136512 0.033415 0.065672 -0.198034 -0.042896 0.083028 -0.045399 0.185960 0.075808 0.102280 -0.067587 -0.006554 0.183892 0.159943 0.031738 -0.123896 0.057899 -0.087207 -0.046309 0.042112 -0.040784 0.155628 0.081327 -0.106410 -0.042931 -0.067739 -0.369586 -0.009353 -0.140380 0.074315 -0.035935 -0.096804 0.029727 -0.056363 0.320070 0.125180 -0.248321 0.241341 -0.126511 0.142517 0.131637 0.107306 -0.088869 -0.058566 -0.093897 -0.059959 0.060104 -0.075652 0.042122 0.014409 -0.131011 -0.106154 -0.228960 0.005624 -0.007749 0.048082 -0.088773 -0.155066 0.239430 -0.011783 -0.147401 0.125988 -0.030446 -0.033925 0.099768 -0.032461 0.218464 0.067244 0.165523 -0.030331 -0.016332 -0.218088 0.226046 0.006893 -0.292740 -0.073964 0.243245 0.040390 0.161345 -0.165235 0.010470 0.135042 0.192709 -0.233775 -0.029034 -0.071971 -0.149149 0.165060 -0.170969 -0.113807 0.080632 -0.015160 -0.037476 -0.173026 -0.130779 0.153410 0.102373 -0.152994 0.216033 0.046016 -0.000369 -0.168325 -0.235555 -0.031816 -0.182701 -0.112129 -0.162103 0.196509 0.112467 0.269351 -0.009019 0.218235 0.032145 -0.072412 0.107749 -0.113088 -0.104990 -0.098116 0.040894 -0.094050 0.016801 -0.013855 0.025101 -0.048383 -0.001845 0.082018 -0.048443 -0.101042 -0.148638 0.004371 -0.078464 0.107740 0.028347 -0.052830 0.135207 0.184655 -0.193755 0.063986 0.256175 0.042089 0.128108 0.046991 -0.342693 -0.047641 -0.049080 0.072001 -0.040068 0.273998 -0.170995 0.138966 0.017044 0.137624 0.018716 -0.097004 -0.053899 0.146731 0.066626 -0.071352 0.153080 0.020225 -0.205349 -0.109615 -0.062921 -0.036795 -0.106484 -0.142599 0.045713 -0.104182 0.085702 0.149890 -0.072247 -0.052970 -0.047333 -0.114991 -0.154743 0.061160 -0.044972 -0.043572 0.052136 -0.207006 -0.158864 -0.041845 -0.155915 0.163123 0.035809 0.033516 -0.153185 -0.027071 -0.207718 -0.099013 -0.122338 0.071427 0.088319 -0.191084 -0.121090 0.003104 0.012110 0.154202 -0.143999 0.050463 -0.195429 0.001028 0.075569 -0.167286 -0.003133 0.026850 -0.159626 -0.223414 -0.172145 -0.118556 0.067111 0.135290 0.181358 -0.052088 -0.078831 0.090292 -0.036360 -0.069605 0.030020 -0.173226 -0.046921 -0.343151
ein -0.046163 0.040515 0.098415 -0.186998 -0.194709 0.183850 -0.061149 -0.017674 0.015588 0.028970 0.237733 0.077242 0.001697 -0.066306 0.167722 0.261618 0.185870 -0.098317 -0.016111 0.077509 -0.016230 0.010563 -0.175314 -0.107211 -0.038282 0.144679 -0.249802 0.115760 -0.033923 -0.019987 -0.055330 0.006490 -0.067286 -0.077197 -0.022208 -0.151613 -0.158881 -0.002481 0.028520 0.017872 -0.169704 0.071111 0.003110 0.049586 0.092270 0.059804 -0.018398 -0.012314 0.065650 -0.027624 0.241777 0.145056 -0.068445 -0.056720 -0.017519 0.000809 0.064979 -0.017027 -0.023085 0.064381 0.112791 -0.155802 0.139159 0.055926 -0.090015 0.105896 0.032523 0.142327 -0.184393 0.013885 0.000395 0.115857 0.089439 -0.177990 -0.206908 -0.028708 0.053913 0.014160 -0.031000 0.110136 -0.115537 -0.113588 0.154040 -0.106470 0.132054 0.028613 0.115835 -0.135826 -0.085648 0.085488 -0.137666 -0.034685 0.024947 0.013396 0.027023 -0.015636 0.113022 0.276884 0.007459 0.011869 -0.005837 0.182622 -0.009289 0.201926 0.055162 -0.128164 0.091699 0.014820 0.141416 0.033227 0.061214 0.113290 0.298231 -0.001253 0.015827 -0.056149 -0.103706 0.081967 -0.149523 0.035352 -0.132603 0.038249 -0.005761 0.104467 -0.004750 0.034734 0.063381 -0.093157 0.112178 0.029018 -0.147238 0.000223 0.104411 -0.014575 0.162366 -0.036911 -0.057553 0.062401 -0.102571 0.088809 0.012809 -0.059244 -0.077929 0.153422 -0.003213 -0.103737 -0.016947 0.020554 0.081237 -0.123748 0.103710 0.013628 0.110271 -0.099273 -0.044566 -0.075675 -0.008792 0.111653 0.041207 -0.032263 -0.013715 -0.039134 -0.283588 -0.074849 -0.063967 0.203517 -0.033608 0.113773 0.002472 0.079574 0.168671 -0.041220 0.087881 -0.052183 0.080603 0.158183 0.080918 -0.130230 -0.001151 0.120414 -0.030620 -0.148830 0.156933 0.145897 0.048438 -0.097297 -0.012728 -0.012526 0.012067 -0.159750 -0.124340 0.021023 -0.115106 -0.072762 0.038251 0.116384 0.000026 0.077892 0.018309 -0.002972 0.029211 0.027991 -0.314311 0.009051 0.020984 -0.120699 0.069213 0.021483 0.035369 0.111846 0.064478 -0.069239 0.024139 -0.107006 -0.168840 -0.024578 -0.010332 -0.073045 -0.044977 -0.105941 -0.082418 -0.015840 0.026853 0.069511 0.088632 -0.069579 0.007135 -0.000499 -0.129364 0.174724 0.001452 -0.066012 -0.193850 -0.205636 -0.121618 -0.013119 -0.017047 -0.038013 -0.160086 -0.053922 0.053177 0.030862 0.170394 0.050719 0.151831 -0.032493 -0.088040 -0.091903 0.002025 -0.046683 0.026636 0.010411 -0.076284 0.081304 -0.060966 0.070553
wir -0.083551 0.286631 0.054741 -0.091830 0.166126 0.061843 -0.021582 -0.066822 -0.028613 0.036885 -0.153678 -0.112056 0.121943 0.230886 0.186158 0.010348 -0.108039 -0.050930 0.100720 0.016468 -0.031420 -0.018931 -0.053700 -0.042388 -0.173162 0.091882 0.131622 -0.127923 0.059232 0.037006 0.111457 0.056712 -0.086081 0.017437 -0.231924 -0.041940 0.194027 0.081353 -0.212010 0.004957 -0.052351 0.074194 -0.206392 -0.154724 -0.149189 -0.183837 0.067723 -0.067490 0.218249 0.174011 0.001983 0.065235 -0.143962 0.216213 -0.040946 0.029345 -0.125990 -0.119842 0.000112 0.015027 -0.022435 -0.143496 -0.075447 -0.106722 -0.172022 0.165288 0.065653 -0.033344 0.062855 -0.081881 0.009454 -0.163925 -0.002139 0.075239 0.185831 0.238737 0.001546 0.010629 0.113098 -0.059536 -0.175545 0.144638 -0.077731 0.200654 -0.028953 -0.020793 -0.050456 0.079253 -0.050151 -0.063194 0.046503 -0.220738 -0.043991 0.082648 -0.030427 -0.035081 0.024815 -0.083394 0.121471 -0.134718 0.143238 0.069251 -0.037874 -0.039427 0.258767 0.001498 0.132192 0.045375 -0.091371 -0.192564 -0.115455 0.151014 0.149651 0.048865 -0.013485 -0.008862 -0.118118 -0.008775 0.135785 -0.149501 -0.173374 -0.023103 -0.027412 -0.183999 0.150119 -0.150185 -0.190945 -0.016608 0.299410 0.178357 0.069745 0.017989 0.219641 0.038483 0.208060 -0.057365 -0.052023 -0.018357 0.069748 -0.139410 0.045317 -0.003691 -0.077105 0.188444 -0.087472 -0.051599 0.125791 0.120716 -0.095686 0.088247 0.052342 0.270455 0.047471 -0.032777 0.121821 -0.130205 0.185877 0.089135 -0.091238 0.223742 0.253879 -0.050595 0.017654 -0.085753 0.220396 0.031068 -0.086963 0.060833 -0.079955 -0.022781 0.052676 0.019650 -0.200146 0.069151 -0.147998 0.064873 0.124753 -0.100637 -0.054184 0.072024 -0.010726 -0.122387 0.195828 -0.232913 0.014132 -0.038989 -0.058675 -0.063265 -0.017833 -0.210082 -0.081564 -0.058188 -0.057646 0.087510 0.168466 0.065977 0.004358 0.014056 0.163463 -0.138489 0.061729 -0.047455 -0.196377 -0.019039 -0.080990 -0.025304 -0.066371 0.068992 0.050527 0.085322 0.095753 -0.152813 -0.104095 -0.088612 -0.092181 -0.037657 0.092586 0.018993 -0.021364 0.028313 0.010199 0.065405 -0.055213 0.046780 0.175030 0.156185 0.090973 -0.038307 -0.123796 -0.164880 -0.145070 -0.163304 -0.146211 -0.110683 0.130055 -0.038631 -0.258696 0.106409 0.156394 -0.067768 -0.234238 -0.185639 0.133017 -0.017966 0.152095 -0.063720 0.122820 -0.159390 -0.053876 0.036990 -0.199474 0.015161 -0.007788 0.139123 0.132789 -0.167644
dem 0.149945 -0.043101 0.152202 0.061190 -0.065671 0.131350 0.080650 -0.022439 0.044243 0.166130 0.215136 0.174459 -0.070153 -0.094200 0.192928 0.110459 0.159365 -0.120104 0.009245 0.129156 -0.124062 -0.091013 -0.035077 -0.019271 0.018817 0.127377 -0.249624 0.015674 -0.108678 -0.054488 -0.009341 0.014679 -0.153811 -0.112431 0.058722 -0.063462 -0.082868 -0.046767 0.290381 0.134331 0.134446 0.011385 0.107789 -0.146874 -0.117772 0.018650 -0.111919 0.144638 -0.025021 0.041554 -0.002099 0.223974 -0.124530 0.049983 -0.098445 -0.050987 0.108729 0.141484 -0.060197 0.089003 0.028936 -0.083022 -0.081918 0.131233 0.067713 0.034663 0.015958 0.074060 -0.016032 -0.068801 0.042905 0.094514 0.261271 -0.164897 -0.098552 -0.147618 0.077022 0.015281 0.078042 0.111260 -0.014991 0.014731 -0.072346 -0.228442 0.040064 0.127277 0.057006 -0.085198 -0.034506 0.057878 0.012934 -0.017538 -0.121160 -0.112958 -0.069328 0.041939 0.139494 0.115377 -0.035017 0.030707 -0.024676 0.048228 -0.092190 0.087683 0.090804 -0.032365 -0.006362 0.141231 0.143107 -0.003532 0.070681 0.127766 0.046195 -0.152982 -0.008430 -0.155073 -0.106101 0.026009 0.057807 0.170078 -0.098638 -0.011963 -0.144490 -0.030762 -0.023327 0.067087 -0.006182 0.106082 0.092291 0.027550 -0.141891 -0.046824 0.215108 0.030008 0.124076 -0.104794 0.032519 -0.026429 -0.079177 0.143063 0.015726 -0.193771 -0.067764 0.050620 0.122095 -0.017654 0.036346 0.061495 0.106650 0.008308 -0.090693 -0.177360 0.000174 -0.142319 -0.001960 0.063621 0.093228 0.008233 0.231021 0.104140 -0.059335 0.134000 -0.229073 -0.182955 -0.232073 0.144760 -0.212005 -0.125888 0.071810 0.093577 0.011820 0.134771 0.109111 -0.018349 0.047334 0.091392 -0.043406 -0.142550 0.001141 -0.035959 -0.257659 -0.135978 0.077144 0.085728 0.081781 -0.143046 -0.006188 0.050822 0.041051 -0.084756 -0.172616 -0.116285 -0.203923 -0.074403 0.028776 0.187226 0.136581 0.132529 -0.102472 -0.029007 0.007731 0.178843 -0.089116 -0.003686 -0.009617 0.027768 0.019007 0.193749 -0.014539 -0.004089 0.069466 -0.019373 0.062220 -0.084043 0.044135 -0.021745 0.008519 0.003811 -0.067420 0.019496 0.095322 -0.156706 0.058288 0.138693 0.004144 0.126211 -0.116269 0.137021 -0.094429 0.156442 -0.082180 0.037963 -0.143559 -0.008330 -0.020843 0.121544 0.034679 0.018197 -0.210525 -0.058479 -0.034042 -0.092586 0.046643 -0.114747 0.176467 0.096201 -0.071468 -0.047128 0.090167 0.037637 0.125125 -0.132369 -0.044229 -0.075966 -0.095723 -0.022012
sich 0.119213 0.069250 0.001423 -0.156012 0.155814 -0.160908 -0.116227 0.014341 -0.039421 0.028799 -0.083378 0.063596 0.090608 -0.089596 -0.051273 0.012803 -0.072248 0.012540 -0.129963 0.090365 0.055778 -0.049475 -0.039135 0.026115 0.007724 0.107688 -0.180752 0.049988 0.090257 -0.129852 -0.028357 -0.182315 0.086184 -0.053959 0.143594 0.053487 -0.017663 -0.278881 0.150537 0.079968 0.147249 0.153554 0.188107 -0.177555 0.144880 -0.004921 0.194682 -0.007699 -0.074551 -0.003334 0.147873 0.024348 -0.093911 -0.160880 -0.004628 -0.012644 0.069353 -0.105250 0.095569 0.016241 0.047045 0.085066 -0.036628 -0.120291 -0.116394 0.084749 0.209432 -0.065927 0.056203 0.291542 0.075606 0.083200 0.109204 -0.108080 -0.124372 -0.251860 0.079823 -0.190329 0.113172 0.264664 -0.099751 -0.074390 0.046089 -0.066416 -0.128835 0.147498 -0.015784 0.010655 -0.052116 -0.001599 0.041569 0.096505 0.120782 0.167666 -0.201495 0.059670 -0.195387 0.048990 0.247486 -0.009638 0.239347 0.068786 -0.043473 -0.124500 0.005940 -0.004369 -0.079894 0.013522 0.043800 -0.272001 0.126876 -0.200680 0.043408 -0.187907 0.156167 0.060069 -0.037342 0.066865 -0.046600 0.020896 -0.092326 -0.246885 0.036491 0.109591 -0.128471 0.204952 -0.015501 -0.068157 0.046454 0.123430 -0.101849 -0.028365 0.016868 0.104897 0.202164 -0.030778 -0.182164 -0.034499 -0.157753 -0.008876 0.046974 -0.022435 -0.152599 0.100416 -0.005144 -0.103669 0.173865 -0.127331 0.206886 -0.176437 0.081044 -0.095990 0.151472 0.243958 -0.132781 -0.024833 -0.202176 0.000443 -0.004390 -0.057930 0.116133 -0.227102 -0.080234 0.124112 0.058996 0.079108 -0.103069 0.012160 -0.148866 0.221606 0.064184 0.020922 -0.005292 -0.026531 0.019810 0.119713 -0.095456 -0.067336 0.195879 0.026545 -0.025463 -0.093123 -0.155515 0.153470 -0.037304 0.217160 0.007234 -0.155973 0.079737 0.124091 -0.072973 0.146213 -0.034417 -0.240884 -0.113121 0.054613 0.052701 -0.008964 -0.235108 0.053967 0.173549 -0.256346 0.131923 0.168022 -0.131695 -0.042172 -0.188663 -0.014424 -0.045423 0.060357 -0.018514 0.272513 -0.077174 -0.093250 0.180005 0.007759 0.006146 -0.108310 0.077229 0.067345 -0.044428 0.059977 -0.112308 0.215222 -0.154240 -0.005751 -0.040624 -0.142282 -0.121510 0.103546 0.020918 0.138151 0.010960 0.074887 -0.130625 0.110048 0.068068 0.220162 0.214772 -0.076111 -0.030483 0.064416 0.161994 -0.004485 0.087543 0.141448 -0.158046 -0.036631 0.078868 0.161542 0.022292 0.054097 0.085887 0.070412 -0.002523 0.093077
es -0.030813 0.008106 -0.080876 0.058389 -0.089551 0.009533 0.029184 0.064586 0.292681 -0.184590 0.025128 -0.174124 0.019735 0.175593 0.128157 -0.022170 0.292864 -0.006770 -0.038788 0.136738 -0.052447 -0.122119 0.135718 -0.079517 -0.068453 -0.077752 -0.197786 -0.119341 -0.268190 -0.000980 -0.102622 0.127884 -0.028993 0.177818 -0.013786 -0.215123 0.023801 0.076862 -0.102072 0.107928 -0.069162 0.016091 -0.166895 0.108441 -0.081198 -0.286328 -0.114381 -0.079890 -0.111356 -0.071923 -0.147768 -0.170496 -0.140825 0.320426 0.011889 -0.176699 -0.052049 -0.048235 0.026291 -0.101445 0.121550 0.179143 0.146962 -0.016952 0.037173 -0.194033 0.067104 -0.157338 0.015027 0.050353 0.131078 -0.008263 -0.213417 0.139301 -0.142841 0.024793 -0.059719 0.039986 -0.053471 -0.002477 -0.073816 0.079781 0.052740 0.099672 -0.044723 0.065498 0.152638 0.155728 0.032421 -0.092805 -0.122084 -0.069888 -0.056519 0.196357 -0.001132 -0.076863 0.009081 0.036339 -0.084639 0.041641 0.022822 -0.120824 -0.015863 0.046484 0.119129 0.083121 -0.141103 0.068237 0.140570 -0.091704 0.069178 0.110009 0.023544 0.097384 -0.095879 -0.087528 -0.141570 -0.163615 0.032838 -0.054327 -0.115922 -0.089304 -0.112011 -0.230427 -0.026810 -0.212810 0.141904 0.028408 0.224851 0.031035 -0.038323 0.074846 0.009334 0.328357 0.139205 -0.013971 0.171737 0.147190 0.178386 -0.125222 0.117850 -0.094286 -0.031363 -0.100869 0.232222 0.075273 0.042426 0.042486 -0.094644 0.229230 0.015724 -0.068245 -0.032931 0.237907 -0.047913 -0.161778 -0.031270 0.126550 0.073510 -0.028895 0.178988 0.109073 0.002448 -0.065577 0.195069 0.146395 0.057087 -0.006168 -0.042442 -0.162148 0.157047 0.032418 -0.034008 -0.076522 0.081491 0.055421 0.109894 -0.078254 -0.020579 0.089585 0.014146 -0.217166 0.017027 -0.119778 -0.060918 -0.004352 0.033396 0.080034 -0.123526 0.112663 -0.108870 -0.052147 0.188955 -0.120869 0.005989 -0.194585 -0.079769 0.089373 -0.064385 -0.142948 -0.065183 -0.154437 0.085264 0.038001 0.030404 0.025032 -0.115329 0.062080 -0.011556 0.005348 0.022484 0.175554 -0.113037 0.141150 -0.024163 -0.052416 0.112172 0.153892 0.129710 -0.131368 0.098430 0.116056 0.131572 -0.023210 -0.074082 -0.100727 0.122642 0.096329 0.064545 0.041365 0.134585 -0.171382 0.020303 -0.088064 0.158310 -0.000594 -0.002837 -0.016516 -0.029738 -0.178168 -0.190864 -0.146422 0.109227 0.033548 -0.061537 0.147543 -0.152777 -0.040508 0.133092 -0.039565 0.065355 -0.005077 0.212706 0.221432 0.162461 -0.048392
auch -0.056466 0.167528 -0.106724 0.172392 -0.055148 -0.116231 0.186901 -0.004365 0.105889 0.016004 0.077579 0.181645 0.189330 0.066009 0.021039 -0.051425 0.014168 -0.039928 -0.055063 -0.073836 -0.146483 -0.117292 -0.220643 0.183168 -0.108972 -0.053429 -0.100110 -0.049414 0.083415 0.011006 0.088875 -0.074282 -0.150303 -0.114530 -0.095645 -0.146600 -0.174725 0.075929 0.115288 -0.028348 -0.091010 -0.085663 -0.047402 0.104096 -0.046312 0.141645 0.084552 -0.081451 0.166532 0.059657 0.165790 0.055983 -0.082768 0.108003 0.032797 -0.018175 0.071917 0.133795 0.018079 -0.055218 -0.016030 -0.191443 -0.014339 -0.044120 -0.039934 0.092617 -0.068464 0.033935 -0.174592 -0.002400 -0.132275 0.115618 0.023509 -0.057935 0.145711 0.021015 0.095461 0.188981 0.098738 0.000209 -0.101088 0.001107 -0.072165 0.009728 -0.055141 0.025069 -0.072848 -0.094067 0.095026 0.029199 0.024139 0.111060 0.117286 -0.121141 0.016379 -0.221256 0.222947 0.034842 0.022031 0.080267 0.004495 0.001451 -0.012770 0.039364 -0.020472 -0.143240 -0.015450 0.032315 -0.026477 0.068748 0.003672 -0.011179 0.082861 -0.133057 0.002622 -0.040353 -0.033193 -0.076530 -0.064727 0.129955 -0.090867 -0.037377 -0.070325 -0.008764 0.032070 0.078284 -0.004704 0.005110 0.071035 0.017910 0.054670 0.013233 -0.071308 -0.076931 -0.084459 -0.091753 0.012714 -0.002155 0.095975 0.060510 0.009158 -0.075353 0.040118 0.098581 0.059512 0.217502 -0.089510 0.006411 0.005224 0.132410 -0.068450 -0.046675 0.024484 -0.004688 -0.006713 -0.059837 -0.090984 0.006594 -0.022215 0.067157 -0.038167 -0.063972 0.082816 0.034378 -0.126759 -0.044968 0.004524 -0.142954 -0.111183 -0.086899 0.001416 -0.058372 -0.038350 0.085044 -0.024194 0.046303 0.059130 -0.009446 -0.179602 -0.007130 -0.221581 -0.123770 0.136826 0.161975 0.049088 -0.107557 0.039646 -0.158424 0.025400 -0.033321 -0.222223 0.111923 0.014177 0.183082 -0.090950 0.131247 -0.082408 0.078996 -0.118303 0.047343 0.019544 -0.037577 0.099715 0.076022 -0.074865 0.066218 -0.039609 -0.036189 -0.074443 -0.014683 0.067235 -0.223260 0.000581 -0.016511 0.028334 0.095395 0.081611 -0.003374 0.097934 -0.028581 -0.021912 -0.123787 -0.125158 0.033916 0.071600 -0.031555 -0.120233 0.067058 0.029682 0.066860 -0.002999 -0.031601 -0.054125 -0.006833 -0.073587 -0.007731 -0.053952 -0.000930 0.052774 0.015652 -0.171712 -0.235038 0.165576 0.182658 -0.023953 -0.027762 -0.037543 -0.066776 -0.062109 -0.121770 -0.052289 -0.080713 0.075053 0.137333 0.137979 0.096344
sind -0.054867 -0.083348 0.072143 0.096637 -0.041477 -0.077968 -0.102975 -0.076889 -0.102365 -0.011676 0.063630 0.042505 -0.160483 0.052424 0.141260 0.127569 0.009832 0.036085 -0.209098 -0.119735 -0.119012 -0.088768 -0.032897 0.157925 0.036264 -0.003461 -0.114399 0.102319 0.024482 0.082966 -0.217987 0.083796 -0.206946 0.065783 0.264791 -0.047073 0.121005 -0.236612 0.131502 0.119796 0.043889 -0.018047 -0.039155 -0.041227 -0.069532 0.030686 0.035229 0.050475 -0.151807 -0.040389 -0.006004 0.149492 -0.042623 -0.110948 0.177007 0.111961 0.036655 0.142790 -0.018887 -0.022808 -0.105179 -0.052386 0.123986 0.089237 -0.069973 0.024851 0.005633 0.032424 0.046555 0.109758 -0.111063 -0.128725 -0.016328 0.038389 0.027301 -0.156800 -0.055811 -0.099966 0.042636 -0.043503 0.192006 -0.146407 -0.116648 -0.159313 -0.113127 0.047161 -0.091481 0.155415 0.021591 0.133629 0.011559 -0.039619 -0.073125 0.009328 0.084986 -0.027455 0.077736 -0.129990 -0.149701 0.001429 -0.061281 0.153064 -0.097065 -0.078375 -0.126945 -0.236872 0.082779 -0.024290 -0.052231 -0.003304 0.149849 0.008907 0.053872 0.057210 -0.035592 -0.107664 -0.008525 -0.060318 0.085475 -0.078568 0.114450 -0.071175 -0.141179 0.053733 0.110255 0.132600 0.094925 0.062362 -0.203186 -0.098096 0.147337 0.114422 0.091063 -0.006536 -0.146677 0.106970 0.076423 -0.176161 0.062988 0.101755 0.099979 -0.051545 -0.013704 -0.026875 0.018847 0.144654 -0.010348 0.052528 -0.005596 -0.022185 -0.170132 -0.001542 0.084621 -0.070078 -0.066199 -0.032554 -0.045868 -0.109798 -0.117262 -0.034845 -0.149858 0.082321 0.069058 0.066750 -0.063356 -0.121037 0.206387 -0.035246 -0.071668 -0.150232 0.015431 -0.069762 0.014079 0.201425 -0.196217 -0.051312 0.268338 -0.133733 0.293103 -0.039035 -0.271115 0.014667 -0.098808 0.030401 0.125949 0.051243 0.186964 -0.113096 0.074181 -0.097327 0.195713 -0.017056 0.079816 -0.166484 -0.084006 -0.010611 -0.184768 -0.010346 -0.372628 -0.053019 0.071109 -0.043199 -0.052730 0.121662 0.293723 0.126908 0.157712 0.150259 -0.195643 -0.030559 0.088723 0.055267 -0.101668 0.070502 -0.104096 -0.057582 -0.086439 0.017865 -0.019034 -0.074931 -0.018309 0.021602 -0.052731 -0.014792 0.114984 0.025945 0.173098 0.165078 -0.213139 -0.103706 0.103649 -0.015071 0.084236 0.118567 -0.136368 -0.001363 0.045960 -0.048877 -0.116681 -0.028102 -0.167224 0.019356 -0.006652 -0.013108 0.071007 0.036711 0.036828 0.020243 0.054332 0.148027 0.031317 0.043335 0.071753 0.108892 0.100442 -0.123305
- 0.087195 0.039087 0.124893 0.093078 0.015536 0.039284 -0.125031 0.081535 -0.230173 0.191117 0.045691 0.038966 0.035479 -0.054099 -0.023996 -0.119128 0.191916 0.149909 -0.007433 -0.082451 -0.050873 0.029055 -0.236154 0.032653 0.053496 -0.153227 0.088497 -0.275332 0.020975 -0.080611 0.125793 0.023844 0.082173 -0.082702 -0.056644 -0.034331 0.219214 -0.279194 -0.005238 -0.004736 0.227242 0.008914 -0.324618 -0.130080 0.022060 -0.292702 0.184746 0.187934 -0.008918 -0.123959 -0.121110 0.058008 0.052296 -0.034881 -0.053354 0.025529 0.163940 0.058236 0.143289 -0.092090 0.307036 -0.094731 0.027036 0.020392 0.300185 -0.062802 0.131215 0.249558 -0.325772 0.287955 -0.064865 0.177863 0.018861 -0.072771 0.072571 -0.061577 0.065856 -0.182062 -0.232601 0.044413 0.153265 -0.238967 -0.058868 -0.015120 -0.132834 0.094927 0.041101 -0.138131 0.193754 0.029342 0.007092 -0.047764 -0.060253 -0.204334 0.003350 0.020121 0.248852 0.207667 -0.132278 0.194456 0.008951 0.243822 -0.063706 -0.172380 0.234975 -0.150877 0.057479 0.024187 0.258630 -0.120193 0.110259 -0.078434 -0.020804 0.044947 0.023558 -0.122701 0.055589 0.095112 -0.113719 -0.172447 -0.049183 -0.248778 0.063818 -0.179376 0.113397 0.009542 -0.000587 -0.123285 -0.192200 0.205580 0.060980 -0.086892 -0.014489 -0.035965 0.151662 -0.132904 -0.003751 0.069321 0.075605 0.186154 0.018262 0.105204 0.092561 0.063995 0.211346 0.058212 -0.101495 0.133481 0.014316 -0.011493 -0.195492 0.200599 -0.126417 -0.099847 0.103867 -0.040331 0.154672 0.201734 -0.263853 0.175732 0.034499 0.037259 -0.034624 -0.057196 -0.008485 0.156652 0.146599 0.097204 -0.074705 -0.021973 0.167314 -0.027961 0.113087 0.101846 -0.012448 -0.132696 0.289227 0.060675 0.110370 0.168372 -0.280511 0.153170 0.032414 -0.080996 0.069928 -0.041212 -0.313617 0.169199 0.032901 0.264446 -0.048853 0.103911 -0.073396 0.022942 0.227877 -0.019791 -0.074335 -0.185789 0.038871 -0.125656 0.145673 0.024482 -0.154571 0.153154 0.039079 -0.174922 -0.159646 -0.042063 -0.110592 -0.057399 -0.044393 0.200255 0.083818 -0.037447 0.029330 -0.129155 0.071101 -0.229842 -0.071639 0.206805 0.019528 0.023301 -0.042808 -0.114217 -0.187848 0.070015 0.145512 -0.190102 -0.019012 -0.154584 -0.048501 -0.108313 0.145157 -0.115197 -0.136126 -0.208194 0.097206 0.089648 -0.040319 -0.088177 0.094498 -0.061786 0.122002 -0.042420 0.084370 0.050510 0.047972 0.229046 0.003665 0.085236 -0.029065 0.023071 0.140061 0.239283 0.001754 -0.304024
an -0.062284 0.233757 -0.060502 0.229743 0.054902 0.025568 -0.305380 0.113875 -0.054550 0.008498 -0.033199 -0.079092 0.137757 -0.163839 -0.104260 0.136006 0.167903 -0.104124 0.249906 0.070238 -0.149483 0.085944 -0.180193 0.265631 0.300817 -0.100331 -0.081700 0.104255 -0.131319 0.023518 -0.104181 -0.075005 -0.223837 0.096731 -0.134837 0.000103 0.219588 -0.223195 -0.120748 -0.227728 -0.156795 0.072279 -0.026884 -0.090758 -0.050562 -0.190678 0.252201 -0.154808 -0.106432 -0.085545 0.063104 -0.001425 -0.145609 0.037649 -0.088193 -0.174896 0.193706 -0.157884 -0.025617 -0.221906 0.120382 0.066937 0.060852 0.197547 0.188898 0.139649 0.153994 0.235829 -0.086793 0.019236 -0.104490 -0.019049 0.176716 -0.201260 -0.050487 -0.265972 0.023539 0.025657 -0.180041 -0.137832 -0.087001 0.048949 -0.154241 0.016954 -0.307250 0.042031 0.089221 -0.128625 -0.009133 -0.078994 -0.069454 0.092765 0.186775 0.034718 0.008029 0.174278 0.092844 0.004645 -0.087650 -0.086337 0.013026 0.019651 -0.061317 0.077923 0.128660 -0.101430 -0.282421 -0.210839 0.131363 -0.227796 -0.129569 -0.112849 0.311687 0.133307 -0.219724 -0.120219 -0.294067 0.004526 -0.209475 0.022784 -0.194799 0.145041 0.120067 -0.244179 -0.087075 0.022554 -0.277325 -0.229517 0.028651 0.054431 -0.164953 0.112115 -0.168403 -0.124851 0.244893 -0.138960 -0.112487 0.124882 0.309792 0.014559 -0.211625 0.173665 -0.165035 -0.161193 0.127051 0.125615 0.059216 0.209330 0.004720 0.032455 0.181938 0.036952 -0.121421 0.005243 -0.027169 -0.135292 -0.060541 0.328092 -0.268283 0.052137 0.026824 0.073046 -0.149340 -0.009114 -0.004313 0.229084 -0.111324 -0.063117 -0.160435 0.020955 -0.112582 0.153485 0.120670 -0.201771 0.207262 -0.225238 -0.076781 0.040573 -0.127266 0.190628 -0.277377 0.101662 -0.210971 -0.356093 -0.147412 -0.078247 -0.234470 0.049099 -0.009322 0.096110 -0.024317 0.157619 -0.088613 -0.003586 -0.004794 0.062724 -0.055773 -0.069685 -0.115367 -0.006703 0.086650 -0.147986 -0.144325 -0.081465 -0.000657 0.071744 0.148099 0.095014 0.175018 -0.038887 0.189358 0.153083 -0.262402 0.026885 -0.150189 0.172371 0.138444 0.183456 -0.214175 -0.053109 0.137437 -0.025517 0.141890 0.039385 -0.342447 -0.019345 0.093708 -0.231433 0.096009 0.026076 -0.094212 0.122103 0.032614 -0.111536 -0.049250 -0.151960 0.235665 -0.080859 -0.006879 -0.162295 -0.041724 -0.246193 0.029504 -0.165608 0.097031 -0.105348 0.053354 -0.003441 -0.174558 -0.143321 -0.062304 -0.117115 0.009782 0.111347 0.024383 -0.025755
wird -0.115790 0.009987 0.152381 -0.073150 0.210902 0.097696 0.261313 0.215524 0.102571 -0.024243 -0.158263 -0.022366 0.134499 0.175767 0.109980 -0.134548 0.141380 0.112450 0.017084 0.018352 -0.115999 -0.265498 0.032259 -0.024258 -0.064967 0.242749 -0.012328 -0.108033 -0.032796 0.180647 -0.200522 0.175520 0.098319 -0.063835 -0.154129 -0.024657 -0.003815 0.225779 0.010677 0.042241 -0.009841 0.047404 -0.153468 -0.070875 0.098050 0.067670 0.051273 0.216293 0.074764 -0.011418 -0.117685 -0.114757 -0.032924 0.216586 0.065552 0.072975 0.051466 -0.015253 -0.152814 0.005968 -0.068280 0.032954 0.002193 -0.118306 -0.152902 -0.274515 0.100921 -0.196037 0.071707 -0.040891 -0.059878 0.027535 0.036096 0.109919 0.167712 0.306878 -0.078488 -0.047162 0.105032 -0.125127 -0.069951 0.039129 0.044541 0.139231 -0.074300 0.043693 -0.081199 -0.060882 0.050030 -0.058281 0.014191 0.093059 0.115433 0.145393 -0.054442 0.134484 -0.073442 -0.176175 -0.009105 0.076351 0.236965 -0.208405 -0.119529 -0.300931 0.211037 0.095962 0.098212 0.154438 0.005987 -0.005847 0.106316 0.046635 0.053666 0.125335 0.161512 0.123347 0.036175 -0.025612 0.075265 -0.239136 -0.070163 0.089861 0.068666 -0.045290 -0.022949 0.119491 -0.126235 0.096360 0.156025 0.245653 0.040538 0.012546 0.073861 0.073318 0.086394 -0.042480 -0.017459 0.051243 0.117546 0.046340 -0.054648 -0.036170 0.015604 -0.026749 0.081008 0.223292 -0.030973 0.006790 0.053229 -0.061465 -0.180516 -0.076632 -0.186673 -0.010273 0.108850 0.141644 0.124297 -0.103263 -0.057627 0.212184 0.009013 -0.070624 0.034718 -0.160341 -0.058876 -0.063988 0.036634 0.188909 -0.104685 0.152259 -0.044080 0.066115 -0.075216 0.068890 -0.224546 0.154184 -0.060180 -0.088584 0.163412 0.115629 -0.088636 0.078783 0.012352 -0.094668 0.051969 0.068709 0.058303 0.175947 -0.010496 -0.072844 -0.072089 0.065583 0.057909 -0.084695 0.034275 -0.027751 -0.185133 -0.295754 -0.007369 -0.244115 0.081571 0.006998 0.078598 0.161648 -0.113742 -0.104451 -0.194890 -0.091010 -0.163915 0.299878 -0.051330 -0.015314 0.031842 -0.005094 0.102693 0.098396 0.051098 -0.013433 0.193845 -0.066745 -0.084817 -0.012046 -0.071759 0.194238 0.185670 -0.012999 0.000537 -0.033375 0.063917 0.137474 -0.051890 -0.235682 -0.013301 0.069284 -0.133408 0.061882 -0.032494 0.095660 0.070020 0.139540 0.027492 -0.143220 0.063683 -0.088777 0.187684 0.010728 0.108200 0.019433 -0.096121 -0.152418 -0.027557 0.074339 0.148586 -0.064697 -0.078112 -0.322896
ich -0.076928 0.103468 0.045057 0.186663 -0.244609 -0.028286 -0.040563 -0.119727 -0.021547 0.086841 0.021544 0.086057 0.138699 -0.037766 -0.155574 0.015708 -0.231001 -0.068505 0.176459 0.051860 -0.024887 -0.015302 -0.184549 0.280141 0.052939 -0.147983 0.014611 0.168643 0.232273 0.007053 -0.080973 -0.011101 -0.097885 -0.058596 0.146866 -0.026435 0.126061 -0.134360 -0.000912 -0.047197 -0.041915 0.203537 -0.068261 -0.054864 0.002954 0.047989 0.361903 -0.018748 0.049610 -0.030429 -0.039820 -0.077799 0.109119 -0.233028 0.100351 -0.014074 -0.066348 -0.047753 -0.026891 0.068351 -0.104610 -0.008259 0.128777 0.191266 0.032746 0.195866 0.059989 0.215067 -0.069197 0.118243 -0.167913 0.161980 -0.214547 0.017484 -0.014225 -0.151732 -0.065689 -0.146587 -0.005358 0.008852 0.129295 -0.038871 -0.028067 -0.017972 0.110708 -0.161644 0.114262 0.008695 0.083971 0.162672 -0.010992 0.111618 0.113261 0.120492 -0.137259 -0.109923 0.097563 -0.183377 -0.004380 -0.064971 0.007516 0.027509 0.048785 0.021669 -0.019611 -0.242338 0.031141 -0.003826 0.040637 -0.012382 0.022673 -0.041451 -0.053210 0.054143 0.058476 -0.059630 -0.092384 -0.069498 -0.238108 -0.078650 -0.089799 -0.143807 0.056417 -0.031091 0.049285 0.049080 -0.227043 0.044275 -0.065172 0.050557 -0.018601 -0.182682 -0.133451 -0.024962 -0.152996 -0.036433 0.070866 -0.099718 -0.170699 -0.058090 -0.211006 0.077096 -0.151006 0.036912 -0.273844 0.005820 -0.199635 0.106826 0.130414 -0.057251 0.130562 -0.150365 0.114086 -0.043031 0.009145 0.042209 -0.156758 0.103877 -0.115340 -0.014449 -0.082927 -0.050270 -0.115289 -0.021305 -0.260150 -0.163810 0.072425 -0.072408 -0.043131 0.005036 -0.053561 -0.214427 0.025022 -0.198362 -0.006026 -0.059693 -0.050912 -0.145848 0.117123 -0.069968 -0.001807 -0.147937 -0.053423 0.019380 -0.029463 -0.026239 0.108590 -0.030068 0.159839 -0.045547 -0.021669 0.180085 0.194320 -0.029103 -0.085085 0.062039 0.138210 0.295139 0.069499 -0.045954 0.148894 -0.070906 0.082526 0.026158 0.006857 -0.174874 -0.118822 -0.079926 -0.070536 -0.238293 0.044278 0.302889 0.008009 -0.014404 0.112986 0.126325 0.097833 0.100569 0.115316 0.123875 -0.056878 -0.154438 -0.242448 -0.099409 -0.085893 0.155473 0.009950 -0.024271 -0.098277 -0.094011 -0.182922 -0.015737 -0.032165 0.093176 -0.064942 -0.018749 0.109503 -0.126311 -0.054075 -0.166683 -0.130714 0.024305 0.041639 0.105460 0.150935 0.109333 0.124646 0.105735 0.089725 0.081989 -0.151891 0.199017 -0.037040 0.058217 0.159266 0.040850
haben 0.169396 0.191120 0.260080 -0.174142 0.040957 0.074613 -0.095074 -0.086252 -0.146042 0.084217 0.124782 0.032787 0.028810 -0.047016 -0.145338 0.131712 0.101027 -0.073906 0.137653 0.019815 -0.185344 0.185387 0.086226 0.184191 0.091252 -0.178172 0.220001 -0.143237 0.156029 -0.133754 0.102696 0.109435 -0.197701 0.076499 -0.215506 -0.026058 0.115557 0.000934 -0.000850 -0.118996 0.057214 -0.048407 -0.048637 -0.014556 -0.080205 -0.063206 -0.012257 -0.006575 0.097324 0.152460 -0.100828 0.038184 0.167539 0.097027 -0.158356 -0.106885 0.095978 0.055895 0.099120 0.165638 0.120764 -0.064460 -0.151248 -0.225702 0.101551 0.288437 -0.127044 0.132103 -0.093662 0.024661 0.002843 -0.040860 0.063610 -0.139359 0.211940 0.097495 -0.191758 0.038833 0.104624 0.015158 0.086358 -0.293473 -0.146219 -0.018998 -0.008288 0.207134 -0.020640 -0.000272 -0.069109 -0.025738 0.053253 0.077765 0.045090 -0.090050 -0.218699 -0.086342 0.085726 -0.148867 0.182052 0.003353 -0.163679 0.045423 -0.098766 0.065440 -0.125794 -0.002369 0.052507 0.313521 0.431419 -0.089833 0.108639 -0.128622 -0.030978 -0.067546 -0.043052 0.122035 -0.277500 0.193563 -0.098761 0.052760 0.125750 -0.080007 0.141158 0.081038 0.151756 0.011931 -0.293252 -0.209061 0.183371 0.051285 0.002589 -0.047714 0.088338 0.075348 0.144210 0.008533 -0.117107 0.062873 -0.232025 -0.011492 -0.115456 0.090889 0.049674 -0.080556 0.126135 -0.055336 0.165377 0.028997 0.134901 0.191505 0.007825 0.187681 0.159112 -0.149895 -0.123548 -0.085380 0.114901 0.056641 -0.002038 0.162292 0.264021 -0.070037 0.110571 -0.124463 -0.030719 -0.055840 -0.201125 0.013934 0.125268 0.140089 -0.101995 0.035316 -0.050584 0.024799 -0.118192 -0.031804 0.271720 0.001658 0.055930 0.210809 -0.049916 -0.014036 0.130864 -0.072601 0.055845 0.027852 -0.007276 0.095008 0.093008 -0.049189 0.063495 -0.048381 0.010012 -0.036350 0.100529 0.101897 0.117057 -0.110692 0.158167 -0.073494 0.014311 0.061156 -0.079559 0.089355 0.161338 0.112212 -0.126493 0.190303 0.087149 -0.009715 -0.068707 0.022392 0.091727 0.083977 0.013549 -0.014795 -0.192603 -0.044488 -0.114607 0.146889 -0.091032 -0.168422 -0.052867 -0.084470 0.016741 0.110969 0.037687 -0.054416 0.092823 -0.027539 0.018556 -0.159171 -0.048030 -0.068432 -0.088655 -0.097304 -0.008049 0.115253 0.050376 -0.130600 0.039510 0.091957 0.254872 -0.206152 0.133682 0.150614 0.119329 0.159883 -0.109024 -0.066212 -0.054798 -0.098048 -0.195153 0.032950 -0.050256 0.041367
als -0.127860 -0.039006 -0.195286 -0.112691 -0.026353 -0.196997 0.240841 0.166682 -0.030052 -0.091696 -0.063341 -0.176315 0.016466 0.215839 -0.124982 -0.099452 0.214079 -0.133358 0.034039 0.157374 0.032770 -0.076750 -0.100738 -0.078064 0.146299 -0.055156 -0.247544 -0.087323 -0.191259 -0.009291 -0.112051 -0.109495 -0.018639 -0.018429 0.101921 0.015378 -0.097223 -0.009582 0.101265 0.061934 -0.123785 -0.258845 -0.152175 0.155426 0.065832 0.010037 0.031190 0.179232 0.008648 -0.084962 0.000444 -0.120205 -0.106072 0.258392 -0.136550 -0.040769 -0.032986 0.112712 -0.095330 -0.330801 0.146629 0.125904 -0.011644 0.096595 -0.206665 -0.105597 0.125349 0.026998 0.146366 0.069797 -0.007111 0.030560 -0.076857 0.134659 -0.010950 0.033412 -0.133270 0.112231 0.054413 -0.032185 -0.083947 0.129059 -0.049386 -0.189899 -0.150737 0.067836 0.059428 0.071492 -0.044469 -0.029947 0.012668 -0.094808 -0.097604 0.083187 0.010357 -0.058102 0.068958 -0.060125 -0.081472 -0.130103 0.059762 -0.059140 -0.060950 -0.092257 0.117932 0.116956 -0.272622 -0.002220 0.082640 0.089748 0.018971 0.020506 0.009905 -0.037352 -0.068395 0.065184 -0.141481 -0.117041 -0.070641 -0.002920 -0.134852 0.046234 -0.038161 0.005663 -0.082568 0.101600 0.215482 0.073656 0.124920 -0.030507 -0.106218 0.255136 0.034664 0.296720 0.026395 -0.002500 0.040736 0.086720 0.021204 0.066751 0.114198 -0.136496 -0.032078 0.014692 0.072962 0.058177 -0.118149 -0.001746 -0.191321 -0.056422 -0.104303 0.043792 -0.073124 0.009558 0.172644 0.079357 -0.161400 -0.035677 0.085914 0.071746 -0.008094 0.078723 -0.092342 -0.107754 0.263365 0.015156 0.010256 0.114392 -0.191534 0.066036 0.162944 -0.057719 0.068999 0.120865 -0.101964 -0.003874 0.029829 0.210051 0.063999 -0.166892 0.115128 -0.092215 -0.094388 0.114816 0.013098 -0.178129 0.080999 -0.041244 -0.274767 -0.032002 -0.061846 -0.194527 -0.028744 -0.144986 -0.213380 -0.022033 -0.083441 0.093143 -0.136910 -0.041411 -0.128431 -0.138891 0.025648 -0.057534 0.027510 0.169185 0.025125 -0.093979 -0.083911 0.140729 0.075132 -0.087338 -0.040588 0.162311 -0.044247 0.061780 0.141605 -0.079724 -0.052808 -0.058118 0.086246 0.124166 0.071429 0.145509 -0.078144 -0.119719 -0.032789 0.142631 0.069946 0.220844 0.182214 0.120556 0.023709 0.079514 0.001037 0.057966 0.039557 0.069876 0.066678 -0.003640 -0.007545 -0.070385 -0.071464 0.103464 -0.113503 0.093554 0.078728 -0.020838 0.141914 -0.100169 0.148931 0.166714 -0.019975 0.158121 -0.001697 0.003050
um -0.152919 0.197004 0.064371 0.092068 -0.113475 0.188074 0.183699 0.106062 0.213819 -0.058031 -0.044042 0.125839 0.180785 0.054307 0.103363 0.021433 -0.088010 0.029546 0.223327 -0.015122 -0.179379 -0.006262 -0.019884 0.114288 -0.028956 0.006837 -0.128137 0.149926 0.129392 -0.123576 -0.239149 -0.125299 0.062343 0.217417 0.021770 0.061497 0.027261 -0.057825 -0.025944 -0.062835 -0.002328 0.234543 -0.127214 0.003144 -0.055513 0.252419 -0.000239 -0.064018 -0.001648 -0.132638 0.187210 -0.087037 0.083053 -0.087079 0.124587 -0.036166 0.044860 -0.035702 0.120507 -0.244501 -0.226780 0.060539 0.041670 0.044788 0.193506 0.233930 0.174903 -0.041643 0.183742 0.031216 -0.119194 0.018507 0.003913 -0.089644 -0.106160 -0.004087 0.007036 -0.119982 -0.143001 -0.032253 0.207923 0.107274 0.082089 0.071843 0.210612 -0.127715 -0.067822 0.152431 -0.048768 0.161088 -0.064715 -0.001589 -0.020835 0.125627 -0.056847 0.021943 0.059525 -0.053542 0.054285 -0.025096 -0.018937 -0.184449 0.126777 0.003330 0.064977 0.086047 0.109132 0.048559 -0.021638 -0.097260 -0.038719 0.093466 0.020900 0.071646 0.220575 -0.013066 0.171272 -0.018858 -0.184191 -0.005391 -0.020256 0.065847 0.107594 0.100481 0.125104 -0.077228 -0.064272 0.068900 -0.061044 0.202413 -0.177399 -0.187628 -0.082123 -0.217598 -0.034771 -0.215160 -0.001825 -0.009579 -0.009442 0.012271 -0.161866 0.075211 -0.111827 0.095615 0.063704 0.060175 -0.041425 0.085476 -0.160855 0.184395 -0.053972 -0.017998 0.077041 -0.148839 0.028967 0.112295 0.011929 0.228431 0.016334 -0.079510 -0.144429 -0.094498 -0.130880 0.000039 -0.152124 -0.019338 0.053257 0.177571 0.016495 0.118272 0.060753 -0.126178 0.134357 -0.099427 0.076928 -0.000571 -0.188471 -0.033708 -0.200661 -0.091847 -0.115095 0.143323 -0.072846 0.023698 0.063511 0.132653 -0.125538 0.032771 0.190644 -0.034807 -0.051595 0.029406 -0.006083 -0.127519 0.064462 -0.108703 0.112311 -0.060299 -0.085627 0.003799 0.099805 0.096937 -0.041036 0.022879 -0.104258 0.005507 -0.030909 -0.156843 0.094372 -0.052400 -0.002730 -0.042034 0.103440 -0.027828 -0.117273 0.010394 -0.122588 0.160023 -0.067639 0.022070 0.061417 -0.102423 -0.051744 -0.029097 -0.045301 -0.067393 -0.100441 -0.040487 0.037847 0.058274 -0.178294 0.227863 0.024751 0.074473 0.082212 0.074200 -0.189630 -0.097082 -0.169657 -0.004686 -0.065371 0.082566 0.044263 -0.155201 0.096125 0.019033 0.246230 -0.149437 -0.044051 0.043684 -0.204905 -0.057922 0.150938 -0.115263 -0.124492 0.015818
oder 0.064943 0.136652 -0.020153 0.065264 -0.016546 0.009867 0.199728 -0.217905 -0.147456 0.116925 0.060572 -0.077141 0.055747 -0.074017 -0.046200 0.032900 -0.139873 0.002570 0.039510 -0.089596 -0.092974 -0.018061 -0.164088 0.067600 0.067328 -0.113358 0.005462 -0.065636 0.149080 -0.060774 0.099518 -0.105148 -0.031591 0.181705 0.144485 -0.042660 -0.178439 -0.199380 -0.133212 -0.024880 -0.063688 0.052923 0.085538 0.000412 -0.126614 -0.076837 -0.035255 0.245017 0.133553 -0.180502 0.056695 -0.046908 0.129212 0.237073 0.145496 -0.118508 -0.148693 0.013309 0.071134 0.013709 0.152479 -0.011190 -0.073148 -0.034532 0.033330 0.268921 -0.107126 0.146407 -0.103575 0.028321 0.115296 0.078825 -0.007893 0.012389 -0.028289 0.037654 -0.183007 0.236354 0.105516 -0.005188 0.036108 0.043640 0.098137 -0.000503 -0.259457 0.049731 0.236027 -0.088715 0.020990 0.044338 0.025061 0.100727 -0.133576 -0.138972 -0.011394 -0.082417 -0.170995 -0.138865 -0.160316 0.072781 -0.095620 -0.111604 -0.030616 -0.082176 -0.069434 -0.027489 -0.080035 0.042302 0.123740 -0.029371 -0.247956 -0.039726 0.006895 0.157826 0.033830 -0.040294 -0.139272 0.180263 0.013198 -0.019069 0.011481 -0.154504 0.133104 -0.035614 0.016642 -0.139627 -0.141044 0.022157 -0.085984 -0.059368 -0.013956 0.189091 -0.129297 -0.019898 -0.104713 0.107791 0.085951 -0.018167 -0.173618 -0.064887 0.096938 0.026154 0.010407 -0.118216 -0.127540 0.051843 0.126030 0.049446 0.033334 0.201449 -0.101117 0.037331 0.082525 0.060741 -0.119145 -0.075290 -0.042259 -0.075403 0.019208 -0.005557 0.285946 0.059986 0.161232 -0.124724 0.031887 -0.140171 -0.164221 -0.099827 0.150451 -0.232942 0.092280 -0.129495 -0.166313 -0.087408 0.072927 -0.093389 0.245722 0.072500 -0.091300 -0.006918 0.183073 0.076142 -0.150755 0.074402 0.154188 0.025802 -0.168448 -0.110506 0.058919 0.069724 0.071989 0.093242 0.254804 0.004819 0.095072 -0.180895 0.130391 0.137683 -0.164866 0.113941 0.117001 0.014290 0.264596 -0.006989 -0.000485 -0.088800 -0.101699 -0.040923 0.173300 -0.063612 -0.102838 0.197783 0.150188 0.005701 -0.008925 -0.037230 0.031724 -0.107216 -0.085772 -0.204881 -0.094294 -0.090446 0.173169 0.092966 -0.179050 0.204780 0.075369 0.138006 -0.190313 0.016688 0.013301 -0.061493 -0.013834 -0.031703 -0.200856 0.055646 0.014891 0.079838 -0.101225 -0.033187 -0.204624 -0.032903 -0.176116 0.238392 0.084162 0.000878 0.227092 0.105673 0.213431 0.100609 -0.031926 0.229072 -0.072841 0.075424 0.135075 0.102483
