<unk> 0.077295 0.055133 -0.054552 -0.067677 -0.025838 0.031542 0.064215 -0.005834 0.049449 -0.027775 -0.069018 -0.075990 -0.053542 -0.039701 -0.038883 -0.005946 0.070443 0.038678 -0.032634 -0.018965 -0.078562 -0.002306 0.036433 -0.015766 0.023831 0.048069 0.046083 -0.028252 0.012065 0.014197 -0.007995 -0.002328 -0.006811 0.003189 0.019658 0.001838 0.069677 -0.010753 -0.037280 -0.021250 -0.010900 0.014567 0.033850 -0.058352 0.014816 -0.003787 -0.054308 -0.078786 0.111476 0.063345 -0.064297 0.026741 -0.078848 0.023570 0.085614 -0.035421 -0.039523 -0.082354 -0.030580 0.009468 0.013404 0.012191 -0.039261 0.072926 -0.023509 -0.032134 0.013972 0.018034 0.094295 -0.046684 -0.030464 0.008546 0.082684 0.019062 0.025566 0.074444 0.056691 -0.060869 0.064975 0.010566 0.076521 -0.040679 0.052058 0.085060 0.091962 -0.078073 0.016409 -0.014849 0.028706 -0.021265 0.009058 0.015670 0.010815 0.027203 0.034319 -0.027252 -0.052535 -0.019215 0.038362 0.022418 0.032125 0.043844 0.051605 0.095664 -0.070208 -0.042620 0.050463 0.015849 0.081984 0.066846 0.033720 0.025948 0.052601 0.007543 -0.000347 -0.043274 0.005908 -0.026702 0.000791 0.103995 -0.077926 -0.069343 -0.001635 0.052435 -0.013468 0.002520 0.056941 0.044758 -0.039609 -0.046867 -0.009108 -0.022581 0.029529 -0.016188 -0.033788 0.002765 -0.041519 0.012432 -0.095976 -0.053162 -0.000966 0.013434 0.068555 0.028326 0.005148 -0.007363 0.013493 -0.063955 0.071269 -0.044443 0.046825 0.053838 0.004341 0.008516 -0.058878 0.022433 -0.019022 -0.012791 -0.050051 0.074951 0.010338 0.001904 0.037358 0.017126 0.039119 -0.118472 0.063803 -0.062595 -0.018885 -0.094834 -0.088599 0.011083 -0.008971 -0.055833 0.047421 -0.011152 0.005727 0.005384 0.001093 0.027299 -0.092574 0.036008 0.006311 -0.004414 0.003717 0.099776 -0.038052 0.077551 0.001423 -0.021137 0.078264 -0.052552 -0.066744 -0.018243 0.028858 0.028799 -0.032763 0.005841 0.088709 0.075795 -0.100281 -0.017992 0.049717 -0.028618 -0.022403 0.018483 -0.002377 0.021381 0.039184 -0.050171 0.021717 0.059580 -0.028663 -0.049929 0.018263 -0.051619 0.074812 0.045910 0.042237 0.070646 0.047046 -0.055389 0.085736 0.056198 0.002028 -0.010759 0.056311 -0.004696 -0.040244 0.027686 0.011598 0.003390 0.022664 0.086087 0.003894 0.069352 0.041839 0.042352 0.078381 -0.011259 0.031238 0.056572 -0.060142 -0.098367 0.004715 0.062685 -0.012437 0.023550 0.026923 -0.078544 0.032350 -0.012221 0.023054 -0.008914 -0.037930 0.046138
<blank> -0.074584 0.004814 -0.058703 0.054055 -0.017106 0.051576 0.025770 -0.004021 0.009349 0.076183 -0.027566 0.020315 0.075817 -0.085275 0.019930 0.047744 -0.043900 -0.082449 0.024427 0.076719 0.098124 0.020336 0.060739 0.006459 0.044562 0.042813 -0.008300 0.077317 0.096321 -0.079337 0.005844 -0.034606 0.099678 -0.090158 0.032319 0.095355 0.072809 -0.024456 -0.040738 -0.074642 -0.076577 0.077203 -0.029675 -0.027742 -0.041675 -0.069822 -0.015692 -0.071331 -0.004095 0.093679 0.074272 -0.013199 0.033097 -0.096564 0.080215 0.093326 -0.043208 0.040056 -0.080208 0.062323 -0.035907 0.041550 -0.061429 -0.024483 -0.015121 0.046736 0.071104 -0.026683 0.016759 0.068408 0.022429 -0.023379 0.097501 0.094731 -0.050418 -0.070698 -0.017686 0.066270 -0.047335 0.009509 -0.073852 -0.028796 0.078989 -0.084782 0.098711 0.005931 0.013107 0.091084 0.083070 0.066960 -0.097987 0.046163 0.090847 0.030192 0.090964 -0.068250 0.011688 -0.072223 0.082125 0.074781 -0.010745 -0.022663 0.031975 0.041422 -0.007384 -0.059530 -0.084415 0.069711 0.062783 -0.036473 0.066457 0.091775 0.088903 0.011044 -0.052580 0.027908 0.033572 -0.098966 -0.000511 -0.041527 -0.047379 0.022184 -0.099991 0.027117 0.058984 0.084126 -0.075250 0.067113 0.062829 0.074504 0.006628 -0.019205 0.043193 0.023724 -0.060379 -0.022295 -0.038833 0.068719 0.041406 -0.078194 0.075818 0.012019 -0.007246 0.023061 -0.015862 0.053031 0.013227 -0.071038 -0.088148 0.003994 0.011490 0.084804 0.038540 0.068329 0.054378 -0.000403 -0.079972 0.036462 0.046284 0.054201 -0.036581 -0.018318 0.030034 0.008444 -0.080166 0.084746 -0.063505 0.051542 0.021724 -0.035801 -0.079725 0.066313 -0.074717 -0.060058 0.058259 0.010497 -0.088086 0.009569 -0.075720 -0.024466 -0.060407 -0.001929 0.026363 0.045628 -0.071499 0.041842 0.098517 0.077295 -0.048730 -0.028467 -0.093383 0.043168 -0.032991 -0.078875 0.009007 -0.027463 -0.079394 0.026886 -0.077381 0.063262 0.091961 0.033242 0.013103 0.057139 0.073451 -0.062729 0.020481 -0.044246 -0.019966 0.004314 -0.044904 -0.017216 -0.074893 0.065282 0.041057 -0.013650 0.024719 0.029637 -0.010621 -0.073119 -0.075784 -0.048402 -0.092867 0.084439 -0.065028 0.096511 -0.077529 0.045996 -0.048952 -0.003213 0.018239 0.000466 0.020488 0.087643 0.066802 0.028459 -0.018931 0.030303 0.041633 0.085814 -0.052295 -0.004097 0.001956 0.005661 0.035459 0.076911 -0.059431 0.094020 0.086300 0.001958 0.036686 0.098295 -0.047758 0.033301 -0.035509 -0.095905
the 0.023823 -0.094883 -0.155477 -0.086714 -0.001823 -0.012934 0.142140 0.129157 0.085466 0.140188 0.121768 -0.091799 -0.117205 -0.006840 -0.012878 0.011321 -0.022456 -0.017851 0.035327 0.053387 -0.006398 0.005199 0.024350 -0.108601 0.057973 -0.122460 0.007888 -0.001975 0.057819 -0.059967 -0.042641 -0.007950 -0.046606 -0.156239 0.030479 0.021801 0.072906 -0.069970 -0.069510 -0.069520 0.022436 -0.062782 -0.060477 -0.075644 -0.038383 -0.040880 0.032560 -0.048749 -0.105121 0.123782 0.045985 -0.068039 0.073607 -0.093348 0.100169 0.036411 -0.063058 0.059874 0.137058 -0.002101 -0.092337 -0.083414 0.019373 -0.069404 -0.078871 0.089897 0.060405 0.184530 -0.071252 0.003000 0.067545 0.035266 0.031334 0.027391 -0.086886 0.010010 -0.087230 0.004274 -0.064896 -0.034215 0.112466 0.107733 -0.074379 0.036759 0.016109 0.063591 -0.041965 0.097947 -0.048470 -0.032272 0.118467 0.029712 0.008583 -0.057137 0.042230 -0.060328 -0.047925 -0.012146 0.055803 -0.016619 0.078760 0.065891 -0.055743 -0.050541 -0.026089 0.004664 -0.090325 -0.098936 -0.061901 -0.008045 0.120886 0.032773 0.078729 -0.084539 -0.000996 -0.051905 -0.045501 -0.041025 0.072466 -0.093019 -0.032069 0.075522 -0.090135 -0.114379 -0.072133 -0.012903 0.065541 -0.109997 0.051519 0.087367 0.060793 0.054760 -0.026594 0.054582 0.042139 -0.116873 0.043334 -0.172127 0.113313 0.025027 0.092331 -0.028692 0.074969 -0.044101 -0.082389 0.062397 0.052619 0.073748 -0.037282 -0.091327 0.045904 0.097695 -0.026828 -0.047357 0.106385 -0.092393 0.039040 -0.006311 0.113379 -0.116379 0.034662 0.065666 -0.149090 -0.052351 0.024998 -0.007023 -0.103649 -0.009383 -0.138490 0.033792 0.022262 -0.086393 0.034293 0.034823 -0.163200 0.014592 -0.032208 -0.044673 0.110882 -0.008136 0.101294 0.089012 0.086716 -0.126075 -0.087667 -0.017907 0.114023 -0.064392 -0.076916 0.099822 -0.023949 0.033564 0.077803 0.027389 -0.093263 -0.032025 0.048388 -0.136889 0.071743 -0.012790 0.032681 0.030693 0.042644 0.045114 -0.029531 -0.128903 -0.121733 -0.019860 0.119504 0.014864 -0.088172 -0.020290 -0.016140 0.172928 0.025036 0.046127 0.006280 -0.173050 -0.103912 -0.041050 -0.127920 -0.039127 -0.014958 0.036048 -0.140441 0.088326 0.095959 0.025247 -0.083548 -0.021049 0.081760 0.064737 -0.002237 -0.045654 0.024593 -0.024207 0.031393 -0.099554 -0.127176 -0.006875 0.008106 -0.051279 -0.021445 0.102250 0.094913 -0.070805 -0.101820 0.090747 -0.095304 0.115142 0.096321 -0.121070 0.015361 -0.069133 -0.008941 0.126262
, -0.093719 -0.013325 -0.000699 0.094141 -0.098279 -0.084359 -0.066320 -0.090643 0.046243 0.075254 -0.027667 -0.034659 -0.007696 -0.065767 0.089297 -0.091545 -0.077661 -0.058350 0.070595 -0.001064 -0.088633 -0.002750 -0.060390 -0.013643 -0.025109 -0.024016 -0.011616 0.092896 0.023921 0.054550 -0.050833 0.048177 0.040655 -0.007607 -0.095856 -0.047531 0.022701 0.051380 -0.025653 -0.018860 -0.024759 -0.060941 -0.071120 0.075026 -0.087123 -0.072035 0.022566 0.074183 -0.060447 0.018054 -0.061593 0.011615 0.092689 -0.052576 -0.021934 0.056523 0.059572 -0.050886 -0.011452 -0.055131 -0.029240 0.060845 0.021068 0.011352 0.002373 -0.073903 -0.065779 0.059250 -0.082105 -0.097147 0.079692 0.067436 0.098508 0.079350 -0.070475 -0.057215 -0.032043 -0.005389 -0.057708 0.052646 0.016188 -0.085575 -0.078596 0.074147 -0.080412 -0.016982 -0.085919 -0.026402 0.029916 -0.061358 -0.050205 -0.034214 -0.004178 0.094505 -0.014636 0.097897 0.039828 0.013716 0.018430 0.029693 0.014564 0.026916 0.040408 -0.046750 0.057611 0.076606 0.091408 -0.037722 0.050211 0.075218 0.014908 -0.039968 -0.090375 -0.077278 -0.003596 -0.023057 0.093425 0.082682 -0.037198 0.021793 -0.094540 0.050981 0.046842 -0.087561 0.090957 -0.006277 -0.058115 0.011216 -0.045385 0.030135 0.050633 -0.093873 0.050894 -0.059686 0.018730 -0.072458 -0.011075 -0.063382 -0.077815 -0.055271 0.022643 0.012711 0.045630 -0.071756 0.083292 -0.066134 0.029690 0.046252 0.068056 0.090347 0.026330 0.013583 -0.060098 0.012037 -0.089389 -0.010798 -0.074411 -0.001686 -0.053036 0.028516 -0.006734 0.084017 -0.006431 0.041106 -0.016145 -0.039109 0.033786 0.036225 0.099600 0.054756 0.053334 -0.060898 -0.051493 0.032118 -0.098164 0.023331 0.054236 -0.047741 -0.087072 -0.040442 0.048115 -0.042770 0.038728 0.087001 0.001366 -0.023228 0.092416 0.034634 -0.010854 -0.044541 -0.079447 0.068505 0.047993 -0.014016 0.023157 -0.072712 0.043033 0.031881 0.015340 -0.049605 -0.017976 -0.082542 0.042988 -0.013508 0.022939 0.076274 -0.034341 -0.089418 0.012405 0.036910 0.042116 0.073032 -0.057286 0.080241 -0.085194 0.093454 0.012535 0.085919 0.045910 0.042907 0.093616 0.006734 -0.005953 -0.014239 -0.031322 0.073250 -0.055366 -0.076294 -0.021618 0.040439 -0.008160 0.049606 0.082458 0.079686 0.040922 -0.070152 -0.075100 0.079220 -0.048361 -0.016463 -0.099842 0.033016 0.094575 -0.001633 0.046659 -0.063080 0.097967 -0.081288 -0.091317 0.097566 0.014309 -0.081714 0.081792 0.074441 -0.057181 0.037390
. -0.135177 0.047308 0.007301 -0.186724 0.128100 -0.140646 0.104428 -0.013741 0.194722 -0.046989 -0.133666 -0.113834 0.159390 -0.013034 0.127912 -0.092028 -0.001521 -0.134053 0.089812 -0.169597 0.051448 -0.116422 0.024575 0.079597 -0.008858 -0.113061 -0.086500 0.070492 -0.128184 -0.166849 0.053398 0.009337 0.216074 0.240250 -0.010095 -0.134141 -0.110164 -0.062016 -0.180825 -0.194298 -0.119104 0.198242 -0.124953 0.055033 -0.044347 0.212739 -0.020041 -0.087209 0.017458 -0.135722 0.000411 -0.031949 0.165836 -0.154795 -0.040901 -0.192052 -0.234964 0.140749 0.177146 -0.078791 -0.272214 0.211469 0.102309 -0.103655 0.043633 0.145253 -0.126124 -0.176698 -0.049633 -0.143278 0.104529 0.167108 0.254360 0.011986 0.199290 -0.110140 0.073288 0.090822 0.112858 0.140342 0.166576 -0.143198 -0.135599 0.007458 0.124442 -0.151711 0.199451 -0.146748 -0.040692 0.130514 -0.103935 -0.170746 -0.094868 -0.072663 -0.148724 -0.164499 0.113726 0.070587 -0.071752 0.119981 0.142904 -0.015568 0.092787 -0.069993 0.182718 0.139732 -0.066492 -0.079280 -0.151257 0.270270 -0.058941 -0.125305 0.081758 0.025474 -0.212817 -0.061376 0.164019 -0.034254 -0.087407 0.053663 -0.034528 0.154326 0.041239 -0.014409 0.104404 0.146297 0.132391 0.116830 0.181544 -0.007887 -0.102972 -0.014884 -0.164646 -0.116116 -0.220433 0.147640 0.235945 0.196324 -0.033669 0.152874 0.076357 -0.087043 -0.051100 0.186405 -0.189021 -0.205972 -0.087337 0.143849 -0.077052 -0.074646 0.075855 -0.053364 -0.133602 -0.118601 0.189483 0.086880 0.015540 0.078942 0.151660 -0.200497 -0.057829 -0.049809 -0.099820 -0.215856 -0.025512 -0.066911 -0.092524 -0.149790 0.140139 0.115718 0.085448 0.098907 -0.036248 -0.143284 0.021394 0.007438 0.099052 -0.119977 -0.175283 -0.177612 0.013886 -0.125694 -0.008793 0.307019 -0.086388 -0.046336 -0.005980 0.139765 0.271085 -0.159134 -0.101256 0.111646 0.206129 -0.046285 -0.028765 0.034277 0.058385 0.177586 0.062857 -0.216924 0.165587 -0.008388 -0.080133 0.264097 0.215340 0.164715 0.211261 0.153495 -0.235474 0.130604 0.085863 -0.149112 0.092637 0.044035 0.120192 0.036319 0.054580 0.013458 -0.160677 -0.152964 0.195430 0.073559 -0.067950 0.067658 0.242470 0.218675 0.045967 0.175907 -0.146878 0.152436 -0.065173 -0.085027 -0.108771 0.095540 -0.020011 0.093569 0.189842 -0.013472 -0.232726 -0.044568 -0.046451 0.141212 -0.151584 -0.014465 -0.065115 -0.029153 0.091402 -0.028497 -0.139459 0.218592 0.096424 -0.145832 0.140307 0.043436 0.021893 0.000485
of -0.214159 -0.212178 0.170984 0.016042 -0.303299 0.029985 -0.139998 0.233288 -0.137337 0.074520 0.189940 -0.056676 -0.184066 -0.224821 0.000687 -0.021119 0.030749 -0.140321 0.097853 0.090176 -0.190086 -0.124209 0.245626 -0.256283 0.161622 -0.127716 -0.093159 -0.129593 -0.303294 0.285757 0.038319 0.249464 -0.163103 -0.100701 -0.205239 -0.130758 0.015505 -0.092440 0.084182 -0.095520 0.012186 -0.124009 0.063960 0.100166 -0.042170 -0.135008 0.202245 0.202959 0.086960 0.147065 0.219007 0.027470 -0.007785 0.091941 -0.158444 0.114738 -0.124616 -0.054595 -0.026186 0.137564 0.008280 -0.146516 0.091280 -0.206586 0.111550 -0.009841 -0.111191 0.079616 0.108352 0.180893 0.137775 0.093456 0.145070 0.269436 -0.244842 -0.089142 -0.136649 -0.038957 -0.156820 -0.091651 -0.022842 0.261511 0.134577 0.185148 0.006191 0.134276 -0.146513 -0.149377 -0.158764 0.134633 0.171134 0.236781 -0.181430 -0.180066 0.311468 -0.257226 0.040129 0.080000 0.176004 0.010131 0.184185 0.040994 -0.222924 -0.229014 -0.001450 -0.129490 0.111205 -0.283205 0.063940 0.030291 0.149739 -0.084926 0.006284 -0.138188 0.077835 0.088921 -0.244351 -0.005137 0.134775 -0.246651 -0.228587 0.267895 -0.163455 -0.225013 0.009214 0.093196 0.218548 -0.132761 -0.167427 -0.041902 0.224996 -0.135553 0.013901 -0.184727 -0.009231 0.102863 -0.139029 -0.135740 0.139984 -0.191728 0.220226 -0.241784 -0.137619 -0.072653 0.063048 0.103458 -0.028042 -0.057938 -0.254864 -0.202744 0.196441 0.154047 0.137296 -0.217588 0.181740 -0.259397 0.194066 0.157359 -0.169166 0.108498 0.169242 0.035302 0.114926 -0.266185 0.160485 -0.153925 -0.064256 -0.115905 -0.204421 0.113568 -0.187346 -0.216497 -0.173582 -0.169281 -0.206163 -0.025938 0.091784 -0.170249 0.278238 0.158128 0.189397 0.311387 -0.155372 -0.094615 -0.166787 0.128568 0.158138 -0.007294 -0.116928 0.123580 0.094225 -0.061336 0.139767 -0.177525 0.042978 0.164824 -0.160400 -0.189120 0.065450 -0.136040 0.002959 -0.077848 0.156661 -0.069267 -0.057686 -0.163214 -0.094702 -0.161000 0.155896 0.246945 0.231383 -0.181635 -0.162575 0.179525 -0.091816 0.216798 0.270228 -0.153194 0.001853 -0.241047 -0.174378 -0.019272 -0.212924 0.059275 -0.070155 -0.124458 0.123448 -0.134210 -0.157872 -0.241399 0.251009 -0.045176 0.127745 -0.128346 0.256459 -0.207727 0.106069 0.063398 0.136096 -0.177018 -0.112547 -0.271478 0.045367 0.068047 -0.146707 -0.165745 -0.188935 -0.146889 0.081569 0.069370 0.265917 0.091717 0.251368 -0.242790 0.147536 -0.172539
and -0.093159 0.034327 0.077171 -0.004632 0.046828 -0.055449 -0.067440 -0.165409 0.052652 0.123387 0.104936 0.116686 0.052288 0.158639 0.033923 0.147985 -0.137330 -0.055923 0.163643 -0.028177 -0.002340 0.107812 0.033590 0.163085 -0.251206 0.156608 0.066737 -0.096125 0.102019 -0.103469 -0.058280 0.061199 0.048510 0.084498 -0.048538 -0.091815 -0.041087 -0.115171 -0.053185 0.047660 -0.105734 0.135205 -0.184811 0.107968 0.137695 0.149504 0.051553 0.090538 -0.197836 -0.136894 0.134717 -0.183657 0.154699 -0.056072 0.102858 -0.059038 -0.128054 0.277795 0.047586 0.104613 -0.119011 -0.009365 0.068971 0.032110 0.000891 0.248870 0.181080 -0.220990 0.029918 0.128441 -0.059123 -0.066684 -0.085745 -0.064529 -0.038292 0.041212 0.083650 0.023534 0.015422 -0.064934 0.081763 0.079039 -0.014177 -0.071261 0.002791 -0.074046 0.016242 -0.017764 0.042424 -0.007295 -0.056693 -0.010234 -0.055872 0.093445 -0.008652 0.061411 -0.020264 -0.099979 0.039120 0.143567 -0.136980 0.116508 -0.134435 -0.139914 -0.040205 0.112948 -0.187063 -0.005653 0.027564 -0.108583 -0.135188 0.125961 -0.180385 0.042929 -0.122505 0.029111 0.016645 0.085047 -0.004489 -0.145052 0.083345 -0.048980 0.211482 -0.127522 0.104519 -0.073141 -0.024887 0.155153 -0.014535 0.018258 0.120191 -0.037863 0.014783 -0.054869 0.083399 -0.139211 0.061157 0.017749 -0.190384 0.112237 -0.143829 -0.099715 -0.142815 0.104974 0.044599 -0.034210 -0.048838 -0.007470 -0.177231 0.175492 -0.003765 -0.060312 -0.000888 0.018156 -0.061275 -0.048399 0.151421 0.139761 0.073905 -0.167251 0.027592 -0.133735 0.106179 0.111338 -0.049519 0.024755 0.037746 0.011373 0.064810 0.178259 -0.067327 -0.007517 -0.011623 -0.051329 -0.026957 0.208274 -0.087916 -0.083495 0.105764 0.046031 0.059039 -0.056439 -0.078936 -0.072379 -0.108884 -0.113006 -0.128669 -0.090308 -0.001078 -0.094263 0.016510 0.167566 0.007601 -0.131940 -0.260115 0.033400 0.034813 0.234538 0.179313 0.017151 0.082699 0.025211 0.076998 0.028479 0.014984 0.056043 0.138899 0.043718 -0.027762 -0.001104 -0.060767 0.041295 0.037906 -0.188769 -0.057849 0.158456 -0.158722 0.178843 -0.154171 -0.101314 -0.063846 0.093921 -0.132165 -0.124531 0.167797 -0.012261 -0.099259 -0.032938 -0.081750 -0.040408 0.031435 -0.119155 0.036910 -0.022463 0.000304 -0.118751 -0.139742 0.100199 -0.025357 0.148917 -0.153862 -0.092133 -0.016973 0.159827 -0.126659 -0.178396 0.138336 0.043851 -0.146571 0.192909 0.113710 0.111783 0.032847 -0.037090 -0.177846 -0.141925
to -0.094869 0.016576 -0.013660 0.045000 -0.040748 -0.077952 -0.071761 -0.186627 -0.163008 0.139086 0.166454 0.177449 0.007293 -0.048057 -0.007877 -0.021739 -0.115615 -0.032979 0.056348 -0.196851 -0.088520 0.000879 -0.019404 -0.102863 0.005332 0.137509 0.131163 0.102487 -0.149108 -0.000409 -0.129424 0.105696 0.017568 0.128133 -0.015867 0.014776 0.036926 0.036909 0.020198 0.056621 -0.240592 0.044899 -0.169817 0.015136 0.178051 0.003738 -0.013446 0.019729 -0.218729 -0.162329 0.114668 0.032080 0.156777 -0.148336 0.093635 -0.060181 -0.146056 0.206904 0.156890 -0.100282 -0.009166 -0.011826 -0.006199 -0.052063 -0.139128 0.148070 -0.002719 -0.177599 -0.127147 -0.029820 -0.075561 0.132521 -0.020580 0.058747 0.028302 -0.172314 0.256529 0.119547 -0.111799 -0.145590 -0.073296 0.184696 -0.082805 -0.193325 -0.052177 0.179728 0.123910 0.039726 0.003577 -0.147298 0.011714 0.108957 -0.080343 0.051395 0.105976 -0.008799 0.174051 0.080818 0.071489 0.201445 -0.131225 -0.046662 -0.166782 -0.142819 0.104767 -0.012898 -0.216662 -0.032702 -0.023027 0.147512 -0.035670 0.166852 -0.072120 0.184876 -0.040103 -0.030899 0.033104 -0.021379 -0.021755 -0.148528 -0.038975 -0.039512 0.190395 -0.075042 0.104816 0.038261 -0.062018 -0.111018 0.076694 0.154331 -0.096908 -0.027988 -0.077301 -0.054269 -0.043892 -0.149213 0.038417 0.121194 -0.046320 0.060101 -0.089720 0.112686 -0.188699 0.037793 0.008302 -0.019429 0.037514 0.103708 -0.010985 0.079803 -0.130195 -0.065611 -0.068783 0.100611 -0.083252 -0.082828 0.201453 -0.060104 0.102793 0.091235 -0.180013 -0.144752 0.074353 -0.010955 -0.131475 -0.087696 0.097509 0.079741 -0.012894 0.167003 0.069105 -0.019967 -0.040834 -0.021582 0.100499 -0.010205 0.058972 0.074062 -0.037204 0.139204 0.073922 0.133886 0.039369 0.214807 -0.120135 -0.063178 -0.004407 -0.156195 0.055801 0.139202 -0.145032 0.035542 0.056724 -0.061833 -0.152718 0.080926 0.094806 0.100548 0.152173 0.081801 0.100882 0.151692 -0.052298 0.107915 -0.047402 0.071650 0.105820 -0.116769 -0.083694 -0.073898 -0.053692 -0.170839 -0.111698 -0.153455 0.201103 0.159725 -0.103969 0.193147 -0.027674 -0.148650 -0.036645 -0.056118 -0.169095 -0.125394 0.107225 -0.017615 0.082348 0.005900 -0.067582 -0.053048 -0.051078 0.123577 0.035225 0.094361 0.025770 -0.144785 -0.120637 0.019402 -0.075948 0.086124 0.058205 -0.171062 -0.107279 -0.012212 -0.027401 -0.164097 0.104873 0.097728 0.021427 0.196768 0.118036 -0.052849 0.076318 -0.161622 -0.191033 -0.121998
in -0.185032 -0.020514 -0.099151 0.018909 0.050284 0.071720 0.099747 -0.034434 0.159839 -0.103109 -0.031416 -0.086660 0.040150 -0.038733 0.051163 0.011542 0.101033 -0.003822 0.058113 0.049772 0.018666 0.007767 -0.098663 0.109822 -0.127072 -0.103199 -0.050294 -0.070718 -0.174972 0.117236 -0.078676 0.147436 -0.069739 -0.035663 -0.210589 0.169243 -0.205677 -0.098004 -0.080921 0.118583 -0.173492 -0.063882 0.005443 0.078422 -0.019148 -0.009442 -0.160359 -0.056516 0.071666 -0.067321 0.081756 -0.143536 -0.074729 0.014308 -0.156966 0.139547 0.144510 -0.011551 0.023909 0.014544 0.025337 0.324955 -0.116635 -0.114901 -0.075249 0.109651 0.045028 0.033399 -0.092534 0.122012 0.078201 -0.116410 -0.180866 -0.093534 -0.011308 -0.090427 -0.113162 0.196618 -0.187578 0.117661 0.073896 -0.099981 -0.102819 0.064842 -0.105719 0.089300 -0.011225 -0.165943 -0.019513 0.010818 -0.069545 -0.064429 -0.177491 0.066865 -0.077008 -0.051101 -0.028674 -0.117126 -0.130801 -0.101751 -0.016596 0.129004 -0.011655 -0.216970 0.173192 0.168464 0.086327 -0.087841 0.066909 0.180068 0.006856 -0.155831 -0.076765 -0.008484 0.086617 0.166897 0.145345 0.093876 -0.017445 0.010794 0.002153 0.188425 0.170599 -0.067085 0.081351 0.117558 -0.090408 -0.042147 0.203527 0.226889 -0.145682 0.104339 -0.081159 -0.079797 -0.132402 -0.165523 0.271622 -0.183890 0.033190 -0.073441 -0.132481 -0.173722 0.109451 -0.154197 0.044947 -0.056956 -0.125825 0.266743 -0.081520 0.214190 -0.087013 -0.055633 -0.126289 -0.045941 0.023025 0.147655 -0.141082 -0.079373 0.069024 0.119689 -0.062266 0.105386 0.005183 -0.098551 -0.061544 -0.040012 0.110458 0.058925 -0.115212 0.149448 -0.054839 -0.143091 -0.177700 0.003363 0.112905 0.222985 0.037993 0.056598 0.007729 0.005970 0.141707 -0.150667 -0.028677 -0.082339 0.038607 -0.080032 0.075059 -0.205210 0.164294 0.133716 -0.030607 0.110677 -0.024522 -0.132751 -0.045207 -0.093458 0.129212 -0.195738 -0.081154 -0.221628 0.180128 -0.127903 -0.109262 0.002601 -0.051485 0.153796 -0.049513 -0.140765 -0.225331 0.185364 0.187927 -0.008208 0.174803 -0.072373 0.104317 0.231286 0.167420 0.074554 0.065610 -0.018051 0.013060 0.014388 0.087331 -0.199914 -0.031282 0.153484 -0.201330 0.157709 0.177755 0.052244 -0.176964 -0.152091 0.080596 0.181506 0.038261 -0.179318 0.089926 -0.136633 -0.241689 0.174378 0.045851 -0.051535 0.040246 -0.112053 0.072386 -0.190630 -0.108277 -0.006795 0.207064 0.192292 0.171991 -0.056692 -0.155451 -0.151287 -0.103267 -0.022774
a -0.014956 -0.158416 0.001345 0.058275 0.165145 0.116700 -0.045022 0.081333 0.044712 0.023504 0.297124 0.173426 0.199986 0.057014 0.194587 0.066600 -0.164551 -0.033746 -0.092834 0.077601 0.157490 -0.259886 0.036809 -0.016497 0.130485 0.040270 0.132290 0.047754 -0.168989 0.091421 0.082052 0.031989 -0.046436 -0.001058 -0.025453 0.154444 -0.105807 0.064120 0.224008 0.185609 -0.016709 -0.180893 -0.112547 -0.028431 0.002528 0.118018 0.168668 -0.117746 0.120869 -0.205953 -0.033284 0.107179 0.048367 -0.041362 -0.110681 0.240454 0.113206 0.102788 0.145265 -0.155441 0.101260 0.010024 0.102553 0.062704 0.095917 0.021434 0.134646 -0.040014 -0.132819 -0.143758 0.156028 0.056221 0.029856 -0.114725 -0.176837 -0.007588 -0.141951 0.199352 0.139032 0.076345 0.072533 0.056563 -0.152093 -0.139013 0.114683 0.268926 -0.132656 0.013623 0.017759 0.162146 0.131451 0.120603 -0.033462 0.083310 -0.166712 0.278966 0.046270 0.056028 -0.085400 -0.054742 -0.074802 -0.029207 0.010836 -0.001779 0.118855 0.110370 0.048853 -0.055657 -0.194489 -0.052241 0.273901 0.110077 -0.039412 -0.085693 0.290055 -0.018701 0.090056 -0.037189 -0.109708 0.074184 0.104389 0.147630 0.094809 -0.191065 0.087194 0.101412 0.003562 -0.079371 -0.043345 0.063764 0.125363 -0.162034 0.010828 -0.002391 0.142900 0.107647 -0.070058 0.009548 0.120331 0.132070 0.145186 -0.066571 -0.019317 0.193209 -0.109639 -0.119180 -0.145594 0.017613 -0.046503 -0.049938 -0.044844 -0.160083 -0.073478 0.062074 0.021425 -0.015403 0.092057 0.220347 0.282134 -0.190259 -0.039348 0.073849 -0.141710 -0.062286 0.023915 -0.066188 -0.072932 -0.063733 0.088317 0.140157 -0.060261 -0.021668 -0.170302 -0.002519 0.006513 0.222690 0.189080 0.092900 0.076725 -0.091342 0.114921 0.024602 0.121034 -0.220482 0.088007 -0.138986 0.190995 -0.045574 -0.078421 0.257742 0.106463 0.142509 0.166494 -0.202661 -0.172982 -0.197630 0.219751 0.011263 0.088904 0.078556 0.058559 0.009780 0.224471 -0.238434 -0.120655 0.069220 -0.220784 -0.127960 0.188361 0.154059 0.196323 0.039848 -0.285517 0.185591 -0.127183 0.194471 0.015486 0.031498 -0.106260 -0.014711 0.082228 0.059601 0.050365 0.062993 0.208697 -0.158834 -0.102008 -0.146641 -0.160366 -0.150407 0.167719 0.087672 -0.037890 -0.120766 0.067922 -0.265177 -0.044878 0.031415 -0.147851 0.236750 -0.067585 -0.164702 0.009357 0.287233 0.048686 -0.224549 0.153029 -0.080559 0.004772 0.224172 0.129123 0.145517 -0.082773 -0.228206 0.132470 -0.037192
is 0.037954 0.144704 0.109071 0.204958 0.051375 0.166490 -0.106942 -0.160460 0.050044 0.130809 0.211051 -0.098159 0.146919 0.062661 -0.075296 -0.081018 -0.259492 -0.211760 -0.109894 0.211080 0.122017 -0.200617 -0.018291 0.107058 0.210159 0.086456 -0.164137 -0.186047 -0.126425 -0.117971 0.132155 0.022536 0.112905 -0.010297 0.024835 -0.032740 -0.028405 0.119773 0.101855 0.042648 0.077241 -0.166095 -0.050756 0.087009 0.030391 -0.310068 0.289743 0.245498 -0.050931 -0.071163 0.169084 0.117753 -0.078589 -0.180516 -0.133593 0.177377 0.059355 0.036597 -0.028775 -0.117895 0.009838 -0.002647 -0.101878 0.066676 -0.024212 -0.060563 0.006197 -0.085698 -0.124649 -0.127600 0.247704 -0.116472 -0.013978 0.136178 -0.219011 -0.208751 0.108489 0.212028 -0.204819 -0.097174 0.096156 0.023830 -0.169114 -0.022576 0.015955 0.383511 0.012474 0.042809 0.032602 -0.150020 0.140673 -0.100367 -0.134807 -0.028122 0.038795 0.070168 0.058572 0.114417 -0.203590 0.065690 -0.139650 -0.063465 0.016449 0.046687 0.139805 0.179017 0.063899 0.200564 -0.016475 0.125216 -0.105039 0.014639 -0.022528 0.007835 0.129827 -0.014130 0.238479 0.129818 0.084049 -0.050088 0.058087 0.109797 -0.078900 -0.073620 0.147929 -0.027782 0.136224 0.101923 -0.090421 -0.003514 0.069319 -0.212134 0.085324 0.153067 -0.169415 0.034085 -0.186496 -0.266167 -0.054433 -0.021917 0.034403 -0.068941 0.145566 -0.042521 -0.071374 0.031677 -0.092780 0.039457 -0.089230 -0.038222 -0.099227 -0.183893 0.369535 -0.035141 0.078963 -0.162777 -0.111173 0.037685 -0.114519 -0.073461 0.152059 -0.091755 -0.041171 -0.214503 0.096301 0.104857 -0.115840 0.026886 0.005548 -0.083232 -0.290507 -0.280012 0.020370 -0.080133 -0.042152 -0.049201 -0.014706 0.124834 0.070563 0.095124 0.053357 -0.245320 -0.037232 0.011637 -0.032403 -0.093994 -0.179410 -0.217053 -0.153594 0.212643 -0.024378 -0.102218 -0.063942 -0.160610 0.064031 0.009107 -0.059543 0.020446 -0.088793 0.203565 0.112279 0.159668 0.205224 0.155472 -0.075425 -0.056566 -0.143971 -0.128807 -0.094276 0.233330 -0.137855 0.082005 -0.087696 0.031655 -0.141380 -0.011107 -0.177957 -0.116544 -0.115051 -0.040633 0.018841 0.025431 0.154604 -0.150717 -0.144611 -0.270499 -0.025795 -0.007547 0.016139 -0.090472 0.089099 0.092727 0.067199 -0.022115 -0.009794 -0.053246 -0.115190 0.214305 -0.094943 -0.091909 0.012556 -0.111118 -0.017785 0.031360 -0.067807 0.114978 0.333154 -0.235171 -0.032807 0.031890 -0.152097 0.063668 0.047097 0.031117 -0.057554 0.073153
that -0.109478 -0.092752 -0.070502 0.044274 -0.005467 0.049791 -0.090644 -0.025461 -0.164733 -0.082412 0.097837 0.194478 -0.020222 -0.156514 -0.087719 0.032807 -0.123453 -0.057990 0.092434 0.058443 0.149415 0.012258 0.272663 0.198962 -0.001765 -0.085264 0.146551 -0.048381 -0.102497 0.224524 -0.124182 -0.009223 -0.103821 0.154056 -0.142468 0.132827 -0.159834 -0.108818 0.265624 0.163204 -0.099974 -0.155074 -0.080262 0.106445 0.071024 -0.101271 0.128124 -0.063455 -0.034902 -0.207478 0.052952 0.159281 0.089586 0.089903 -0.400999 0.020341 -0.182297 0.220522 -0.082902 0.115836 0.080205 0.046029 -0.040203 -0.035947 -0.061915 -0.060194 0.015689 0.003947 -0.042302 0.082101 0.017750 0.003344 -0.001034 0.133288 -0.215784 -0.034820 -0.055521 0.268856 0.106849 0.085137 0.003128 -0.026945 -0.080725 -0.026306 -0.232192 0.022692 0.067892 -0.034704 -0.053087 0.019574 0.172935 0.008184 -0.013869 -0.057024 0.024990 0.161891 0.259193 0.131388 -0.193837 -0.102435 0.016712 0.088681 0.014519 -0.089182 -0.000053 0.091858 -0.026078 -0.039256 -0.115009 0.114536 -0.116049 0.184074 -0.241440 0.101364 -0.070384 -0.146576 -0.045977 0.004318 -0.133275 -0.168151 0.022456 0.038676 0.026201 -0.020622 0.294102 -0.021917 0.180924 0.240836 0.072794 -0.130456 -0.031850 -0.208418 0.188000 0.067306 -0.000301 0.031811 0.043364 -0.030068 -0.078176 -0.084174 0.082919 0.144190 -0.292283 0.084355 0.035251 -0.161470 0.082417 0.189879 -0.257869 0.059199 -0.146339 -0.162530 -0.079386 0.009244 -0.062451 -0.080695 0.233235 0.240237 0.065285 0.104868 0.081895 -0.235631 -0.108998 -0.106556 0.127479 0.032407 -0.117212 -0.183871 0.069141 -0.071022 0.033788 0.011542 0.041139 -0.043632 0.016634 -0.043387 0.094942 0.008194 -0.082673 0.070064 -0.001783 0.007774 0.144603 0.167508 -0.107284 -0.166756 0.087693 -0.065398 -0.011198 0.103874 0.025329 -0.127757 -0.109622 -0.271436 -0.068814 -0.044154 -0.132756 -0.003781 -0.103621 -0.004942 0.078491 0.167421 0.135219 -0.068312 0.033307 -0.085271 -0.109261 -0.146447 -0.087011 -0.026546 0.050265 -0.086939 -0.183991 0.149024 0.093844 -0.069844 0.026741 -0.054056 -0.174718 -0.020012 0.134813 0.059134 0.013362 -0.072841 -0.030818 -0.123476 -0.068936 -0.093043 -0.116816 0.096767 0.053243 0.050381 0.109881 -0.130382 0.133095 -0.240913 -0.026726 -0.076630 -0.183741 -0.037273 -0.026232 -0.103719 0.128555 -0.018230 -0.033664 0.073412 -0.028531 -0.162862 0.126097 0.120136 0.082851 0.044706 0.141975 -0.102155 0.065617 0.106172
for -0.002541 -0.222228 -0.084053 0.046085 -0.092775 -0.014060 -0.090692 -0.004481 -0.123856 0.157340 0.170801 0.080752 -0.051872 -0.044461 0.187163 0.078155 -0.000251 -0.014931 0.112195 -0.001275 0.015575 0.008092 -0.003747 -0.061751 -0.177970 0.052214 0.079349 0.081531 -0.113549 -0.023952 -0.108288 0.050806 -0.098658 0.106422 -0.019077 -0.152947 -0.050234 -0.194551 -0.017848 0.089388 -0.004670 0.187146 -0.119403 -0.185717 0.207569 -0.031793 0.112042 0.103330 -0.078638 -0.032789 0.256096 0.002679 0.205355 0.073595 0.111288 0.016936 -0.042772 0.062308 0.127375 0.056510 -0.266609 0.026560 -0.113143 0.157358 -0.137420 0.247053 0.044081 0.016725 -0.096357 -0.116619 0.006114 -0.105687 0.119583 -0.035645 -0.097836 -0.037743 0.263279 0.004744 0.112399 -0.005958 0.126531 0.033155 0.023705 -0.042301 -0.138964 -0.083932 -0.062248 0.116697 0.032546 -0.024214 0.006926 0.135526 -0.067535 0.084737 0.013395 0.021108 -0.176308 -0.085252 -0.050142 0.032963 0.003021 -0.023032 -0.216207 -0.023548 0.121557 0.071053 0.000821 -0.184666 0.050515 -0.158117 0.069686 0.149491 -0.096959 0.143298 0.008670 0.119451 -0.052158 0.191704 0.021993 -0.063199 0.081250 0.035915 0.126830 -0.168905 0.027482 -0.226390 0.115543 0.106210 -0.104345 -0.077066 0.186947 0.060412 -0.002255 -0.002475 -0.062075 0.029717 0.170306 0.032474 -0.051933 0.119889 0.135812 0.055679 -0.147232 0.131445 -0.171762 -0.075438 -0.034550 -0.117187 -0.201619 0.200298 0.000949 0.134658 -0.136468 0.152685 -0.066274 -0.049228 0.237463 0.173859 0.070101 -0.104275 -0.009953 -0.158076 -0.039053 0.121481 -0.049544 -0.082223 0.170367 0.017649 0.105363 0.196405 -0.004859 0.156258 -0.129364 -0.066919 0.107055 0.064300 -0.123707 0.064140 0.161073 -0.099663 0.053409 -0.151159 0.009806 -0.053365 -0.112713 -0.147786 -0.052687 -0.158559 0.075492 -0.028841 0.078363 0.268468 0.031206 -0.051058 -0.235454 0.105384 0.046886 0.083790 0.102431 -0.002208 0.043393 -0.028066 -0.082285 0.053536 -0.038128 -0.200317 -0.020130 -0.067767 -0.001317 0.125287 -0.110560 -0.159957 0.010795 -0.035008 -0.059913 0.105811 0.060140 0.071340 0.029795 -0.105150 -0.083772 -0.140397 -0.224769 -0.106879 0.158554 0.017338 0.066404 0.097149 0.009044 -0.080942 0.084588 0.092524 0.090710 0.118768 0.001097 -0.250314 -0.169944 0.035507 0.060090 0.014647 0.066930 -0.199676 -0.097726 0.096938 0.033814 -0.109737 0.053374 0.019993 0.070311 0.086628 0.038773 0.042208 0.081513 -0.125750 -0.188939 0.023371
on -0.147722 -0.034143 0.040925 0.108266 0.156451 -0.121505 -0.027192 0.126236 0.031087 -0.068291 -0.038384 -0.025832 0.143367 0.130906 0.063226 -0.211983 0.047000 -0.196643 -0.021565 0.036097 -0.015948 -0.122761 -0.216254 0.123867 0.002682 -0.057453 -0.051581 -0.073524 -0.004191 -0.096733 0.036092 -0.012458 -0.021034 -0.115251 -0.034675 -0.015763 0.095852 0.022872 0.196323 0.067111 0.177442 -0.287357 0.013032 0.180203 -0.078452 0.017792 0.095674 0.007045 -0.058825 0.075993 -0.095849 -0.100081 0.009287 0.125145 0.042557 -0.018002 0.182235 0.024957 -0.019432 0.078461 0.189022 -0.061168 -0.197207 -0.079002 0.100114 0.062438 0.011922 0.091022 0.021336 0.004191 -0.151492 -0.077526 0.103977 -0.124722 0.188895 -0.072070 -0.099275 -0.168233 -0.006911 -0.136553 0.022281 -0.090427 -0.034271 -0.199635 -0.021792 -0.013483 -0.038869 -0.021408 -0.127216 -0.040228 -0.190508 0.038038 -0.192416 -0.092150 0.068627 0.057564 0.010223 -0.226536 -0.188365 -0.244335 0.119276 -0.212926 0.006272 0.007726 0.029903 -0.112934 -0.006693 0.046790 0.123619 -0.121211 0.025648 -0.029238 0.021707 0.021518 0.175542 0.032391 0.027508 -0.170290 -0.254549 -0.052528 0.018522 -0.098698 0.024487 -0.023688 0.040605 0.255164 -0.033260 -0.034437 0.204824 -0.064709 0.026712 -0.125227 0.101392 -0.172280 0.066707 0.233220 0.076083 0.026122 0.161902 0.156892 0.133342 -0.087077 -0.196334 -0.048141 0.058363 -0.142429 -0.230021 -0.015161 0.134517 -0.028811 0.070337 0.106299 0.053139 0.131842 0.151333 0.054615 -0.218626 0.072955 0.032894 -0.029210 0.229655 0.175219 0.049041 0.070929 -0.089616 0.110912 -0.140915 0.193324 -0.068613 0.075500 0.191470 0.060602 -0.098311 0.100891 -0.081124 0.080668 0.191749 -0.062295 -0.176799 0.040337 -0.139506 0.089405 -0.045095 -0.115283 0.010794 0.063191 0.256962 0.183802 -0.027199 0.264957 0.064269 -0.043181 -0.269029 -0.057704 0.182833 -0.075022 -0.104250 -0.043806 -0.217684 -0.122962 -0.031884 -0.147641 -0.086520 -0.061415 0.076618 -0.104760 0.083341 0.132103 0.067736 -0.043381 -0.016639 0.138467 -0.009003 0.134416 -0.127030 0.196775 0.120761 -0.223078 0.174139 0.120722 -0.061353 0.047607 0.075665 0.106139 0.098713 -0.051790 -0.023502 -0.217854 -0.133763 -0.018117 -0.108180 -0.110744 0.028899 -0.223627 0.059930 -0.011407 0.225490 -0.063223 0.106071 0.056864 -0.065097 0.098944 0.010854 0.181640 -0.131036 -0.091982 0.059991 -0.015366 -0.031749 -0.115256 0.013239 0.111357 -0.153956 0.080644 0.226238 -0.015930
The 0.087411 -0.155972 0.085648 -0.146696 0.095636 0.047346 0.002934 -0.085140 0.021812 0.419688 0.253682 0.136099 0.078830 -0.052648 -0.037380 -0.188816 0.017071 -0.060214 0.035015 0.167850 -0.028997 -0.196402 0.220520 -0.000692 0.124942 0.043705 0.149733 -0.013041 -0.062154 0.056644 0.163673 0.106813 0.014274 0.086559 -0.121850 -0.121453 -0.260215 -0.127425 0.203598 -0.011417 0.035021 -0.097397 -0.145064 -0.024571 0.041755 0.090605 0.103806 -0.038129 -0.077096 -0.167706 0.135818 -0.202303 0.058632 -0.166650 -0.293585 -0.073744 0.034285 0.014179 0.125158 -0.188810 -0.101159 0.095827 0.063859 0.139510 -0.165029 0.222493 -0.025942 -0.184419 -0.179115 -0.022088 0.277316 0.043562 0.110347 -0.015777 -0.195133 0.102842 -0.140678 0.017034 0.062652 0.160644 -0.042440 0.057102 -0.187696 -0.182740 0.076005 0.184378 0.034025 -0.118869 -0.042620 -0.031447 0.161012 0.024227 -0.095084 0.149820 -0.041647 0.056506 0.074019 -0.065606 -0.103361 -0.050828 -0.144181 -0.052250 -0.068875 0.055984 0.118815 0.212443 0.130518 0.048218 0.025972 0.118173 0.189929 0.050014 -0.112859 -0.130971 0.101226 -0.023572 0.227153 0.119342 -0.116458 -0.220199 0.092556 0.107632 -0.041787 -0.108955 0.137989 0.007969 0.101390 0.297394 -0.033610 0.313797 -0.021178 0.005811 0.068730 -0.016826 0.033450 0.006867 -0.062251 0.089629 -0.051727 0.002041 0.008909 -0.178015 0.140731 0.026343 0.042057 -0.115313 0.014914 0.154007 -0.171018 -0.015597 0.151023 -0.052056 -0.101523 -0.156062 0.016533 0.118750 -0.030319 0.119369 0.292772 0.022752 -0.139206 -0.038636 -0.298206 0.049684 0.005580 0.070524 -0.105472 -0.036859 0.129127 0.071789 0.112229 0.010610 0.215322 0.151378 0.058313 -0.085555 0.185759 -0.045884 -0.076346 0.118527 0.146596 -0.081535 -0.097310 -0.064418 0.103742 0.037242 -0.121669 -0.107768 0.216669 0.215928 -0.184917 0.126137 0.104153 0.011081 -0.034738 -0.304453 -0.001634 0.129857 -0.093322 -0.078811 -0.026280 0.033128 0.289240 -0.077451 -0.106986 -0.099235 -0.018404 -0.288565 0.028317 0.107637 0.039465 -0.068460 -0.037772 0.166349 0.137344 0.049712 -0.019544 -0.068523 -0.196850 -0.050226 0.020203 0.057703 -0.159949 0.090948 0.185738 0.140675 -0.089541 -0.128521 0.059568 -0.006786 0.010070 -0.079997 -0.216572 -0.149706 -0.118990 -0.138598 -0.207817 0.155994 -0.127407 -0.145218 0.039126 -0.081708 -0.155844 0.008489 0.011919 -0.208284 -0.126140 -0.092501 0.223553 -0.012393 0.051896 0.034785 -0.112459 0.002678 -0.090981 0.053534
with 0.121557 -0.232090 0.133672 -0.061797 0.071170 0.002691 -0.008169 -0.026977 -0.111011 -0.208285 0.100617 -0.078957 0.043022 0.056184 0.203130 -0.084241 -0.149522 -0.137389 -0.004926 0.095859 0.146536 0.011622 -0.046132 0.083186 0.167679 -0.145365 0.027863 0.031096 -0.068270 0.084102 -0.119458 0.200813 -0.090639 0.025330 -0.003650 0.045203 -0.213015 0.204412 0.145284 0.160133 -0.050499 -0.059323 -0.031411 -0.070306 -0.109673 -0.089718 0.147034 0.104677 -0.092339 -0.112284 0.092165 0.029212 0.101816 0.121617 -0.220839 -0.055856 0.091983 0.055747 0.023340 -0.055684 -0.045922 0.065702 -0.088272 0.116698 -0.069976 0.083274 -0.033442 -0.056283 0.016744 -0.121181 0.155786 -0.093318 0.050436 0.023340 -0.030512 -0.146031 -0.018593 0.187409 0.074168 -0.004571 -0.045388 0.152325 -0.086544 -0.038985 -0.066806 0.152040 0.068994 -0.094387 -0.209969 0.115790 0.148421 0.097734 -0.067792 0.004390 0.025915 0.012339 0.013650 0.121916 -0.103484 0.027973 0.040535 -0.044015 -0.000453 -0.079961 0.001738 -0.054354 -0.092432 -0.070301 -0.194246 0.025389 -0.137834 -0.021779 -0.025897 0.122395 -0.055016 -0.053795 -0.050548 0.021391 0.023132 -0.027188 0.042984 0.015220 0.112817 -0.044099 0.078237 -0.097872 0.203575 -0.138738 -0.026794 0.122065 -0.011867 0.028144 0.105428 -0.041185 -0.057428 0.031108 0.002721 0.030129 0.120394 -0.035307 0.200224 -0.078913 -0.208926 -0.015814 0.022464 -0.010207 -0.123828 0.184461 -0.093559 0.139689 -0.094980 -0.200616 0.304797 -0.225533 0.021622 -0.056393 0.050449 0.027680 -0.039636 0.004654 0.103122 -0.040773 0.097385 -0.055514 0.068458 0.135186 -0.030879 0.027824 0.121513 0.037736 -0.190928 0.026795 -0.016665 -0.053660 -0.003136 -0.057970 -0.008936 0.127041 0.061385 -0.123431 0.017541 -0.107556 -0.079602 0.039233 -0.031350 -0.204749 0.003562 0.024147 0.202877 -0.005024 0.100346 -0.077855 0.052915 -0.307820 -0.086220 -0.105262 -0.177770 0.110202 -0.082256 -0.208447 -0.087906 0.101191 0.107072 0.067131 -0.116902 -0.249715 -0.273735 -0.115489 0.039127 0.206460 0.054296 0.054606 -0.069390 0.010027 -0.133046 0.038301 -0.154266 0.017604 -0.038779 -0.153609 0.173063 0.053150 -0.030129 -0.003792 0.139536 -0.149651 -0.026634 0.009614 0.114764 -0.268967 0.180999 0.082934 -0.095216 -0.114043 -0.040402 -0.075526 0.202251 0.038309 -0.215753 -0.023051 -0.134566 -0.089865 0.145331 -0.081937 -0.168645 0.037437 -0.102952 -0.114160 0.096904 0.160488 -0.180809 0.224753 0.057860 -0.072919 0.021223 -0.019854
be -0.004633 -0.059224 0.214998 -0.068473 -0.110259 -0.049957 0.052725 0.013200 0.038560 0.166147 0.040316 0.181653 0.014866 0.169450 -0.145769 0.212056 0.046197 0.004016 0.157283 -0.031073 -0.126354 0.055378 -0.120147 -0.069627 -0.107941 0.021962 0.039248 -0.135174 -0.039482 0.015022 -0.035110 -0.051069 -0.008502 0.142398 0.040255 -0.069424 -0.025674 -0.071455 -0.051937 0.141392 0.003727 0.011147 -0.070134 -0.066340 0.015887 0.076734 0.160796 0.056803 -0.233507 -0.121871 0.095408 -0.264264 -0.009385 0.009657 0.015479 0.043881 -0.015566 0.159824 0.022418 0.178038 -0.382371 0.045259 -0.061333 -0.087871 -0.156729 0.104967 0.031203 -0.145919 -0.024216 -0.045660 -0.023262 -0.073196 -0.073597 0.001390 0.073980 0.000265 0.104770 0.028339 -0.015355 -0.105731 -0.018977 0.108352 0.231468 -0.033165 -0.190439 0.013125 0.118505 0.015424 -0.106599 -0.026244 0.114950 0.044924 0.069907 0.048673 0.141427 -0.037086 0.003708 -0.071391 0.122278 0.018231 -0.077959 0.031684 -0.191255 -0.045490 -0.000329 0.113671 0.052939 -0.107116 0.136748 -0.172586 -0.192001 0.081444 -0.260371 0.175468 0.032538 0.213931 0.055009 0.253434 -0.064045 0.041752 0.072878 0.176601 -0.067492 -0.082174 0.128070 -0.234878 -0.067767 0.006516 -0.035139 -0.023412 -0.073947 0.089824 -0.117119 0.175801 0.092736 -0.191951 0.006871 0.152824 0.097313 -0.049064 -0.121311 -0.018473 -0.188360 -0.019821 0.058919 -0.015285 0.030030 0.054717 -0.123480 0.099397 -0.043201 0.029498 0.023150 0.030518 0.118667 0.082387 -0.098322 0.016079 0.088805 -0.219290 -0.008851 0.011694 -0.093560 0.039331 0.048665 0.003833 -0.008054 0.254772 0.013671 0.099670 -0.078028 -0.062892 -0.055550 -0.036151 -0.152547 0.206354 -0.076637 0.075595 -0.001829 0.034124 -0.042763 0.017941 -0.028389 0.036753 0.069013 0.083436 -0.053181 0.007462 0.173095 -0.112542 0.005374 0.244363 0.129303 0.095513 0.060308 0.015716 0.089657 0.035466 0.121335 -0.183308 -0.038618 -0.078626 0.053926 0.051552 -0.078824 -0.044349 0.252833 -0.057966 -0.064755 -0.085497 0.093356 -0.007463 0.025272 -0.023967 0.074273 0.111326 -0.122875 0.085348 0.015824 0.110533 -0.138140 0.135510 -0.098099 -0.102082 0.041658 0.173486 -0.160598 0.203477 0.021010 -0.055583 0.036320 0.046389 -0.112192 0.135307 -0.089474 0.026361 -0.114844 -0.129688 0.155370 0.011232 0.081438 -0.064790 0.163331 0.043543 -0.213280 -0.021148 -0.022104 0.015208 0.074724 -0.041242 0.032671 0.147926 0.025561 -0.086314 -0.203503 -0.200786
are 0.051547 -0.060184 -0.052385 -0.001538 0.024888 -0.116310 -0.002235 -0.007537 0.084838 0.150818 0.248002 0.151744 0.001642 0.086453 0.100870 -0.087717 0.095419 0.051069 -0.050933 0.020965 0.171102 -0.092278 0.096491 0.078102 0.191710 -0.144901 0.117668 0.051460 -0.165463 -0.051496 0.135570 0.071018 0.067023 -0.155963 0.010995 -0.022985 -0.169951 -0.006479 0.246317 0.147297 -0.004348 -0.170586 0.044512 -0.081162 0.055088 0.004163 0.191034 -0.014273 -0.098903 -0.028351 -0.059194 -0.041708 -0.075701 0.064980 -0.168157 0.072159 -0.070573 0.089523 0.072052 -0.047245 0.119443 -0.089313 0.001056 -0.043203 0.100019 -0.113541 -0.100147 0.072876 -0.191913 0.119358 0.146182 0.038973 -0.013998 -0.017266 -0.209763 -0.146037 0.008694 0.192741 0.088350 -0.106772 -0.054342 -0.074586 -0.037951 -0.129875 -0.053806 0.301811 -0.036819 0.095490 -0.051722 0.074672 0.023013 0.139443 0.002920 -0.030026 -0.203219 0.129204 -0.023490 -0.051204 0.050734 -0.186699 0.049910 -0.110230 -0.152345 0.112783 -0.022949 0.131528 0.142825 -0.053818 -0.031946 -0.010727 0.024773 -0.038586 0.109099 0.076050 0.065662 0.239405 0.141566 0.094585 0.044892 0.045399 0.135514 -0.026561 0.021718 -0.244129 -0.044909 0.121437 0.151406 0.013398 0.067254 0.158518 -0.079742 -0.046462 -0.149778 -0.116152 0.001128 0.096411 -0.029484 0.042634 0.030090 -0.074085 0.045395 -0.163068 -0.035479 -0.093642 -0.075363 0.031885 0.029717 0.063685 -0.041276 0.194840 -0.013442 -0.176216 -0.024146 0.076202 -0.065986 0.004027 0.084466 0.109644 0.159796 0.110697 0.031950 0.035514 -0.036706 0.088699 -0.004132 0.170112 -0.226386 -0.076708 -0.047013 -0.026310 0.043307 0.014499 0.103615 0.091888 -0.119610 -0.082328 0.051322 0.035675 -0.157364 -0.019711 0.112928 -0.061420 0.072743 -0.219604 0.184397 0.090623 0.169497 -0.079869 -0.053530 0.154701 -0.070410 0.254637 0.164760 -0.085948 -0.027987 -0.242022 0.251928 -0.067634 -0.028046 -0.244232 -0.119921 0.124845 0.036161 -0.025301 -0.247444 -0.214327 -0.051781 -0.105890 0.132578 0.077017 -0.002435 0.012130 -0.221833 0.002736 -0.037176 0.011269 0.086633 -0.120461 -0.040282 -0.182266 0.267830 0.145175 -0.044179 -0.043492 0.059297 -0.160308 0.039779 -0.069121 -0.079752 -0.021184 0.095824 -0.144705 -0.092786 -0.232213 -0.025254 0.052020 0.030634 0.017671 -0.128172 0.201865 -0.131501 -0.089525 0.022121 0.063225 -0.164629 -0.007248 0.012631 -0.221112 0.026071 0.142715 0.012373 0.035578 -0.054280 0.034858 -0.011483 0.145692
I -0.175452 -0.116932 0.051895 -0.036997 -0.008067 0.039931 -0.017821 -0.011640 0.074428 -0.282926 0.189033 -0.039153 0.160133 0.138712 0.141684 -0.043017 -0.108173 -0.327303 0.006009 -0.010109 -0.100160 -0.102747 0.047223 0.138567 -0.071181 0.078585 0.141470 -0.188270 -0.070916 -0.019327 0.016166 0.079239 -0.048022 -0.036107 0.130894 -0.017427 -0.007163 0.129035 0.292114 0.038514 -0.048308 -0.099785 -0.201704 0.056684 0.065587 0.060388 0.051138 -0.039130 -0.242440 0.089053 -0.116297 -0.028181 0.183123 0.185547 -0.212847 0.155788 0.058508 0.024657 0.122840 0.081044 -0.011046 -0.016072 -0.149004 0.051209 0.126332 0.046466 0.047669 -0.213827 -0.181569 -0.182406 -0.318727 -0.170841 0.004434 0.108326 0.261843 -0.032213 -0.007344 0.049245 0.188283 -0.148611 0.045024 -0.034529 -0.128522 -0.100509 0.157105 -0.003400 0.006409 0.068808 -0.135351 -0.159334 -0.187129 0.072863 0.002427 0.158145 0.023111 0.093684 0.103919 -0.239744 -0.212363 0.015744 -0.194225 0.191505 -0.105973 0.050149 -0.008574 0.068193 -0.170642 -0.135960 -0.092302 -0.260880 -0.314023 0.106661 -0.099844 0.248135 0.135927 0.144882 0.174484 0.000495 0.100843 0.067832 -0.050852 -0.001133 -0.015692 -0.032682 0.179648 0.033976 0.070692 0.266622 0.050841 0.068351 0.226763 0.063677 -0.087994 -0.024180 -0.194296 -0.099683 0.180229 0.224138 0.044270 0.242038 0.067540 0.093108 -0.030921 0.160192 -0.092804 0.084486 0.043966 0.101956 -0.080691 -0.069897 -0.059117 0.014086 0.048430 0.082064 -0.064756 -0.082796 -0.008876 0.218494 -0.007936 -0.089061 -0.007391 -0.100005 -0.091752 0.040226 -0.190061 0.284233 0.100977 0.166157 0.096291 0.194365 -0.068308 0.195221 0.164813 -0.035781 0.146220 0.182181 0.015232 0.034228 -0.018484 -0.053376 -0.035138 -0.050197 0.117768 -0.130857 -0.043067 0.119741 0.088149 0.091101 0.169578 -0.144425 -0.032599 0.269312 -0.112929 -0.112650 -0.188649 -0.238575 -0.008669 0.151676 -0.093854 -0.031791 -0.097111 0.104587 -0.081616 0.058852 -0.162396 -0.105922 0.043728 0.091072 0.080337 -0.127334 0.000961 0.050092 0.019501 -0.028134 0.004115 0.164223 -0.032264 -0.118924 0.042626 -0.028548 0.035886 -0.043573 -0.056331 -0.009468 0.149680 -0.078373 -0.144277 0.168271 -0.071691 -0.179154 0.159560 -0.079710 -0.043877 -0.082891 0.120690 -0.099156 -0.170597 0.020022 -0.041385 0.029355 -0.024168 -0.022755 0.098042 0.078523 -0.150960 -0.043080 0.088039 -0.013692 -0.171495 0.103639 0.100759 0.165319 -0.111346 -0.059984 0.011902 -0.092008
this -0.169872 -0.092783 0.198575 -0.036557 0.089058 0.115588 -0.097484 -0.128140 -0.153257 -0.026317 -0.098396 0.134353 0.084505 0.160684 -0.145543 -0.138922 -0.079374 -0.263239 0.030448 0.121875 -0.075938 -0.138896 0.032186 -0.007786 0.049457 0.109895 -0.044867 -0.088315 -0.035926 -0.133492 0.008311 -0.106863 0.089482 -0.060902 -0.202549 -0.105850 -0.014989 -0.024448 -0.053888 -0.100616 0.170225 -0.034304 -0.089582 0.183392 -0.139790 0.183488 -0.028654 -0.082941 -0.131064 0.018363 0.027532 0.152802 0.097297 0.067085 -0.110016 -0.122196 0.168666 -0.051667 -0.101022 0.115114 0.098496 0.031420 0.078206 -0.005454 -0.131871 0.049310 -0.061262 -0.055885 0.100585 -0.004588 -0.004907 -0.107785 0.088886 -0.134379 0.067154 -0.011549 -0.109522 0.080542 -0.086563 -0.100569 -0.019992 -0.117860 0.054386 -0.205672 -0.013777 -0.058668 -0.125013 0.044648 0.107862 0.065377 -0.146007 0.007605 0.029259 0.018278 -0.099802 0.007949 0.068019 0.127631 -0.007565 -0.017847 -0.064134 -0.034147 -0.005882 -0.014276 0.216258 0.015410 -0.084490 0.178462 0.131456 -0.099966 -0.110425 -0.180718 0.035428 0.059318 -0.087973 0.197956 -0.002158 -0.153395 0.118300 -0.049282 0.066871 -0.056571 -0.021635 0.087138 0.158876 -0.059874 -0.034317 0.119630 0.043018 0.007604 -0.104956 0.135737 0.135953 0.049475 0.152953 -0.014522 -0.076203 0.203771 0.143381 0.014024 -0.106833 -0.098583 -0.059392 -0.009780 0.031992 0.017668 0.092278 0.066396 0.132937 -0.014626 0.073039 -0.164879 0.147060 -0.159638 0.091478 0.001498 -0.032038 0.058588 0.071989 -0.083455 0.083692 -0.038842 0.080097 0.015678 -0.233794 -0.004839 0.045314 -0.052788 -0.004681 0.030017 0.211152 -0.017824 0.098987 0.124093 -0.011677 -0.076291 -0.041149 0.046855 0.033082 0.218602 -0.054812 0.211409 -0.126090 -0.081528 0.210966 0.099103 -0.132689 -0.061036 -0.121377 0.057052 -0.177170 0.097147 -0.039947 -0.007724 0.031016 -0.029558 0.187759 -0.044604 -0.029503 0.048914 0.052051 -0.162237 0.181745 0.195790 0.094049 0.075506 -0.102646 0.051773 -0.098918 -0.158491 0.041768 -0.066786 -0.061084 -0.015620 -0.024587 -0.025175 -0.004893 0.050091 0.052020 0.130123 0.091846 0.002536 -0.000749 -0.022875 0.139106 -0.124755 -0.014288 0.132713 0.145085 -0.105827 -0.076849 -0.041468 -0.111229 0.024179 -0.190627 0.010994 -0.205552 0.077558 0.004311 0.007419 -0.130528 -0.008290 -0.152095 0.092073 0.109260 -0.015130 -0.080055 -0.053951 0.158737 -0.094137 -0.115691 0.032521 -0.226319 0.059773 0.044887 0.104034
as 0.068670 -0.035441 0.031037 -0.165161 -0.190414 0.223843 0.074957 0.024541 0.017826 0.081233 0.127121 0.008372 -0.097595 0.102699 0.197899 0.126130 -0.229154 0.028285 0.193594 -0.119762 -0.083940 0.115119 0.089471 -0.021689 0.037556 0.108524 0.089083 -0.250469 -0.180714 0.190057 -0.323699 0.181674 -0.215581 0.059062 0.011233 0.002805 -0.066421 -0.076697 0.095218 -0.007979 -0.047596 -0.002706 -0.212952 -0.183892 0.226391 -0.099831 0.072275 0.045105 -0.158558 0.002284 -0.037775 0.132955 0.149668 -0.013792 -0.213713 0.043120 -0.084552 -0.020682 0.180731 0.037509 0.064384 0.008139 -0.084347 0.150629 -0.128400 0.206550 0.083573 -0.137931 -0.159804 0.006100 -0.133356 -0.026909 -0.051646 0.068866 -0.241062 -0.022107 0.135007 0.243704 0.063014 -0.070959 0.077140 0.193160 -0.048283 -0.055608 -0.023244 0.096727 0.074712 -0.028569 0.157963 -0.165906 0.072461 0.242908 0.131063 0.115803 0.029910 0.060231 -0.038439 -0.068989 -0.074741 0.228203 -0.052317 0.033873 -0.174535 -0.014862 -0.048774 -0.015437 0.007668 -0.180338 -0.182608 0.109560 0.115669 0.276665 -0.123769 -0.032187 0.154855 0.001532 0.052631 0.114641 0.008603 -0.092630 -0.050452 0.165252 -0.071413 -0.059593 0.142426 -0.009166 0.062439 0.001122 -0.159423 0.150411 0.134797 -0.077728 0.128195 0.085934 -0.180533 -0.134070 -0.026668 -0.127698 0.018245 -0.215999 0.185473 -0.087813 -0.120231 -0.012077 -0.021428 0.099278 0.040426 0.118404 -0.094517 -0.196551 -0.138397 -0.202547 -0.067853 0.020953 -0.184616 -0.237839 -0.021553 0.098113 -0.016850 -0.009536 -0.006099 -0.123645 -0.094345 -0.274631 0.091141 -0.023430 0.175608 -0.040045 -0.026510 0.202528 -0.183625 -0.166989 -0.133366 0.043917 -0.032849 0.130241 -0.016023 -0.049939 0.053606 0.010727 -0.092594 0.170748 0.084067 0.091941 -0.042174 -0.121501 0.021349 -0.135734 -0.052845 0.093549 0.137558 -0.142995 0.110778 -0.040832 -0.177168 -0.153872 -0.006879 0.088276 0.214378 -0.018808 0.094707 0.127482 -0.008932 -0.039246 0.016026 -0.159236 -0.175720 0.009265 -0.058570 -0.123672 0.027768 0.080431 -0.084680 0.005496 0.127374 0.006409 -0.072475 0.009249 -0.089123 -0.148996 0.001954 -0.061518 -0.169660 -0.238556 -0.003742 -0.074672 0.099130 -0.079360 -0.044423 -0.024204 0.254211 0.071653 0.272939 0.224615 0.061434 -0.248072 0.015679 -0.126223 -0.062684 -0.126008 0.023959 -0.141804 -0.064149 0.056905 0.023638 -0.254723 -0.033543 -0.020367 -0.022490 0.098835 0.077410 0.070466 -0.057861 0.004394 -0.042962 -0.044846
we 0.072654 -0.011884 0.086815 0.112741 0.062648 0.000889 0.032852 -0.094329 -0.024339 -0.093253 0.131229 0.069131 -0.113730 0.090880 0.106390 -0.112489 -0.161459 0.157306 0.010840 0.200986 0.073706 0.033656 0.190353 0.207299 -0.153668 -0.004112 0.056817 0.010291 0.001799 0.023266 0.060214 -0.231066 -0.146621 -0.039458 0.069041 0.056672 -0.132339 0.068154 -0.029910 -0.027898 0.052008 -0.109768 0.015660 0.097068 -0.054142 -0.165629 0.027234 0.042137 0.038614 -0.041866 -0.178417 -0.199522 0.027605 -0.125005 -0.091955 -0.083252 0.244734 -0.061224 -0.100947 0.038614 0.117082 0.049817 -0.007261 -0.044273 -0.020349 -0.123497 0.080921 -0.180854 -0.096297 -0.142654 0.006476 -0.039315 -0.225155 0.123921 0.094128 0.158033 0.111992 0.102636 -0.133035 -0.082557 -0.000640 -0.040580 0.060707 -0.185630 -0.121306 0.173688 -0.061447 0.009316 0.101756 -0.148812 -0.001352 0.088813 0.283660 -0.051132 0.079524 0.102120 0.168277 -0.029450 0.182975 -0.130345 0.061967 -0.115587 -0.121564 0.156547 -0.007260 -0.046275 -0.106780 0.178477 -0.017719 -0.110251 0.000530 0.008584 0.004056 -0.116794 -0.105258 -0.133883 0.042681 0.053421 0.194517 0.207492 0.046161 -0.148189 0.072749 0.031713 -0.040278 0.012136 -0.108518 0.051047 0.011250 0.083887 0.005157 0.138188 0.012500 0.037573 0.165860 -0.155082 -0.008239 -0.022600 0.003108 0.111931 -0.011344 0.143990 0.087454 -0.042068 0.139914 0.121427 -0.127758 0.005369 0.127180 0.128020 -0.013361 0.021447 0.191184 0.189747 -0.168968 -0.166631 0.081775 0.031233 0.156419 0.042451 -0.248204 -0.153647 0.057218 -0.145724 0.130318 0.020937 -0.108294 0.164143 0.073996 0.053130 -0.087836 -0.061421 0.174020 0.010460 0.074462 -0.009995 0.037049 -0.039674 -0.076462 -0.152581 0.064083 -0.209562 -0.014560 -0.268510 -0.026635 0.006302 0.007581 -0.162122 -0.128672 -0.002956 -0.014249 0.069007 0.111855 -0.038143 0.002059 -0.235961 -0.142601 -0.043670 -0.196265 0.118068 -0.137404 0.204124 -0.094918 0.062040 -0.009743 -0.030135 -0.135011 0.015973 -0.169723 0.012702 -0.199919 0.105912 0.001084 0.100015 -0.080609 -0.238914 -0.163568 0.030927 -0.060966 0.030695 0.039029 0.235445 0.160047 0.078876 -0.095443 -0.005043 0.044829 -0.109625 -0.064461 -0.166604 -0.106447 -0.069898 -0.125775 -0.005781 -0.188755 -0.036847 -0.257324 0.252279 0.064858 0.025805 0.024896 0.025249 -0.012363 0.006695 -0.058161 -0.117811 0.242185 0.148666 -0.040964 -0.101102 -0.006240 -0.091726 -0.074755 0.137724 -0.024563 0.123325
have -0.168690 -0.109031 -0.062413 -0.119911 -0.116793 0.261286 0.068259 0.075871 -0.069461 0.235642 0.185098 0.197413 0.208854 0.187023 0.267031 0.151157 -0.156745 0.208659 0.211067 -0.028609 -0.159383 0.046475 -0.027289 -0.201435 0.172049 0.163914 0.188721 0.060041 -0.159532 0.184027 -0.058280 0.084073 0.052321 0.062961 -0.078567 0.028209 -0.061715 -0.110596 0.083747 -0.028160 -0.180867 0.273068 -0.227831 -0.122913 0.024465 -0.128952 0.102744 0.056744 -0.029045 -0.015658 0.132029 -0.069408 0.137900 -0.129456 -0.056494 0.064100 -0.066674 -0.113266 0.016297 0.099459 -0.019481 -0.092087 -0.106168 0.038440 -0.074596 0.098305 0.270922 -0.144514 -0.230723 -0.347622 0.133394 -0.304341 -0.285740 0.017008 -0.281207 0.254727 -0.055299 0.164104 0.244216 -0.023451 0.273631 0.158201 -0.224604 0.044444 -0.177352 0.455846 0.254270 0.050686 -0.014212 -0.031811 -0.140084 0.094433 0.062494 -0.008003 0.165562 0.035153 -0.344520 0.056586 -0.217628 0.070337 -0.074322 0.190297 -0.039522 -0.050640 0.349590 0.281119 -0.176965 -0.002504 -0.166206 0.073762 0.034394 0.090900 -0.278398 0.054442 0.291253 0.295478 -0.264805 0.327534 0.029446 -0.018876 -0.021398 0.301639 0.022165 -0.010102 0.194780 -0.185496 -0.072834 0.132387 -0.171155 0.081400 -0.028903 0.158535 -0.159218 0.200716 -0.107171 0.029107 0.244170 -0.071955 0.024533 0.153240 0.097289 -0.181338 -0.066364 0.095180 -0.290659 -0.089455 0.203249 0.251425 -0.295329 0.167279 -0.054724 0.039900 0.092700 0.111909 0.144587 -0.084604 0.127417 -0.151213 0.149709 -0.221163 -0.048533 -0.174230 -0.181432 -0.077056 0.034011 0.093741 0.004082 0.265662 0.029013 0.167699 -0.108681 -0.005040 0.329727 0.154675 0.130675 0.150781 -0.005145 -0.004158 0.179462 0.148917 0.363675 0.024083 0.134758 0.155942 -0.234460 -0.044301 -0.084140 -0.291909 0.044434 -0.065592 0.146575 -0.035249 0.208250 0.143641 -0.077799 -0.310753 -0.041977 -0.009901 0.028632 -0.016758 0.099283 0.277183 -0.092019 0.084124 0.038675 0.035213 -0.102541 -0.113627 0.148514 0.172141 0.037464 -0.040305 0.014569 -0.149431 -0.029106 0.183733 0.063749 0.182199 -0.152526 -0.134629 -0.209148 0.067759 0.049125 -0.182903 0.119481 -0.056747 -0.244889 0.054574 0.112157 -0.134560 0.038133 0.303850 0.008160 -0.005819 0.083486 -0.258126 0.148841 0.064171 -0.220560 0.006999 0.202758 -0.224188 0.117808 0.082611 0.173562 -0.041709 0.189740 0.227983 0.111013 0.028090 -0.142675 -0.040631 -0.052613 -0.161033 -0.058433 -0.134951
it -0.001442 0.087201 -0.048296 0.126441 -0.037961 -0.194469 -0.018895 -0.088447 -0.117792 0.011080 0.068585 0.127036 0.069180 0.038477 -0.141253 0.010574 -0.115054 -0.076272 -0.130602 0.061925 -0.040549 0.042498 -0.180627 -0.019686 0.084291 -0.141944 -0.280573 0.020466 0.158692 -0.095159 0.191666 -0.072419 -0.065710 -0.046188 0.079865 -0.324060 0.038584 -0.088173 0.166296 0.152000 0.104826 -0.027840 -0.019653 -0.003321 -0.204985 -0.054032 0.168320 0.081008 -0.022230 0.103199 -0.055517 0.000823 -0.040980 -0.046796 0.154410 0.088439 -0.108713 0.114738 0.016377 -0.207919 0.130841 -0.069105 0.139640 0.248862 0.089502 0.097511 0.101066 0.087312 -0.008672 0.188101 -0.104572 0.062627 -0.162805 -0.154910 0.008566 -0.016437 0.037299 -0.049193 0.020923 0.094732 -0.230649 -0.270802 0.058919 -0.105989 0.018804 0.257942 0.037999 -0.001543 -0.117422 0.000419 0.109817 0.028604 -0.061590 0.036413 -0.165952 0.054138 0.050058 -0.113066 0.136797 0.104366 0.064615 0.021687 -0.006048 -0.031665 -0.074786 -0.138397 0.030515 0.072709 0.116896 -0.126662 0.059126 -0.055597 0.174037 -0.144341 0.138398 -0.184307 0.149149 0.119608 -0.241047 0.148415 0.120682 0.022529 -0.111530 -0.112778 -0.168103 -0.067433 0.136050 -0.107071 0.265736 -0.024732 -0.029952 -0.171249 0.056834 0.078533 0.111422 -0.105586 0.008575 0.061380 0.090131 0.118699 -0.030928 0.095740 -0.259724 0.059112 0.106380 -0.018160 -0.214645 -0.129323 0.214783 0.007070 0.006062 0.185918 0.052641 0.103035 0.014734 0.040930 -0.013170 0.004514 0.117507 0.003376 0.021597 0.016952 -0.012433 -0.134989 0.171665 -0.023450 -0.172469 0.037358 -0.132602 0.036557 0.038212 0.143838 -0.118434 0.027531 0.002797 -0.071435 0.159784 -0.219807 -0.235139 -0.064192 0.207131 -0.122862 -0.112287 0.112217 -0.152233 0.086231 -0.097084 0.136632 -0.023538 -0.100730 -0.087014 -0.131463 0.084015 -0.035197 0.018304 -0.006145 -0.133872 0.069193 -0.198193 0.135431 -0.012680 -0.124047 0.024594 0.002112 -0.025733 0.099825 -0.078394 0.170270 0.004908 -0.008915 -0.023560 -0.006598 0.042291 0.148317 -0.230282 0.202939 -0.178985 -0.078289 -0.071847 -0.094145 -0.252060 0.142109 0.114091 0.119872 -0.112042 -0.005505 0.133428 -0.025311 -0.014907 0.018718 -0.021975 -0.121379 0.183245 0.104512 -0.221389 0.109324 -0.200147 0.034108 -0.154351 -0.079384 -0.037272 -0.160229 0.074008 -0.134117 0.053716 -0.053905 0.145666 -0.204695 0.058528 -0.122281 -0.000184 0.040164 -0.097979 -0.089381 0.207164 0.143326
not -0.191386 -0.059450 -0.007003 0.093963 0.097131 0.052784 0.034433 -0.176686 0.037991 -0.148571 0.095256 0.198425 -0.025630 0.149863 0.057076 -0.021075 -0.102875 -0.091578 -0.030610 -0.196748 0.020966 0.009301 -0.080843 0.162390 -0.014440 0.113600 0.063965 -0.103885 -0.117067 -0.138640 -0.046980 0.119003 -0.078446 0.171446 0.026873 -0.079582 -0.145834 0.042639 0.078267 -0.099237 -0.185717 0.019866 -0.181506 0.070676 0.199216 0.024294 -0.116748 -0.115255 -0.164213 -0.034537 0.130085 -0.072090 0.238191 -0.149038 0.111799 -0.095297 -0.058024 0.070591 0.158918 0.113451 -0.058061 0.110139 0.080168 -0.086937 0.033518 0.168382 -0.056195 -0.181742 -0.099500 -0.006562 -0.012207 0.008193 -0.069284 0.126222 0.091395 -0.072798 0.068994 0.060551 0.070096 0.015037 -0.054539 -0.018350 0.036423 -0.050416 0.056936 0.049877 0.255883 -0.150389 0.020139 0.041618 -0.045718 -0.060860 -0.106876 0.115233 0.042590 -0.125201 0.013569 -0.076344 0.104576 0.143563 0.027647 0.062559 0.005935 -0.090891 0.133197 0.063046 -0.290340 0.027011 -0.035038 -0.037223 -0.071268 0.101749 -0.135808 0.187986 -0.168529 -0.059718 0.057088 0.072577 0.067892 -0.052470 0.113757 -0.084958 0.252805 0.051087 0.217424 0.002703 0.033812 0.001443 0.092665 0.093985 -0.016776 -0.005319 -0.102555 0.054257 -0.026176 -0.022484 0.070640 0.240090 -0.150334 -0.036455 -0.017997 -0.021499 -0.143438 0.124601 -0.162243 -0.121748 -0.013340 0.142351 -0.200252 -0.048804 -0.161983 -0.036452 -0.121233 0.065895 -0.020230 0.037168 -0.070303 0.006862 -0.101613 -0.018595 -0.049761 -0.211723 0.077973 -0.037710 0.091369 0.038200 0.108311 -0.102221 0.116637 0.122444 0.103610 0.092082 0.040409 -0.164307 0.032607 0.217790 -0.043724 0.065921 0.072868 -0.040138 0.122902 0.071395 0.026711 0.047457 0.043169 -0.109716 -0.114617 -0.101275 0.114602 -0.137091 -0.114884 0.171512 0.000390 -0.110923 -0.190136 -0.096836 0.123891 0.018171 -0.039122 -0.122545 -0.063751 0.010132 -0.171707 -0.060086 0.120261 0.045202 -0.015252 -0.099312 0.013853 0.048443 0.154619 -0.009870 0.132166 -0.184982 0.118669 0.183449 -0.111430 0.171458 -0.136000 -0.126431 0.087110 -0.079526 -0.188466 -0.054071 0.081435 0.128197 -0.044498 0.282333 -0.078150 -0.089573 -0.021531 0.109388 -0.093806 0.090784 0.092699 -0.058336 0.002125 -0.001133 -0.092649 0.027861 0.099668 -0.055993 -0.043650 -0.005335 -0.049006 -0.221199 0.158835 -0.074807 -0.097910 0.275639 0.161441 0.111298 0.005840 0.074776 -0.052848 0.003843
you 0.116382 -0.195183 0.149656 -0.066550 0.232270 -0.119985 -0.086921 0.013789 0.095491 0.135311 0.027579 0.156365 -0.101553 -0.079484 0.058782 -0.154597 -0.122691 -0.186472 0.112240 0.034489 -0.026393 0.086695 -0.149851 -0.012180 0.124709 -0.167694 0.129283 0.193973 0.009450 -0.080844 0.032980 -0.005643 0.170955 0.011758 0.089057 -0.075285 -0.046975 0.023086 -0.061413 0.125710 0.136271 -0.143136 0.065347 0.156766 -0.133295 0.024381 0.037581 0.228369 -0.022575 0.140122 0.182738 -0.165902 -0.017762 0.131022 0.090213 -0.063200 -0.129691 0.247128 0.004912 -0.066827 -0.023337 -0.102761 0.088922 0.032144 0.008194 0.025178 -0.234803 0.025421 0.017202 0.156365 -0.033946 0.063980 0.024631 -0.073486 -0.073674 0.078521 0.079678 0.025409 0.068193 -0.117529 -0.146982 -0.050113 -0.074827 -0.019320 0.035190 0.088149 -0.116785 -0.080606 -0.047128 0.003510 -0.119826 -0.004607 0.067380 -0.246245 -0.048897 0.160305 -0.008180 -0.104232 -0.108938 0.092003 0.087570 -0.143374 -0.258454 0.072200 0.027619 -0.071887 -0.114475 -0.082841 -0.069097 -0.190544 0.078051 0.046229 -0.109532 -0.027500 -0.169726 0.009658 -0.089786 -0.024283 0.006808 -0.207951 0.165740 -0.169668 -0.108003 0.091971 -0.091958 -0.046691 -0.000118 0.082138 0.088923 -0.176471 0.046326 -0.074467 -0.170751 -0.078469 0.276129 0.107430 -0.108976 0.119308 0.164014 0.062035 -0.006565 -0.041897 -0.097645 -0.056434 0.049880 -0.118511 -0.185914 -0.167687 -0.132942 0.037993 0.036242 -0.060942 -0.149698 0.057554 0.053247 0.023605 0.211190 0.279769 0.106387 -0.022567 -0.037527 -0.134356 0.054137 -0.102799 -0.081884 0.251311 -0.180343 0.156160 -0.028248 0.011939 0.205465 0.010733 -0.014111 0.114431 -0.044170 -0.060940 0.037201 -0.145079 -0.156257 -0.121183 0.092314 -0.144141 0.012842 0.023527 0.005411 0.209997 0.145565 -0.096378 0.151677 0.102688 -0.126887 0.210903 0.039670 -0.173632 -0.020777 -0.001401 0.110021 -0.072413 -0.075118 -0.030342 -0.027415 -0.034373 0.164000 -0.099654 0.136388 0.090151 0.025657 -0.022790 0.146261 -0.095171 0.058193 -0.208804 -0.129192 0.225499 -0.053657 0.087761 -0.046297 -0.082998 -0.076161 0.039883 0.230884 0.033899 -0.210067 0.145544 0.054493 0.043077 -0.135705 0.082177 -0.051150 -0.021460 -0.068609 -0.072226 -0.171192 -0.064324 0.027930 -0.128173 -0.285078 -0.084822 0.046145 -0.040113 -0.116491 0.038156 -0.024846 0.039433 -0.192302 -0.137833 -0.153126 0.073751 0.032028 0.026710 0.136810 -0.132410 0.173512 0.048175 -0.053955 -0.082743
by 0.022023 -0.019717 -0.174348 0.083129 -0.068542 -0.030006 0.002867 0.205999 -0.025202 -0.113718 0.050094 -0.103837 -0.012081 -0.024593 0.129467 0.065878 0.047036 -0.092894 0.199691 -0.089058 -0.158671 0.071283 -0.086449 -0.058318 0.128914 -0.074226 0.089284 0.056319 -0.071808 0.126185 0.080682 -0.161820 -0.009495 0.011619 0.138650 0.016731 0.207577 -0.044431 0.159414 0.095971 -0.006804 0.077667 -0.029408 0.065675 0.021373 0.041497 0.061116 -0.045435 -0.246558 0.126893 -0.085908 -0.217196 0.062260 0.245792 -0.106157 0.067874 0.143585 -0.044881 0.101874 0.177132 0.102558 -0.051813 -0.155602 -0.090799 -0.095527 0.005183 -0.017360 0.049059 -0.162530 0.092497 -0.172294 -0.110536 -0.078282 0.184138 0.063943 -0.040872 -0.116290 -0.159166 0.235637 -0.066208 -0.120026 0.066645 0.026581 -0.244713 0.073245 -0.036371 0.116593 0.017933 0.039390 -0.252643 -0.106097 0.158227 -0.112197 0.146130 0.131388 0.166636 -0.231833 -0.310426 0.094165 -0.024776 -0.051578 0.154670 -0.061225 -0.106814 -0.014011 0.006304 -0.044567 -0.200294 0.032914 -0.157216 -0.059467 -0.043787 0.016582 0.016797 0.123827 0.096209 0.046636 0.031963 0.134654 -0.186565 -0.056895 0.064193 -0.207996 -0.155524 -0.076914 0.013737 0.017090 -0.092594 -0.190537 0.013723 0.178792 -0.067398 0.063585 0.028980 -0.153686 -0.146052 -0.024797 0.099924 0.120953 -0.044850 0.130832 0.047107 0.051315 0.142381 -0.112475 0.237794 0.016009 0.063429 0.012754 -0.043750 -0.057244 0.230509 0.144642 0.086292 -0.151513 -0.215701 0.076617 0.091143 -0.067108 -0.081240 0.294006 -0.053019 0.011093 -0.034913 -0.063121 0.161018 -0.111243 0.201889 -0.051615 0.102786 -0.017742 -0.066258 -0.043154 -0.093684 -0.053842 -0.059315 -0.154461 0.100989 0.052107 0.052406 0.007661 0.152455 0.048616 -0.140649 0.026427 0.120635 0.193130 0.056626 0.072936 -0.096174 -0.159835 0.102873 0.101176 0.093111 0.027668 -0.025757 0.198572 0.085452 0.000371 -0.023922 -0.014510 -0.090145 -0.251040 0.053550 -0.034058 -0.038612 0.097694 0.322644 -0.054397 -0.049985 -0.113131 -0.050437 -0.058627 0.107400 -0.082772 0.070840 0.165901 0.005610 -0.032384 -0.041523 -0.027239 0.107009 0.007340 -0.083590 0.115428 -0.097389 -0.165830 0.221210 0.262677 0.127390 0.147935 -0.094926 0.196822 -0.110426 -0.060593 0.069394 0.043921 0.088079 -0.074732 0.009863 -0.105367 -0.009769 0.069607 0.123402 0.094403 -0.113092 -0.072041 0.158811 -0.215653 0.032559 -0.060864 0.052180 0.002687 0.000403 0.134536 -0.191639
will -0.083387 0.037266 0.089583 0.110973 -0.040268 0.043996 -0.233343 -0.085285 0.001590 -0.123147 -0.100972 0.130630 -0.066307 -0.008783 -0.188827 -0.004865 0.070778 -0.165873 -0.063492 0.145751 0.164194 -0.145123 0.033612 0.082871 -0.091091 -0.013136 -0.023280 -0.030754 0.090594 0.085888 0.043263 -0.143163 0.020655 -0.063200 0.100530 -0.005098 -0.130370 -0.110784 0.066536 0.063642 0.093008 0.188695 0.052660 0.259848 -0.085227 0.153986 0.135127 0.061839 0.096702 0.039054 -0.094057 -0.042388 -0.011583 0.143195 -0.134234 0.053298 0.099804 -0.051456 0.051288 0.085808 0.102854 0.073444 0.158495 -0.069727 -0.022644 -0.027327 -0.156495 -0.092077 -0.156323 -0.093191 -0.061293 -0.073577 0.042721 -0.167954 0.142888 -0.149747 -0.204559 0.112296 -0.179096 0.075231 -0.114749 -0.046336 0.027423 -0.088035 -0.171877 0.009379 -0.132415 -0.069478 -0.158000 0.180472 0.060841 -0.026994 -0.015114 -0.038591 -0.101787 -0.002662 0.220031 0.108437 -0.004332 -0.079406 -0.113467 -0.177104 0.007625 -0.053787 0.083812 0.027815 -0.070870 0.133760 0.050032 -0.214284 -0.256189 -0.025843 -0.146849 0.079610 -0.015289 0.100466 -0.044071 -0.131466 -0.062578 -0.161672 -0.038719 0.106615 -0.230444 0.085417 0.050994 -0.160860 0.016872 0.187147 -0.024357 -0.013317 -0.051043 0.110258 0.108809 -0.153586 0.069172 -0.067176 -0.129052 0.008190 -0.046920 0.113307 -0.145728 0.062681 -0.018185 -0.061074 -0.008979 -0.067522 0.075521 -0.040923 0.009384 -0.028755 -0.130576 0.098872 0.026817 -0.154336 -0.080724 -0.045355 0.087677 -0.027303 -0.118319 -0.147900 -0.222138 -0.002958 0.002381 0.250093 -0.235818 0.066904 0.080648 0.053309 0.083269 0.026926 0.151794 0.192391 -0.056678 0.064725 0.122442 0.100594 0.045221 -0.025880 -0.045921 0.121938 0.160547 0.150053 -0.162481 -0.027448 0.180298 -0.060493 -0.057974 -0.063778 0.026727 0.012790 -0.150014 0.116353 -0.171405 -0.076591 0.083964 -0.154286 -0.006418 0.007533 0.118904 -0.118955 0.012326 -0.031921 -0.018963 0.170074 0.140006 -0.055689 0.061605 -0.226224 -0.051729 0.083106 0.107233 -0.067638 0.055203 -0.021376 0.004609 -0.069861 0.088378 -0.025645 -0.039533 -0.002501 -0.022299 0.224607 0.033201 -0.108540 0.220601 -0.059977 0.038718 0.071849 0.237793 -0.297218 -0.092856 -0.038105 -0.054721 -0.019060 0.121401 0.001230 -0.059667 -0.012107 0.021826 0.099329 -0.075676 -0.017215 0.120136 0.127567 0.121898 0.071845 -0.089573 -0.022921 0.034652 -0.074464 0.055115 0.220115 -0.148841 0.209573 0.123769 -0.079014
from 0.016375 -0.144544 0.083864 -0.152470 -0.048168 0.048219 0.137968 0.071974 -0.182905 0.202399 0.131592 0.217794 0.079394 0.149080 0.109700 -0.061334 -0.096999 0.032992 0.106467 -0.162139 -0.151746 0.091302 0.064142 -0.056480 0.020491 0.171130 -0.027806 0.024326 -0.184025 -0.051513 0.000540 0.015338 0.032692 -0.050062 -0.122141 -0.167290 0.023730 -0.145976 -0.135995 -0.059376 -0.117181 0.105810 0.004242 0.079315 0.145060 -0.129118 0.088272 0.188337 -0.207455 0.046403 0.011762 -0.058549 0.165362 0.017262 -0.183381 0.112478 -0.053694 0.164697 -0.026076 0.138702 -0.102396 0.090379 -0.061972 0.161407 -0.028159 -0.040423 0.101307 0.032148 0.061751 -0.051603 -0.092488 0.012081 -0.058985 0.005880 -0.132209 -0.034406 0.205897 0.218431 0.105643 -0.077468 0.107019 0.003871 0.019380 -0.067490 -0.223392 0.062160 0.101983 -0.015040 -0.125788 -0.007703 0.000569 0.155731 -0.004575 -0.152201 -0.068681 -0.055871 0.013525 -0.084806 0.191563 0.187681 -0.097490 0.102509 -0.176524 0.112704 -0.003954 0.007320 -0.016980 0.050048 -0.146170 0.010620 -0.089446 0.126724 -0.082441 0.073723 -0.060400 0.020684 -0.138168 0.089143 0.059396 -0.083914 -0.117195 0.068114 0.116454 -0.158957 -0.047357 -0.003716 0.090075 0.041454 0.052508 -0.108151 0.108178 -0.053509 -0.116908 0.107709 -0.049906 0.064163 0.220997 0.110768 -0.002538 0.063364 0.137385 -0.096530 -0.117685 0.084082 -0.141378 -0.025010 0.010176 0.117826 -0.135296 0.002574 -0.030190 0.063099 -0.182931 0.061725 -0.094722 -0.126982 0.120609 -0.045146 -0.001751 -0.123975 0.143209 -0.119346 -0.080173 0.034297 0.135515 -0.110986 -0.038117 0.211336 -0.090572 0.117621 0.078626 -0.073810 0.023975 -0.070541 -0.118133 0.164883 -0.054662 0.001742 0.148281 -0.028158 0.096492 0.052199 0.000897 0.135032 -0.053603 -0.039844 0.033755 -0.172992 0.090279 0.147061 -0.114575 0.060005 0.018050 0.044582 -0.026489 0.033376 -0.173948 -0.079183 -0.116058 0.008231 0.083792 0.038960 -0.136154 0.122293 -0.062715 0.037645 0.085364 0.033347 0.137038 -0.146593 -0.021973 -0.009714 0.048372 -0.127483 0.137743 0.064551 -0.132629 0.191095 -0.052574 0.022391 -0.079650 -0.006359 -0.058044 -0.028950 0.132023 0.111672 -0.126143 0.101471 0.027656 -0.050923 -0.020213 -0.051704 -0.106957 0.147435 -0.016381 -0.230073 0.042630 -0.119110 -0.026889 0.102794 0.119412 -0.065814 -0.117973 0.096330 -0.095856 -0.097729 -0.108743 0.121690 0.076805 0.143326 -0.096157 0.138361 0.066259 -0.139028 -0.114195 -0.143573
which -0.138585 -0.051799 0.092673 0.045163 0.047783 -0.151647 -0.073075 -0.059391 -0.007373 -0.003681 -0.003496 0.110188 -0.051446 0.054473 0.009956 -0.112168 -0.048570 -0.037950 -0.071616 -0.079497 0.052588 -0.077876 0.014288 -0.040290 -0.068917 -0.048517 0.006652 0.092647 -0.039166 -0.172170 0.020839 0.069437 -0.029122 -0.070074 0.025494 0.071791 0.069537 0.003057 -0.064729 -0.044311 -0.033221 -0.031639 0.000150 0.044819 -0.072059 0.002978 -0.079385 -0.052325 0.023275 0.053826 -0.141270 0.164915 -0.006157 -0.117585 0.053593 -0.033908 0.092076 0.069983 -0.145088 0.094430 0.116746 -0.077313 0.048563 0.072290 -0.014036 -0.063120 0.110141 -0.069521 0.101903 -0.105965 0.014207 0.159840 -0.093179 -0.207510 0.098351 -0.135883 0.054845 -0.051086 -0.061936 -0.002632 -0.044337 -0.130655 -0.042753 -0.233658 -0.130384 0.012222 -0.000214 0.029566 0.033661 0.069331 -0.014382 -0.043990 0.063426 -0.020420 -0.017054 0.077654 0.114833 -0.191764 -0.063803 -0.096695 0.020311 -0.161351 -0.127644 -0.095523 0.162792 0.069328 -0.063374 -0.050540 -0.088706 -0.121489 -0.053044 0.173496 0.081821 -0.000841 -0.070424 0.026957 0.052072 -0.204679 -0.007792 0.077695 0.042504 -0.017586 0.121789 -0.080144 0.143453 0.015954 -0.121003 0.041962 -0.005237 -0.017635 -0.076429 -0.047707 0.115757 -0.020646 0.126621 -0.087266 0.149410 -0.138530 0.062577 0.061844 -0.045227 0.033134 0.026788 0.122758 -0.101531 -0.173908 -0.126962 0.026151 -0.131080 -0.069418 0.119275 -0.041500 -0.033526 -0.095937 -0.051652 0.093914 0.046525 0.127971 0.034956 -0.084752 0.025532 -0.008370 -0.138190 -0.046481 -0.196436 -0.018159 -0.200349 0.080625 0.064938 -0.027746 0.213267 0.108366 0.001325 0.061028 0.099892 -0.058743 0.097510 -0.151768 -0.201307 -0.080311 -0.015858 0.032259 -0.033348 -0.088799 0.038846 -0.096897 -0.055405 -0.111506 0.029959 -0.021563 -0.023233 -0.102841 -0.125345 -0.002465 -0.062078 -0.015608 -0.086044 0.061551 -0.011166 0.025351 -0.060629 0.012524 -0.035736 0.062477 -0.011297 0.055680 0.004133 -0.054628 0.022429 0.103358 -0.072627 -0.035127 0.126037 0.024786 -0.007278 0.053583 0.075441 -0.133192 0.085540 0.092822 -0.003167 0.006200 0.004979 -0.054195 -0.021249 -0.064756 -0.013471 -0.061713 0.068399 0.012959 -0.076896 -0.087966 0.019865 0.002491 0.058263 -0.138986 -0.111172 -0.208396 -0.039264 0.139335 0.038506 0.136122 -0.019717 0.040905 0.014445 -0.031784 0.132983 0.027310 -0.013360 0.176673 0.050324 -0.128397 -0.119184 0.105518 -0.009967 0.029928
has -0.176742 -0.030847 0.063486 0.029054 -0.000355 -0.181424 -0.181389 -0.062967 0.026225 0.053171 -0.032120 -0.030093 -0.044601 -0.072855 0.049624 -0.044536 -0.008318 -0.088884 -0.095554 0.094948 0.086961 0.012799 0.193225 -0.051009 -0.048352 0.050900 -0.058910 -0.102412 -0.003616 -0.067721 -0.115378 -0.031211 0.114475 0.139224 -0.039384 0.017751 -0.005618 -0.060968 -0.132875 0.092324 -0.079168 0.156339 0.068055 0.037909 -0.148386 0.154021 -0.104133 0.165953 -0.120278 -0.202787 -0.158455 -0.091115 0.092774 -0.064895 0.113999 0.106200 0.072538 0.088391 -0.081415 -0.092596 -0.104520 0.011426 -0.050940 0.038184 -0.013854 -0.151587 -0.118912 -0.035888 -0.093426 -0.041381 -0.053442 -0.081531 -0.084586 -0.080930 -0.066319 -0.021310 -0.162819 0.145688 -0.050095 0.096576 -0.117612 -0.105224 -0.061951 -0.129179 -0.192925 -0.182409 -0.023118 0.069110 0.043410 -0.036260 -0.105549 0.151903 0.313102 -0.123129 0.054280 -0.038805 0.067022 -0.033812 -0.055208 0.086901 -0.035635 -0.111486 0.002710 0.019052 0.191615 0.029588 -0.040176 0.012473 -0.000269 -0.008343 -0.118439 -0.016690 -0.079533 0.146440 -0.212097 0.036348 0.053637 0.121966 0.090817 0.040415 0.087540 0.139773 -0.208758 0.058574 0.004364 -0.147105 -0.211616 -0.021731 -0.100233 -0.058319 -0.051662 -0.029110 0.019474 0.176094 -0.079976 -0.001755 0.123618 0.048512 0.132809 -0.129120 0.047760 0.061125 -0.050310 -0.002625 0.118944 0.060069 -0.069261 0.027679 0.091942 0.058271 0.109357 -0.067629 0.019505 0.004664 -0.001415 -0.085007 0.162251 -0.115972 0.004089 0.066681 -0.019563 0.029818 0.049841 0.154376 -0.123947 0.147173 0.037903 -0.057768 0.118750 0.073729 0.130792 0.220922 0.179379 -0.024545 -0.068699 -0.046472 -0.051834 -0.107994 0.122881 0.037574 0.003127 -0.113202 0.060312 -0.073827 0.056663 0.011035 0.121637 -0.064925 0.029352 0.038773 -0.274057 -0.098317 -0.000695 0.181969 0.054967 -0.040242 0.082510 0.045542 -0.067707 0.028555 0.098456 -0.051402 0.031354 0.094117 0.089153 0.062751 0.054683 -0.065514 -0.159883 -0.031421 0.110283 0.075460 0.064603 0.127868 0.089313 0.032146 -0.150380 0.035605 0.065047 -0.062263 0.038671 0.176593 0.001055 -0.080162 0.055566 -0.117138 0.186750 0.021918 0.077329 -0.133057 -0.155048 0.068949 -0.191810 -0.066613 -0.114556 0.088980 -0.098279 0.101299 0.057993 -0.090461 -0.099135 0.088155 -0.025137 0.047697 -0.053566 -0.165782 0.036235 -0.108426 0.067784 0.017639 -0.007895 0.025433 0.028589 -0.031823 0.133161 -0.045616
at -0.080524 -0.016108 -0.052814 0.084009 0.135384 0.019574 -0.042017 -0.084889 0.035447 -0.005666 -0.094818 -0.052444 -0.022093 -0.086454 0.125425 0.011775 0.033383 0.093294 -0.031029 0.004733 0.143744 0.028992 -0.141880 0.032459 -0.044587 -0.129199 -0.045718 -0.107384 -0.034293 0.026772 -0.087627 -0.063166 0.090613 -0.085230 0.088520 -0.072782 -0.140462 -0.101684 0.119033 0.001926 -0.032515 0.076302 -0.067323 0.027917 0.043369 -0.014148 0.036639 -0.167649 0.044109 0.143619 -0.156649 -0.058112 0.068029 0.009768 -0.099391 -0.131896 -0.060386 0.110375 0.009377 -0.096020 -0.025708 0.025910 0.048712 0.179046 -0.024185 0.148939 -0.034992 -0.109151 0.076664 -0.009190 -0.022719 -0.056049 -0.067840 -0.068321 0.175429 0.010712 0.117772 -0.000134 0.010383 0.044316 0.026265 -0.021858 -0.125874 -0.111961 -0.128958 -0.047617 -0.101834 -0.051231 -0.111615 0.031178 0.046468 -0.037057 0.107189 0.064897 -0.108694 0.057372 -0.044386 -0.196102 -0.049526 -0.120096 0.074991 -0.051606 -0.063034 -0.021538 0.050626 -0.067786 0.093260 0.027654 -0.123711 0.104047 -0.057649 -0.029438 0.081773 0.012857 -0.029742 0.046543 0.119105 -0.001194 0.012279 0.045473 0.076236 -0.112595 0.068011 -0.083034 0.044039 0.031505 -0.065137 0.195902 0.012408 -0.026511 -0.101045 0.066477 -0.126899 -0.125879 -0.020124 -0.106676 0.017531 -0.050519 0.134842 -0.015139 0.093036 -0.053839 -0.009046 0.025293 -0.138680 -0.098635 -0.174921 0.010495 0.077294 0.163473 -0.091576 0.058739 -0.143688 0.063780 0.029402 0.107781 -0.138576 -0.114845 -0.064724 -0.098980 -0.230697 -0.065675 0.038965 0.110964 -0.102140 0.010935 -0.042011 0.004116 0.016592 -0.039158 0.059623 -0.026506 -0.007945 -0.085401 0.023839 0.090140 -0.093460 0.097972 -0.026914 0.011584 -0.053950 -0.000225 0.171534 -0.068113 0.066355 -0.044990 0.043256 0.051582 -0.039410 -0.038484 -0.118887 0.136322 -0.088385 -0.038345 -0.068922 -0.185019 0.003480 -0.046933 -0.083799 -0.062375 -0.092578 -0.016926 -0.059965 -0.081410 -0.086956 -0.072300 0.021092 0.045235 -0.108233 -0.058298 0.048170 0.010611 0.143839 -0.112118 0.047518 0.041893 -0.132269 -0.081889 0.075403 -0.038845 0.160932 0.044117 0.083367 -0.128908 0.073719 0.055362 -0.111248 -0.144458 -0.047380 0.009941 -0.005270 -0.071295 0.081851 -0.128845 0.037615 0.009917 -0.086161 -0.185355 -0.080184 -0.033919 0.079814 -0.138061 0.003349 0.117834 0.040414 -0.012519 -0.003783 -0.165996 0.131395 0.096882 0.131743 0.181024 -0.152357 -0.056886 -0.045045 0.096732
an -0.070099 -0.047794 0.031870 0.118785 0.127975 -0.116148 0.111188 0.143451 -0.136361 -0.016518 -0.087064 0.001337 0.042288 -0.034853 0.051493 -0.071492 0.046158 0.006918 -0.029376 0.038816 0.081668 -0.115980 -0.101183 0.201257 -0.029035 -0.125900 -0.152542 -0.032050 0.166217 -0.106552 -0.097340 -0.035169 0.049403 0.070637 -0.052816 0.002987 0.086627 -0.156537 0.152034 -0.121443 0.134230 -0.053803 0.113439 0.039506 -0.061388 0.007770 -0.117926 0.015303 0.016445 0.190014 0.024191 -0.073529 0.045364 0.024304 0.119183 0.048686 0.030299 0.075739 0.012653 -0.085331 0.108192 0.052753 -0.009179 0.097232 -0.081351 0.100578 0.112007 -0.077371 0.017428 0.076622 -0.069147 0.115238 -0.030070 -0.153913 0.158483 -0.060130 -0.040987 -0.045622 0.110769 -0.026798 -0.144776 -0.088318 -0.043673 -0.100469 0.101954 -0.000865 -0.090264 0.081872 0.018767 -0.126348 0.021836 -0.064966 -0.057748 0.095149 0.002787 0.138186 0.039202 0.038981 -0.026377 -0.166764 -0.105793 -0.064893 0.030519 0.040958 0.020034 0.056195 0.086588 -0.116608 0.130345 0.018786 -0.014020 0.016134 -0.034198 0.073004 -0.041169 -0.184041 -0.064575 -0.144185 -0.092613 -0.114509 0.034878 -0.006445 -0.081619 -0.065073 -0.095103 -0.031790 -0.019468 0.072870 0.087371 0.093401 0.030287 -0.244218 0.074274 -0.063335 -0.012685 0.069005 0.092044 -0.122811 0.096957 0.106893 0.150952 0.089576 -0.103167 0.053415 0.073657 0.031110 -0.076501 -0.050657 0.018371 0.031290 -0.081777 0.074989 -0.029680 0.107789 -0.100204 -0.093033 -0.129295 0.152187 -0.149192 -0.137392 0.089194 0.141560 0.017476 -0.075408 -0.006781 0.080750 -0.172802 0.072026 0.000249 0.042721 0.190917 0.160840 -0.064962 0.107125 0.089601 -0.093040 0.188808 -0.035161 -0.074976 -0.097115 -0.103891 0.061916 -0.047797 -0.035991 0.047606 0.116164 0.029271 0.141710 0.034812 0.078560 -0.032465 -0.021656 -0.168228 -0.074598 -0.047962 -0.010780 -0.106081 0.174880 -0.254488 -0.079675 -0.103543 -0.001590 0.116141 -0.019550 -0.077682 0.006889 0.076027 0.143918 -0.099237 0.082908 -0.125682 -0.014099 0.119276 0.028271 -0.095224 0.112059 0.022049 -0.097465 0.142373 0.146728 -0.074415 0.169355 -0.038326 -0.061521 0.047511 -0.056818 0.090083 -0.249141 -0.164981 0.093492 0.037252 -0.113944 0.173710 -0.065756 -0.056172 -0.050712 0.223790 0.236950 0.038779 -0.131448 0.050026 0.099163 0.052606 -0.041102 -0.037688 0.057097 0.012567 -0.022081 -0.031965 -0.007121 0.085321 -0.044640 -0.186996 -0.005368 0.118856 0.157409
or -0.101328 -0.108356 0.030363 -0.191706 0.206424 -0.184767 0.254859 0.161675 0.134322 -0.011340 -0.120448 -0.143203 0.133359 -0.155911 0.021374 -0.119015 0.204039 0.148298 0.199183 0.012976 -0.023685 0.003775 0.036028 0.048819 -0.118292 0.024068 0.139761 0.155093 0.027131 -0.098753 0.207897 0.145075 0.149019 0.162504 0.067785 -0.059716 -0.171105 -0.122217 0.012581 -0.007447 -0.032262 0.084974 -0.115574 -0.124556 0.007853 0.076269 -0.121023 0.095625 0.193987 0.131299 0.123642 -0.328689 0.153263 -0.165239 0.158310 0.030656 -0.178488 0.129553 0.204193 -0.009614 -0.054078 -0.085094 -0.028832 -0.107953 0.162228 0.045621 0.151527 -0.027266 -0.066661 0.055045 0.138145 0.164967 0.145249 -0.047678 0.084233 0.005235 -0.094939 0.147992 0.083673 0.120308 0.301641 0.015488 -0.241259 0.086627 0.003302 -0.159727 0.126642 -0.040560 -0.107398 -0.144628 -0.218371 0.044446 -0.081763 0.122577 0.114480 -0.211051 -0.002453 0.021240 -0.284469 0.022078 0.120250 -0.098767 -0.146988 -0.248847 -0.010642 -0.064890 -0.157611 -0.075592 0.030852 0.045086 0.190272 -0.160470 0.072532 0.179920 -0.063440 0.001899 -0.121461 -0.169891 -0.135994 -0.144483 -0.252767 -0.015196 0.093570 0.111601 -0.031449 0.156031 0.099582 -0.003632 0.060738 0.161417 -0.133615 0.010076 -0.093414 -0.111701 -0.074667 -0.015361 0.018848 -0.021082 0.067673 0.307730 0.138634 0.056900 0.046491 -0.117348 -0.213244 -0.274072 0.159917 0.114352 -0.020777 0.181380 0.045988 -0.023556 0.041743 -0.142344 0.293868 0.034680 0.015827 -0.000709 -0.096727 -0.078841 -0.060496 0.005033 0.046873 -0.009724 -0.228849 -0.116744 0.049656 -0.197742 -0.083185 0.094416 -0.045134 0.069873 -0.106756 -0.245678 -0.127302 0.099905 0.134407 -0.085268 -0.075348 0.073963 -0.190787 0.016661 -0.034953 0.087880 -0.148669 -0.097431 0.242528 -0.106589 0.124191 0.059380 -0.048420 0.150258 0.120257 -0.004562 -0.005073 0.031409 -0.194966 -0.052458 0.159586 -0.072913 0.173784 -0.003318 -0.229328 0.168801 0.049861 -0.075953 0.107398 -0.040052 -0.020373 -0.043643 -0.007183 0.095898 0.073085 0.101819 0.003102 0.042614 0.142542 0.108408 -0.125097 0.000320 0.047870 -0.211065 0.017561 0.109578 0.011066 0.035989 -0.099290 -0.089234 0.074656 -0.047676 0.030622 -0.001574 -0.206581 0.091411 0.113020 0.114711 0.270751 0.064960 -0.251151 0.068229 0.059054 -0.012287 -0.098886 0.055820 -0.044039 -0.007406 -0.071640 0.048435 -0.021964 0.199298 0.051053 0.043278 0.041432 0.062713 -0.063239 -0.088591
- 0.004701 -0.032763 -0.038274 -0.111287 -0.052462 0.049364 0.064501 -0.046868 0.014039 -0.059026 0.209910 -0.054510 0.074028 -0.155295 -0.016063 -0.033733 -0.129622 -0.062357 -0.002434 0.065504 0.080045 -0.198331 -0.067958 0.162562 0.071761 -0.059841 -0.081317 0.012638 -0.094386 -0.163868 0.074679 -0.069511 -0.033956 -0.102335 0.104397 0.004551 0.022185 0.157108 0.198884 -0.005219 -0.058278 -0.088737 0.003626 -0.097455 0.063259 -0.131840 0.080981 -0.082838 0.013584 -0.126940 -0.019374 0.082249 0.019116 0.043667 -0.112524 -0.024569 0.018185 -0.090388 0.113348 0.053735 0.108598 -0.133578 0.011183 -0.124705 0.052765 -0.046291 0.006907 0.015941 -0.115074 0.093465 0.232214 0.044364 0.146092 0.086238 -0.167970 -0.114611 0.025650 -0.002645 0.171378 -0.110658 -0.050812 0.028404 -0.065360 -0.080349 0.160829 0.170236 -0.102845 0.091894 -0.083106 0.146432 0.069487 -0.058212 -0.024324 0.116776 -0.173291 0.192682 -0.054962 0.002992 -0.089589 0.054961 -0.093550 -0.110823 -0.031342 -0.039898 0.107275 -0.041523 -0.032736 -0.109995 0.012782 0.019669 0.158917 -0.072348 -0.059529 -0.056634 0.042087 0.103659 0.131115 0.145564 0.009707 0.027699 0.063896 0.078119 -0.046757 -0.000149 0.015076 0.202686 0.191431 -0.049183 0.019609 0.130416 0.111913 -0.232689 -0.066862 -0.088597 0.111418 0.046332 -0.002210 0.040832 0.030518 -0.038287 0.174201 0.132819 0.109385 0.029539 -0.068079 -0.105889 -0.045889 0.025422 -0.006829 0.051510 0.068424 -0.139206 -0.050405 0.078175 0.210748 0.000474 0.010781 0.156285 0.193861 -0.028696 0.081400 0.046629 0.031377 0.024005 0.129606 0.043295 -0.131583 -0.075622 0.097105 -0.051835 -0.024142 -0.043883 -0.062271 -0.085475 -0.074662 -0.107342 0.083442 0.082428 -0.094803 -0.079203 0.146209 -0.037605 -0.070805 -0.156945 -0.017345 -0.119723 -0.041458 -0.106178 -0.005356 0.144102 -0.066278 -0.026420 -0.037701 -0.008180 -0.026174 -0.184038 0.084873 -0.037181 -0.072940 -0.054471 0.009587 0.206108 0.029244 -0.179498 -0.173573 -0.277503 -0.032683 -0.097585 0.064448 0.077934 0.003388 -0.055579 -0.115918 0.050308 0.099308 -0.072491 -0.149973 0.085621 0.058925 0.052249 0.164284 -0.065912 -0.006041 0.165367 0.054721 -0.067519 0.118790 0.181869 -0.044782 -0.113089 -0.031294 -0.054508 0.044539 -0.215725 0.074103 -0.076036 -0.033284 0.144667 -0.063778 0.019778 -0.138936 0.132742 -0.098752 -0.058493 -0.030352 -0.089016 0.028248 -0.079096 -0.066799 0.109150 0.019802 0.094622 0.045299 -0.097743 0.099399 -0.034630
can -0.013833 -0.149516 0.077027 0.225030 0.040044 -0.173059 -0.043766 0.159387 -0.120080 0.072654 -0.157875 0.071467 0.051491 0.088442 -0.083641 0.031081 -0.030580 -0.226068 0.041359 0.085821 -0.058994 0.015369 -0.341293 0.008857 -0.020624 -0.175438 -0.053772 0.050942 0.179948 -0.172377 -0.086023 -0.122530 -0.003397 -0.019571 -0.091298 -0.105680 -0.102363 -0.019835 -0.013164 -0.081339 0.154576 -0.037979 0.114804 0.224777 -0.173809 0.125272 -0.037505 0.030139 -0.037574 0.079456 0.008707 0.036430 0.018740 0.082233 0.084381 0.080042 0.191103 0.106345 -0.003736 -0.057996 0.179851 0.042808 -0.103940 -0.095814 0.051058 -0.050307 0.101008 0.044997 0.123155 0.086227 -0.005365 0.059476 -0.018069 -0.061359 0.149717 -0.155721 -0.114231 0.054092 0.114290 -0.125732 -0.084491 -0.290792 0.032913 -0.159153 -0.057895 0.135921 0.027772 0.013739 -0.030187 0.004496 -0.151536 -0.097021 -0.060023 0.000154 -0.173833 0.251401 0.105815 0.001772 -0.103315 0.053813 -0.074361 -0.274489 -0.047982 -0.003757 -0.039897 -0.025683 -0.025321 -0.029166 0.159009 -0.011088 0.125570 0.046865 0.120531 -0.077128 0.172673 0.043671 -0.073606 -0.168353 -0.216294 0.011528 -0.009955 -0.050483 0.060622 -0.003275 -0.071896 0.080704 0.120164 -0.017907 0.129711 0.058302 0.035809 -0.019907 -0.139152 -0.007791 0.213045 0.101341 -0.007311 -0.034319 0.129808 0.178771 -0.103274 -0.009646 -0.174738 -0.120568 -0.009000 0.012105 -0.202478 -0.168913 0.140847 0.077581 0.010647 -0.068359 0.069075 -0.117554 0.137440 0.050373 0.065436 0.145303 -0.134951 -0.134993 0.053188 0.090497 0.035883 -0.007313 -0.036430 0.122118 -0.146031 -0.023854 -0.081499 0.014981 0.128458 0.162535 -0.147128 0.150640 0.104923 -0.078143 0.274874 -0.197735 -0.152372 -0.086765 -0.073728 -0.104694 -0.012843 -0.173551 0.100203 0.090430 -0.036800 0.143615 -0.046941 0.159085 -0.009220 0.022413 -0.132675 -0.029171 0.076982 -0.012211 0.012196 0.135293 -0.026031 -0.159621 -0.011934 -0.098456 0.146592 -0.178169 0.082776 -0.051368 -0.000189 0.165560 0.074310 0.006805 0.001810 -0.084475 0.042573 0.073047 -0.166126 0.111023 -0.130959 -0.077527 0.130342 0.035146 -0.072099 0.034233 -0.059268 -0.014241 0.100927 0.031319 -0.098586 -0.157865 -0.040323 0.053615 -0.020755 -0.082316 0.106819 -0.028929 0.055395 0.029249 0.025813 0.172743 0.015565 0.077532 -0.214129 0.113708 -0.120043 0.049127 -0.034343 0.000827 0.107525 -0.043699 0.071513 0.033718 -0.001521 -0.025930 -0.077737 0.062221 0.176747 0.058849
our -0.199904 0.052596 0.029671 -0.057851 -0.069407 -0.148729 -0.284887 -0.070773 -0.120020 -0.117147 0.030671 0.051222 0.009049 0.029252 0.051609 0.074366 0.008175 -0.063729 0.037112 0.077913 0.154124 -0.019259 -0.115307 -0.072782 -0.096564 -0.096390 -0.169706 -0.091113 0.109313 0.013383 0.036805 -0.106892 0.033040 0.066040 -0.078400 0.049614 -0.167039 0.185918 -0.094606 -0.084030 -0.075721 0.154727 0.080033 0.020695 -0.074700 0.148052 0.017285 0.129362 0.048148 0.119282 -0.093678 -0.014042 0.081107 0.064223 0.020878 0.061396 0.193499 0.026174 0.064023 -0.180545 0.121286 0.198201 0.102796 0.006231 0.202960 -0.111143 0.024628 -0.135112 -0.211644 -0.121654 -0.006112 -0.029146 0.125473 -0.062108 0.171046 -0.054413 -0.150014 0.155654 -0.195261 0.073390 -0.213965 0.118573 -0.009367 -0.106172 -0.082243 -0.031522 0.053940 0.157512 -0.109981 0.037805 -0.109192 -0.003646 -0.061256 0.024475 0.050484 0.011046 0.084665 0.154663 -0.184676 -0.017549 -0.163389 -0.077424 -0.148671 0.041661 0.204667 -0.021928 -0.156568 -0.040579 0.030841 -0.080710 -0.346215 0.040989 -0.021064 0.163190 -0.098621 -0.161021 0.120950 0.068504 -0.064681 0.072779 0.117384 0.154715 -0.169923 -0.061551 -0.024487 -0.180735 0.028358 -0.014009 0.048974 0.182100 -0.058555 -0.018559 0.080303 -0.141111 0.131659 -0.050410 -0.042070 -0.066405 0.263583 0.045686 -0.090188 -0.130372 -0.027287 0.004226 0.157611 -0.018899 0.094602 -0.087648 0.075337 -0.052677 -0.135393 -0.018365 -0.041747 -0.015802 -0.037614 0.010817 0.177776 -0.069455 -0.161891 -0.074839 -0.027175 0.068964 -0.034638 0.213400 -0.090026 0.060168 -0.076133 -0.036488 0.147709 -0.141715 0.157066 0.275611 0.145927 0.150443 -0.035150 -0.024672 -0.099515 -0.096721 0.085864 0.095011 -0.062904 -0.058522 0.113194 0.117694 0.170144 -0.025210 0.217671 0.075291 0.040047 0.088312 -0.243914 -0.099575 -0.014187 -0.034802 0.122154 -0.114153 -0.168778 0.006025 -0.079096 -0.107476 -0.073728 0.054520 0.006580 0.051438 0.148834 -0.063831 -0.060946 0.014270 -0.022297 -0.133296 0.085292 -0.036871 0.126070 0.128402 -0.194615 -0.149735 -0.097902 -0.069707 -0.047463 -0.202107 -0.085318 0.018332 -0.085908 0.121277 0.144237 -0.154238 0.118334 0.041416 0.136369 -0.371667 0.114549 -0.039463 -0.143950 0.026450 0.083263 0.088380 -0.041587 0.120511 -0.146535 0.065305 0.091638 -0.057246 0.093429 0.242289 -0.034996 0.035803 -0.171601 -0.147419 -0.013973 0.030635 -0.065144 0.057761 -0.027512 0.149559 0.250079 -0.036745
" -0.042400 0.017970 -0.071559 0.092323 0.024077 -0.235298 0.046709 0.120337 -0.116276 0.035663 -0.100223 0.024195 0.004129 0.017752 0.019095 0.047212 -0.001972 -0.040695 -0.012745 0.061298 0.008918 -0.089224 0.047634 -0.100585 -0.082399 -0.185962 -0.039630 -0.029951 0.216750 0.058873 0.193943 -0.025877 -0.048151 0.065344 -0.168260 -0.240592 -0.046005 -0.079411 0.067958 0.109874 0.199968 -0.082514 0.134738 -0.018216 0.061304 -0.050805 -0.051382 0.171892 0.001570 0.189460 0.037571 0.065582 0.015506 -0.083590 0.130299 0.014343 -0.004026 0.118461 -0.081783 -0.115538 0.108473 -0.007610 0.130432 -0.027401 0.140181 0.049691 0.009337 0.023793 0.131849 0.068920 -0.059744 0.040799 -0.048774 -0.119207 0.023222 -0.033348 -0.141280 -0.109551 -0.038191 -0.017953 0.002805 -0.147431 0.119923 -0.076601 0.009537 0.126284 -0.159684 0.007187 0.069607 0.069204 -0.122943 0.070980 -0.061672 0.028459 -0.065515 0.017007 0.104748 0.060724 -0.013669 -0.077349 0.112858 0.017394 0.075879 0.151288 -0.093981 -0.024264 0.225796 -0.197311 0.152797 -0.039791 0.150834 -0.063289 0.133503 -0.018742 -0.050343 -0.116303 -0.092915 0.027265 -0.268399 -0.177696 0.118283 -0.090753 0.004168 0.103061 -0.138455 -0.042931 0.033399 -0.109735 0.039223 0.043701 0.051158 -0.265124 -0.052276 -0.170690 0.169202 0.013389 0.032976 -0.109881 -0.032457 0.151040 -0.114628 0.019943 -0.056750 -0.080467 0.163108 -0.118971 -0.081501 -0.154072 -0.011037 0.084155 0.082577 0.081211 -0.066223 0.056443 0.175039 0.102162 -0.090055 0.098409 -0.026371 -0.119566 0.106387 -0.031833 0.013333 -0.096308 -0.059524 0.121882 -0.042318 0.085427 -0.041132 -0.032407 0.041436 0.022540 -0.109535 -0.004082 -0.066876 -0.078414 0.120653 -0.223357 -0.043354 0.010679 -0.134726 0.066164 0.023991 0.023088 -0.064859 0.178544 -0.023722 -0.049019 -0.154505 -0.003339 -0.141602 -0.011214 -0.162112 0.042560 0.123568 -0.000809 0.007855 0.100164 -0.115310 -0.119506 0.113527 0.033723 0.117563 0.040488 -0.084810 -0.015558 0.127698 0.126015 0.037087 0.041419 0.027484 -0.018555 0.085958 0.149733 -0.149646 -0.010657 -0.117442 -0.022433 0.004311 -0.058601 -0.074213 -0.000391 0.026787 0.082141 0.082114 -0.028534 0.071837 -0.264606 -0.167608 0.080581 0.050494 -0.012801 0.104222 -0.011122 -0.213992 0.031321 0.029505 0.219223 0.004378 -0.158940 0.066649 -0.067331 -0.173323 -0.095005 -0.006571 0.086543 -0.153929 0.104678 0.043596 -0.097663 0.077549 -0.086184 -0.019367 0.079270 0.212870 0.115939
was 0.105055 -0.319492 -0.002196 0.009913 0.104029 -0.144300 0.036219 0.064349 0.041117 0.149577 0.072505 0.136695 0.227911 -0.173900 0.044351 -0.012732 0.022192 0.016737 0.085077 0.117909 -0.050454 -0.154917 -0.031555 -0.028875 -0.075777 0.090097 -0.034024 0.154296 0.018352 -0.119120 0.047499 0.050700 -0.017477 0.025213 0.095206 -0.014988 -0.074546 0.062910 0.028218 -0.088622 -0.088369 0.107174 0.011486 0.058416 0.135865 -0.019172 -0.084217 -0.117531 -0.090815 0.001250 0.021218 -0.336128 -0.028424 0.067000 -0.207190 0.132238 0.066923 0.213968 -0.003877 0.094842 -0.200659 0.113533 0.011005 0.016058 -0.038873 0.244317 0.117576 0.063718 -0.162085 -0.084853 -0.066577 -0.071044 0.064995 0.094291 0.144571 0.160769 -0.131144 0.086501 0.112766 0.059349 -0.011500 0.047993 -0.125558 -0.062339 -0.099545 -0.103462 0.078213 0.035649 0.011197 -0.120879 -0.004885 0.073118 -0.157687 0.120755 0.104427 0.095871 -0.083649 0.002635 -0.013664 -0.053607 0.055696 0.097261 -0.220269 -0.220128 0.150343 -0.063647 -0.064176 -0.140879 -0.002264 0.050917 -0.006605 0.018058 -0.049715 -0.052293 0.088682 -0.046286 0.028867 0.134178 0.131075 -0.112515 -0.210013 0.180649 0.123914 -0.143804 -0.027229 -0.166032 0.044134 0.058453 0.046151 0.126103 0.048003 0.018275 -0.202464 0.040557 -0.099574 -0.051452 0.017745 -0.029404 0.107990 0.090981 0.128915 -0.117321 -0.057015 0.047126 -0.102553 -0.086980 0.082282 -0.026389 -0.191094 0.041844 -0.064801 0.154033 0.003755 0.039769 0.064089 0.118925 -0.030310 0.055787 0.138376 -0.231294 -0.069061 -0.016338 -0.033668 0.138145 -0.180978 0.101518 0.113457 0.142962 -0.110399 -0.000518 -0.038393 -0.010836 0.211630 0.126697 0.116392 0.067649 0.092534 0.089585 -0.113014 -0.033974 0.102953 0.062773 -0.011914 -0.107103 -0.018381 0.110361 0.182028 0.095094 0.035181 -0.062473 -0.142250 0.221042 0.048107 -0.073790 0.055156 -0.050111 -0.124073 -0.166488 -0.082580 -0.164654 0.240431 -0.048076 -0.185782 -0.147860 -0.062354 -0.179455 0.084556 0.035331 0.063584 -0.037965 -0.023166 -0.021338 -0.011430 0.070475 0.034115 0.225178 -0.046698 -0.131019 -0.076490 -0.072939 0.028131 0.141081 -0.152508 -0.062042 0.125660 0.142714 -0.221036 -0.065473 0.215959 -0.071447 -0.045617 -0.035909 -0.059601 0.109329 -0.192893 -0.039375 -0.028130 -0.117755 -0.029090 0.041339 0.035795 -0.112049 0.153607 0.228968 -0.063691 -0.024254 -0.228537 0.022299 -0.066873 0.075941 -0.023322 -0.016251 -0.088871 -0.007762 0.043539 0.122692
all 0.128927 -0.094356 -0.015555 -0.049624 0.053631 0.079150 -0.048204 -0.056413 0.142335 0.097239 0.065965 0.022444 -0.086355 -0.174707 0.108479 0.007119 0.004389 -0.012130 0.009889 -0.083410 0.003332 -0.106410 0.059435 0.119417 0.211985 -0.116311 0.049878 -0.082610 -0.029484 -0.092995 -0.112767 -0.004423 0.116370 0.032065 0.081095 -0.093116 -0.192693 0.003392 0.093598 -0.161227 0.033352 -0.096909 -0.062599 -0.044739 -0.029932 0.048578 0.017969 -0.172642 -0.015073 -0.149791 0.034722 -0.135933 -0.063917 0.117285 -0.102795 0.053368 0.023894 0.086852 -0.025285 -0.067202 -0.070301 -0.049540 -0.120131 0.153923 -0.076963 -0.065572 0.028671 -0.183743 0.076565 -0.040878 0.022850 -0.082041 0.254158 -0.125736 -0.102578 0.045090 -0.017516 -0.014636 0.008191 -0.090795 -0.071602 0.048129 -0.199068 -0.029071 -0.098041 0.014931 -0.037726 -0.058395 0.186975 0.073899 0.153092 0.094208 0.106048 0.161745 -0.154516 0.171118 0.164325 0.024234 0.110053 -0.073181 0.011390 -0.115586 -0.065769 0.082582 -0.070111 0.159916 -0.065757 -0.156131 -0.105728 -0.148697 0.088895 -0.059800 -0.024583 0.103658 -0.001658 -0.081844 0.205653 0.113041 -0.092095 -0.062907 0.065929 0.095719 -0.117317 0.017480 -0.046795 0.045011 -0.008251 0.041506 -0.113178 0.154870 0.056041 0.047747 0.235836 -0.075233 0.045821 -0.174447 0.043560 0.128706 0.029013 0.105428 0.011260 0.115096 0.062573 -0.125564 -0.098687 0.099082 -0.019858 0.076802 0.104717 0.000551 0.003629 -0.137402 0.122372 -0.133732 0.025008 -0.126413 0.091056 0.003586 0.179664 -0.174455 -0.091374 0.081438 -0.050397 0.041785 -0.179089 -0.002749 -0.150671 -0.163711 0.138754 -0.028844 0.018834 0.115028 0.143900 -0.013500 0.099304 -0.112358 -0.080959 -0.004395 -0.126012 0.134209 -0.108809 -0.025213 -0.054388 -0.023603 0.188263 0.065273 -0.038020 -0.014888 0.088090 0.146825 -0.085896 -0.026733 -0.155299 -0.164431 0.048852 -0.249696 0.150366 -0.002446 0.033155 -0.067968 -0.148285 0.058828 0.043113 0.026897 -0.260462 -0.008790 -0.020901 0.001527 -0.038639 -0.119081 0.141388 -0.149483 -0.103683 0.110938 0.115880 -0.086577 0.018439 -0.132246 -0.084101 -0.001254 0.090645 0.190680 -0.109157 -0.155279 -0.011747 -0.065118 -0.092748 0.002987 0.125599 -0.043088 -0.114707 -0.128823 0.015819 -0.028619 -0.173511 -0.168118 -0.021864 0.096318 -0.094353 -0.077140 -0.128370 -0.139584 -0.014817 0.114606 -0.074187 0.035575 0.007479 0.026907 -0.078050 -0.124439 0.032553 0.020327 -0.122688 0.164065 0.017566 0.165650
European -0.027896 -0.132971 -0.036493 0.015313 0.131665 0.057295 -0.110837 -0.122184 -0.009363 0.147597 -0.060514 -0.041936 0.035518 -0.072706 0.120538 -0.082529 -0.000281 0.056211 0.066018 0.133927 0.180000 -0.082711 -0.009340 -0.021875 -0.219541 -0.109405 -0.094732 0.091970 -0.105616 -0.007652 -0.006574 0.147793 -0.074660 0.043960 0.066686 0.036358 -0.284915 0.048917 -0.029642 0.036255 -0.034171 -0.068688 0.085334 -0.034326 0.093337 0.103094 0.017225 -0.094499 0.002869 0.028990 -0.005937 -0.161457 0.082303 0.025065 -0.057261 0.189518 0.088067 0.168682 0.130503 -0.091579 0.038784 0.288411 -0.125287 -0.180159 -0.012904 0.080051 0.079405 -0.072415 0.032211 0.094949 -0.015861 -0.072069 -0.101653 0.014387 -0.006330 -0.141244 -0.092143 0.123262 -0.225604 0.028949 -0.021028 -0.011662 0.040552 -0.025780 -0.151594 0.078217 -0.093175 -0.229000 -0.042258 -0.063516 -0.021768 -0.014827 -0.289721 0.008308 -0.083452 0.093821 -0.071403 0.094103 -0.239961 -0.047720 -0.040010 -0.005987 -0.174974 -0.176909 -0.068852 0.042611 -0.056147 -0.142004 -0.020971 0.117597 0.073328 -0.018144 0.025840 -0.033858 0.089517 -0.018989 0.181421 0.015702 -0.083890 -0.079733 -0.002906 0.158741 0.211767 -0.155772 -0.008182 0.184708 -0.001995 0.071774 0.108099 0.112869 -0.133575 0.151281 -0.122267 -0.001147 -0.152351 -0.072556 0.042354 -0.116943 0.184002 0.022463 0.062420 -0.250416 -0.006333 -0.151420 0.039745 0.000107 -0.111554 0.293032 -0.061970 0.232777 0.047270 -0.189694 -0.075178 0.045238 0.014589 -0.022713 -0.098529 -0.070910 0.022161 -0.055155 -0.163667 0.039193 0.059325 -0.117393 -0.002369 0.026066 0.168935 0.275984 -0.031516 0.135627 0.030077 -0.065111 -0.074857 0.061193 0.141281 0.201826 -0.036740 0.026939 -0.065937 -0.072052 0.100164 -0.184413 0.097538 -0.072755 -0.041025 -0.003823 0.016201 -0.203108 0.089385 0.014749 -0.139647 0.029098 0.057636 0.023566 -0.116049 -0.132347 0.148330 -0.227111 0.132790 -0.037909 0.093165 -0.128428 0.064128 -0.079492 0.057080 0.199617 -0.044946 -0.214429 -0.087421 0.225893 0.123068 -0.016633 0.168572 0.041519 -0.013360 0.204918 -0.099375 -0.002266 -0.023512 -0.056715 0.088092 0.134327 0.053012 -0.083359 0.115610 0.111756 -0.353900 0.049341 0.096361 0.107569 -0.109995 -0.170130 -0.040167 -0.026013 0.121811 -0.020898 0.075484 -0.095837 -0.102533 0.064620 0.130772 0.002460 0.127441 0.038752 0.109403 -0.109605 -0.111983 -0.004892 0.076182 0.049540 0.131003 -0.036987 -0.212284 0.031586 0.089370 -0.173068
