<unk> 0.027560 0.018140 -0.014834 0.047291 0.026491 0.005185 0.000779 -0.017610 -0.029720 0.042089 0.039742 -0.067122 0.060660 0.059168 0.032426 -0.035398 0.005785 0.003662 -0.079759 -0.035455 -0.046995 0.080461 0.011404 0.071988 -0.076687 -0.010148 0.058152 -0.012391 0.057897 0.046925 0.015861 0.011834 -0.018108 0.071101 -0.058118 0.000031 -0.056836 -0.043084 -0.040570 0.009173 0.061981 0.029511 0.019607 -0.002785 0.046162 0.042336 -0.001925 -0.015488 -0.045105 -0.044578 0.003413 -0.018209 0.009684 0.054721 0.052529 -0.078701 -0.056422 -0.043604 -0.006029 0.077194 -0.075683 -0.009772 -0.040456 -0.110100 -0.056757 -0.019156 0.100962 -0.036995 -0.076214 -0.034627 0.019506 0.035343 -0.101773 -0.041118 -0.005852 0.010233 0.065336 -0.032824 -0.009065 0.015650 -0.016446 -0.021862 -0.018898 0.027583 0.012684 -0.015731 -0.013439 -0.104374 0.004269 0.001205 0.025803 0.002319 0.029911 -0.004984 -0.001862 0.084490 0.082649 -0.028079 0.016717 0.021622 0.034257 -0.011320 -0.033183 -0.071078 -0.039353 0.010675 0.069809 -0.094094 0.008942 0.050623 0.049967 -0.031524 0.023353 0.052348 -0.077457 0.044740 -0.024717 -0.041179 -0.021746 -0.050670 0.071308 -0.035638 0.004383 0.004029 -0.005273 -0.010255 0.014760 0.015277 0.021586 0.004164 -0.008367 0.033154 0.002260 0.022293 0.010866 0.035204 0.038297 0.075106 -0.074939 0.072821 -0.000756 0.066456 0.003532 -0.037038 0.021486 0.062778 -0.027523 0.032967 -0.022242 0.082793 -0.002683 0.045841 -0.077734 0.033280 0.034556 0.080975 -0.012756 0.016911 0.007110 0.050635 -0.014808 -0.044373 -0.027744 0.049202 0.005349 -0.027170 -0.006271 0.024131 -0.017207 -0.040035 -0.003546 -0.071090 0.007522 0.012847 -0.038915 -0.009133 0.059944 0.016757 -0.016651 -0.017158 0.024573 -0.036880 0.029061 -0.064342 0.042991 0.003113 0.091691 0.002516 -0.004486 0.072775 -0.076868 0.016552 0.034684 0.074902 -0.064597 0.059749 -0.028978 0.057740 0.029537 0.028286 -0.062249 0.023176 -0.003196 -0.040941 -0.015607 -0.092405 0.041780 0.001074 -0.021948 -0.043601 -0.027425 0.048930 -0.048794 -0.053030 -0.039020 -0.019336 -0.092890 0.055348 0.009558 -0.020716 0.022282 -0.065805 0.034621 -0.055809 0.020153 0.010146 0.003098 -0.057210 0.037237 -0.014482 -0.011818 0.009164 -0.018954 0.025886 -0.027882 -0.012723 -0.066612 0.027080 0.034443 -0.047049 -0.042441 0.055644 -0.098328 -0.089701 -0.007795 -0.000098 -0.061227 0.051166 0.020200 -0.014822 0.069889 0.081504 -0.059855 -0.080495 -0.000390 -0.091160
<blank> 0.024729 0.051747 -0.015337 -0.087579 0.073483 0.024948 0.094487 0.095129 0.078199 0.064317 0.050796 0.044577 0.021357 -0.094864 0.046826 -0.028924 -0.002717 -0.092504 -0.080718 -0.066520 0.011265 -0.047832 -0.031720 -0.066985 0.052470 0.004250 0.073638 0.066041 0.077288 0.045608 -0.031143 -0.052944 0.067385 0.045475 -0.033876 0.027851 0.010944 -0.039987 -0.037833 0.015041 -0.016391 -0.076729 -0.086308 0.092127 -0.083338 0.055468 -0.085126 0.069529 0.054742 0.000221 -0.036856 0.028462 -0.096132 -0.093042 0.044021 0.002109 0.029889 0.046378 0.044785 0.095679 0.035914 -0.096897 0.035590 0.032187 -0.044561 -0.013584 -0.046941 0.041540 -0.083224 0.074095 0.014330 0.064769 -0.011626 0.086181 -0.080574 -0.016193 0.036404 -0.021397 0.070226 -0.032018 -0.044547 0.054650 0.099893 -0.073565 -0.049962 0.053456 0.075180 0.014688 -0.062549 0.080493 0.006383 -0.028553 0.012631 -0.052746 -0.012335 -0.006350 -0.036549 0.085771 0.065660 -0.031010 -0.030212 0.099421 0.048535 -0.077108 0.018321 -0.084422 0.078550 0.040987 0.076557 0.090808 -0.012126 0.003067 0.002830 0.042195 0.090135 -0.026874 -0.002814 0.018753 0.064320 0.083215 0.088154 0.064855 -0.063501 0.046147 -0.048731 0.000284 -0.038931 -0.017916 -0.061616 -0.065984 0.082631 0.092577 -0.095925 -0.034320 -0.040012 0.063078 0.086486 -0.017084 0.039906 0.071737 -0.069016 0.039536 0.094244 0.082135 0.081255 0.005397 0.070187 0.098320 0.038265 -0.081443 -0.038925 0.046191 0.097091 0.077352 -0.061065 0.057910 -0.080654 0.009046 -0.096955 0.095445 -0.088096 0.018047 0.016639 -0.091691 -0.067731 -0.074990 0.039357 0.063013 -0.057255 0.078302 -0.028950 -0.088493 0.067334 -0.070684 -0.012747 0.000217 -0.047351 -0.040712 -0.076525 -0.034860 0.063129 -0.002173 -0.098118 0.009796 0.024242 -0.091409 -0.024668 0.002835 -0.035495 -0.055855 -0.077186 -0.011551 -0.055152 0.058744 -0.049948 -0.029329 0.080130 -0.021624 0.018463 0.070619 -0.036930 -0.070785 -0.031098 -0.004280 0.040480 0.006089 0.098329 -0.023356 -0.098635 -0.073494 0.019308 -0.092022 -0.057079 0.051974 -0.023579 -0.015294 0.020403 -0.039353 -0.017272 -0.026989 -0.036049 0.060420 0.049758 -0.006559 0.019300 -0.087788 0.036700 -0.047271 -0.096568 0.082713 -0.080137 -0.071592 0.034278 0.000662 -0.028681 -0.007504 0.088536 -0.086201 0.044018 -0.092517 0.097852 -0.002248 -0.022077 0.005169 0.003317 -0.045746 -0.016069 -0.008109 0.019956 0.079158 -0.077488 0.042530 -0.011331 -0.049680 -0.071579 -0.071284
<s> 0.112060 0.114037 0.049715 0.077726 -0.041675 0.011808 -0.093088 -0.121933 -0.052735 -0.015069 -0.088037 0.017699 0.090041 -0.053393 -0.051266 -0.099959 0.107991 0.038597 0.016954 -0.042510 -0.131562 -0.078872 0.001186 -0.010755 0.115059 0.098844 -0.101437 0.105073 0.025625 -0.142420 -0.060788 -0.150585 0.167714 -0.057235 -0.069437 0.125767 -0.041092 -0.054830 0.090071 -0.028521 0.032552 -0.121168 -0.179058 0.155758 0.115059 0.047161 -0.059083 0.103104 -0.099007 0.062014 -0.110847 -0.004289 -0.062651 0.014523 -0.050732 0.021404 -0.023278 -0.223479 0.096873 0.153915 0.188918 -0.015852 -0.075131 -0.115378 0.035212 -0.189245 -0.063232 -0.046854 0.128212 -0.104063 -0.142238 -0.057721 -0.092932 -0.050396 -0.104331 -0.017335 -0.007158 -0.130609 0.070558 -0.044753 -0.101433 -0.109293 0.013788 0.037568 -0.031155 0.007695 0.098786 0.094210 0.013452 0.015456 0.093595 0.020080 0.076657 0.059899 0.113537 0.009801 -0.157080 -0.008674 0.011047 0.033701 0.020716 -0.025889 0.065681 -0.100698 -0.035468 0.090780 0.069207 -0.005802 0.169004 0.006825 -0.013473 -0.141242 0.031430 -0.104397 -0.012112 0.182058 -0.077299 0.085581 0.100466 0.161460 0.135214 0.096958 0.100980 0.133959 0.019711 -0.151618 -0.072717 -0.041253 -0.111998 -0.197125 -0.049176 0.191876 0.083854 0.113778 -0.146091 0.035473 -0.028360 0.100065 0.143188 -0.133618 0.067840 0.043659 -0.058431 0.032467 0.110639 0.101356 -0.064073 0.013005 -0.035833 -0.055046 0.157417 0.186745 0.089428 0.133991 -0.055674 -0.060596 0.192654 0.107963 -0.102217 0.025927 0.114306 0.043706 0.026800 0.189723 -0.080451 -0.113453 -0.065480 -0.089180 -0.017434 -0.056618 -0.210053 0.026415 0.080116 -0.062434 0.103837 -0.246517 -0.078946 0.079748 -0.018370 -0.140597 0.154650 0.056522 0.062086 -0.048575 0.078364 -0.047474 0.148108 0.078527 0.082676 0.102743 0.037242 0.068574 -0.015591 -0.071359 0.079467 0.072360 0.089617 -0.039154 0.059685 -0.121998 -0.010876 -0.075310 0.074213 -0.145497 0.072134 0.098270 0.098184 -0.006882 0.015066 0.043750 0.000215 0.079197 -0.005821 0.103329 0.056501 -0.023411 -0.108652 -0.004683 -0.002930 -0.018423 0.061967 0.102574 -0.013458 0.076213 -0.144874 -0.159262 -0.049373 0.217386 0.050130 0.085719 -0.037443 0.083502 -0.032880 -0.039590 0.188071 0.049347 -0.118968 0.125832 0.070115 0.017577 0.088838 -0.042223 0.024577 0.028952 -0.082541 0.127742 -0.105570 -0.167288 -0.072482 0.138692 0.072014 0.003338 -0.069568 -0.175987 -0.050557 -0.085378
</s> 0.026859 -0.057449 0.085619 0.020358 -0.090514 0.085748 -0.061968 0.088446 0.028824 -0.001567 -0.090705 0.087612 -0.034890 -0.092581 -0.008890 0.037979 -0.013523 -0.001149 -0.021851 0.088364 -0.049430 0.043623 -0.001619 0.096212 -0.061649 0.001721 0.065400 0.081034 0.075318 0.068667 -0.080302 0.034561 0.013776 -0.045861 0.094772 0.063260 -0.024444 -0.054761 -0.006900 -0.074387 -0.042311 -0.098064 0.038412 0.027816 0.072093 0.021625 0.076724 0.036250 0.068782 0.077682 -0.044263 -0.047905 -0.093325 0.026168 0.050326 0.015950 0.091866 -0.052939 -0.082928 -0.040580 0.000551 -0.011378 0.068958 -0.073505 -0.087387 -0.059550 0.063521 0.050837 0.084041 0.059522 0.048284 0.050847 -0.080503 0.051002 -0.054267 0.030360 0.003462 0.068530 0.032471 0.082154 0.041626 0.061800 -0.037566 0.079904 -0.047117 0.015692 0.087692 0.098765 -0.080367 -0.028595 0.027644 0.071879 -0.038396 0.073716 0.026640 0.088550 -0.088260 0.048884 0.019680 0.063449 -0.039201 -0.090823 -0.079551 0.038758 0.053850 0.094469 -0.058736 -0.094354 -0.045168 0.021173 -0.049546 0.010044 0.096384 -0.067025 0.046503 -0.047485 0.089131 0.005355 -0.041759 -0.038778 0.063719 0.068364 0.090633 -0.046749 -0.076074 -0.031430 0.053266 -0.064671 -0.049746 -0.062624 -0.051068 0.039216 0.066505 -0.062673 -0.053114 0.004225 -0.088464 -0.084115 -0.036344 0.059617 -0.064684 0.016937 0.070525 0.000061 0.004082 -0.060855 0.043170 0.056960 -0.096856 -0.039308 0.058920 0.076149 -0.017202 0.065873 0.011027 0.045178 0.096969 0.070525 0.090824 0.060614 -0.037424 0.053789 -0.075183 -0.025597 0.026486 0.061848 -0.042802 -0.081685 -0.084470 -0.059404 0.028947 0.097808 -0.085841 -0.076420 -0.072028 -0.081648 0.035851 0.057603 0.033073 0.010119 0.062626 0.059422 -0.093874 -0.061419 0.052216 0.040973 -0.077854 0.067039 -0.094785 0.073190 -0.080944 -0.076237 0.093381 0.019059 0.046226 -0.058514 0.079709 0.036425 -0.075401 -0.035636 -0.053751 0.047549 0.086274 0.026754 0.020471 -0.074743 0.017550 -0.003604 -0.049675 0.029953 0.026785 0.033499 0.052866 0.035420 0.023859 0.068418 -0.088366 0.040509 -0.081242 0.097385 0.060379 0.029810 0.032300 -0.080033 0.030028 -0.015994 0.026924 -0.012423 0.003266 -0.003132 -0.062540 -0.075898 0.041637 0.019182 0.076578 0.076212 -0.072609 -0.056946 -0.028901 -0.005005 0.027241 0.009199 -0.077551 0.013003 0.072996 -0.013259 0.013928 -0.046749 0.047238 -0.076503 0.001509 0.033494 0.026078 0.087522 0.017761 0.068284
, -0.146491 0.083237 -0.060599 -0.092406 0.149204 -0.259078 -0.043849 0.234229 0.162065 -0.010602 0.086454 0.050976 0.071369 0.023910 -0.009673 -0.028627 -0.257193 0.037449 -0.050187 0.121928 0.194998 -0.160321 -0.113500 0.009010 0.181016 0.069030 -0.145469 -0.073675 -0.200053 -0.072269 0.169042 0.102399 0.084233 -0.153742 -0.089095 -0.041083 -0.082746 -0.059911 -0.034044 0.090902 -0.001991 0.141119 -0.179060 -0.163091 -0.090773 0.119103 0.269034 -0.168111 -0.194825 -0.104220 -0.204156 -0.260837 0.079516 0.005303 0.087257 0.095596 0.112752 -0.030828 0.231270 0.013707 0.245366 -0.058258 0.018547 -0.124984 -0.020855 -0.044409 0.139795 0.206789 0.086693 -0.028523 -0.083009 -0.134011 -0.147133 0.030909 -0.247076 -0.233500 0.168212 0.033563 0.255460 -0.013731 -0.121249 0.254261 -0.025919 -0.043955 0.059956 -0.019260 0.040605 0.195978 0.077177 -0.028877 0.006866 0.276269 0.046352 -0.049566 0.125412 0.032319 -0.040240 0.025471 -0.273494 -0.081878 0.185717 -0.178193 0.088004 0.121925 0.102276 -0.191593 0.116858 0.053431 -0.027401 -0.170750 0.147629 0.182568 0.217064 -0.210306 0.029387 -0.174299 0.117365 0.176958 0.026676 0.011567 0.055649 -0.204856 0.092250 0.024538 -0.071149 -0.180116 0.020096 -0.080535 -0.021614 -0.104191 -0.185453 0.244599 -0.034545 0.094199 0.041665 -0.012187 -0.263571 -0.196150 0.205616 0.190529 -0.128815 -0.132895 0.199309 0.211667 0.272350 -0.041364 0.087966 0.035757 0.113479 0.215424 0.131724 -0.033249 0.194453 -0.082709 -0.136512 -0.193725 0.222224 0.056763 0.117578 -0.202179 0.076027 0.211702 -0.080607 -0.120961 -0.113219 -0.141466 -0.019106 -0.264246 -0.002543 0.085750 0.183769 0.119790 -0.241776 -0.021351 -0.034690 -0.087458 0.037028 0.106184 0.038959 0.045113 0.028740 -0.057785 -0.090677 -0.157940 0.133346 -0.119199 -0.124797 -0.008724 -0.170259 -0.020897 0.271242 0.004078 -0.120384 -0.197713 0.019910 -0.108218 0.171049 0.195632 0.215518 -0.191405 0.016886 -0.220732 -0.013273 -0.261048 0.221891 0.138195 -0.021957 -0.105479 -0.077302 -0.135360 0.190190 -0.202557 0.054817 0.243328 0.160525 0.201246 -0.043547 -0.174475 0.069350 0.022035 0.000367 0.099814 0.085745 -0.044038 -0.009041 -0.047589 0.251452 0.268988 0.069710 -0.020557 -0.039070 0.136588 0.089033 -0.127825 0.374770 0.273644 0.025519 -0.125621 0.074291 0.092023 -0.058920 0.054121 0.141730 -0.025006 -0.229586 0.067242 0.129340 0.138032 0.085098 -0.176121 -0.094690 -0.224303 0.031750 -0.144183 -0.171220 0.106700
. 0.049076 0.254478 0.058647 0.210065 -0.179881 0.166304 -0.097474 0.186167 -0.090278 -0.350744 -0.120772 -0.061028 -0.254723 0.251215 0.255827 0.123002 -0.198751 0.249167 -0.119692 0.056816 -0.117296 -0.420082 0.285963 -0.364781 -0.013788 0.349361 0.044995 0.219253 -0.207035 -0.207269 0.507477 -0.259268 -0.123758 -0.401711 -0.269511 0.274109 0.159935 0.192674 0.218720 0.415722 -0.331974 0.177650 -0.096141 0.064285 0.060349 -0.280089 -0.153334 -0.113421 0.226532 -0.158152 0.020427 -0.206386 0.176037 -0.231980 0.096288 0.055902 0.133300 -0.297220 -0.221891 -0.292020 0.289892 -0.232570 0.153106 -0.223657 0.332116 -0.221230 -0.324842 -0.081188 0.085719 0.073606 -0.232207 -0.012015 -0.265158 0.001551 0.123002 -0.012455 0.356671 -0.130420 -0.199790 -0.031875 0.021032 -0.100982 -0.166738 -0.154261 0.117535 -0.084883 -0.235096 -0.224071 0.035157 0.001414 0.271940 0.170758 0.221725 -0.192551 -0.090951 -0.261319 -0.119077 0.172954 0.219635 0.062110 -0.100541 -0.385306 0.247025 0.450172 -0.356969 -0.294660 -0.145966 0.185299 0.144280 0.190899 0.256095 0.010520 0.175702 -0.338295 0.160520 -0.317937 -0.180309 0.298867 -0.120886 0.154542 0.295661 0.274456 0.062887 0.189518 -0.268300 0.429675 -0.067511 -0.138636 -0.304758 -0.308183 0.246069 0.322896 -0.163972 0.375323 -0.063910 0.152327 0.004960 -0.280447 0.141741 0.026056 -0.068509 0.281447 0.157701 -0.019568 0.252850 -0.128911 0.153302 0.095805 0.049358 0.037309 0.021074 -0.377224 -0.267355 0.104281 -0.204857 0.120088 0.004803 0.045576 0.207081 0.096124 -0.139618 -0.345116 0.064086 0.176201 -0.367982 -0.102674 -0.376356 -0.195529 -0.234374 -0.468318 0.071493 0.207894 0.356133 0.232985 -0.315710 -0.111668 0.183263 -0.016192 -0.126911 -0.345530 -0.053924 -0.100126 -0.059486 -0.066014 0.102235 0.382877 0.197837 0.282999 -0.118428 -0.325638 0.112976 -0.165879 0.181194 -0.268014 -0.281017 -0.386181 0.018067 -0.213409 -0.121774 0.119166 -0.116446 0.131683 0.327419 -0.082565 0.157445 0.055604 0.246666 -0.162981 0.196321 0.109651 0.150175 0.134274 0.207523 0.403875 0.113888 -0.220885 -0.123658 -0.302809 -0.184388 0.091018 -0.220172 -0.104622 -0.313556 -0.040757 0.037435 0.189806 -0.256926 -0.008064 0.322392 0.301683 -0.012022 -0.292362 0.161738 0.023186 -0.109317 -0.191255 -0.316037 0.397017 -0.131134 0.299411 -0.196499 0.120664 -0.123165 0.153038 0.323195 0.077870 -0.088036 -0.083644 0.025078 -0.436345 0.162398 -0.409787 0.208398 -0.011885 0.082186 0.075152
die -0.136440 0.070153 -0.006818 -0.054954 0.024200 -0.080220 0.143712 -0.044977 -0.085153 0.030732 -0.245957 0.068442 -0.150010 0.100366 -0.017916 0.081370 -0.115846 -0.075505 0.040871 0.011781 0.241394 -0.167256 -0.023828 -0.020906 -0.065409 0.120102 0.037658 0.070617 -0.096510 0.103691 0.176773 0.182391 -0.026500 -0.131653 0.133384 0.145960 -0.043421 -0.092303 0.088781 0.014140 0.114700 -0.151882 0.136817 -0.071397 -0.038904 0.111102 0.043214 0.017134 -0.129805 -0.110410 -0.089652 0.220866 0.069684 -0.182437 -0.246832 0.156373 -0.226730 0.174605 0.065784 -0.072317 0.210406 0.210545 0.191398 0.204265 0.080685 0.043536 -0.178542 -0.249755 -0.019330 0.131525 0.036680 -0.123658 0.138487 -0.061879 0.240761 0.206079 0.032733 0.176901 0.183082 -0.032370 0.001490 0.102952 0.321777 -0.030087 0.115642 -0.144882 -0.028041 -0.250920 0.163849 -0.075945 0.182203 -0.259826 -0.178433 0.071874 0.108410 0.148775 -0.077004 0.042887 0.028413 -0.065823 -0.179737 -0.106061 0.018518 0.170154 -0.058365 0.031322 -0.078122 0.186998 -0.095256 -0.082713 -0.164674 -0.144758 -0.109523 -0.112195 -0.123813 -0.105654 0.032799 -0.025605 0.032596 0.021220 0.206244 0.092252 0.130318 -0.159478 0.043264 0.036836 0.050490 0.196687 0.153149 0.070570 -0.062779 -0.077594 -0.037653 0.019514 0.229880 -0.252708 0.126152 -0.211033 -0.064312 0.057892 0.192420 -0.393889 -0.152557 0.024874 -0.050090 -0.278662 -0.217299 0.096781 0.160912 -0.112516 0.142805 -0.093385 0.098075 -0.051487 -0.070472 -0.133617 -0.050821 0.098064 0.175963 0.021939 0.101334 0.149883 -0.201699 -0.099403 -0.017854 0.077413 0.108965 0.135790 -0.132202 0.017885 0.110302 -0.076926 0.070042 -0.044754 -0.008187 0.078296 -0.193817 0.003599 0.098165 0.160319 -0.214460 0.159689 -0.136935 0.304385 -0.240706 -0.083932 0.037612 0.120063 0.086682 0.020428 0.012415 0.170943 -0.049189 -0.161961 0.127078 -0.107497 -0.224073 -0.042267 0.123018 0.026492 0.075669 -0.001753 -0.152424 0.114930 -0.060958 -0.173799 -0.151128 -0.131536 -0.211080 -0.140211 0.109541 -0.007013 -0.053223 -0.027269 0.080906 -0.115692 0.085838 -0.049326 -0.094665 -0.170376 -0.165352 -0.062682 0.078937 -0.051369 -0.133583 0.075397 0.170397 -0.011308 0.008546 0.253802 -0.053549 -0.094336 -0.124369 -0.131662 0.026910 0.164790 -0.029571 -0.156184 0.148106 -0.044841 0.305055 0.006044 0.285993 0.052009 -0.128041 0.163849 0.041595 -0.027607 -0.065782 -0.041998 -0.013318 -0.135172 0.277360 0.219446 -0.035870 0.276698
der 0.028453 -0.024374 -0.165076 0.070771 0.049088 -0.008543 -0.031533 0.142793 0.130536 -0.063733 0.111947 0.250004 -0.014104 -0.090935 -0.163724 0.106708 -0.101836 -0.216947 0.035424 -0.017758 0.187002 -0.175034 0.019808 -0.150709 0.089791 0.210392 -0.139143 0.194915 -0.182949 0.064202 0.180095 -0.072811 0.063876 -0.085836 0.024357 0.163225 0.133105 -0.127532 0.083379 0.166670 -0.124080 -0.228293 -0.119894 -0.260712 0.039232 0.200189 0.173607 0.195488 -0.132722 0.125518 0.055044 0.300178 -0.227685 -0.029927 0.017497 0.227449 -0.214722 0.083948 0.020066 0.024370 0.219050 0.191085 0.088130 0.130041 0.195368 0.022929 -0.155052 -0.223474 0.059661 0.045271 0.095071 -0.115376 0.179595 -0.224273 0.135698 0.108146 0.122813 0.077368 0.040480 -0.134486 -0.143688 0.170135 0.176937 -0.000321 0.069811 -0.283244 -0.063610 0.186605 0.162016 -0.047390 -0.083878 0.082927 -0.280659 -0.194817 0.172962 -0.034884 0.018046 0.065888 -0.098970 -0.187212 0.211513 -0.167262 -0.163005 -0.006805 0.106433 0.021476 -0.136185 0.306288 -0.092345 0.189529 -0.036738 0.115460 0.175705 -0.260058 0.002148 0.102404 0.029136 0.136255 0.036419 0.159714 0.130204 -0.110714 -0.029149 -0.075629 0.204030 0.099488 0.124838 0.217998 -0.046472 0.140337 -0.063416 -0.238749 -0.027489 -0.002889 0.147425 0.053903 -0.015316 -0.065960 0.152805 -0.107241 0.032917 0.038268 -0.187823 0.306132 0.015127 -0.021315 -0.053563 0.041313 0.014546 -0.146701 0.110009 -0.148688 0.084154 -0.274236 0.012199 -0.170370 -0.101842 -0.068165 -0.048762 0.013936 -0.013829 0.074013 -0.253220 -0.127309 -0.153011 0.179152 -0.075850 0.037870 0.072839 -0.135331 -0.063014 -0.249242 0.109231 -0.060123 -0.010503 0.326754 -0.211102 -0.134888 0.359312 -0.111768 0.070942 0.087775 -0.194171 0.117383 -0.125505 0.158022 0.084206 -0.181725 -0.002565 0.164529 -0.119076 0.279991 -0.080463 0.002544 0.111487 -0.016115 -0.071426 -0.272604 -0.014396 -0.138637 0.139218 -0.080009 0.235927 0.209295 -0.054273 -0.000051 -0.010350 0.038874 -0.113305 -0.179905 0.133375 -0.012202 0.018430 -0.121547 0.089587 -0.107356 -0.149418 0.196506 0.267304 0.100496 0.081119 0.217260 -0.143029 0.024285 -0.015766 0.022544 0.113312 -0.064401 0.095518 -0.075059 -0.172146 0.188272 0.138044 -0.079129 0.145638 -0.220379 0.055302 -0.016003 -0.122515 -0.214182 -0.002087 0.104111 0.116047 0.156804 0.016490 -0.021374 0.094076 -0.072710 0.150647 0.292827 -0.024665 -0.189707 -0.089751 -0.085652 0.098928 0.176408
und 0.015597 0.133065 0.213516 -0.263409 0.008444 -0.015744 -0.042674 -0.021413 -0.030527 0.012814 0.054501 0.255809 0.125230 -0.186063 0.206859 -0.065872 -0.163215 0.131557 0.067345 0.196147 -0.037635 -0.112572 0.030452 -0.099571 0.427213 0.011626 -0.076655 -0.050954 -0.003442 -0.110939 0.116069 -0.006747 0.227363 -0.268659 0.112423 0.272261 0.233574 0.189716 0.114041 -0.090857 -0.208122 -0.245058 0.279887 -0.137473 -0.183986 -0.109477 0.072091 0.046123 0.003372 -0.150661 0.111180 -0.188189 0.161985 0.320526 -0.133608 0.148013 0.072201 -0.052397 0.013039 0.054219 0.218370 -0.226250 0.379252 -0.156304 -0.038210 -0.148002 0.041937 -0.118091 0.013854 0.164913 -0.255072 0.343830 -0.096432 0.094922 0.089286 -0.047895 0.171935 -0.098270 0.049201 -0.113899 -0.185171 0.160827 -0.167440 0.204651 -0.057471 0.084287 0.207297 -0.026433 -0.088691 -0.090176 0.176716 -0.093680 -0.235827 -0.157821 -0.211412 0.017215 -0.126116 -0.177515 -0.047143 -0.301572 0.280084 0.060080 0.176564 0.278420 -0.127459 0.042529 0.182595 0.118920 0.001858 -0.058804 -0.016327 0.130163 -0.093850 -0.189408 -0.047810 0.052350 -0.134681 0.213197 0.002271 0.022577 -0.126818 0.060729 0.067948 -0.179008 0.127131 0.037196 0.087479 -0.211742 -0.327793 0.058532 0.274895 -0.292190 0.241857 0.049684 -0.024504 0.172612 -0.417561 -0.140361 0.036471 -0.138322 -0.120449 -0.210382 -0.130359 0.015297 -0.089693 -0.111425 -0.023501 0.252007 0.097228 -0.075551 -0.293070 0.232736 -0.251464 0.181921 0.105742 -0.156720 0.029020 0.241792 -0.147880 -0.107326 0.262301 0.143041 0.203134 0.054246 -0.305855 0.168520 0.201959 0.253534 0.190844 0.140374 -0.030808 -0.009950 0.006112 0.222293 -0.033566 0.058799 -0.130431 -0.006986 -0.185205 0.283327 -0.246046 -0.019540 -0.013094 0.038234 -0.087100 0.066660 -0.052824 0.146962 0.179933 -0.010307 -0.350509 0.132922 -0.154881 -0.085347 -0.025103 0.113995 -0.133001 -0.235955 -0.048851 -0.172518 0.149031 -0.177119 -0.009152 0.056002 -0.040232 0.178224 -0.230129 0.136708 0.189663 -0.091024 0.006934 0.107840 -0.091239 -0.139226 0.023019 -0.042592 -0.071587 -0.170860 0.241026 0.008224 0.151423 -0.044748 -0.175500 0.131662 0.153559 0.006588 0.028190 0.171375 -0.325588 0.032520 -0.098127 -0.109706 0.406194 -0.219126 0.107498 -0.011107 0.206805 0.110301 0.074070 0.298410 -0.108993 -0.078792 -0.056447 0.068778 -0.291735 0.292034 0.150044 0.026600 -0.029808 0.232591 -0.151956 -0.065315 0.077566 0.301432 -0.062195 -0.013231
in -0.037549 0.071066 -0.010143 0.030715 0.063831 0.138773 0.103294 0.011278 -0.267785 0.043623 -0.151014 0.281473 0.167322 -0.094050 -0.033463 -0.012353 -0.144121 -0.045631 -0.032190 -0.269087 -0.393851 -0.006723 -0.063240 -0.191945 -0.062548 0.097352 0.199727 -0.139821 0.114066 0.244202 0.085798 -0.344491 -0.032421 0.031998 0.177927 0.186705 0.024879 0.060939 0.181475 0.235576 -0.495372 -0.096148 -0.049961 0.190992 0.180496 -0.005451 -0.292150 -0.099874 -0.167247 0.081666 -0.111127 0.121212 -0.052167 -0.216290 -0.417181 0.009832 -0.129042 -0.025808 -0.270056 0.092613 0.065546 0.181556 -0.118378 0.034362 -0.052597 -0.140232 -0.363535 -0.087998 0.044372 -0.078265 -0.020241 -0.074877 0.220667 0.144320 -0.155183 -0.191891 -0.062549 -0.171659 -0.000735 -0.102965 -0.034754 -0.213284 0.289935 -0.157620 -0.188701 0.163618 -0.245061 0.228143 0.149120 0.193876 -0.053157 -0.135495 -0.135821 -0.265671 -0.241038 -0.166055 -0.325281 -0.029147 0.163814 -0.041262 -0.156781 -0.021183 -0.060781 0.274199 0.100228 0.088927 0.136117 0.012167 0.016729 0.178748 -0.123799 -0.056823 0.195503 0.092983 0.030262 -0.031153 0.076074 0.071202 -0.033417 0.200669 -0.061526 0.267109 -0.047947 0.474267 -0.348603 0.038842 -0.123628 -0.039907 -0.277869 0.279025 0.126528 0.163804 0.084798 -0.066807 -0.255357 -0.122580 -0.184163 -0.166898 0.280139 -0.316444 0.021119 0.194798 0.157098 0.282708 0.232061 -0.146757 -0.092329 -0.085578 -0.033013 0.068283 0.117862 0.085513 0.052049 -0.208735 -0.029882 -0.181683 0.146621 0.332672 0.164714 -0.362310 -0.065208 -0.036520 0.081919 -0.269512 -0.171918 0.158028 -0.041573 -0.112697 0.122639 0.172007 0.003072 0.311545 -0.197442 0.157888 0.047535 -0.261119 0.015576 -0.195781 0.071692 0.189707 0.100087 0.003054 0.233225 0.168097 -0.254100 0.287414 0.082729 -0.258944 0.082214 -0.086393 0.085000 0.011203 0.221212 -0.119621 0.009544 0.044334 -0.007487 -0.175130 0.066426 -0.213844 -0.230902 0.248951 0.015578 0.409050 -0.051625 -0.107278 -0.412112 0.156066 0.220241 0.215678 0.162616 0.036558 -0.113384 -0.269480 0.197176 -0.227579 0.276014 -0.122017 0.007443 -0.054205 0.095257 0.121983 -0.060336 0.202402 0.168048 0.012548 -0.153971 0.199938 0.077968 0.214780 -0.074941 -0.238101 -0.080032 0.313641 0.140779 -0.018235 -0.051868 0.234720 0.021437 0.073296 0.315189 0.150467 0.280527 0.007497 -0.168704 0.083352 0.041666 0.011317 -0.208782 -0.059892 -0.001006 0.023235 0.201458 -0.050847 -0.150553 0.215922
zu -0.294613 0.171948 -0.065726 0.212261 -0.011061 0.232005 -0.088728 -0.054748 0.005279 0.232869 0.152906 -0.064922 0.066140 -0.295949 -0.107035 0.170835 -0.183555 -0.344017 0.257249 -0.020468 -0.362809 -0.024744 0.022071 -0.269944 0.314297 0.053177 0.052700 -0.101888 -0.025813 0.009275 0.259559 -0.424749 0.216845 0.179275 -0.284615 -0.178929 -0.264212 0.051490 -0.604612 -0.110934 0.215536 0.186845 -0.569882 0.114885 -0.098417 -0.175878 -0.412079 0.148999 0.172308 -0.092145 -0.017864 0.187587 -0.105697 -0.075245 -0.043283 0.080362 0.047370 -0.084533 -0.119587 0.168217 -0.223914 0.018041 0.033978 0.268995 -0.017380 0.057055 -0.260175 0.127531 0.155482 -0.052446 -0.185319 -0.311582 0.184658 -0.333188 0.165872 0.013539 -0.322642 0.076688 -0.236062 -0.132080 0.094027 -0.365636 -0.144499 0.384743 0.012541 0.387122 -0.029054 0.368185 0.276540 0.248583 0.135289 -0.006286 -0.234713 0.399055 -0.291122 -0.077929 -0.426839 -0.162921 0.136098 0.101134 -0.046562 -0.154618 0.134543 0.275135 -0.236412 0.181830 0.037120 -0.091067 0.050819 -0.051903 0.144808 -0.102051 -0.190736 0.198260 -0.035453 -0.042375 -0.215530 0.185845 0.219952 0.263998 -0.495785 0.052174 -0.131245 -0.162230 0.193391 -0.173672 -0.177535 -0.218356 -0.228595 0.332837 -0.000695 -0.259553 0.230278 -0.172148 -0.441062 0.035069 0.144920 0.143682 -0.002022 -0.152919 -0.179659 0.102278 -0.342918 0.174858 0.008412 0.216733 0.099780 0.161619 -0.102736 -0.092763 -0.034420 -0.107995 0.269075 -0.546235 0.018796 -0.006532 0.089138 0.414520 0.018563 -0.192796 0.037514 0.485162 0.408508 -0.114351 0.125578 -0.028672 -0.009274 0.094373 -0.062033 0.041283 -0.021332 0.115261 -0.114413 -0.238379 0.053551 -0.272864 -0.006895 0.160828 -0.108078 -0.129390 0.055364 0.104066 0.000925 0.201798 -0.122894 0.029612 -0.089542 0.029923 -0.113346 -0.119495 -0.086572 -0.271778 -0.031795 0.174668 0.421174 0.039638 -0.142270 -0.086943 -0.031686 -0.236875 -0.477482 0.482653 0.051446 0.156151 -0.380538 0.243376 0.018341 -0.020346 -0.134212 0.090827 -0.186987 0.137897 0.226569 -0.077698 0.083315 0.203826 -0.161682 0.077825 -0.177918 0.089594 0.001281 0.140100 -0.200294 0.095561 0.041017 0.069929 -0.362591 0.140427 -0.286801 0.047473 -0.074962 -0.039333 -0.067857 0.023046 -0.180206 -0.153506 -0.026920 -0.044526 0.347937 -0.036132 0.235103 -0.013680 0.202795 0.478867 0.121873 0.009231 -0.309382 -0.073919 -0.347819 0.409113 0.086181 0.197338 0.333988 -0.097786 0.103844 -0.057491
von -0.103765 0.051939 -0.032578 -0.099167 -0.204762 0.020636 -0.008822 0.190004 -0.028728 0.215811 -0.018801 -0.029958 -0.075494 0.168454 -0.062881 0.096300 -0.302129 -0.067104 0.121845 0.207037 -0.255385 0.017727 0.123630 -0.148673 0.221101 0.079813 0.002404 -0.141271 -0.018569 -0.291512 -0.042984 0.121830 -0.299420 -0.175779 -0.104392 0.165945 -0.084574 -0.214630 0.148155 -0.099370 -0.070144 -0.139063 -0.104166 -0.050091 0.103523 -0.176466 -0.053619 0.252777 -0.100473 0.031638 -0.061270 -0.110611 -0.113389 0.151802 -0.193091 0.263819 -0.129259 -0.117968 -0.055904 -0.466538 0.134687 0.079236 -0.197145 -0.103138 -0.099818 0.221801 -0.201409 -0.176171 0.021550 -0.189862 -0.167088 0.051262 -0.137768 -0.050693 0.026006 -0.180505 -0.190158 0.396445 0.017746 -0.208171 -0.171754 -0.069979 0.142525 -0.092353 -0.289645 0.129008 0.046376 0.038523 -0.059179 0.103951 -0.063156 -0.241207 -0.077030 -0.015883 0.024851 -0.031838 -0.204061 0.089402 0.263053 -0.050816 -0.177814 0.100211 0.185003 0.204866 -0.074362 -0.244904 -0.268204 0.069922 -0.098954 0.339511 0.020917 -0.055462 -0.216609 -0.074861 -0.010806 -0.082093 0.035784 0.024820 -0.185067 0.322832 0.084208 -0.065156 0.118648 0.298395 -0.368140 0.377188 -0.210193 0.028674 0.043366 0.176402 0.230044 -0.004703 -0.220355 -0.096108 -0.166454 0.261099 0.084484 -0.136887 0.216689 -0.020287 -0.292909 0.115680 0.081813 -0.006180 -0.048295 0.024520 -0.043897 -0.235283 0.269127 -0.237778 0.196857 -0.219960 0.180923 0.038895 0.046551 0.006303 -0.037437 0.296238 -0.028488 -0.298143 0.140191 0.313403 0.234336 -0.242525 -0.032840 0.022331 -0.032816 -0.030356 0.050457 0.012276 0.021781 0.197297 0.200399 -0.220306 -0.083239 0.139258 -0.207520 0.020772 -0.156559 -0.039371 0.031364 0.144578 0.274180 0.300692 -0.131997 0.017349 -0.050679 -0.176769 -0.209896 0.182629 -0.073137 0.119160 -0.046126 0.048803 0.040739 0.049073 0.199728 -0.282070 -0.007188 -0.033989 -0.210462 0.250285 0.196811 0.164855 0.413106 0.142195 0.113742 0.098660 -0.140419 0.161292 -0.022378 0.122347 0.407221 -0.440897 0.198491 0.266030 0.080788 -0.170514 -0.082925 0.088325 -0.193732 0.249518 -0.013002 -0.011492 0.029838 0.142672 -0.003506 0.008959 0.293341 -0.064181 -0.199084 0.239285 0.091227 -0.170462 0.087489 -0.179994 -0.026946 -0.050103 0.200980 0.409529 0.018799 0.298724 0.169054 0.243320 -0.150800 -0.296005 -0.162876 -0.427925 0.013913 0.050153 0.007354 -0.040234 0.049162 -0.097365 -0.142034 0.228826
den 0.192503 -0.233980 0.127655 0.085382 0.052413 0.222586 0.030825 0.078739 0.195249 0.004278 -0.272286 0.076366 -0.157788 -0.203856 -0.247376 -0.019833 -0.072965 -0.164264 -0.159315 0.191439 0.066339 -0.229171 -0.093011 0.135146 -0.175953 0.143856 -0.244760 -0.096289 -0.147164 0.348610 0.037482 0.074071 0.037910 -0.243260 -0.054914 0.250075 0.037798 0.097774 0.297915 0.283816 -0.211306 -0.177273 0.114981 0.085956 -0.256442 0.394632 0.169270 0.108945 0.179341 0.046477 -0.289897 0.235005 0.031068 -0.078915 -0.164469 0.147052 0.004940 0.002336 0.055603 -0.174392 0.229097 0.259418 0.223515 -0.105141 0.186895 0.016308 -0.050942 -0.175791 -0.079657 -0.232650 0.261847 0.073010 -0.000743 -0.011040 0.156531 0.272477 0.314003 0.447150 -0.124787 -0.051133 -0.013224 -0.216911 0.226119 -0.132195 -0.342829 0.018897 0.070630 -0.255156 -0.085622 0.138610 -0.115526 -0.005211 0.255494 -0.185409 -0.170735 0.197928 0.063237 -0.107031 0.073996 -0.048742 -0.066555 -0.043440 0.057321 -0.134334 0.051396 -0.192903 0.119418 0.184072 -0.036491 -0.069910 -0.091199 0.151795 0.144784 0.009540 0.002180 0.223065 0.240282 0.054396 0.391826 0.081393 0.196025 0.239766 0.197570 -0.080878 -0.225479 0.337814 0.359048 0.265755 -0.021610 -0.107144 -0.146199 -0.046586 -0.213470 0.038666 0.140647 -0.063272 0.003820 -0.360372 0.331663 -0.306232 0.236803 0.075967 0.086632 -0.041160 -0.081919 -0.246805 -0.179433 0.023565 0.033411 -0.307433 -0.005231 -0.051806 0.096254 0.048784 -0.189205 0.046622 -0.152525 -0.073409 -0.097841 0.128044 0.164875 -0.056129 -0.035444 0.169710 0.018109 -0.012180 -0.135051 -0.088093 -0.021627 -0.139339 0.275204 0.064591 0.152089 -0.126493 -0.077968 0.181893 -0.189228 0.052316 0.127635 -0.073853 0.139738 0.017823 0.162191 0.476428 -0.059014 0.130380 -0.076988 0.098036 -0.142148 0.003920 0.184522 -0.240011 -0.116464 -0.044007 0.114079 0.090434 -0.012692 -0.266721 0.077237 -0.021472 -0.001904 0.226851 -0.090552 0.088506 -0.014767 0.134667 0.182748 -0.212496 0.034749 -0.025945 0.112301 -0.152122 -0.135467 -0.023853 0.299246 0.130849 -0.022406 -0.062189 0.136478 0.232920 0.278477 0.031894 -0.017781 0.154827 -0.226921 -0.007997 0.079783 0.070553 0.243615 0.205896 -0.273730 -0.074965 0.048637 -0.100264 -0.060605 0.447082 -0.049920 -0.008934 0.105692 0.127788 0.069765 -0.003857 0.307628 0.162459 0.095621 0.092238 0.209871 0.149415 -0.267024 -0.150893 0.100040 -0.047690 0.008395 0.247542 0.043398 0.153878
ist -0.228177 0.201273 -0.099688 0.152773 -0.106841 0.055334 -0.316039 -0.005990 -0.135711 0.168897 0.169448 -0.018087 -0.020964 0.281588 -0.060542 -0.184129 -0.002395 0.103346 0.157119 0.196669 0.020597 -0.062943 -0.131084 -0.086730 -0.038616 -0.122580 0.041181 0.090740 0.218951 -0.032157 -0.100919 0.230036 -0.179707 -0.129448 0.278850 -0.193785 -0.211389 0.386642 0.309263 0.123058 0.154609 -0.137658 -0.170173 0.139715 0.337568 -0.103827 0.350760 -0.051502 0.296571 -0.121621 0.168226 -0.004899 0.171186 0.156278 0.008352 0.039901 0.330633 0.098635 -0.284222 0.197960 -0.086477 0.000400 -0.202183 0.152806 -0.268701 -0.021823 0.175870 0.036740 -0.031009 -0.016640 -0.130471 0.137448 0.171595 0.434720 -0.159167 -0.151088 0.000478 -0.034607 -0.143710 0.092725 -0.052948 -0.121755 0.043941 -0.379839 0.072668 0.049209 0.125001 -0.032521 -0.010497 0.163442 -0.113266 0.112370 0.035931 0.001498 0.169817 0.038876 0.112606 0.104474 -0.002972 0.023614 -0.283901 0.312496 0.183207 0.042980 0.307968 -0.115113 -0.164342 0.139312 -0.241183 0.145097 0.055328 -0.178005 0.060104 0.098898 0.205887 0.010729 0.019828 -0.198316 -0.406467 -0.201761 0.102372 -0.206833 0.255043 0.067681 -0.004631 -0.009603 -0.123401 -0.139220 -0.044108 -0.187741 0.101152 -0.007316 0.208619 -0.176553 0.039353 0.059378 -0.096259 -0.004845 -0.046813 0.005235 0.051909 0.016742 0.007885 -0.065316 -0.033598 -0.072452 -0.134442 -0.129183 0.020042 0.019900 0.166199 0.021708 0.238937 -0.048444 -0.173436 -0.026523 0.122657 0.031067 -0.053261 -0.173884 0.024465 0.384303 0.028997 0.148955 0.113269 -0.008600 -0.007364 -0.141453 -0.144738 0.100968 0.033214 0.034288 -0.335425 0.000161 0.252159 -0.320335 0.346034 -0.075442 -0.219614 -0.105354 -0.089061 0.183335 0.037343 -0.215173 -0.135354 -0.124199 0.085317 0.061476 0.058522 -0.196912 -0.024151 0.120170 -0.026873 -0.229079 0.149918 -0.010492 0.190164 -0.083630 0.032226 0.149555 0.035861 0.142134 0.260618 -0.044812 -0.315433 -0.106102 -0.072107 -0.257368 0.268893 0.180076 -0.121870 -0.091613 0.041028 -0.173977 0.247594 0.071925 -0.119943 -0.169192 -0.131208 0.167597 0.041536 0.119748 0.039642 -0.224066 -0.244017 -0.099241 0.042304 -0.103894 0.012002 0.100194 -0.083355 0.228958 0.259040 0.090797 -0.173203 -0.240309 0.099298 0.031843 -0.295834 -0.222907 0.289327 -0.244616 -0.253682 0.224863 0.202623 0.059802 0.113561 -0.075725 0.151420 0.069613 -0.285217 0.236750 0.019317 -0.058632 0.199044 -0.106736
für -0.172172 0.042704 -0.189083 0.254008 0.217202 0.089754 -0.277530 0.293012 0.050189 -0.188176 0.163545 -0.090633 0.115162 -0.233575 0.056430 -0.133051 -0.175560 -0.061192 -0.090386 0.092948 0.056406 -0.292058 0.157517 -0.062605 -0.062986 -0.148158 0.342305 0.309892 -0.300460 0.116353 -0.069577 -0.146651 0.228974 0.058168 -0.280338 0.014955 0.415431 -0.083956 0.001137 0.098668 -0.167021 0.046263 0.062619 -0.141083 0.005370 -0.200985 0.218994 -0.084406 0.110149 -0.062365 0.130338 -0.063317 0.093761 -0.107600 -0.234274 0.086737 -0.115041 0.096025 -0.192235 -0.293348 0.096853 -0.104393 0.007275 0.251092 0.250369 -0.047010 -0.088450 -0.107752 0.159434 0.364973 0.074393 0.096880 0.025952 0.047824 0.120432 -0.178821 -0.214498 -0.075862 0.201018 -0.177994 0.040468 0.059137 0.150183 -0.089087 0.161596 0.132624 0.137381 0.078124 0.092524 0.145125 -0.103958 0.070297 -0.146705 0.044926 -0.094158 0.153905 -0.510600 0.087958 0.381964 -0.020841 0.152805 -0.343052 0.021279 0.331856 -0.072052 0.075656 0.249987 0.004996 0.161341 0.069755 0.153264 -0.216363 0.035959 0.039984 -0.174730 0.011346 -0.123480 0.153265 -0.023312 0.372514 0.017750 -0.042647 0.006058 0.052150 -0.309442 0.249195 -0.178638 -0.100422 -0.257246 -0.120578 0.012154 -0.064443 -0.259735 0.207021 -0.112622 -0.203247 0.132937 -0.020518 -0.052732 -0.142256 -0.121209 0.284431 0.047858 -0.030442 -0.002435 -0.140472 -0.088253 -0.025174 0.262482 -0.289639 0.251629 -0.050781 -0.185215 -0.035704 -0.066032 -0.018235 -0.059002 0.026783 -0.011867 -0.115585 0.103177 0.191567 0.099372 -0.079395 -0.370660 -0.013936 -0.293809 0.129269 0.275430 0.158846 -0.196233 0.307913 -0.000824 -0.262488 0.334794 0.044537 -0.209463 -0.056755 0.273472 -0.183677 0.282831 -0.107719 0.093969 0.051115 -0.258678 -0.022328 -0.232982 -0.238221 -0.155803 -0.088478 0.182565 0.106549 -0.027979 -0.150020 0.263627 0.186871 0.011354 -0.133120 0.104896 -0.062638 -0.029357 -0.316802 -0.146277 -0.002078 0.081650 0.220605 -0.204086 0.410494 0.041348 -0.076231 -0.049434 0.057345 0.085918 -0.403379 0.229605 0.138209 0.150273 -0.279488 0.064800 0.000083 0.031451 -0.123978 -0.169636 0.220499 -0.181306 -0.046284 -0.196786 0.121843 0.181214 0.041151 0.262724 0.353875 0.164329 0.017170 0.281299 0.009040 0.152628 0.053955 0.007359 0.411250 0.064655 0.095127 0.052597 0.056994 -0.119803 0.071231 0.067801 -0.087130 -0.399137 0.127538 0.117299 -0.053452 0.157952 0.121316 0.255288 0.011142
mit 0.002526 -0.034270 0.233296 0.021613 0.036225 0.241449 -0.100514 0.437210 0.151558 0.152911 -0.162286 0.413776 -0.298158 0.073237 -0.015176 -0.200194 -0.029971 -0.137044 0.076688 0.423840 -0.378457 -0.101724 -0.058863 -0.039092 0.161271 0.257283 0.144607 -0.329524 -0.254991 0.143229 0.195565 0.200415 -0.267731 -0.143235 0.017968 0.061979 0.093005 0.136040 -0.043964 -0.145853 -0.016231 0.144766 -0.180304 0.139691 0.173832 0.041885 -0.139875 0.108431 0.067283 0.000996 0.110546 0.104177 0.099567 0.054971 0.071751 0.202971 0.388833 -0.155056 -0.125258 0.272198 -0.040695 0.175123 0.055390 -0.071752 -0.012720 0.105222 -0.024484 0.299874 -0.122343 0.210373 -0.214388 -0.228608 0.195686 -0.137639 -0.354624 0.100397 0.022574 0.086861 -0.025268 0.006407 0.019624 -0.279933 -0.009796 -0.085095 -0.131165 0.131210 0.093280 0.014836 0.230534 -0.016169 0.251722 -0.056077 -0.075754 0.055947 -0.112898 -0.043197 -0.145378 0.036460 0.023649 0.217945 -0.070705 0.107339 -0.065977 0.003800 0.275629 -0.222020 0.092366 -0.006471 0.374203 0.150378 0.106236 0.119569 -0.004341 0.037906 -0.028999 -0.338399 -0.123194 -0.014519 0.053125 0.184591 0.232074 0.168196 -0.230841 -0.101006 -0.004997 0.235659 -0.198632 -0.119171 -0.041402 0.156699 0.089728 -0.161196 -0.191723 0.385304 -0.061379 0.078560 -0.103027 -0.049912 -0.008681 -0.055752 -0.100544 -0.195019 -0.096145 0.028454 0.192307 -0.206423 -0.070783 0.234121 -0.209167 -0.173067 0.339628 -0.194920 0.380443 -0.006830 0.024395 0.058011 0.062049 0.160149 -0.134400 -0.365696 -0.162173 0.251076 0.060849 0.103201 0.113316 0.224454 0.106025 -0.265692 -0.025072 0.103758 0.207477 -0.138627 0.133733 -0.032242 0.036115 -0.173276 -0.044217 -0.063159 -0.149882 0.076015 -0.118599 -0.020204 0.171977 0.068823 -0.039469 0.285825 0.222482 -0.123952 -0.063414 0.015538 0.103322 0.042471 0.114844 0.272444 0.106022 -0.199655 -0.021447 0.053770 0.053853 -0.329305 -0.183847 -0.337771 0.121918 0.064443 -0.069671 0.244890 0.232171 0.158464 -0.068395 0.112431 -0.155071 -0.207396 0.285617 -0.067799 -0.051761 -0.085944 0.408126 0.247752 -0.251020 0.222363 -0.005070 0.134327 -0.098497 0.293026 0.116808 -0.077241 -0.015453 0.127604 -0.183240 0.138678 0.039192 0.078219 -0.286922 0.056660 -0.077254 0.318300 -0.100469 0.269340 -0.002952 0.305127 0.155255 0.214899 0.310955 0.335705 0.016455 -0.245259 -0.033425 -0.265371 -0.265062 -0.370407 -0.183460 -0.170846 -0.063258 0.048174 -0.068549 0.522063
das -0.163524 0.120146 -0.032481 0.124051 -0.189320 0.273945 0.100954 -0.165592 -0.232252 -0.263546 -0.205866 -0.093913 -0.023387 -0.013577 0.121427 -0.016619 0.161960 -0.152185 0.297435 0.100096 0.044138 -0.031625 0.113708 0.086416 0.217353 0.246938 -0.287283 0.136188 -0.096745 -0.324488 -0.124969 -0.212980 -0.347274 0.086268 0.075722 -0.116810 0.087277 -0.077907 0.103430 -0.224272 -0.040146 -0.138013 0.025762 0.098198 0.030314 0.014595 0.108818 0.301406 -0.021554 0.241937 -0.153648 0.236032 -0.001602 -0.220488 0.150451 -0.025519 0.161941 0.193290 0.314084 -0.174859 0.037193 0.166517 -0.211350 -0.080964 0.222215 -0.020419 0.014564 0.227353 0.003512 0.249370 0.233781 0.017173 -0.094308 -0.114552 0.105202 0.131805 -0.003219 0.222500 0.123372 0.038986 -0.179442 -0.002317 0.106446 0.220383 0.254629 -0.314591 0.096995 0.037745 0.070589 0.208975 -0.093219 -0.232245 0.145587 -0.185587 -0.195052 -0.045433 0.040138 0.131330 -0.158434 0.097398 -0.328320 0.005716 0.124977 -0.034361 0.049340 -0.149106 0.131148 0.095260 -0.191342 0.165151 -0.332727 0.124448 -0.155610 0.013105 -0.042670 -0.157560 0.212805 0.009578 0.039676 0.130974 -0.256719 0.027335 0.116275 0.192748 0.054217 -0.010579 -0.058738 0.218150 -0.358197 0.071004 -0.023376 -0.226784 0.052921 0.133766 0.158239 -0.140899 0.021893 -0.172661 0.103609 -0.101578 0.078438 -0.101081 -0.159064 -0.010277 0.222685 -0.231631 0.177462 0.135912 0.093214 0.024761 -0.266841 0.049469 0.097803 0.009668 -0.114372 -0.253368 -0.109838 -0.195906 -0.102634 -0.110103 0.243596 -0.021249 -0.263099 -0.124495 0.027809 0.075388 0.058380 0.139845 0.034266 0.028119 -0.053728 -0.147406 0.064642 0.247600 0.012782 0.150754 -0.291986 -0.166542 -0.126652 -0.222643 -0.110042 0.265482 0.100763 -0.075882 -0.109636 0.024705 0.121238 0.250683 -0.083620 0.136108 -0.037987 0.036771 0.125420 -0.047484 0.077459 -0.199716 0.191402 -0.012758 -0.031657 -0.065560 0.302125 -0.068145 -0.156767 0.203012 -0.120433 0.186802 0.087640 0.005878 -0.276695 0.020795 -0.248529 -0.155371 -0.322307 0.344609 -0.197460 0.081662 0.003750 0.107848 -0.014670 -0.005517 -0.050476 0.255181 -0.210028 -0.112182 0.117863 0.088725 0.059777 0.062125 0.112440 0.401661 0.100311 0.185503 0.082579 0.097442 -0.038973 -0.211310 0.284044 -0.050206 0.011468 -0.103914 0.082591 0.036304 0.273515 0.162850 -0.062467 0.097275 0.543736 0.001807 -0.183502 -0.010273 -0.221577 -0.068733 -0.080180 0.223536 0.193406 0.177530
auf -0.000347 -0.127192 -0.009469 0.247398 -0.104621 0.203534 -0.070400 0.050289 0.276415 0.152717 -0.120186 -0.315333 0.195624 -0.196247 0.075511 -0.087191 -0.002250 -0.237769 0.045771 0.325140 -0.284248 -0.195890 -0.080080 -0.340533 -0.168547 0.146753 0.291800 0.055306 -0.009512 -0.425845 0.036600 -0.136121 0.051276 -0.182479 0.006299 0.140352 -0.041853 -0.169786 -0.095093 0.307170 -0.075152 0.054004 -0.194938 -0.097067 0.122872 0.164318 -0.003860 -0.064143 0.191052 0.332657 0.238911 -0.002758 0.071182 0.024570 0.041109 -0.047210 -0.105261 -0.159823 0.052215 -0.089850 -0.044553 -0.060107 -0.082524 0.015241 -0.166576 0.056556 -0.141661 -0.078950 0.167404 -0.038903 -0.125709 -0.079144 0.346110 0.103989 -0.064649 -0.112694 -0.068699 -0.083099 0.043805 -0.022585 -0.028476 -0.048974 0.202161 0.079488 -0.003241 -0.435127 -0.144167 0.282829 0.163962 0.465119 0.082352 0.091307 0.203881 -0.246725 -0.000452 -0.279076 -0.213742 -0.105912 0.087978 0.020452 -0.163866 0.067150 0.173243 0.207655 -0.300244 0.173680 -0.060516 0.038167 0.436108 0.108180 -0.131915 -0.079058 0.093060 0.049443 -0.182759 0.104885 -0.310325 0.079104 0.061437 0.063926 -0.338584 -0.033828 -0.096001 0.056920 -0.231387 -0.200020 -0.083879 -0.387746 -0.222727 0.384216 -0.102146 0.015243 0.182683 0.148746 -0.177790 0.151197 -0.063230 -0.017697 0.246157 0.037522 0.123503 -0.051958 -0.061076 -0.116182 -0.087086 0.243453 -0.082434 -0.102305 0.112381 -0.178214 0.145152 0.122275 -0.019460 0.221682 0.004107 0.090939 -0.134567 0.416786 -0.075688 -0.112127 0.299266 0.073951 -0.046878 0.166521 -0.230894 0.052084 -0.226237 -0.182093 -0.267333 0.139376 -0.067693 0.339149 0.194328 -0.136678 0.025709 -0.003946 -0.234490 -0.185307 0.180098 0.150499 0.199927 0.170698 -0.209259 0.295810 -0.081788 0.067337 -0.278447 -0.335084 0.076692 -0.084480 0.326962 -0.139161 -0.164441 -0.120306 -0.043208 -0.188018 -0.041245 -0.167675 -0.043648 -0.158073 -0.243623 -0.022074 -0.014744 0.252516 -0.263158 0.288302 -0.164719 0.179589 0.297246 0.243864 -0.016307 0.032335 -0.059091 -0.093641 -0.000663 0.053658 0.071458 -0.056968 0.163943 -0.013394 -0.116275 0.139980 -0.057693 0.057906 -0.021333 0.227038 -0.136326 -0.052390 -0.228947 -0.009970 0.168122 -0.236947 -0.103862 0.133768 0.085564 0.020997 0.258974 0.232076 -0.088119 0.163830 -0.110051 0.266008 0.152772 -0.046263 -0.244184 -0.210471 0.187795 -0.139324 -0.234402 0.034003 -0.266432 -0.012785 0.330836 0.033290 0.090832 0.031809
eine 0.372145 -0.067329 -0.140435 -0.054734 0.230446 -0.167654 0.037286 0.109014 0.224178 0.058859 -0.144681 0.056785 -0.050880 0.118480 -0.377962 -0.342672 -0.083657 -0.159652 0.040246 0.031954 0.035263 0.148569 0.151559 -0.283978 0.398474 -0.142130 -0.073131 -0.027134 0.218467 -0.166408 -0.109629 0.012599 0.034530 -0.121444 0.158137 -0.290724 0.013167 0.156064 0.131769 0.067539 -0.443621 -0.100777 0.437518 0.052160 0.085620 -0.026445 -0.110510 0.055751 -0.073893 0.264889 -0.018703 -0.092914 -0.121691 0.202940 -0.228402 0.183814 -0.060338 0.263783 -0.023898 -0.063277 0.082187 0.090435 0.019073 0.298037 0.177508 0.102348 -0.376167 -0.126116 0.188323 0.147958 0.036794 -0.447625 0.041149 0.130173 -0.143697 -0.186236 -0.216394 0.082314 -0.130705 0.412637 -0.127750 0.013720 0.153784 -0.092452 0.013131 0.331620 0.248269 0.071608 0.009858 0.039859 0.153649 -0.376645 0.174478 -0.059911 0.210837 0.020325 0.027492 0.127723 -0.049755 -0.214420 -0.211741 0.262078 -0.020153 0.009769 -0.359142 -0.130385 -0.028864 0.124106 -0.101649 0.212218 -0.291118 -0.050002 0.156911 -0.205963 -0.266072 0.205945 -0.378351 -0.134530 -0.274541 -0.190287 0.448464 0.279607 0.012185 0.289653 -0.169954 0.073473 0.305789 0.066307 0.053380 0.037209 -0.246467 -0.065060 -0.078769 -0.017070 0.203755 -0.264227 0.012626 -0.136810 0.045850 -0.014771 0.261653 -0.107259 -0.169909 -0.109330 -0.171701 0.257125 -0.209335 -0.023557 -0.016061 0.074025 0.245796 0.253450 0.371196 0.000508 0.181847 -0.251406 -0.285822 -0.195631 -0.418401 0.023705 0.271665 -0.032646 0.096361 0.007163 -0.141412 -0.046164 0.050679 0.078484 -0.188194 0.199503 0.270225 0.117625 -0.162179 -0.207170 -0.266467 0.344344 -0.063804 -0.178002 -0.172438 0.095456 0.249665 -0.033965 -0.071834 0.234584 -0.179649 0.114381 0.133056 -0.072600 -0.007169 0.137244 0.449971 -0.211457 -0.252875 -0.029507 -0.254111 -0.464243 0.033110 -0.174763 0.074039 -0.145516 0.010200 -0.058025 -0.096277 0.051794 0.060908 0.219787 -0.283985 -0.112654 0.205887 -0.009066 -0.138798 0.225525 0.008375 -0.290114 0.020858 -0.363748 0.082025 -0.132776 0.113595 -0.271626 -0.303602 0.054184 -0.229262 0.266212 -0.133038 -0.027084 -0.087301 0.032145 -0.419365 0.016988 -0.207607 -0.135262 -0.041883 0.072987 0.293947 0.353221 0.175091 0.074156 0.123825 -0.004165 0.167845 -0.338352 0.231143 0.028341 -0.025187 -0.176756 0.132578 -0.154181 0.222768 -0.212243 -0.047352 0.166626 -0.044998 0.275667 -0.169217 0.282576
Sie -0.216929 -0.131247 0.155190 0.021143 -0.104371 0.066164 -0.110573 -0.134946 -0.102914 0.162371 -0.100637 -0.151552 0.027404 0.009470 -0.311380 0.094585 0.237079 -0.083675 0.055058 0.020791 -0.091112 -0.006071 0.083779 -0.210278 0.056148 -0.351817 0.104857 0.231638 -0.079280 0.037581 -0.267333 0.180442 -0.082196 0.116593 0.050710 0.016083 -0.103064 0.146292 0.135712 -0.036323 -0.084435 -0.178180 0.008439 -0.234821 0.000058 -0.148681 0.048454 -0.150037 0.216007 0.187341 0.034519 -0.090331 -0.133641 -0.024298 -0.221718 0.079540 0.001328 0.180720 0.208947 0.266107 -0.024737 0.112983 0.001642 0.200651 0.108433 0.336939 0.297957 -0.103200 0.040312 0.288129 -0.024652 0.023435 -0.150521 -0.242294 0.160540 0.071261 0.093189 0.265697 -0.086715 0.113485 -0.134640 0.096504 -0.088283 -0.078430 0.118222 0.129044 0.190779 -0.091692 -0.063481 -0.208971 -0.045143 0.123871 -0.094716 0.097331 -0.024714 -0.345390 0.034347 0.067445 0.101629 0.372229 0.044514 -0.212407 -0.129551 0.115547 -0.036988 0.284099 0.033224 0.061507 -0.001673 0.122920 0.118007 0.019217 0.220416 0.096013 -0.020879 -0.227290 -0.174540 0.085857 -0.000580 -0.021704 0.136437 -0.103494 -0.047174 -0.276282 -0.065385 -0.254447 -0.373703 0.095038 0.103255 0.127087 0.109260 0.133341 -0.182258 0.162883 -0.082621 -0.190702 -0.267884 -0.165166 -0.233112 -0.096137 -0.050270 0.197305 -0.115004 -0.188979 0.030632 0.147598 0.150275 -0.214395 0.238872 0.168008 -0.093772 0.239674 0.129272 -0.256588 0.160424 0.016217 0.036754 -0.181248 -0.035381 0.115497 -0.171661 -0.073639 -0.121184 -0.314709 0.283265 0.231307 0.165113 -0.032306 -0.059622 0.313456 -0.347384 -0.023389 -0.053436 -0.075003 0.224400 0.058707 0.163727 -0.245111 0.058720 0.048961 0.013201 -0.228151 -0.070303 -0.221350 -0.244827 -0.020060 0.108824 0.107601 0.156631 -0.103133 -0.278084 -0.104558 0.040150 0.151274 0.306846 -0.117078 0.267549 0.287078 0.155515 0.190728 0.030005 0.158457 0.047253 0.066760 -0.100823 -0.011428 -0.238961 0.168301 0.096414 0.261175 0.005434 -0.117303 0.119207 0.099780 -0.291443 0.017114 -0.075102 -0.165702 0.221268 0.085653 -0.183756 0.072270 0.003458 -0.291807 -0.100094 0.133698 0.072059 -0.091917 -0.375863 0.172816 0.297110 0.027774 0.034044 -0.037609 0.089366 0.228017 0.045863 -0.059022 0.087607 0.001157 0.323621 -0.025187 -0.045897 0.189385 -0.064224 0.190675 -0.054396 0.023854 -0.057231 0.242048 -0.069539 -0.058266 -0.023028 0.271643 0.078363 0.024474
des 0.087585 -0.026272 -0.215574 -0.166102 0.238910 0.056533 0.215170 -0.121929 -0.069186 -0.112678 0.326107 0.148955 -0.171841 -0.086900 -0.047499 -0.302635 0.018299 0.026013 0.196107 0.005244 0.044634 -0.125120 0.147944 -0.095050 0.441104 0.215078 0.050695 -0.320653 -0.015364 -0.081909 0.305076 -0.067162 0.202715 -0.258137 -0.251183 0.009187 0.019039 -0.322393 -0.365073 -0.332330 -0.096490 0.122372 -0.124637 -0.178300 -0.348591 0.269296 -0.198784 0.170302 0.068355 -0.132403 -0.281128 0.392863 -0.496502 0.186028 0.110278 0.322378 0.220432 -0.158319 -0.134502 -0.346885 0.123110 0.201951 -0.195565 0.212811 0.473407 -0.101797 -0.077681 -0.035205 0.054855 0.191055 -0.071035 -0.095132 -0.034651 -0.154664 0.063733 -0.128998 0.396889 0.180989 0.017813 -0.021100 -0.053953 -0.008864 -0.010808 0.226582 -0.221273 -0.082764 -0.157792 -0.041030 0.112499 -0.290633 -0.073143 -0.150417 -0.359457 -0.290610 0.237078 0.316443 0.079204 0.176595 0.238537 0.019140 0.489155 0.044392 0.186362 -0.050583 -0.024939 0.015929 0.102015 0.455858 -0.073367 0.043293 -0.170097 -0.031300 -0.288274 -0.160736 -0.246152 -0.076298 -0.248196 0.254058 0.319709 0.055609 -0.291732 0.383858 0.208797 0.201145 0.062151 0.025830 -0.040070 0.263397 0.093370 0.127015 0.149333 0.004635 0.045508 -0.207552 0.247803 -0.014819 -0.211545 -0.017154 0.284403 -0.172927 -0.168258 -0.029499 -0.283198 0.368183 0.105883 -0.157317 0.187365 -0.003099 -0.048037 -0.000425 -0.049572 0.095105 0.181202 0.205768 0.033968 0.255434 -0.166082 -0.007422 0.137276 -0.341356 0.039697 0.059373 -0.161887 0.003763 -0.173284 0.189173 -0.328388 -0.225861 0.228581 -0.018330 -0.143685 -0.088446 0.495862 -0.173746 -0.013137 0.284525 -0.310583 0.148072 0.157782 -0.116013 -0.145159 0.239627 0.314819 0.110167 0.100109 0.024406 -0.059126 -0.130632 0.300390 -0.120416 0.279246 0.147657 -0.111205 -0.067835 0.401941 0.180314 -0.282041 -0.329708 0.034706 0.096117 -0.065998 -0.136087 -0.015696 -0.052124 0.139278 0.035147 -0.077065 -0.196758 -0.172971 0.201071 0.100238 -0.134999 0.227279 -0.031874 0.190801 0.139792 -0.011340 0.199968 -0.004353 -0.263437 -0.072697 0.191998 0.045624 0.023575 0.094414 -0.062770 -0.012564 0.197916 -0.418541 0.054069 -0.264143 0.186204 -0.027757 0.002412 0.240932 0.017519 -0.250196 0.214445 0.337490 -0.041670 0.175687 0.004953 0.144108 0.295118 0.137845 -0.110391 -0.232009 -0.292249 0.023960 0.169728 -0.076353 -0.287220 -0.170897 0.326737 -0.242303 0.022293
nicht 0.006788 -0.171596 0.202697 0.124134 -0.046380 -0.072928 0.015834 -0.224306 -0.107348 -0.019241 0.212211 -0.238219 -0.043183 -0.213685 0.109887 -0.116514 -0.149376 -0.266450 0.298916 -0.153081 0.123951 0.006214 0.262579 -0.067455 -0.035891 -0.192954 -0.002172 -0.267511 0.380389 -0.251043 -0.037964 -0.096362 0.307426 0.027812 0.045114 -0.108198 0.116943 0.086490 0.069416 -0.208544 -0.094226 0.108625 -0.280827 0.107257 -0.128725 -0.206045 0.165733 0.105885 0.127091 0.071865 0.188297 0.132480 0.109885 0.077587 -0.141929 0.029186 0.043507 -0.063682 0.194707 -0.406397 -0.095370 0.201045 0.174948 0.317238 -0.217596 -0.039747 0.219905 0.205754 0.372195 0.064294 -0.190346 -0.414709 0.139729 -0.105910 0.158025 0.109682 0.147953 -0.088018 -0.283851 0.027053 0.264969 -0.101112 0.124832 0.305804 0.217742 -0.185186 0.109659 0.166700 0.154579 -0.378198 0.416816 -0.080876 0.043365 -0.039939 0.006718 0.049437 -0.059216 -0.157731 0.183909 0.168749 0.097778 -0.060447 0.158818 -0.233075 0.037639 0.346437 -0.018741 -0.025139 0.002943 -0.283689 0.255141 -0.076562 -0.208287 0.169516 -0.095350 -0.336702 -0.321745 -0.307391 -0.407567 -0.126841 0.027684 -0.061688 -0.105862 -0.121379 -0.136802 -0.218409 0.057155 -0.326342 -0.057525 0.265154 -0.097266 -0.349522 0.044645 0.355316 0.237958 -0.370500 -0.230706 0.198212 -0.210419 -0.059014 0.292610 0.265994 0.100653 0.046879 -0.249636 0.061246 -0.167507 -0.004189 0.328543 -0.179263 -0.005968 0.167753 0.046104 0.056372 0.144942 -0.132119 -0.148868 0.020846 -0.019391 -0.040934 0.166566 -0.132157 -0.073431 0.006022 0.021694 -0.074898 -0.182384 -0.216267 0.422820 0.273729 0.121531 0.217824 -0.139108 -0.183012 -0.146426 -0.206659 0.085266 0.243328 0.044048 0.013791 0.240722 -0.156548 0.004170 -0.058108 -0.162990 0.045201 0.130558 0.007845 0.477318 -0.156618 -0.118105 0.106115 0.035492 0.029936 -0.026808 -0.134126 0.002117 -0.016046 -0.149497 0.003306 0.076041 0.211727 0.064000 0.260869 0.096061 -0.337348 -0.012776 -0.110250 0.323626 0.045984 -0.306939 -0.218768 0.304808 -0.075283 0.164308 -0.041808 0.241260 -0.133655 0.098964 0.047729 0.125247 -0.237939 0.191037 0.201271 0.040069 0.056352 -0.072603 -0.129328 0.049303 0.106092 0.031992 -0.065555 -0.251519 0.210600 -0.080476 -0.104971 0.032689 0.081777 -0.182492 0.088116 0.137429 -0.032797 0.165077 0.335448 0.005650 0.179558 0.175809 -0.118751 -0.173816 -0.011447 0.010001 0.081324 0.277010 0.089797 -0.166263 -0.138398
im 0.133166 -0.064959 -0.188572 -0.003637 0.137246 -0.000940 0.258643 -0.237858 0.083660 -0.123664 0.204729 0.484039 -0.029716 0.094581 -0.143124 0.044309 0.050561 -0.046416 0.195965 0.151969 -0.328538 -0.043828 0.196051 0.066730 0.294578 0.463768 -0.207441 0.283797 0.248889 -0.017264 0.359265 0.058423 0.260135 0.016890 -0.383966 0.034152 0.156279 0.185483 -0.016882 0.198347 -0.191865 -0.111341 0.154819 -0.155572 -0.014991 0.183398 -0.355077 0.272479 0.231585 -0.025659 -0.166257 0.140011 -0.350946 -0.209543 0.125350 0.131318 0.091902 0.162120 0.206549 -0.079833 -0.060182 0.416446 0.069160 0.213297 0.342747 0.057102 -0.287995 -0.226762 -0.016095 -0.112498 0.150354 0.198298 0.365182 -0.056380 0.207441 0.534687 -0.037813 -0.059944 -0.325135 0.447153 -0.167466 -0.056484 -0.080532 0.167087 0.168810 0.036861 -0.295039 0.119474 0.252559 -0.320471 -0.020149 -0.268110 0.008034 0.094591 -0.184636 0.138980 -0.036161 -0.395754 -0.191017 -0.047413 -0.029834 0.024754 -0.396063 0.260525 -0.148752 0.031386 0.066663 0.181094 -0.305339 -0.017178 -0.079107 0.165471 -0.108812 0.065111 -0.425285 -0.250130 0.127502 0.194426 0.130155 0.164995 0.148761 -0.083425 0.084847 0.423354 -0.318815 0.063405 -0.377223 0.375831 -0.086482 0.246265 -0.236516 0.017847 0.004553 0.074658 -0.265920 -0.064169 -0.103850 -0.328724 0.213752 -0.431609 0.260504 -0.129381 0.100481 0.794055 -0.033114 -0.336207 -0.165893 0.088290 0.067169 -0.263306 0.011941 -0.099345 0.064935 -0.013580 0.138804 -0.293728 -0.282931 0.097730 0.221668 -0.498990 0.175429 -0.382835 0.103592 -0.150807 -0.023181 -0.051762 -0.373190 0.327849 -0.032536 -0.133641 -0.109276 -0.379161 0.245556 0.067899 -0.094517 -0.154717 -0.278821 -0.013102 0.280397 0.054505 -0.099002 0.166644 0.081010 0.155054 0.375639 0.288883 0.059050 -0.185963 -0.063811 -0.235760 -0.146693 0.250357 -0.187654 -0.060584 0.126432 -0.042538 0.255791 0.055081 -0.298528 -0.569955 -0.027753 -0.037561 0.228968 0.309713 0.438924 0.045320 0.146682 -0.179493 -0.235374 0.017859 0.105252 -0.148641 -0.101333 0.236033 -0.221842 0.245066 0.174520 0.034124 0.019833 0.232628 0.288539 0.013830 -0.438232 0.188192 -0.068963 -0.085304 -0.004147 -0.099112 0.057216 0.003019 0.032794 -0.139638 -0.034792 -0.087861 0.165152 0.004399 -0.077630 0.069833 0.304867 0.024717 0.022989 -0.201154 0.154770 -0.470110 0.288765 -0.075793 0.117980 0.029171 -0.032673 0.173053 0.394379 -0.165540 0.100895 0.268631 0.014841 -0.328574
werden 0.217636 0.420194 0.502754 0.174544 0.073207 -0.128740 -0.332589 -0.009252 -0.074878 0.189847 -0.031417 0.038348 0.184257 0.016665 -0.118335 0.225935 0.181364 -0.110484 0.021393 -0.129186 0.064627 0.060896 -0.193906 0.288853 -0.118322 0.252545 0.043907 0.072379 -0.100322 0.172753 0.035171 -0.156809 -0.129401 -0.125661 0.066012 0.121651 -0.043971 -0.118623 -0.134068 0.050525 0.305785 0.077980 -0.108475 0.227483 0.081339 0.006178 0.373101 0.024027 0.037954 0.163076 0.195545 0.103168 -0.149614 0.119632 0.003882 0.082718 0.144942 0.302010 -0.216557 0.371480 -0.045836 -0.100656 -0.039045 0.076336 0.132917 -0.004836 -0.057532 0.317437 0.254311 0.244198 -0.064254 -0.220545 -0.243344 -0.082470 -0.110031 -0.312981 0.040050 0.116686 0.048599 -0.224532 0.484470 -0.016537 -0.234365 -0.090978 0.004485 -0.030445 -0.348217 -0.183654 -0.221827 0.029299 0.047003 -0.002162 0.064155 0.073907 -0.106556 0.216566 0.093890 0.127747 0.262576 -0.076959 -0.250021 0.168872 0.207409 -0.092160 -0.014086 0.503202 -0.317532 0.115562 -0.108757 -0.121981 -0.317955 -0.190742 -0.005493 0.005674 0.126028 -0.209071 0.197603 -0.255184 -0.254186 0.179955 0.181901 -0.282703 -0.159522 -0.250221 0.292176 -0.215527 0.057540 0.126441 -0.336486 -0.285438 -0.041095 0.098161 0.109343 -0.155354 -0.076208 -0.094095 0.059643 0.350940 0.220144 -0.201612 0.164761 0.029530 -0.352473 -0.159763 -0.107496 0.013672 -0.030505 -0.246286 -0.046546 -0.091575 0.084008 -0.037921 0.294056 -0.142513 0.014279 -0.065402 -0.264036 0.040719 0.034389 0.224709 -0.263770 0.166673 -0.065552 0.099348 -0.000701 -0.079639 -0.030223 0.098896 -0.214817 -0.155759 -0.004039 -0.100791 -0.417470 -0.359160 0.254227 -0.510105 0.010157 0.165920 0.081295 -0.079149 0.295826 -0.098038 -0.060616 0.063926 0.003884 0.002900 -0.387060 0.038499 -0.457458 0.061525 0.185504 -0.213641 -0.055065 -0.146158 -0.225613 -0.288401 -0.000651 -0.089607 -0.297094 0.130983 0.078548 0.095414 -0.328148 -0.228189 -0.424644 -0.122581 0.092301 -0.040788 0.046036 0.158440 0.304003 -0.099318 0.307044 -0.054774 0.027625 0.001110 -0.168738 -0.038339 -0.320008 -0.079218 0.150782 -0.112471 0.386281 0.296824 -0.142160 0.037685 -0.215573 0.064875 -0.086483 0.003003 -0.075967 0.162034 -0.269666 0.149275 -0.121657 -0.065102 0.390936 -0.216535 -0.179717 -0.215713 -0.083001 0.246481 -0.080524 -0.182778 -0.289126 -0.048541 0.169069 -0.233132 0.026947 0.327646 -0.208887 -0.003464 -0.046941 -0.035704 0.375543 0.048320
Die -0.073003 0.064427 -0.200327 -0.123967 0.295551 0.105340 0.027712 0.196994 0.286361 -0.149096 -0.097622 0.132619 -0.114385 -0.001563 -0.096261 -0.405836 -0.032818 -0.068930 0.158620 0.256952 0.108053 0.091825 -0.005216 -0.092047 0.303228 0.066110 -0.065720 0.047973 0.076606 0.246657 0.189617 0.018846 0.075264 -0.208036 -0.072918 -0.068674 0.113977 -0.252835 0.154941 -0.008233 -0.111713 -0.138617 0.194319 -0.245483 -0.154724 0.266855 0.254063 0.008903 -0.043677 -0.049340 -0.049368 0.279030 -0.058374 0.081295 -0.195009 0.136225 -0.253051 0.021398 -0.074480 0.080492 0.056300 -0.093308 0.116805 -0.067313 -0.111218 0.222869 -0.286993 -0.167401 -0.009407 -0.011742 0.067156 -0.307459 0.200696 -0.167272 0.165584 0.357311 -0.038666 -0.010995 0.144094 0.050090 0.090205 -0.076785 0.364432 0.231223 0.026516 -0.059157 -0.237915 -0.127826 0.052512 0.074347 0.229052 -0.050038 0.043682 0.019274 0.171135 -0.232976 -0.113560 0.099553 -0.058211 -0.249325 -0.109698 0.151128 -0.110319 0.190878 -0.148380 0.195600 -0.091459 0.274328 -0.217447 0.015739 -0.312066 0.092358 0.298304 -0.134178 0.109462 -0.280633 -0.088119 -0.076692 -0.042107 -0.021926 -0.145069 0.073389 -0.027787 -0.057560 0.037800 0.008877 0.325188 0.226239 -0.071973 -0.115064 0.020805 -0.221151 0.071954 -0.084493 0.234264 -0.167276 0.029453 -0.059468 -0.062398 0.109441 -0.041075 -0.113995 -0.296360 0.034781 0.081333 -0.161382 -0.154441 0.016638 -0.027719 -0.035266 -0.114966 -0.189788 0.120675 -0.165684 -0.071708 -0.135828 0.032576 -0.147890 -0.076416 -0.181728 0.077046 0.252179 -0.064486 -0.193284 -0.112808 -0.139327 0.076290 0.072310 0.205356 -0.056025 0.054676 -0.222971 0.014126 -0.017626 -0.063423 0.420146 0.014371 -0.051879 0.002656 0.157249 -0.006072 0.328884 -0.123116 0.101852 -0.034950 -0.139530 -0.036643 0.010824 -0.248418 0.136414 0.027307 -0.042692 0.073377 -0.093093 0.021035 0.088683 -0.113157 -0.218716 0.077681 -0.034284 0.234085 -0.177846 -0.158358 0.157735 0.347055 -0.129540 -0.106501 -0.132009 -0.421062 -0.285439 0.229625 -0.051738 -0.003265 0.066448 0.086199 -0.001123 0.153108 0.020747 -0.175222 0.175901 -0.199691 0.208372 -0.061893 -0.104510 0.057173 0.029791 -0.045008 0.056690 0.126369 0.121909 -0.000668 0.101586 0.120181 -0.343228 0.295223 0.196788 -0.186042 0.000811 0.190419 -0.145776 0.097682 -0.223120 0.004293 -0.072735 -0.088916 0.058079 -0.001103 -0.321284 -0.065217 0.104271 0.083570 0.116067 -0.069566 0.117470 -0.279851 0.205792
dass -0.141148 0.057427 0.051747 -0.064139 0.233420 -0.139336 -0.417308 0.303919 -0.092849 -0.252672 -0.195041 -0.056585 -0.396994 -0.018365 -0.223841 0.232983 -0.105699 0.153612 0.020177 -0.015051 0.055491 -0.135400 -0.095278 -0.247233 0.015042 0.029567 -0.040622 0.063742 -0.252963 -0.333121 0.210254 -0.129400 -0.121290 -0.322835 0.202184 0.052872 -0.062063 -0.076400 0.407869 -0.049570 -0.044732 -0.077774 0.104186 -0.310354 -0.069394 0.003195 -0.080517 0.105072 -0.136842 -0.060403 0.021819 -0.122979 0.090105 -0.006859 0.003035 0.006571 -0.068571 0.270083 -0.094336 0.133479 -0.089676 -0.386156 0.256169 0.090260 -0.229920 -0.124177 0.119392 0.367039 0.298208 0.038653 -0.082689 0.220918 -0.173833 0.016917 -0.196186 -0.131387 0.147249 0.062831 0.154799 -0.026247 0.214144 -0.089076 -0.069237 -0.169248 0.160294 -0.127577 0.089338 0.035406 -0.097589 0.002951 0.360791 -0.059494 0.157846 -0.167881 -0.207352 0.411356 0.067382 0.094817 -0.025332 -0.209300 -0.109032 -0.001276 -0.059522 -0.056045 0.018004 0.009052 -0.548059 0.055058 0.043166 0.238212 0.098201 0.003148 0.381400 0.104657 0.067998 -0.051672 -0.140223 0.136065 -0.127256 -0.114630 -0.146963 0.080458 -0.057795 -0.002836 -0.102414 0.193215 0.237304 -0.017151 -0.257732 -0.327181 0.025340 0.013362 0.103182 0.157910 0.069028 -0.028324 0.089961 -0.130112 -0.227693 -0.227008 -0.066754 0.081642 0.005144 0.197816 0.393669 -0.419111 -0.090421 0.088266 0.143547 0.018818 0.143426 -0.240182 0.322633 0.185548 -0.221534 -0.050769 -0.065334 -0.104504 0.204208 -0.129765 0.057269 0.149996 -0.303370 0.064362 -0.122777 -0.041706 0.133000 -0.063386 0.140927 0.175617 -0.199775 0.139573 -0.013243 0.238286 0.098113 -0.080676 -0.039088 -0.277613 0.127082 0.056879 0.265510 -0.173542 -0.295424 -0.144273 0.067952 -0.225620 -0.066724 -0.045875 0.009488 -0.074761 -0.160633 -0.169062 0.082140 -0.139394 0.156368 -0.366352 0.324982 -0.204611 -0.186337 0.078975 -0.102557 -0.191643 0.141079 -0.200545 -0.011490 -0.053927 -0.015830 -0.072062 -0.086983 0.164874 0.150288 0.209763 0.036890 0.022869 0.190471 -0.327620 -0.032744 0.013012 -0.125548 0.094539 -0.183719 -0.027803 -0.093656 -0.047745 0.202794 0.390842 -0.060050 -0.082235 0.020901 -0.119752 0.165793 0.255052 -0.031195 -0.014932 -0.055029 -0.275917 -0.096508 -0.150585 -0.458235 -0.127185 -0.013166 0.152100 0.046984 -0.300980 -0.056100 -0.350512 -0.147132 0.039920 0.369806 0.043309 -0.135309 -0.139918 0.166339 0.007852 0.119090 -0.078470
ein 0.155350 -0.215267 0.085584 0.201622 0.192593 0.182363 0.189120 0.011508 0.327840 -0.032521 -0.174378 0.065226 -0.078122 0.058021 -0.218249 0.127935 0.008644 0.022770 0.254141 -0.412258 -0.214491 -0.095304 0.327025 -0.008262 -0.014588 0.023520 0.105346 0.111093 -0.016064 -0.342800 -0.229521 0.155326 0.199815 -0.027486 -0.028395 0.069172 -0.168713 -0.030445 0.095214 0.081187 -0.067550 -0.120975 -0.269056 0.256926 0.232724 0.055033 -0.196169 0.197537 0.023587 0.264993 -0.303206 -0.062931 -0.251883 -0.003687 -0.245495 0.135589 -0.000017 -0.056551 0.236344 0.035442 0.105741 0.209052 -0.060075 -0.000464 0.053324 -0.073104 -0.185405 0.005767 0.039300 0.071588 -0.130041 0.227857 0.134824 0.180343 -0.118791 -0.014637 -0.178329 -0.244114 -0.407605 0.333435 -0.193612 -0.108696 0.024730 -0.364492 -0.205576 -0.289936 -0.020191 -0.245047 0.099255 0.157865 -0.144953 -0.200427 0.092143 -0.163389 0.439798 0.248896 -0.004044 0.048068 0.021829 0.064724 -0.377390 0.256689 -0.176527 0.071332 0.028383 -0.009420 -0.123139 0.009523 0.036226 0.161504 -0.081924 -0.103747 -0.052687 -0.133246 -0.093297 -0.121481 0.068779 0.094738 0.093202 -0.101383 0.065418 -0.056985 -0.276263 0.078204 -0.077611 -0.041250 -0.132752 -0.191538 -0.172748 0.063322 0.289049 0.138911 0.114759 -0.268758 0.376407 -0.298003 -0.119580 -0.148950 -0.150518 -0.249543 0.145877 -0.020422 0.102559 -0.199882 -0.314635 -0.276460 -0.091497 -0.172575 0.033446 -0.250622 -0.243187 0.261368 -0.056251 0.282947 0.059998 0.221939 -0.193379 -0.157009 -0.379411 0.141782 -0.116100 0.009423 0.297626 0.378424 -0.091775 -0.248179 -0.245196 0.011202 -0.525334 -0.232228 -0.068591 0.026433 0.007985 -0.292865 -0.176153 -0.080336 0.025868 -0.320822 -0.153970 -0.206623 -0.416652 -0.157008 -0.342718 -0.028554 0.396155 0.239016 -0.000803 0.279376 -0.144432 -0.134309 0.108197 -0.259887 0.152663 -0.268498 0.112749 0.110197 0.060925 -0.270441 -0.141163 0.051763 0.055003 -0.146052 -0.043822 0.162328 -0.082068 0.116799 0.033982 -0.149141 -0.057337 0.192574 0.009501 0.051874 0.000651 0.269905 -0.122233 -0.239271 0.344451 0.231912 -0.242555 -0.063922 -0.202817 0.235728 -0.054009 0.336937 -0.170765 0.063212 -0.011960 -0.229606 -0.136326 0.006490 0.160224 -0.265161 0.040092 0.286366 -0.050182 0.203676 -0.006503 -0.266937 -0.160795 0.055637 0.105008 -0.334205 0.063375 0.177438 -0.042883 -0.270635 0.216310 -0.172607 0.033517 -0.177073 -0.134260 0.245714 0.013421 -0.034951 0.005667 0.070169
wir -0.377101 0.198808 0.256864 -0.135967 -0.198385 -0.119511 -0.088772 -0.018546 -0.211492 0.054238 0.168261 0.285856 -0.218545 0.007034 -0.005599 -0.187970 0.125570 -0.077350 -0.062484 0.087124 0.083018 -0.058101 -0.182760 -0.000445 0.130969 -0.182860 0.116423 0.365866 -0.116194 0.167328 0.009704 0.132011 0.037717 -0.141802 0.154074 0.085247 -0.046394 0.115489 -0.124644 0.212800 -0.066792 0.091438 0.070175 -0.197851 0.191512 -0.017435 -0.178889 0.061220 0.269726 0.100611 -0.194175 -0.071830 -0.245215 0.068384 -0.075908 0.002838 0.332955 0.069616 -0.129301 0.164305 0.042145 -0.252155 -0.012187 0.117239 -0.005193 0.238042 0.097169 -0.167042 -0.088556 0.023212 -0.203970 -0.087747 -0.291812 -0.206172 0.255961 -0.062900 -0.166194 0.327497 -0.131683 0.305343 -0.076471 -0.094851 0.086998 -0.198150 -0.182010 0.131389 0.203415 -0.232577 -0.117029 -0.091201 -0.090389 0.097055 -0.088048 -0.236052 0.049472 -0.001212 0.181249 -0.105971 0.009698 0.178682 -0.097614 -0.050407 0.027012 0.169790 0.077169 -0.053087 -0.073895 -0.104315 0.044413 -0.009946 0.232418 0.203431 0.059049 -0.155063 -0.039290 -0.242850 -0.106858 0.260983 -0.062146 -0.022726 -0.230319 -0.253208 -0.032045 -0.282622 -0.040195 -0.160480 -0.178986 0.054052 -0.152065 -0.226334 0.190755 -0.109927 -0.183974 -0.045509 0.084131 -0.111958 -0.199350 0.089116 -0.126016 0.165103 0.023268 0.174784 0.254954 0.124217 -0.183042 0.055141 0.105281 -0.249467 -0.111163 0.139397 -0.277010 -0.075232 -0.136971 -0.394842 -0.058774 -0.227881 0.121197 -0.184736 0.086016 -0.114298 -0.067874 0.043956 0.169566 -0.404410 0.075765 -0.125298 -0.018731 0.284702 -0.135681 0.015672 -0.014788 0.177125 0.247635 -0.102549 0.242614 0.127840 0.095708 -0.022937 0.200214 0.091626 -0.237243 0.093357 -0.174293 -0.234704 -0.081049 -0.017651 -0.288994 -0.067731 0.273472 -0.505092 0.123525 -0.181271 0.041094 0.206356 0.144459 0.095374 0.012254 0.041570 -0.183946 -0.065869 0.207959 -0.137780 -0.213878 -0.109171 0.181765 -0.001712 -0.303026 0.068836 -0.210526 0.234453 0.045081 -0.249625 -0.110503 -0.278884 -0.130105 -0.169136 0.154104 -0.017773 0.105399 0.213888 -0.006512 0.086967 -0.226654 0.294926 0.028033 0.077779 -0.220420 0.059478 -0.141065 -0.106462 -0.046786 0.165156 -0.010075 0.079141 0.041333 0.041225 0.090446 -0.327351 -0.128535 0.001181 0.032708 0.051524 -0.222088 -0.162830 -0.105051 0.041738 0.011023 -0.368768 -0.249757 0.069104 -0.072128 0.031921 0.207581 -0.015300 0.079696 0.105259
dem 0.132193 0.060362 -0.296910 -0.153524 -0.057606 0.272276 0.087862 -0.080192 0.073598 -0.079092 -0.097885 0.367121 -0.061549 0.038225 -0.084128 0.127969 0.159279 -0.160062 -0.040938 0.269068 0.027512 -0.231421 0.226184 -0.041365 -0.051394 -0.056721 -0.076446 0.121619 -0.035641 0.131451 0.128678 -0.062250 0.021309 -0.183528 -0.199147 0.140918 0.112761 -0.127753 0.198787 -0.012075 -0.173143 0.012006 -0.109558 0.112936 -0.298775 -0.048811 0.145957 0.182947 0.148891 0.394780 0.093496 0.178907 -0.089902 -0.395517 0.193862 0.275565 -0.113596 -0.029622 -0.195292 -0.187490 0.102675 0.027760 -0.056330 0.066862 0.327810 0.013950 -0.051989 -0.131304 -0.031328 -0.158645 0.041716 0.361544 -0.022323 0.011259 0.169498 -0.222704 0.097722 0.101141 0.174530 -0.002642 -0.230933 0.212644 -0.100937 -0.094124 0.029856 -0.277971 0.501627 0.100079 -0.179988 0.074722 -0.425547 -0.046338 -0.017299 -0.138689 -0.068825 -0.205214 -0.178165 -0.124802 -0.198748 -0.174446 0.049934 -0.146673 -0.047108 0.277313 -0.122891 -0.003517 0.204057 0.330472 0.009990 0.084554 -0.333832 -0.066076 -0.085912 -0.198229 -0.277520 -0.176764 -0.211373 0.039229 0.187169 -0.008272 -0.203252 0.163949 0.133537 0.043513 0.110958 -0.130413 0.283969 0.279551 -0.151286 -0.103863 0.155483 0.194743 -0.292729 -0.320915 -0.158205 0.230950 0.095032 -0.120239 0.035678 -0.020072 0.163320 -0.024271 -0.128281 -0.046925 -0.046455 -0.354043 -0.311138 -0.267938 0.167222 -0.028645 -0.200452 0.142990 -0.084939 -0.040852 -0.074463 0.384165 -0.033929 -0.046359 0.054855 -0.071204 0.254892 -0.158555 -0.072654 0.106365 0.032720 0.232810 -0.213169 -0.058336 -0.099972 0.106725 0.329044 -0.031124 -0.108796 0.123542 -0.194925 0.037559 0.137015 -0.183863 -0.092521 -0.249008 0.019975 0.136634 0.020654 0.143868 -0.154726 0.171494 0.039325 0.168784 0.108801 0.006910 0.126301 0.076368 -0.234128 -0.423613 0.023658 -0.060505 0.055227 -0.148874 -0.131474 -0.046056 0.190506 0.011404 0.159629 -0.291696 -0.106515 -0.096337 -0.157473 0.129014 0.117049 -0.280770 -0.119617 -0.248315 0.067199 0.140840 -0.059307 -0.060165 0.280952 0.166456 -0.147920 -0.124453 0.171486 0.054995 -0.076617 -0.043473 -0.002964 -0.057775 -0.036369 -0.124645 -0.075932 0.204757 -0.237378 0.104862 -0.038687 -0.204508 -0.137745 0.167680 -0.021103 0.129607 0.174119 0.011248 0.050742 -0.208146 0.271939 -0.102867 0.054418 0.059710 0.225912 -0.170356 -0.045213 0.257280 0.209301 -0.178920 0.062081 0.180501 -0.006835 0.117916
sich 0.034658 0.034288 0.192140 0.033979 -0.211717 -0.085021 -0.192806 -0.183547 0.094489 0.208495 -0.230661 -0.009192 -0.037450 0.119104 -0.121061 0.137388 0.006791 0.081596 0.106044 0.258014 -0.238810 -0.161165 0.098546 -0.207924 0.130584 -0.182118 -0.068948 0.232478 0.291055 0.017833 -0.199997 0.119414 0.292659 0.169991 0.127738 -0.036890 -0.135088 0.165097 0.297706 0.251788 0.121631 0.148946 -0.140036 0.058384 0.033206 0.216740 0.121489 -0.148095 0.163049 -0.208120 -0.152560 -0.064229 -0.186008 -0.236965 -0.142174 -0.178031 -0.259521 -0.054624 0.031420 0.182246 0.072321 -0.007323 -0.286306 0.174418 -0.078624 0.026315 -0.179444 -0.019248 0.086725 0.088086 0.002255 -0.051436 0.071920 -0.130246 0.067841 -0.076650 -0.071404 0.020647 0.034203 0.034444 0.230001 0.167437 -0.026520 -0.237098 0.006163 0.037298 -0.036331 0.004714 0.229884 -0.001252 -0.094643 0.167258 -0.158815 -0.013706 0.050614 0.008278 0.151038 0.287810 -0.068058 -0.203726 -0.136287 0.155869 -0.032817 0.112421 -0.057244 -0.069658 -0.228467 0.070553 -0.029077 -0.133325 -0.038788 -0.185932 0.079487 -0.230585 0.252351 0.071967 0.132284 -0.243011 0.134376 -0.049644 0.205010 0.140043 -0.264171 0.221624 -0.094627 -0.057089 0.120742 -0.090042 0.229727 -0.143824 -0.067910 0.021894 0.224311 -0.090617 0.037202 -0.245492 -0.098447 0.129217 0.056170 -0.245107 -0.169312 -0.125146 -0.291038 0.061158 0.014764 -0.008163 0.183693 0.041271 0.396478 0.126582 0.018774 -0.056963 0.309261 0.094055 0.035935 -0.163141 -0.107415 -0.208726 0.092143 0.075554 -0.055664 0.221989 0.084605 -0.177999 0.150901 -0.166558 0.264927 -0.072870 -0.007834 0.284073 -0.000164 0.113623 0.203981 -0.217569 -0.059920 0.076224 0.297818 0.228808 0.150293 0.077453 -0.180468 0.096086 0.005334 -0.115749 -0.222190 -0.114997 -0.129603 -0.053202 0.010201 -0.258648 0.113552 -0.093171 -0.195185 0.129655 0.039944 0.049409 0.099189 -0.090019 0.099662 -0.276867 0.184099 0.022166 -0.204215 0.123421 -0.078884 -0.064644 0.198051 -0.062003 -0.091743 -0.021950 0.172095 -0.146456 0.118906 -0.023291 -0.086934 0.029851 0.097494 0.123614 0.154726 0.095825 0.021459 0.003611 -0.239471 -0.150554 -0.024651 0.133704 0.088229 0.081598 -0.352293 -0.053132 -0.132313 -0.013524 0.033410 0.058649 0.048871 -0.262523 0.166643 -0.060122 -0.099005 0.014682 0.228748 -0.190351 -0.109034 0.065076 -0.136741 -0.024795 0.010534 -0.064422 0.005105 -0.187922 -0.366934 0.005634 0.086984 0.069621 0.034319 -0.112814
es 0.086502 -0.040268 0.110907 -0.353834 -0.136627 -0.097985 -0.128801 -0.056985 0.171064 0.031706 -0.113912 -0.103255 -0.032922 0.046246 -0.081255 0.119497 -0.054167 0.245866 -0.084038 0.383900 -0.171289 -0.119890 -0.247595 -0.006096 -0.123803 -0.239767 -0.188799 0.208061 -0.019570 0.071875 -0.093489 0.145910 -0.243097 0.115333 -0.129185 -0.040861 -0.139891 -0.273907 -0.185231 0.008665 -0.011425 -0.114610 0.415710 -0.036210 0.070124 0.209416 -0.142320 0.361452 -0.025217 0.149641 -0.154892 -0.149743 -0.107725 -0.087824 0.118217 -0.090269 -0.096395 -0.017615 0.041837 -0.320897 0.165317 0.088006 -0.253310 0.197697 -0.045173 0.004858 0.120968 0.164665 0.314412 -0.004559 -0.210308 0.109110 0.180785 -0.345216 -0.120752 -0.061987 -0.328566 0.218985 -0.104161 -0.057034 -0.030192 0.173445 0.005276 -0.025243 -0.122319 0.118832 0.099428 0.019680 0.031022 -0.134550 -0.218587 0.132880 0.034174 -0.105116 0.077794 0.105376 0.168463 0.209762 0.026073 0.356940 0.145280 -0.244644 -0.045735 -0.050906 0.117353 -0.021994 -0.120781 -0.244725 -0.216582 -0.146564 -0.363000 -0.126448 -0.020855 -0.060465 0.210465 -0.225415 0.012492 -0.310720 0.244786 0.149094 -0.182525 -0.079222 0.220122 -0.026021 0.378108 -0.275277 -0.084900 -0.171704 0.030337 0.068792 -0.166503 -0.351379 -0.255850 -0.005491 -0.157855 -0.207348 -0.150056 0.138401 0.178795 0.100688 0.151291 0.038652 0.257242 -0.046180 -0.004925 -0.050151 0.153722 -0.138195 -0.130025 -0.056219 -0.385955 0.487570 -0.173623 0.022847 -0.121131 0.048976 -0.006725 -0.149096 -0.207666 0.035203 -0.081992 0.319429 -0.172476 -0.253618 0.195868 0.042656 0.023354 0.152582 0.187701 -0.017805 -0.024918 -0.165598 -0.087921 -0.000300 0.276414 -0.088446 -0.026467 -0.038328 0.123138 -0.201634 -0.200379 -0.289310 0.096139 -0.221190 -0.044133 -0.389683 0.069412 -0.155673 -0.014892 -0.209036 -0.063144 0.023378 0.017699 -0.105139 0.444208 -0.055213 0.272498 0.207791 0.281178 -0.166852 0.273204 0.343638 -0.058270 0.001153 0.020087 -0.082313 0.017130 0.154776 0.059779 0.222787 -0.050863 -0.149989 -0.022805 -0.317847 -0.211858 -0.246970 0.298663 -0.111934 0.187105 0.056161 -0.058781 -0.048096 -0.140771 0.127721 0.361516 0.020419 0.242788 0.114387 -0.121248 0.105298 0.304615 -0.177328 -0.104782 -0.261903 0.112634 -0.355851 -0.063879 0.006576 0.178741 0.208845 -0.013622 -0.266706 0.148139 0.225155 0.187815 0.037990 0.205846 -0.037618 -0.129528 -0.086423 -0.166924 0.223049 0.154603 0.000393 0.128034 -0.093169
auch 0.077088 0.160997 0.076993 -0.124024 0.128033 0.126326 -0.172624 0.226075 0.004834 -0.027097 -0.143757 -0.333624 -0.020460 -0.122663 0.160387 -0.103216 -0.064758 0.122563 -0.268676 0.413339 0.075635 0.269175 0.080625 -0.187362 0.040351 -0.162934 -0.076243 -0.278691 -0.097184 -0.204590 -0.233746 0.180683 0.029615 -0.059600 0.180642 -0.202455 0.028494 0.140599 0.153988 -0.186199 -0.143921 -0.126397 0.016069 -0.151535 -0.034047 -0.090294 0.178195 0.122289 0.193312 0.037489 -0.269364 0.077579 -0.038167 0.359825 -0.061051 0.064313 -0.085877 -0.104761 -0.183710 -0.101396 0.112582 -0.059531 0.094248 -0.147759 0.094171 -0.341154 0.289390 -0.217789 -0.106089 -0.140695 0.062554 0.051842 0.224499 0.083201 0.185988 -0.071407 0.251618 0.092358 0.354061 -0.232580 -0.195572 0.014680 -0.124052 -0.208325 -0.142471 0.037796 -0.245748 -0.316870 -0.091051 0.321281 -0.160436 0.025170 -0.103347 0.022576 0.239967 -0.054763 -0.126139 0.015497 -0.153143 -0.262005 0.119936 -0.216204 0.135817 -0.131247 -0.265722 0.111284 0.065125 -0.008862 -0.006716 -0.336499 0.156386 -0.061944 -0.219606 0.314804 0.007066 -0.091862 -0.001032 -0.092854 -0.020477 0.106822 0.114332 0.249928 -0.030629 -0.104165 -0.180291 -0.316299 -0.057553 -0.036324 0.063880 -0.067244 -0.018110 -0.267636 0.312068 0.216082 0.147010 -0.324836 -0.373657 0.196302 -0.101065 -0.059882 0.154476 -0.243789 0.118610 -0.198970 -0.085668 -0.196419 0.133871 0.218070 -0.143144 0.042195 -0.059271 -0.046010 -0.017691 0.032411 0.117644 0.016752 0.263481 0.018394 0.029183 -0.061143 0.103650 -0.091043 -0.214723 0.253566 -0.156142 0.100235 0.228111 -0.200108 0.109229 0.036057 -0.062570 -0.030944 0.043825 0.199951 -0.174598 -0.184862 -0.064018 0.146062 -0.067181 0.020250 0.021295 0.272833 0.083236 0.058039 0.075343 -0.324803 -0.017987 -0.065976 0.279037 -0.154523 -0.076306 -0.158027 0.115214 -0.033718 0.205126 -0.206153 -0.086503 -0.280068 0.028643 -0.310513 0.067087 -0.159396 -0.126595 0.247270 -0.014296 -0.131054 -0.192000 0.070142 0.498892 0.003142 0.254458 0.052099 0.275018 -0.093144 -0.067117 -0.348263 -0.029802 0.111461 0.065516 0.014060 0.111198 -0.092643 -0.227840 0.107724 -0.052838 0.322911 -0.351514 -0.159021 -0.083744 0.089349 0.007688 0.167822 -0.211718 -0.254058 0.212984 0.020893 0.234872 -0.160701 0.048629 0.125520 0.191146 -0.080043 0.017676 -0.323569 -0.151269 -0.089710 0.191229 -0.036194 0.399327 0.049075 -0.058242 0.204922 0.251130 -0.270783 0.020653 -0.106630
sind -0.108322 0.236956 0.068717 0.014911 -0.125209 -0.010124 -0.260507 0.067700 0.146699 0.214850 -0.151232 -0.097636 0.072002 0.094556 0.002078 -0.050270 0.083238 0.292656 -0.057920 0.280275 0.201516 -0.058082 0.166107 0.318038 -0.138874 -0.230309 0.145406 0.211858 0.222793 -0.102831 -0.088608 0.182198 -0.000946 0.001430 0.242691 -0.240677 0.066058 -0.002557 0.132307 0.179074 -0.053697 0.116451 -0.068671 0.033827 0.188172 -0.157105 0.171108 0.174600 0.301119 0.039745 0.109934 0.055182 0.079060 -0.088514 -0.019848 0.091799 0.106401 0.197926 0.002347 -0.184414 0.039306 -0.035708 -0.219721 0.012413 0.085390 -0.035212 0.194767 -0.069208 0.149296 0.118453 -0.040707 0.000508 -0.050432 0.389747 -0.135601 0.037356 -0.204754 0.111690 -0.183177 -0.059182 -0.140771 -0.030144 0.089214 -0.093154 -0.241078 -0.124612 -0.182798 -0.108589 -0.172271 0.120010 0.045423 0.060130 0.066040 0.132676 -0.024403 -0.099616 0.212330 0.148399 -0.183198 0.014005 -0.074182 0.400578 0.060721 -0.258095 0.170441 0.050043 -0.236181 -0.157808 -0.097903 0.310400 0.313576 -0.035333 0.094003 0.041779 -0.008647 0.061333 -0.206183 0.076991 -0.153714 -0.332899 0.135792 -0.085759 0.275190 0.086115 -0.155063 -0.142382 -0.051934 -0.184782 -0.094327 -0.051816 0.130562 -0.117436 -0.212254 0.105296 -0.008849 0.038829 0.129177 0.187140 0.177019 -0.203302 -0.050500 -0.404174 0.039256 0.101218 0.052560 0.026374 -0.160255 -0.190110 0.061574 0.006633 0.217137 -0.044908 0.120946 -0.170565 -0.256458 0.101488 -0.078334 -0.017901 0.021106 0.106351 -0.307436 0.103124 -0.199556 0.241152 0.065673 0.068938 -0.095145 -0.143222 -0.085332 0.031941 -0.109443 0.092175 -0.039252 0.039370 0.221469 -0.177829 -0.019035 -0.090274 0.130058 0.184256 -0.096131 -0.118468 0.049899 -0.309562 -0.271759 0.033108 -0.301320 -0.190255 -0.109948 -0.240015 0.057967 -0.000891 -0.159004 -0.163120 -0.005018 0.068910 0.208327 -0.065079 -0.193176 0.154791 -0.085420 -0.230222 0.091380 -0.154880 -0.190357 0.205209 0.028544 -0.156854 0.032900 0.066327 -0.056787 -0.132036 -0.001370 0.028532 0.214695 0.109500 -0.108179 -0.277877 -0.117593 0.059516 -0.101215 -0.154355 0.053895 0.029107 -0.256525 0.055564 0.173160 -0.154896 -0.046241 -0.011974 -0.110378 0.170352 0.080558 0.159373 -0.370421 0.136230 0.195381 0.229040 -0.064773 -0.321866 0.021154 -0.112743 0.128099 0.069760 0.214987 -0.319947 0.269939 0.125013 0.197090 0.175570 0.062478 0.089251 0.100898 -0.056011 -0.143512 -0.089358
- 0.190884 -0.031958 -0.196890 -0.234995 -0.471771 -0.059863 -0.043261 0.047035 -0.031715 -0.172931 0.145934 -0.086582 -0.080026 0.075141 0.148241 -0.125266 0.027982 -0.108709 -0.032459 -0.081109 0.164767 0.121667 -0.007786 0.223190 0.085361 -0.023231 -0.001994 -0.027676 -0.008185 -0.405281 0.177621 0.110025 -0.227033 0.055909 0.041256 0.226187 -0.208063 -0.122217 0.160785 0.059309 0.112991 -0.274642 -0.011947 -0.032050 -0.157737 0.149790 0.045621 -0.102124 0.204618 0.085912 0.181184 0.091645 0.175925 0.077690 -0.100596 -0.127919 0.261930 0.082423 -0.052804 0.117170 0.091134 -0.183793 0.103377 -0.280016 -0.023686 -0.130413 0.028868 -0.079720 0.045952 0.095101 0.073193 0.249636 0.001773 -0.079863 -0.177429 0.024763 0.254756 -0.291547 0.073250 0.224050 0.240170 -0.222956 -0.335022 0.084429 -0.033306 -0.058180 0.048919 0.129019 -0.038219 0.100684 0.097539 0.265990 -0.115784 -0.247758 0.032744 -0.140070 -0.220086 -0.022126 -0.183260 -0.413296 0.254651 -0.284708 0.214750 0.210306 -0.198195 -0.322151 0.293761 0.048493 0.125496 0.133266 -0.120577 0.428217 0.370966 -0.176849 -0.203086 -0.232267 0.262631 0.121227 -0.010424 0.130902 0.001920 -0.093625 -0.025325 0.104443 -0.125823 -0.144501 -0.286233 0.084817 0.251909 -0.196168 0.245303 0.247730 -0.064845 -0.027328 -0.321759 -0.156937 -0.093362 0.031889 0.075953 -0.255550 -0.297548 -0.303259 0.556123 0.103560 -0.041215 -0.275062 0.197941 0.184919 0.223163 0.358217 -0.100723 -0.079144 -0.043643 0.226125 -0.195294 -0.134077 0.215819 0.160277 -0.008956 0.239426 -0.011223 0.049718 0.307748 0.028907 0.099361 -0.187628 0.218429 -0.112541 -0.001022 -0.049937 0.214813 0.153461 0.032378 0.160608 0.164046 -0.046035 -0.088393 -0.228370 -0.020452 0.143995 -0.159704 -0.265868 0.163776 -0.082545 0.293814 -0.108204 0.269448 0.356050 -0.180120 -0.102929 -0.024060 0.294641 -0.111972 -0.162583 0.349240 -0.186603 -0.021919 -0.114017 0.274240 0.117441 0.178182 -0.213034 0.028332 0.043180 0.099125 0.414424 0.110529 0.185151 0.099537 -0.368498 0.329255 0.072130 0.169946 0.225694 0.448991 -0.058324 0.108336 0.183832 0.236587 0.369791 -0.102706 0.251889 -0.007902 -0.258899 0.048518 -0.351727 0.119248 0.430862 -0.089092 0.084443 0.055989 0.254578 0.009062 -0.159616 0.109980 0.033462 0.185152 0.058873 0.005079 0.253431 -0.065380 0.008410 0.120944 0.108648 -0.022478 0.008546 0.304529 0.116183 0.029624 -0.293819 0.058133 0.117268 0.034162 -0.140973 -0.009990 -0.177911
an -0.091181 0.127161 -0.077641 0.453498 -0.154997 -0.128958 -0.109806 0.236194 0.175240 0.231648 -0.263000 0.169026 -0.035794 -0.243039 -0.022714 -0.549234 -0.198808 -0.026358 0.001075 -0.286171 -0.236295 -0.077735 0.196992 -0.158155 0.326881 -0.176561 0.212386 -0.379488 0.058967 -0.146096 0.003114 -0.235742 -0.056158 -0.295637 0.122942 -0.144171 -0.060130 -0.066026 -0.085543 0.100805 -0.167596 0.081971 -0.387322 -0.085770 0.402741 -0.167100 0.051318 0.046077 -0.136278 -0.020797 -0.051710 -0.013719 -0.156780 0.137727 0.200529 -0.190282 0.164808 -0.209480 0.035328 -0.230593 0.103689 0.203080 -0.050604 -0.077101 0.006582 -0.012502 -0.472794 0.100453 0.007523 -0.132309 0.096399 0.078377 -0.022984 0.235435 -0.149326 -0.306249 -0.307326 0.051758 -0.182521 -0.184712 0.005168 -0.091707 0.145525 -0.315615 0.169968 -0.004926 -0.052250 0.024800 -0.063338 0.284739 0.054807 0.205898 0.130666 -0.216571 -0.162331 -0.548674 -0.279932 -0.171733 0.387659 0.045017 -0.242884 0.035730 -0.023523 -0.201576 -0.266904 0.265987 -0.342090 -0.013520 -0.201646 -0.331894 0.072404 0.048379 0.021486 0.141794 -0.105088 0.301569 -0.075756 -0.060893 -0.185579 -0.030055 0.339682 0.201361 -0.001267 0.276594 0.041209 0.128242 -0.209476 -0.372226 -0.002877 0.208717 -0.177811 0.228787 0.216663 0.127166 0.049583 -0.262605 0.049136 0.045735 0.500648 -0.148565 -0.055407 0.208048 0.235054 0.198123 -0.057487 -0.148061 0.007916 -0.032216 -0.008694 -0.042716 0.153969 -0.133276 0.133568 0.119577 -0.203831 0.048710 -0.164898 0.099750 -0.278125 -0.001405 0.061165 0.145463 0.254659 0.073363 -0.094974 -0.063091 -0.059975 -0.398422 -0.346348 0.127294 -0.012629 0.249085 0.189537 -0.159726 0.227452 0.230897 -0.060041 -0.109613 0.116944 0.254426 0.384398 -0.131868 -0.079987 0.026845 -0.147043 -0.155316 -0.015899 -0.237766 0.118762 -0.040729 0.246240 -0.043008 -0.072123 0.167416 -0.067693 -0.137539 -0.085925 0.089455 0.199477 0.095255 -0.065580 0.089671 0.020157 0.072800 -0.076711 -0.038583 -0.102621 0.249182 0.011823 0.113233 -0.014637 -0.031340 0.072417 -0.106997 0.412637 0.154378 0.088557 -0.066663 0.169620 -0.068292 -0.131580 0.130861 -0.087056 -0.019239 0.242206 0.157915 -0.284102 -0.072086 -0.047901 -0.220149 -0.038092 -0.246458 -0.115007 0.061034 -0.013025 0.147609 -0.157758 0.305664 0.145294 -0.074393 0.051565 0.315381 0.383527 0.131359 0.101125 -0.134166 0.003431 -0.045031 -0.242613 0.189065 0.088170 -0.240307 0.203648 -0.033161 0.041571 0.015801
wird -0.201925 0.282451 0.135037 0.238799 0.092768 0.100907 -0.164485 -0.030269 -0.015680 -0.120012 -0.070469 0.088676 -0.241793 -0.075696 0.296878 0.237682 0.099083 -0.018663 0.112402 0.168534 0.082803 0.222261 0.277470 0.174933 0.317150 -0.016850 -0.139760 0.121813 0.159795 -0.026380 -0.195580 -0.003678 -0.007299 -0.161950 0.545516 0.140002 -0.395127 0.361333 0.189590 0.007896 -0.030346 -0.137058 -0.308217 -0.041071 -0.013067 0.001555 0.061718 -0.116432 0.131728 0.097512 0.066408 0.100307 0.013370 0.121117 0.104832 0.071105 0.361991 0.122607 -0.356326 0.078930 -0.331818 -0.118717 0.199242 -0.098360 -0.079028 -0.266957 -0.077797 0.328511 0.025139 0.075697 -0.234349 0.286417 0.120750 0.156745 -0.023473 -0.289275 -0.048817 0.259206 -0.137771 0.061059 0.099516 -0.084145 -0.126137 -0.307774 0.289416 0.153418 0.301717 0.203263 0.076219 -0.250156 -0.041959 0.053155 -0.017663 0.074671 -0.053508 0.138820 0.316294 0.047381 -0.305150 0.114257 -0.267745 0.260688 -0.058596 -0.085314 0.357860 0.008698 -0.104619 -0.020583 -0.004779 -0.264318 -0.011762 0.032702 0.127939 0.083625 0.065098 -0.200838 -0.014467 0.240174 0.078399 -0.163608 -0.042859 -0.164922 -0.166781 0.125832 0.085857 -0.084595 -0.308235 0.305938 -0.108542 -0.413554 -0.120110 -0.125567 -0.179302 0.030354 -0.049120 0.095907 0.087692 -0.021972 0.014698 0.031435 0.028135 -0.064952 0.048084 -0.031628 0.042965 -0.129079 -0.101292 -0.145306 0.023413 0.036614 0.155438 0.206812 0.034580 -0.198882 0.086819 -0.027822 -0.000397 0.036593 0.378035 -0.060062 -0.270571 0.573989 -0.157420 -0.055497 -0.121572 -0.114258 0.011383 -0.205531 0.238787 0.090749 -0.117468 0.034930 -0.222909 -0.203346 0.071960 -0.106108 0.039281 -0.142350 -0.017805 -0.049596 0.194025 0.188546 -0.417119 -0.314744 -0.318373 -0.132243 0.010244 0.007764 -0.165454 -0.329549 -0.334926 -0.099475 0.002488 -0.257323 0.071432 -0.003825 -0.042509 -0.096902 -0.083414 0.141058 -0.036645 0.139975 -0.334589 0.130747 -0.068582 -0.116334 0.072565 0.022033 0.019182 0.128896 0.191482 0.048462 0.076228 0.238993 -0.010258 -0.132757 -0.108982 -0.100502 -0.002445 0.201476 -0.275707 -0.178269 0.090154 0.112687 0.125840 -0.263436 0.111408 0.086822 -0.193427 0.247337 -0.077231 0.219015 0.014270 0.198830 -0.332627 -0.004018 -0.011250 -0.208351 -0.210875 -0.156558 -0.146940 -0.084234 0.149030 -0.071712 0.117693 -0.080177 0.365824 -0.040425 0.148152 0.297200 -0.280587 -0.194091 -0.065982 -0.068810 0.143888 0.184480
ich -0.071291 -0.043926 0.119694 -0.172115 -0.081239 0.013451 -0.236888 -0.077209 0.022843 -0.093655 0.149434 0.266067 0.066620 0.113626 -0.123728 0.042734 0.252839 0.056608 -0.326138 -0.198207 0.288495 -0.118894 0.190977 -0.428883 -0.015654 0.016224 -0.221247 0.117739 -0.005281 -0.068239 -0.266568 0.114465 0.238799 -0.009439 0.230590 -0.241077 0.076896 0.133272 0.010465 0.172422 -0.136931 0.047124 -0.116116 -0.082225 0.243544 -0.276691 0.011020 -0.151160 0.039074 0.166211 -0.118013 0.086568 0.095940 -0.008998 -0.154619 -0.144409 0.069342 -0.167874 0.172004 0.109994 -0.141832 0.022241 0.157387 0.260139 -0.226035 0.256900 0.184589 -0.138093 -0.062331 0.089255 -0.235458 -0.038144 0.004686 -0.007652 0.152996 -0.063606 -0.059449 0.326652 -0.157175 0.360324 0.301108 -0.139428 -0.065368 -0.426481 -0.381848 -0.089472 0.205979 -0.113809 0.023173 0.028601 -0.102240 -0.153844 -0.111027 0.275916 0.276231 -0.171021 0.170973 0.237306 -0.082685 0.363292 -0.120874 0.038076 0.162940 0.159086 -0.013061 -0.107537 0.126391 -0.102417 0.319299 -0.210908 0.207683 -0.143970 0.116006 -0.106252 -0.218431 -0.082355 -0.095127 -0.032015 0.328666 -0.121599 -0.398999 -0.236649 -0.094390 0.168275 0.168158 0.082456 -0.076346 -0.039335 -0.190904 0.049049 0.222293 0.006467 -0.165708 0.232906 0.043200 0.010420 -0.246178 0.308253 0.331353 0.243225 0.065674 0.161534 0.378547 0.027318 0.070016 0.037562 -0.017672 0.102203 -0.025382 -0.060598 0.068464 0.293884 0.129894 -0.433073 -0.113414 -0.401588 0.109468 0.041841 -0.383306 -0.086852 -0.185789 -0.033010 0.176961 -0.221787 0.099429 0.021212 0.087363 0.023328 -0.043377 0.192271 0.294811 0.065242 0.133944 -0.085917 0.036715 -0.214526 -0.110453 0.077896 0.094682 0.177127 0.054459 -0.027820 -0.229507 -0.293307 0.091491 0.009568 -0.400812 -0.002295 0.208686 0.152915 -0.075901 -0.224789 -0.039227 0.193890 0.376066 0.080826 0.194592 -0.065195 0.151860 0.211931 0.175512 0.073515 -0.145727 0.144728 -0.264698 0.119762 -0.250829 0.016800 -0.268220 0.129025 0.011098 -0.057113 0.146114 -0.249385 -0.106273 -0.559264 0.251491 0.023441 0.156724 0.235480 0.016819 -0.097586 -0.073927 0.164063 0.372081 -0.016377 -0.039631 -0.136878 -0.109888 -0.460105 -0.057218 0.217537 -0.032062 -0.057024 0.083970 0.066304 0.205228 0.002726 -0.263987 -0.165511 0.081752 -0.260862 0.007559 0.180746 0.096724 0.355176 0.141063 0.273966 -0.002278 -0.028708 -0.271199 0.365701 0.253185 -0.003186 0.117690 0.124609
haben -0.147149 0.292189 -0.126454 -0.011347 -0.292834 -0.023016 -0.093942 -0.207268 0.214349 0.071955 -0.202600 -0.089949 -0.277078 -0.051536 0.122424 0.234185 -0.111929 -0.058692 -0.095680 0.154338 -0.055882 0.126561 0.034602 0.247099 -0.171830 0.077308 -0.044424 0.158678 0.151151 -0.194623 -0.169834 -0.135036 -0.221823 -0.057877 0.197040 0.012291 0.057733 0.165118 0.369911 0.094423 0.162449 0.051919 -0.137979 -0.054321 -0.162112 -0.270451 -0.105619 0.060425 0.171782 0.039505 0.445267 -0.006656 -0.003447 -0.120467 0.196740 0.124493 0.093782 -0.033405 0.094919 -0.023218 -0.251511 -0.196867 -0.061968 -0.062517 0.038432 -0.136140 0.233626 -0.052250 0.165762 0.256519 -0.453631 -0.094336 -0.169076 0.104159 -0.295895 -0.127364 0.035455 0.159379 0.029201 0.077746 0.507991 0.218616 -0.040847 -0.002131 -0.016089 0.031173 -0.010322 -0.088087 0.151086 -0.059786 0.143390 0.057969 0.177443 0.107821 -0.265304 -0.058074 0.134469 0.172210 -0.049957 0.104776 -0.078205 -0.004782 0.062073 -0.144143 -0.246901 0.014133 -0.424110 -0.050289 -0.087022 -0.151579 -0.141454 -0.170895 0.093786 0.014518 -0.138608 -0.031165 0.133428 0.103145 -0.033634 0.166578 0.235536 -0.252343 0.082034 0.004625 0.180880 0.059757 0.055760 -0.128959 -0.036868 -0.188885 -0.175423 -0.112623 -0.015719 -0.135441 0.040762 0.115831 0.036894 0.132695 0.078894 0.149538 0.009431 -0.125870 -0.091304 -0.307197 0.203195 -0.211713 0.046493 0.230344 0.185156 0.053597 0.206300 -0.190759 -0.202680 0.157419 -0.017214 0.185428 0.111750 0.073294 0.137711 0.066334 -0.142729 0.125132 0.159498 0.185030 0.049811 0.167994 -0.121143 0.240735 -0.019856 -0.061068 -0.148695 -0.159094 -0.103529 0.219824 -0.002807 0.037418 -0.098468 -0.247102 0.181588 -0.210961 0.393226 -0.136577 -0.191092 -0.043796 -0.110952 0.052640 -0.102129 0.037979 -0.223653 -0.293742 -0.032518 -0.230536 -0.364138 -0.321880 0.312962 0.045026 -0.003567 0.043258 -0.184828 -0.078378 -0.029029 -0.110665 0.123185 -0.197918 -0.073835 -0.008003 -0.076219 0.255606 0.010624 0.235371 0.072354 -0.110602 0.167415 -0.227527 0.228014 0.188263 -0.215050 0.239585 -0.210061 0.102917 0.061243 -0.061996 0.137255 -0.109305 0.024158 0.008858 -0.042770 -0.203500 0.196135 -0.352710 0.004637 -0.012967 -0.053104 -0.073913 0.037127 -0.268175 -0.164991 -0.096732 -0.104525 0.126250 -0.010262 -0.068347 -0.127073 0.020517 -0.235518 -0.240027 0.152092 0.242477 0.378713 0.120918 -0.111345 0.078246 -0.045262 0.336498 0.274375 -0.167806
als -0.109787 -0.145125 -0.211347 0.087434 -0.431871 -0.079057 -0.153897 0.061871 0.462460 -0.219407 0.016703 0.175586 0.111162 -0.510706 -0.192958 0.060948 0.234602 0.107190 0.310356 -0.027168 0.035766 -0.216899 0.080671 -0.279429 -0.092646 -0.194286 -0.238601 0.456346 -0.168547 0.125620 -0.038512 -0.005338 0.074306 -0.182670 -0.037448 0.015248 0.318282 0.129493 0.082493 -0.247105 -0.335459 -0.082099 0.219761 0.085142 -0.065116 0.089970 0.159624 0.162099 0.055590 -0.078715 -0.108754 -0.203619 -0.050784 0.265910 0.213633 0.041480 0.214113 0.006774 0.195974 0.276834 0.244469 0.118178 0.219525 0.173319 0.011297 -0.057165 0.029799 0.156449 0.101768 0.147208 0.032186 -0.012467 0.108221 0.055570 -0.093901 -0.004336 -0.274056 0.207786 -0.263341 0.114213 -0.184925 -0.184277 0.112307 -0.135582 -0.028994 -0.185651 -0.138242 -0.063493 0.273103 0.186177 -0.320805 -0.011154 0.043102 0.054092 0.126373 -0.132585 -0.193043 -0.010582 0.231864 -0.325293 -0.115744 -0.052197 -0.311963 0.166326 -0.037751 0.066657 0.158900 0.023055 0.167820 -0.026333 -0.229006 0.142116 0.225168 -0.138767 -0.148582 0.198450 -0.320282 -0.053354 0.019642 0.194661 -0.213941 -0.029425 -0.221785 0.292922 -0.305263 0.359028 -0.330028 0.146272 -0.117966 -0.192607 -0.220220 -0.197726 0.126470 -0.059871 0.152344 0.206667 0.277038 -0.216965 -0.177345 -0.101814 -0.124676 -0.032641 0.300496 0.013929 0.053298 -0.012697 -0.154043 -0.110881 0.082248 -0.223827 0.015407 0.305463 -0.073724 0.035072 -0.040884 0.152441 0.091895 0.072491 -0.026148 0.068229 0.519274 0.151967 0.018811 0.044231 -0.127958 0.223568 0.189562 0.260987 -0.381654 0.041622 0.222984 0.054616 0.069386 0.127182 -0.016830 -0.074244 0.038048 -0.037600 0.041954 0.137102 0.043714 0.119560 0.005686 0.273767 -0.133746 0.112650 -0.014797 0.153759 -0.097929 -0.192581 0.011700 -0.067521 0.062459 -0.306665 -0.084305 0.009004 -0.136431 0.051456 0.141111 0.271853 0.228379 -0.359022 -0.272438 -0.049980 -0.103088 0.421992 -0.005357 -0.025598 -0.088289 -0.077240 -0.077572 0.240183 0.072671 -0.182303 0.066422 0.058745 0.010439 -0.153206 -0.152841 -0.069586 0.383013 -0.093642 -0.170676 0.076809 0.092737 -0.185969 -0.255560 0.159065 -0.085430 -0.066624 -0.175257 0.160517 0.187123 0.201630 -0.058493 -0.056889 -0.183664 -0.269250 0.171902 -0.062753 0.031357 -0.160698 0.102713 0.193966 0.114661 0.307619 0.059936 -0.129171 0.016864 -0.292103 -0.014880 -0.407898 0.042412 0.165938 0.199367 -0.040544
um -0.208089 -0.000437 -0.120933 0.326044 -0.169459 -0.163454 -0.041667 0.318468 0.191995 -0.104692 0.106551 0.005895 0.180980 0.001429 -0.242993 -0.178625 0.073454 0.073999 0.091261 0.111444 -0.187112 -0.241377 0.002927 0.212826 -0.158390 0.033510 0.116248 -0.137284 0.030095 0.143659 -0.270792 0.062350 0.053861 -0.055903 0.145628 0.085248 0.611551 -0.193501 -0.008026 -0.013412 -0.292380 0.190576 0.096077 0.053261 -0.137150 -0.046239 0.129711 0.189645 -0.255596 -0.274989 0.220294 -0.059947 -0.047429 0.265182 -0.185448 0.047152 -0.174027 -0.345414 -0.049491 -0.412340 -0.158850 -0.207118 -0.189952 0.208016 0.108880 -0.136155 0.070662 -0.015522 0.570622 -0.154716 -0.061792 -0.071423 0.042235 0.238716 -0.084636 0.120588 -0.294805 0.259953 0.026366 -0.139137 0.009790 0.030448 -0.048030 -0.172182 0.138869 0.078311 0.410987 -0.013899 -0.027767 -0.028425 0.032224 0.132521 -0.151899 -0.206832 0.223418 -0.312480 -0.317924 0.060165 0.191117 0.124443 -0.000441 0.070414 -0.146268 0.033816 0.192032 -0.268503 -0.130733 -0.206533 0.251087 0.176627 0.096216 0.104374 -0.124328 0.133591 -0.037126 -0.213793 -0.340550 -0.135826 -0.263407 0.122884 0.117399 -0.191351 0.018573 0.189600 -0.230341 -0.006936 0.205255 0.042016 -0.395919 0.102208 -0.078696 0.041286 -0.230214 0.292332 0.183989 -0.283851 0.246794 -0.091060 0.198347 -0.254015 0.084905 0.039373 0.018455 -0.329438 -0.168950 0.038760 0.025567 -0.103605 0.472438 -0.215061 0.023944 -0.120912 -0.103784 0.025421 0.022857 -0.068738 0.111766 0.125882 -0.159286 -0.012266 0.045296 0.371968 -0.210652 0.019623 -0.069602 -0.035266 0.015962 0.133873 0.110758 0.020613 -0.059851 0.306563 0.115732 -0.283871 0.258026 -0.135227 -0.289405 0.165587 0.014475 0.212738 0.133656 0.054122 0.128355 -0.008860 0.013610 0.129934 -0.044929 0.033461 -0.026487 0.060371 0.374471 -0.076693 -0.068574 0.210529 0.056910 -0.164162 -0.148848 -0.198268 -0.164800 0.115031 -0.190794 -0.020322 -0.391688 0.410361 -0.048143 0.445440 -0.192692 0.304587 -0.016252 0.146214 -0.053910 0.074623 -0.099889 -0.125936 0.206430 -0.073852 0.326915 0.026369 -0.040690 -0.145336 -0.096314 0.085800 -0.058419 -0.135917 0.046400 -0.246200 -0.079955 0.310479 0.090502 -0.180800 0.021125 0.466626 -0.071186 -0.178625 0.030928 -0.039100 0.014532 0.059318 -0.033409 0.316363 0.435439 -0.000109 -0.037455 -0.240659 0.049083 0.152505 0.187569 -0.084540 0.105323 -0.180193 0.044461 0.222110 0.115848 0.198969 0.072454 0.050628
oder 0.066178 -0.182732 0.288460 -0.400657 -0.238927 0.158161 -0.182423 0.039028 -0.085126 0.006273 0.008660 0.147063 -0.041871 -0.335858 0.132875 0.134989 -0.167173 0.244567 0.265192 0.358825 0.237267 -0.101663 -0.207555 -0.312190 -0.027494 0.034192 -0.151526 -0.290678 -0.226263 -0.370478 0.186070 -0.143226 0.041673 -0.193339 0.024517 0.208988 0.221537 0.379489 0.343781 -0.043423 -0.010409 -0.336902 0.122017 -0.107581 0.090819 -0.154852 0.059394 -0.056522 0.207797 0.175341 0.121139 -0.052684 -0.229804 0.081220 0.057854 0.117392 0.418273 0.007158 -0.034283 0.154825 0.102794 -0.029032 0.138761 -0.242134 -0.012237 -0.044100 -0.096134 -0.113947 -0.122672 0.225882 0.022864 0.124373 0.236718 -0.194579 -0.037738 -0.185836 0.222648 0.386770 -0.230683 -0.428159 0.120532 -0.052634 -0.013109 0.018863 0.272791 0.057262 0.032142 0.363116 -0.124680 -0.106780 0.158410 0.058861 0.226958 -0.063979 -0.163243 -0.104702 -0.355226 0.220381 -0.227208 -0.267933 0.001879 -0.238628 0.069535 0.303703 0.049293 0.289439 0.223497 0.214446 -0.175586 0.073730 0.128786 0.134761 0.009802 -0.181199 -0.223303 0.217457 0.045963 -0.026142 0.015850 -0.085192 -0.471580 -0.019712 0.261527 -0.093923 -0.027124 0.215736 -0.030422 -0.005514 -0.045709 -0.131808 -0.012247 0.037421 0.198221 0.275560 -0.283120 -0.020124 -0.235697 0.031476 -0.222136 0.035373 0.158001 -0.190853 0.087870 0.108705 -0.157414 0.074004 0.040579 0.193754 0.099945 -0.146951 0.163623 -0.045597 0.146656 0.022828 0.181780 0.090590 0.151339 0.187985 0.183910 -0.108917 0.391472 0.136910 0.511942 0.190169 -0.143704 0.335979 0.187576 0.171422 0.314464 0.180986 0.044100 -0.117573 -0.259167 0.237249 0.016992 -0.059329 -0.140868 0.226790 -0.018816 0.330448 -0.444420 -0.218908 0.221772 -0.141906 -0.073208 -0.120509 -0.215063 -0.146726 0.043807 0.241747 -0.227721 0.284513 -0.010662 -0.028574 0.008529 0.057061 -0.120118 -0.197929 -0.103124 -0.106687 0.022585 -0.203734 0.276474 0.000168 0.208812 0.137614 -0.530901 -0.016928 0.232300 0.007993 -0.095402 0.183278 -0.187500 -0.149241 0.018287 0.102833 -0.032177 -0.272034 0.019031 -0.184361 -0.027915 -0.144270 -0.059241 0.386663 -0.002838 0.062557 0.024601 0.077794 -0.189932 0.299427 -0.121360 -0.132318 0.159324 0.059828 0.332839 0.002647 -0.175094 0.150694 0.043999 0.446435 -0.057742 -0.158870 0.076452 -0.048939 -0.341048 0.108144 0.023746 0.041066 0.014206 0.043746 -0.114713 0.253983 -0.000562 0.054177 -0.383547 0.159085
